\data\
ngram 1=27
ngram 2=578
ngram 3=12307

\1-grams:
-2.6146083	<unk>	0
0	<s>	-0.30103
-2.482296	</s>	0
-1.3656614	k	-1.1512676
-1.38346	h	-1.1832699
-1.38346	c	-1.1792964
-1.38346	b	-1.180094
-1.38346	f	-1.1312264
-1.38346	i	-1.1671531
-1.38346	a	-1.1895528
-1.38346	d	-1.1704247
-1.38346	j	-1.1580273
-1.38346	e	-1.1895528
-1.38346	p	-1.1728623
-1.38346	l	-1.1538149
-1.38346	m	-1.1856365
-1.38346	s	-1.1553776
-1.38346	g	-1.1073984
-1.38346	u	-1.1926603
-1.38346	x	-1.1980458
-1.38346	v	-1.1267445
-1.38346	r	-1.1563472
-1.38346	n	-1.1017089
-1.38346	q	-1.1638569
-1.38346	t	-1.1580273
-1.38346	o	-1.0257609
-1.38346	w	-1.0314084

\2-grams:
-2.9251208	s </s>	0
-0.28270975	<s> k	-0.30103
-1.3264351	k k	-2.0523305
-1.3584373	h k	-1.9739671
-1.3729072	c k	-1.9805633
-1.3552614	b k	-2.00789
-1.3853906	f k	-1.3315194
-1.3607639	i k	-1.6114
-1.3831635	a k	-1.516794
-1.3832968	d k	-1.9029392
-1.3331947	j k	-2.0003617
-1.3831635	e k	-1.6744018
-1.3480297	p k	-1.8774673
-1.3289824	l k	-1.9428345
-1.3792474	m k	-1.8112398
-1.3939514	s k	-1.5141048
-1.5159905	g k	-0.80830365
-1.3678279	u k	-1.3807511
-1.3732133	x k	-1.4107103
-1.3809087	v k	-0.78935945
-1.3692193	r k	-1.2516013
-1.4015076	n k	-1.4030569
-1.4636555	q k	-1.1725676
-1.3331947	t k	-1.4617465
-1.5798496	o k	-0.85733247
-1.7394538	w k	-0.6222634
-1.3275613	k h	-1.7029797
-1.3595635	h h	-3.2213128
-1.35559	c h	-2.8646758
-1.3563876	b h	-2.9824095
-1.30752	f h	-2.9975321
-1.361939	i h	-1.8442355
-1.3658463	a h	-3.295219
-1.3467183	d h	-2.9410503
-1.352813	j h	-1.5456835
-1.3658463	e h	-2.9809623
-1.3491559	p h	-2.0827854
-1.3301084	l h	-1.671257
-1.3804224	m h	-1.6388508
-1.3750603	s h	-1.8119844
-1.283692	g h	-2.9149158
-1.368954	u h	-1.7254125
-1.3743395	x h	-2.031857
-1.361059	v h	-1.5996405
-1.3326408	r h	-1.6127839
-1.3360233	n h	-1.5675836
-1.3401504	q h	-1.971585
-1.352813	t h	-1.7444115
-1.2600753	o h	-1.4441061
-1.2869238	w h	-1.3082086
-1.3653682	k c	-2.0812874
-1.3595635	h c	-2.9811263
-1.35559	c c	-3.2302573
-1.3563876	b c	-3.3339844
-1.3260123	f c	-2.5101793
-1.3434467	i c	-1.697762
-1.3658463	a c	-2.9669626
-1.3467183	d c	-3.3330553
-1.3343209	j c	-1.8055894
-1.3658463	e c	-3.0798743
-1.3491559	p c	-1.7846822
-1.3486006	l c	-1.8849349
-1.3619301	m c	-1.6872317
-1.3557633	s c	-2.1164417
-1.3021842	g c	-2.0699575
-1.368954	u c	-1.8718323
-1.3743395	x c	-1.854174
-1.3215303	v c	-1.4543366
-1.3326408	r c	-1.7921971
-1.3572242	n c	-1.3607329
-1.3586426	q c	-1.8147492
-1.352813	t c	-2.0017588
-1.4062959	o c	-0.86530143
-1.2869238	w c	-1.0631539
-1.3275613	k b	-1.9070061
-1.3595635	h b	-2.9622378
-1.35559	c b	-3.3716013
-1.3563876	b b	-3.0407672
-1.345327	f b	-2.4716742
-1.361939	i b	-1.7670434
-1.3658463	a b	-3.275823
-1.3467183	d b	-2.9611309
-1.352813	j b	-1.8171445
-1.3658463	e b	-2.7494357
-1.3491559	p b	-1.6183387
-1.3679154	l b	-1.6101662
-1.3619301	m b	-1.5842627
-1.3557633	s b	-2.0181918
-1.3021842	g b	-2.307775
-1.368954	u b	-1.7363387
-1.3743395	x b	-1.7957747
-1.361059	v b	-1.461944
-1.3326408	r b	-1.8280346
-1.3572242	n b	-1.3284414
-1.3401504	q b	-1.9136667
-1.3343209	t b	-1.757887
-1.2812762	o b	-1.1776124
-1.245509	w b	-1.275354
-1.406783	k f	-1.4820693
-1.3595635	h f	-3.1195428
-1.393397	c f	-2.6703231
-1.3563876	b f	-2.3360245
-1.3260123	f f	-2.8681054
-1.4226686	i f	-1.4371738
-1.3843385	a f	-2.7599852
-1.3467183	d f	-2.7830331
-1.4135425	j f	-1.2355285
-1.3658463	e f	-3.133317
-1.3676481	p f	-1.7523047
-1.3881294	l f	-1.5074061
-1.3997371	m f	-1.545837
-1.3952549	s f	-1.6030928
-1.4086982	g f	-1.4904268
-1.3874462	u f	-1.6997589
-1.3743395	x f	-1.825354
-1.361059	v f	-1.688928
-1.4118625	r f	-1.2358344
-1.3158095	n f	-1.6496593
-1.4193722	q f	-1.5507841
-1.3923417	t f	-1.5915946
-1.7376595	o f	-0.6478175
-1.6340082	w f	-0.78499067
-1.3460535	k i	-1.8058028
-1.3595635	h i	-1.9196591
-1.393397	c i	-1.6569495
-1.3563876	b i	-1.8789046
-1.3867418	f i	-1.2388821
-1.3434467	i i	-2.087939
-1.3843385	a i	-1.9761971
-1.3652105	d i	-1.4714547
-1.3343209	j i	-1.9563819
-1.3658463	e i	-1.8880546
-1.3491559	p i	-1.9480442
-1.3486006	l i	-1.4952023
-1.3804224	m i	-1.9027883
-1.3952549	s i	-1.1856365
-1.5179198	g i	-1.1922504
-1.368954	u i	-1.4716318
-1.3743395	x i	-1.2985051
-1.404549	v i	-0.7781512
-1.351133	r i	-1.409882
-1.3360233	n i	-1.3208383
-1.3586426	q i	-1.6761854
-1.4358318	t i	-1.0770781
-1.3270607	o i	-1.1627274
-1.6340082	w i	-0.5307041
-1.3855821	k a	-1.661936
-1.3595635	h a	-3.2426105
-1.35559	c a	-3.024953
-1.3563876	b a	-3.319135
-1.345327	f a	-2.666362
-1.3434467	i a	-2.04695
-1.3658463	a a	-3.2594745
-1.3467183	d a	-2.7096233
-1.3343209	j a	-1.788312
-1.3658463	e a	-2.992357
-1.3491559	p a	-1.7368006
-1.3486006	l a	-1.516315
-1.3804224	m a	-1.8102909
-1.3750603	s a	-1.8182626
-1.283692	g a	-2.5557325
-1.368954	u a	-1.876827
-1.3743395	x a	-1.8924038
-1.361059	v a	-1.4397712
-1.3326408	r a	-1.8556538
-1.2964947	n a	-1.4427037
-1.3586426	q a	-2.130155
-1.352813	t a	-1.6256404
-1.3035654	o a	-1.1133568
-1.3092129	w a	-1.157468
-1.3460535	k d	-1.8168654
-1.3595635	h d	-2.7325056
-1.35559	c d	-3.2824144
-1.3563876	b d	-2.9118528
-1.3260123	f d	-2.8518016
-1.361939	i d	-1.7200993
-1.3658463	a d	-2.8866005
-1.3467183	d d	-3.1094098
-1.3721278	j d	-1.4573772
-1.3658463	e d	-3.3240366
-1.3491559	p d	-1.6371125
-1.3301084	l d	-1.8811448
-1.3619301	m d	-1.9119604
-1.3750603	s d	-1.9145807
-1.3021842	g d	-2.3546321
-1.368954	u d	-1.9536827
-1.3743395	x d	-1.6934072
-1.361059	v d	-1.7321384
-1.351133	r d	-1.5244551
-1.3360233	n d	-1.4720364
-1.3779573	q d	-1.7643347
-1.3343209	t d	-1.8769872
-1.3782469	o d	-1.1887723
-1.3092129	w d	-1.1102155
-1.3275613	k j	-2.0122511
-1.4175843	h j	-1.3961741
-1.393397	c j	-1.871945
-1.3748798	b j	-1.740029
-1.365541	f j	-1.2825466
-1.3434467	i j	-2.0581179
-1.3658463	a j	-1.8800192
-1.3652105	d j	-1.5734434
-1.3343209	j j	-1.8575
-1.3658463	e j	-1.4788725
-1.3491559	p j	-1.600679
-1.3486006	l j	-1.6159958
-1.3619301	m j	-1.5635842
-1.3750603	s j	-1.5833967
-1.321499	g j	-1.3613575
-1.3874462	u j	-1.1892184
-1.3743395	x j	-1.1265152
-1.3822598	v j	-0.97347
-1.351133	r j	-1.146128
-1.3360233	n j	-1.3271155
-1.4193722	q j	-1.2856255
-1.3721278	t j	-1.1026623
-1.2812762	o j	-1.3382467
-1.3092129	w j	-0.752344
-1.3460535	k e	-1.7215358
-1.3595635	h e	-3.0313523
-1.35559	c e	-3.0665536
-1.3563876	b e	-2.8536139
-1.30752	f e	-3.2308035
-1.361939	i e	-1.6750771
-1.3658463	a e	-2.8453565
-1.3467183	d e	-3.2661796
-1.3343209	j e	-1.7401234
-1.3658463	e e	-3.276334
-1.3676481	p e	-1.6524075
-1.3486006	l e	-1.6885703
-1.3619301	m e	-2.0555778
-1.3750603	s e	-1.8705904
-1.283692	g e	-2.7826915
-1.368954	u e	-2.0737183
-1.3743395	x e	-1.8469896
-1.3215303	v e	-1.8886921
-1.3326408	r e	-1.7384129
-1.3158095	n e	-1.779356
-1.3586426	q e	-1.8334335
-1.352813	t e	-1.7841417
-1.2812762	o e	-1.2877307
-1.245509	w e	-1.4036924
-1.3460535	k p	-1.6521388
-1.3595635	h p	-1.9127828
-1.3740822	c p	-1.684791
-1.3748798	b p	-1.6313794
-1.365541	f p	-1.7157612
-1.3434467	i p	-1.8606707
-1.3843385	a p	-1.912738
-1.3467183	d p	-1.8666725
-1.3343209	j p	-1.7466116
-1.3658463	e p	-1.581594
-1.3491559	p p	-2.0622685
-1.3486006	l p	-1.7853298
-1.3619301	m p	-1.5944539
-1.3557633	s p	-1.2552725
-1.3021842	g p	-1.7314178
-1.3874462	u p	-1.0995342
-1.3743395	x p	-1.4209638
-1.3408451	v p	-0.97298115
-1.351133	r p	-0.9586073
-1.3360233	n p	-1.6992594
-1.3401504	q p	-1.496776
-1.352813	t p	-1.264368
-1.2020545	o p	-1.6297802
-1.4419298	w p	-1.027397
-1.3275613	k l	-1.9993964
-1.3595635	h l	-1.4634819
-1.3740822	c l	-1.9493192
-1.3941946	b l	-1.4546139
-1.365541	f l	-1.3840328
-1.361939	i l	-1.8712683
-1.3658463	a l	-1.8067964
-1.3652105	d l	-1.7730865
-1.3343209	j l	-1.51449
-1.3843385	e l	-1.7694184
-1.3869629	p l	-1.5102897
-1.3486006	l l	-1.9355218
-1.3804224	m l	-1.9841032
-1.3750603	s l	-1.2388821
-1.4335377	g l	-1.1297376
-1.3874462	u l	-1.3775808
-1.4121464	x l	-1.1292601
-1.3822598	v l	-1.0522586
-1.5368823	r l	-0.8044802
-1.3158095	n l	-1.6714277
-1.3586426	q l	-1.3369043
-1.352813	t l	-1.3107898
-1.3035654	o l	-1.1827949
-1.5467598	w l	-0.5856696
-1.3460535	k m	-1.6941175
-1.3595635	h m	-1.6113101
-1.3740822	c m	-1.5771253
-1.3748798	b m	-1.7462449
-1.345327	f m	-1.7524753
-1.3812537	i m	-1.7111039
-1.3843385	a m	-1.627252
-1.3467183	d m	-1.9051961
-1.3343209	j m	-1.7596679
-1.3658463	e m	-1.9844023
-1.3491559	p m	-1.7492638
-1.3486006	l m	-2.0075345
-1.3619301	m m	-2.135221
-1.3750603	s m	-1.1722983
-1.3021842	g m	-1.474355
-1.3874462	u m	-1.6510625
-1.4323603	x m	-1.0781155
-1.3215303	v m	-1.5277606
-1.351133	r m	-1.1572645
-1.2964947	n m	-1.8571576
-1.3779573	q m	-1.2697723
-1.352813	t m	-1.219577
-1.3035654	o m	-1.432129
-1.3575478	w m	-0.9330532
-1.406783	k s	-1.3684936
-1.3595635	h s	-2.0127795
-1.35559	c s	-2.0181918
-1.3563876	b s	-2.0845764
-1.365541	f s	-1.5257645
-1.4014677	i s	-0.9773606
-1.3843385	a s	-1.5775557
-1.3845253	d s	-1.9512953
-1.3721278	j s	-1.5999436
-1.3843385	e s	-1.7531147
-1.3676481	p s	-1.6586335
-1.3486006	l s	-1.3693318
-1.3804224	m s	-1.2115952
-1.3372874	s s	-2.0473032
-1.4086982	g s	-1.0588427
-1.3874462	u s	-1.6295229
-1.3743395	x s	-1.8882107
-1.3215303	v s	-1.3189098
-1.351133	r s	-1.8158728
-1.3795134	n s	-1.0078254
-1.3401504	q s	-1.5632403
-1.3343209	t s	-1.9259993
-1.5411123	o s	-0.61785424
-1.4741412	w s	-0.86089236
-1.4525675	k g	-1.2319491
-1.3595635	h g	-2.8981154
-1.35559	c g	-2.2704015
-1.3563876	b g	-2.1730595
-1.4325262	f g	-1.5437922
-1.4449577	i g	-1.2467232
-1.3658463	a g	-2.6030345
-1.3652105	d g	-2.307592
-1.4135425	j g	-1.0503051
-1.3658463	e g	-2.8626914
-1.4071767	p g	-1.4318509
-1.4093301	l g	-1.1487055
-1.3997371	m g	-1.4247607
-1.4164343	s g	-1.3105754
-1.283692	g g	-2.4956284
-1.4067609	u g	-1.5529617
-1.3743395	x g	-1.5181149
-1.4528837	v g	-0.86433744
-1.4118625	r g	-1.2140585
-1.6170603	n g	-0.7692878
-1.4193722	q g	-1.5136381
-1.3721278	t g	-1.2263963
-1.3270607	o g	-1.2880651
-1.3092129	w g	-1.1642485
-1.3855821	k u	-1.1083395
-1.3973705	h u	-1.7263196
-1.3740822	c u	-1.6418045
-1.3563876	b u	-1.8989992
-1.3260123	f u	-1.761381
-1.361939	i u	-1.2830389
-1.3658463	a u	-1.8178958
-1.3652105	d u	-1.978865
-1.3343209	j u	-1.3911312
-1.3658463	e u	-2.0471666
-1.3491559	p u	-1.1417367
-1.3301084	l u	-1.5192444
-1.3619301	m u	-1.5586419
-1.3372874	s u	-1.604166
-1.3021842	g u	-1.5513792
-1.368954	u u	-2.01389
-1.3743395	x u	-1.57579
-1.3408451	v u	-1.8878984
-1.3326408	r u	-1.6053649
-1.3360233	n u	-1.2545726
-1.3586426	q u	-1.663851
-1.3343209	t u	-1.8143635
-1.3519001	o u	-0.96435964
-1.2869238	w u	-1.3503604
-1.406783	k x	-1.161368
-1.3780556	h x	-1.9476243
-1.35559	c x	-1.7399238
-1.3941946	b x	-1.7526885
-1.345327	f x	-1.7239195
-1.3812537	i x	-1.3088015
-1.3843385	a x	-1.9054439
-1.3467183	d x	-1.9231288
-1.352813	j x	-1.0895468
-1.3843385	e x	-1.65187
-1.3491559	p x	-1.311165
-1.3486006	l x	-1.4917507
-1.4199511	m x	-0.9951475
-1.3557633	s x	-1.6687481
-1.321499	g x	-1.7423038
-1.368954	u x	-1.4925276
-1.3743395	x x	-1.9648355
-1.3408451	v x	-1.4787267
-1.3704478	r x	-1.4002
-1.2964947	n x	-1.1961802
-1.3586426	q x	-1.8822398
-1.3721278	t x	-1.7819114
-1.2020545	o x	-1.243038
-1.2869238	w x	-1.3526019
-1.406783	k v	-1.3845761
-1.4175843	h v	-1.5552044
-1.3740822	c v	-1.7372618
-1.4144084	b v	-1.2670016
-1.4090309	f v	-1.665149
-1.4226686	i v	-1.0932094
-1.4036533	a v	-1.5028821
-1.3845253	d v	-1.4507622
-1.459327	j v	-0.7781512
-1.3843385	e v	-1.851598
-1.4741621	p v	-0.9185469
-1.4799541	l v	-0.9444827
-1.3804224	m v	-1.3464097
-1.4164343	s v	-1.5021235
-1.8863596	g v	-0.60206
-1.3874462	u v	-1.7328597
-1.3743395	x v	-1.6872317
-1.361059	v v	-1.430876
-1.3704478	r v	-0.9138138
-1.4278481	n v	-1.1265152
-1.3779573	q v	-1.4207448
-1.4358318	t v	-1.2467642
-2.1065636	o v	-0.60206
-1.4419298	w v	-0.93148535
-1.3855821	k r	-1.311922
-1.3973705	h r	-1.4833496
-1.393397	c r	-1.7847362
-1.3748798	b r	-1.7199295
-1.365541	f r	-1.3893068
-1.361939	i r	-1.3956683
-1.3658463	a r	-1.8945622
-1.42594	d r	-1.5777006
-1.3721278	j r	-1.2703612
-1.4036533	e r	-1.5976316
-1.4741621	p r	-0.90136313
-1.3301084	l r	-1.1989188
-1.3804224	m r	-1.0860207
-1.3372874	s r	-1.9002154
-1.321499	g r	-1.4501024
-1.3874462	u r	-1.3325849
-1.3743395	x r	-1.3867421
-1.404549	v r	-1.2590854
-1.351133	r r	-1.6482893
-1.4030087	n r	-1.0559514
-1.3401504	q r	-1.8371474
-1.352813	t r	-1.4678547
-1.3519001	o r	-0.89012504
-1.2869238	w r	-1.1134127
-1.3653682	k n	-1.6271282
-1.3973705	h n	-1.6506004
-1.4136108	c n	-1.5613002
-1.4813938	b n	-1.120343
-1.4325262	f n	-1.5132599
-1.3812537	i n	-1.4821473
-1.4036533	a n	-1.3719071
-1.42594	d n	-1.3909352
-1.3923417	j n	-1.0307347
-1.4036533	e n	-1.8067964
-1.3676481	p n	-1.663578
-1.4093301	l n	-1.4427737
-1.4199511	m n	-1.8020132
-1.4386998	s n	-1.0632082
-2.0628564	g n	-0.5850267
-1.3874462	u n	-1.1931245
-1.3928317	x n	-1.24047
-1.404549	v n	-1.0406178
-1.4824865	r n	-0.7341773
-1.3158095	n n	-1.573065
-1.4651566	q n	-1.0710634
-1.3923417	t n	-0.91934407
-1.6795807	o n	-0.72699875
-2.112211	w n	-0.42596874
-1.3855821	k q	-1.1874312
-1.3780556	h q	-1.979877
-1.3740822	c q	-1.7972374
-1.3748798	b q	-1.9356192
-1.365541	f q	-1.3626261
-1.361939	i q	-1.5797836
-1.3843385	a q	-2.074227
-1.3652105	d q	-1.6488547
-1.3721278	j q	-1.4188294
-1.3658463	e q	-2.012042
-1.3676481	p q	-1.4998398
-1.4093301	l q	-1.1728623
-1.3619301	m q	-1.6595993
-1.3372874	s q	-1.7034217
-1.3852029	g q	-1.1830243
-1.368954	u q	-1.8698833
-1.3743395	x q	-1.8010606
-1.3822598	v q	-1.2493057
-1.3326408	r q	-1.9309773
-1.4278481	n q	-0.81291336
-1.3586426	q q	-2.0791812
-1.3721278	t q	-1.4878963
-1.5032868	o q	-0.74036264
-1.3838946	w q	-0.87960887
-1.406783	k t	-1.5340629
-1.3595635	h t	-1.5333261
-1.3740822	c t	-2.0068688
-1.3941946	b t	-1.4695989
-1.3867418	f t	-1.4871159
-1.3812537	i t	-1.4870955
-1.3843385	a t	-1.9130106
-1.3652105	d t	-1.8673564
-1.4358318	j t	-0.827839
-1.3843385	e t	-1.7565093
-1.4071767	p t	-0.87312675
-1.3679154	l t	-1.2352356
-1.3804224	m t	-1.3738711
-1.3557633	s t	-1.8817649
-1.4335377	g t	-1.2498775
-1.368954	u t	-1.9347789
-1.3743395	x t	-1.4449985
-1.3408451	v t	-1.3888603
-1.3906617	r t	-1.1795866
-1.3795134	n t	-0.9897464
-1.3586426	q t	-1.7972374
-1.3343209	t t	-1.7555435
-1.3782469	o t	-0.71321046
-1.3092129	w t	-0.8915081
-1.477407	k o	-1.1300182
-1.5094091	h o	-1.3829443
-1.4571009	c o	-1.2632414
-1.4813938	b o	-0.9869375
-1.8431251	f o	-0.51587385
-1.4226686	i o	-1.3645163
-1.4238671	a o	-1.2484465
-1.6131575	d o	-0.93148535
-1.5385623	j o	-0.9397041
-1.4673572	e o	-1.410496
-1.3869629	p o	-1.5815117
-1.5063009	l o	-1.0919824
-1.3619301	m o	-1.6088994
-1.5712479	s o	-0.72699875
-1.4335377	g o	-1.2060206
-1.4269748	u o	-0.95316887
-1.3928317	x o	-1.0710634
-1.9850491	v o	-0.42596874
-1.59908	r o	-0.6519064
-1.7555287	n o	-0.92081875
-1.5163429	q o	-0.93930215
-1.6733787	t o	-0.76176083
-1.3270607	o o	-1.2383341
-1.3838946	w o	-0.6606547
-1.6287937	k w	-0.7659168
-1.4845697	h w	-1.3208383
-1.5317825	c w	-1.1820817
-1.4578985	b w	-1.0903895
-1.6465778	f w	-0.6255411
-1.5776745	i w	-0.85387194
-1.4238671	a w	-1.304067
-1.6131575	d w	-0.91330916
-1.8118471	j w	-0.61630046
-1.445068	e w	-1.3517227
-1.6882137	p w	-0.7637215
-2.0121195	l w	-0.5314789
-1.4634411	m w	-1.0117611
-1.4164343	s w	-1.1213044
-1.4335377	g w	-1.1576079
-1.3874462	u w	-1.296874
-1.3928317	x w	-1.4583861
-1.4528837	v w	-0.8857159
-1.5368823	r w	-0.7857044
-1.9600135	n w	-0.50514996
-1.4193722	q w	-1.0406995
-1.6733787	t w	-0.71600336
-1.5825491	o w	-0.7447275
-1.3092129	w w	-0.93609023

\3-grams:
-3.839978	h s </s>
-0.5257766	k k k
-1.0841457	h k k
-0.9384536	c k k
-1.3157344	b k k
-1.236654	f k k
-0.9965426	i k k
-1.7297755	a k k
-1.2282879	d k k
-1.1908064	j k k
-1.2755088	e k k
-0.7881533	p k k
-1.1078529	l k k
-1.0490663	m k k
-0.9330604	s k k
-1.1465632	g k k
-1.30287	u k k
-0.93595994	x k k
-1.127619	v k k
-1.1261078	r k k
-1.4583313	n k k
-1.134101	q k k
-1.4070891	t k k
-1.5272726	o k k
-1.1670313	w k k
-1.2584759	k h k
-2.1157296	h h k
-2.2032914	c h k
-1.8883295	b h k
-2.1900775	f h k
-1.4316951	i h k
-2.398085	a h k
-2.1384027	d h k
-1.1540254	j h k
-1.9796649	e h k
-1.3271706	p h k
-1.2606295	l h k
-1.1472399	m h k
-1.7340403	s h k
-2.7224326	g h k
-2.0755067	u h k
-2.5061963	x h k
-1.897101	v h k
-2.087123	r h k
-1.3814646	n h k
-2.620631	q h k
-1.7072786	t h k
-1.4774191	o h k
-2.2039187	w h k
-0.767171	k c k
-2.225621	h c k
-1.9508531	c c k
-2.3014266	b c k
-2.196834	f c k
-1.873393	i c k
-2.7449298	a c k
-2.275489	d c k
-1.7003324	j c k
-2.3760448	e c k
-1.4587293	p c k
-1.483425	l c k
-1.5273184	m c k
-1.7232301	s c k
-2.529977	g c k
-1.9805824	u c k
-1.915424	x c k
-1.7335931	v c k
-1.9009471	r c k
-1.5209432	n c k
-2.4515526	q c k
-1.8771801	t c k
-1.8839785	w c k
-1.5696336	k b k
-2.2129982	h b k
-1.9116695	c b k
-2.3273497	b b k
-2.3658187	f b k
-1.256351	i b k
-1.8511734	a b k
-1.9871202	d b k
-1.8177199	j b k
-2.1236413	e b k
-1.2876505	p b k
-1.1104692	l b k
-1.4597554	m b k
-1.9204266	s b k
-2.4649758	g b k
-2.194163	u b k
-1.9727293	x b k
-1.9028609	v b k
-1.5986996	r b k
-1.7693584	n b k
-1.7368627	q b k
-1.5259347	t b k
-2.057533	o b k
-2.1395123	w b k
-1.7880807	k f k
-2.4644587	h f k
-2.4138312	c f k
-2.1933227	b f k
-2.708553	f f k
-1.657737	i f k
-2.4290397	a f k
-2.8167832	d f k
-1.6431599	j f k
-2.735463	e f k
-1.7863948	p f k
-1.9150375	l f k
-1.4903017	m f k
-2.209479	s f k
-2.631832	u f k
-2.1250916	x f k
-2.1154692	v f k
-1.958425	n f k
-2.4828572	q f k
-2.1979809	t f k
-1.1497347	k i k
-1.727241	h i k
-1.850229	c i k
-1.7533448	b i k
-1.6438547	f i k
-1.4265769	i i k
-1.5827745	a i k
-1.6463046	d i k
-1.3632538	j i k
-1.630985	e i k
-1.4405273	p i k
-1.4309253	l i k
-1.140884	m i k
-1.3431841	s i k
-1.2934197	u i k
-1.2680833	x i k
-1.6440779	v i k
-1.1806891	r i k
-1.4212505	n i k
-2.0265074	q i k
-1.4686658	t i k
-1.1010239	o i k
-1.030602	w i k
-1.6955867	k a k
-2.7497344	h a k
-2.3826263	c a k
-2.6606205	b a k
-2.7176523	f a k
-2.001303	i a k
-2.6822705	a a k
-2.6639762	d a k
-1.9472289	j a k
-2.4842396	e a k
-2.072465	p a k
-1.625617	l a k
-1.3846633	m a k
-2.2957518	s a k
-2.4686825	g a k
-2.2292855	u a k
-2.5461683	x a k
-2.0935357	v a k
-2.333143	r a k
-1.8689995	n a k
-2.3856483	q a k
-2.264309	t a k
-2.0304377	w a k
-1.5226401	k d k
-2.3065848	h d k
-2.376335	c d k
-2.5044177	b d k
-2.343686	f d k
-1.6566483	i d k
-2.2470326	a d k
-2.483899	d d k
-1.491374	j d k
-1.7564908	e d k
-1.5736613	p d k
-1.3623359	l d k
-1.1184511	m d k
-2.3758569	s d k
-2.6726987	g d k
-1.8902316	u d k
-2.1758807	x d k
-2.0317037	v d k
-1.7448747	r d k
-1.863028	n d k
-2.6956692	q d k
-1.968777	t d k
-0.93998957	k j k
-1.427463	h j k
-1.1150734	c j k
-1.6865902	b j k
-1.2559736	f j k
-0.55648243	i j k
-1.3529212	a j k
-1.0577928	d j k
-1.0871154	j j k
-1.3158538	e j k
-0.71524143	p j k
-0.9803318	l j k
-0.6650787	m j k
-1.0648303	s j k
-1.2670579	g j k
-1.0066266	u j k
-1.1068047	x j k
-1.0291038	v j k
-0.83219343	r j k
-0.8811282	n j k
-0.7248416	q j k
-0.8770039	t j k
-1.263876	o j k
-0.9191675	w j k
-1.5439553	k e k
-2.0498486	h e k
-2.5736775	c e k
-2.3685637	b e k
-2.7871501	f e k
-1.9075488	i e k
-2.326149	a e k
-2.4058583	d e k
-1.295484	j e k
-2.65948	e e k
-1.5653577	p e k
-1.5578365	l e k
-2.0892284	m e k
-2.3318508	s e k
-2.7709117	g e k
-2.1988206	u e k
-1.7221428	x e k
-2.5273607	v e k
-2.0740771	r e k
-1.8996575	n e k
-2.0302584	q e k
-2.039635	t e k
-2.2058454	o e k
-0.81030095	k p k
-1.5763488	h p k
-1.7564455	c p k
-1.374475	b p k
-1.2710917	f p k
-1.6678913	i p k
-1.3896776	a p k
-1.5846314	d p k
-0.8029192	j p k
-1.2230943	e p k
-0.92211384	p p k
-0.9165624	l p k
-0.86046493	m p k
-1.3299744	s p k
-1.3155305	g p k
-1.2381852	u p k
-1.3326762	x p k
-1.1721451	v p k
-1.2735239	r p k
-0.99497694	n p k
-1.6707845	q p k
-0.97089356	t p k
-0.91534686	o p k
-1.4868209	w p k
-0.96665704	k l k
-1.1943245	h l k
-1.5622522	c l k
-1.2245743	b l k
-1.345676	f l k
-1.0743974	i l k
-1.4219645	a l k
-1.6864433	d l k
-0.7919575	j l k
-1.1728586	e l k
-1.169897	p l k
-1.1550324	l l k
-0.5315312	m l k
-0.93117	s l k
-1.185148	g l k
-0.48384714	u l k
-1.4048069	x l k
-1.9421726	v l k
-0.9908659	r l k
-1.259284	n l k
-1.2102697	q l k
-1.0508114	t l k
-1.4583416	o l k
-1.2200536	w l k
-0.97625446	k m k
-1.61127	h m k
-1.6687073	c m k
-1.3994393	b m k
-1.3742626	f m k
-1.1670244	i m k
-1.5207653	a m k
-1.2259617	d m k
-1.3031191	j m k
-1.917421	e m k
-0.93820417	p m k
-0.7390583	l m k
-1.3797626	m m k
-1.6330878	s m k
-1.773585	g m k
-1.7601553	u m k
-1.1636819	x m k
-2.470007	v m k
-1.3774045	r m k
-1.3088281	n m k
-1.3788651	q m k
-1.3111589	t m k
-1.427802	o m k
-1.209183	k s k
-1.6944103	h s k
-1.5493798	c s k
-1.6282386	b s k
-1.5220356	f s k
-1.0996124	i s k
-2.0563707	a s k
-1.4561222	d s k
-1.3052737	j s k
-1.930052	e s k
-1.288543	p s k
-1.3206981	l s k
-1.2499989	m s k
-1.4851215	s s k
-1.9829752	u s k
-1.5362787	x s k
-1.4784632	v s k
-1.5032178	r s k
-1.8896329	n s k
-1.9907144	q s k
-1.5794654	t s k
-3.0815563	h g k
-2.519105	b g k
-2.768834	a g k
-2.9563572	d g k
-1.6377609	j g k
-3.091041	e g k
-2.4055743	p g k
-1.2449033	l g k
-1.6707821	m g k
-3.4693518	g g k
-2.4918385	x g k
-1.3233166	v g k
-1.5092288	n g k
-2.4410245	q g k
-1.3871844	k u k
-1.6387415	h u k
-1.6412814	c u k
-1.8984761	b u k
-2.0516288	f u k
-0.89668685	i u k
-1.595733	a u k
-1.7023816	d u k
-1.7158778	j u k
-1.825004	e u k
-1.160206	p u k
-1.2970818	l u k
-1.424364	m u k
-1.7794728	s u k
-1.642365	g u k
-2.3648965	u u k
-1.9681306	x u k
-2.1422298	v u k
-1.9843218	r u k
-1.3777679	n u k
-1.8218377	q u k
-1.833944	t u k
-1.4067879	o u k
-1.809756	w u k
-1.4618105	k x k
-1.9473305	h x k
-1.9155743	c x k
-1.9660876	b x k
-1.8822364	f x k
-1.6603231	i x k
-1.780875	a x k
-2.1778727	d x k
-1.305957	j x k
-1.702692	e x k
-1.3108711	p x k
-1.3665916	l x k
-1.7715387	m x k
-1.8443987	s x k
-1.9799439	g x k
-1.8440492	u x k
-1.6517634	x x k
-1.7791693	v x k
-2.162711	r x k
-1.0909332	n x k
-1.53532	q x k
-1.2264459	t x k
-1.4977818	o x k
-1.334591	w x k
-1.8285371	k v k
-2.485694	h v k
-2.3755233	c v k
-1.7279912	b v k
-1.9645169	f v k
-1.5371704	i v k
-2.457386	a v k
-2.3540845	d v k
-1.6814736	j v k
-2.3288064	e v k
-1.5568085	p v k
-2.0327935	l v k
-1.9846712	m v k
-2.3596652	s v k
-2.6757128	u v k
-2.6300845	x v k
-2.3613658	v v k
-1.8171362	r v k
-1.1568621	n v k
-2.3635979	q v k
-1.0189198	k r k
-1.8353672	c r k
-2.020033	b r k
-1.8140403	f r k
-1.5537405	i r k
-1.8940986	a r k
-2.020294	d r k
-1.5871983	j r k
-2.2337556	e r k
-1.3260968	p r k
-1.7504754	l r k
-1.2866551	m r k
-1.3491775	s r k
-2.3633876	g r k
-2.2711382	u r k
-1.7035792	x r k
-1.8856357	r r k
-1.8889256	n r k
-1.3026533	q r k
-1.5687268	t r k
-1.2325916	o r k
-1.7170671	w r k
-1.2211131	k n k
-1.1329242	h n k
-1.5055798	c n k
-1.3812102	b n k
-1.7160101	f n k
-1.3811241	i n k
-1.8182005	a n k
-2.3010085	d n k
-1.2136061	j n k
-1.5136737	e n k
-1.7562803	p n k
-1.630497	l n k
-1.1709974	m n k
-2.1105478	s n k
-1.5415086	x n k
-1.7326764	n n k
-1.1300461	q n k
-2.052637	t n k
-1.6219182	k q k
-2.0931077	h q k
-2.1395383	c q k
-1.990345	b q k
-2.0425084	f q k
-1.6167324	i q k
-1.9798551	a q k
-2.019764	d q k
-1.5821528	j q k
-2.1075976	e q k
-2.1675253	p q k
-1.538175	l q k
-1.5020939	m q k
-1.785329	u q k
-1.8840543	x q k
-2.044208	r q k
-1.9387972	q q k
-1.6160152	t q k
-0.81156766	k t k
-1.5136157	h t k
-1.9871584	c t k
-1.9077673	b t k
-1.9076021	f t k
-1.1665577	i t k
-1.6830868	a t k
-1.847646	d t k
-1.1961428	j t k
-1.6579473	e t k
-1.2749594	p t k
-1.2665246	l t k
-1.3085257	m t k
-1.5027038	s t k
-1.7244186	g t k
-1.69749	u t k
-1.4195616	x t k
-1.9565829	v t k
-1.4931071	r t k
-1.0213736	n t k
-1.2932619	q t k
-1.6203245	t t k
-1.535393	o t k
-1.2736151	w t k
-0.8628838	k o k
-2.374049	h o k
-1.9117397	b o k
-1.9379196	i o k
-1.8645062	j o k
-1.3401083	l o k
-2.2421758	m o k
-1.5645555	s o k
-1.6097174	g o k
-2.20379	o o k
-1.1072187	k w k
-1.864489	i w k
-2.2790103	a w k
-2.0875278	x w k
-1.7606477	r w k
-2.0156426	q w k
-1.5446433	w w k
-0.28106803	<s> k h
-1.7501359	k k h
-0.8838991	h k h
-1.3277068	c k h
-1.2333865	b k h
-1.133594	f k h
-1.8455312	i k h
-1.109525	a k h
-1.1869514	d k h
-1.8390493	j k h
-1.2520977	e k h
-1.3259044	p k h
-1.7342638	l k h
-1.9838467	m k h
-1.5763456	s k h
-0.92038995	g k h
-1.699625	u k h
-1.8305037	x k h
-1.0591968	v k h
-1.3221481	r k h
-1.4583917	n k h
-1.785166	q k h
-1.4927524	t k h
-1.1672173	w k h
-1.0312637	k h h
-0.36434785	h h h
-0.8143742	c h h
-0.9417771	b h h
-0.95855075	f h h
-1.0311866	i h h
-1.0280423	a h h
-0.766219	d h h
-0.8282121	j h h
-1.0827137	e h h
-0.6729118	p h h
-0.8078586	l h h
-1.0902834	m h h
-0.82911915	s h h
-0.9837868	g h h
-1.111239	u h h
-0.61361426	x h h
-1.0772732	v h h
-0.91848814	r h h
-1.1727307	n h h
-1.0698951	q h h
-0.8530904	t h h
-0.87012374	o h h
-1.0085498	w h h
-1.187206	k c h
-0.79634905	h c h
-1.2731973	c c h
-1.2046268	b c h
-1.0706289	f c h
-1.2162895	i c h
-1.3062848	a c h
-1.3633951	d c h
-1.3262861	j c h
-0.99045134	e c h
-0.997941	p c h
-1.2923515	l c h
-1.2261355	m c h
-1.2285627	s c h
-0.97631115	g c h
-1.1607578	u c h
-1.1294913	x c h
-1.3772969	v c h
-1.4906396	r c h
-1.3722088	n c h
-1.2843033	q c h
-1.490277	t c h
-1.4304655	o c h
-1.0535508	w c h
-1.2924801	k b h
-0.83002394	h b h
-1.2173563	c b h
-1.0965471	b b h
-0.9354019	f b h
-1.1888123	i b h
-0.9005108	a b h
-0.71746707	d b h
-1.1104718	j b h
-0.94117135	e b h
-1.0915524	p b h
-1.0834578	l b h
-1.1207201	m b h
-1.1712286	s b h
-0.88226974	g b h
-1.0894138	u b h
-0.9799304	x b h
-1.0776256	v b h
-1.278539	r b h
-0.87869406	n b h
-1.195616	q b h
-0.9713098	t b h
-1.3367921	o b h
-1.3909901	w b h
-0.7245872	k f h
-0.7450229	h f h
-0.9274948	c f h
-0.88031936	b f h
-1.0737194	f f h
-1.1694651	i f h
-0.80390036	a f h
-0.9110544	d f h
-0.8096805	j f h
-0.5294131	e f h
-0.95301515	p f h
-1.0023568	l f h
-0.64093846	m f h
-0.8046249	s f h
-1.0974696	g f h
-0.73808545	u f h
-0.8826742	x f h
-1.0697962	v f h
-0.8451908	r f h
-1.2460941	n f h
-0.8541219	q f h
-1.0726562	t f h
-1.1332217	o f h
-1.326574	w f h
-1.5834877	k i h
-0.8236529	h i h
-1.0607667	c i h
-0.9973544	b i h
-1.0016425	f i h
-1.4593673	i i h
-1.0836936	a i h
-1.0274774	d i h
-1.2180761	j i h
-0.94733834	e i h
-1.7224408	p i h
-1.5278814	l i h
-1.6013696	m i h
-2.1214747	s i h
-0.743828	g i h
-1.3660054	u i h
-1.0439376	x i h
-1.3245305	v i h
-1.7260687	r i h
-1.725941	n i h
-1.273139	q i h
-1.7118468	t i h
-1.4654957	o i h
-0.88803136	k a h
-0.6705444	h a h
-0.90952265	c a h
-0.43901956	b a h
-0.73594356	f a h
-1.0361669	i a h
-0.9327376	a a h
-0.931663	d a h
-0.62978697	j a h
-0.86157227	e a h
-0.63415223	p a h
-0.85500073	l a h
-0.8681235	m a h
-0.89305013	s a h
-0.7391137	g a h
-0.79259795	u a h
-0.6041978	x a h
-0.6535514	v a h
-0.54860336	r a h
-0.7372836	n a h
-0.8863934	q a h
-0.85599387	t a h
-0.7374371	o a h
-0.70994914	w a h
-1.1872115	k d h
-0.6927477	h d h
-1.1911266	c d h
-0.6975153	b d h
-0.9300979	f d h
-1.3491507	i d h
-0.9982149	a d h
-1.1056716	d d h
-1.0109943	j d h
-1.4245626	e d h
-0.8000866	p d h
-1.1378106	l d h
-1.2373246	m d h
-1.2018511	s d h
-0.64835805	g d h
-1.4742483	u d h
-1.1291887	x d h
-1.1933503	v d h
-0.9785664	r d h
-1.3915045	n d h
-1.2222065	q d h
-1.2443898	t d h
-1.0211793	o d h
-1.0910962	w d h
-1.8517354	k j h
-0.8404625	h j h
-1.3527408	c j h
-1.25653	b j h
-1.0450749	f j h
-1.8796738	i j h
-1.0725261	a j h
-0.9905862	d j h
-1.7227416	j j h
-1.1780759	e j h
-1.8001809	p j h
-1.4722922	l j h
-2.0210977	m j h
-2.184192	s j h
-1.0549812	g j h
-2.0966907	u j h
-1.8368363	v j h
-1.4956673	r j h
-1.6240845	n j h
-1.5038801	q j h
-2.0101345	t j h
-1.4171569	o j h
-1.6045631	w j h
-1.1454588	k e h
-0.8244478	h e h
-0.78419274	c e h
-0.89284563	b e h
-1.1739993	f e h
-1.2876648	i e h
-1.1176683	a e h
-1.1415076	d e h
-0.9777831	j e h
-1.2549093	e e h
-0.97305423	p e h
-1.3812917	l e h
-1.4350771	m e h
-1.1117754	s e h
-1.1072568	g e h
-1.3097697	u e h
-0.9932738	x e h
-1.3621063	v e h
-1.149173	r e h
-1.2279383	n e h
-1.2573566	q e h
-1.2197043	t e h
-1.2828412	o e h
-1.1549281	w e h
-1.3047482	k p h
-0.43722817	h p h
-0.75309134	c p h
-0.87705576	b p h
-0.88243103	f p h
-1.3596449	i p h
-0.7683721	a p h
-0.7360647	d p h
-1.3865615	j p h
-0.95962745	e p h
-1.0363812	p p h
-1.1859587	l p h
-1.5931146	m p h
-1.1492044	s p h
-0.8608066	g p h
-1.2382547	u p h
-0.8307934	x p h
-1.092716	v p h
-1.2736281	r p h
-1.2228981	n p h
-1.6041992	q p h
-1.5345403	t p h
-1.6572558	o p h
-1.3005661	w p h
-1.5910461	k l h
-1.1314049	h l h
-1.1405638	c l h
-0.9237426	b l h
-1.0697625	f l h
-1.5276269	i l h
-1.0871559	a l h
-1.2033114	d l h
-1.6033975	j l h
-1.3705941	e l h
-1.2026035	p l h
-1.5433437	l l h
-2.1220188	m l h
-1.8355709	s l h
-0.6080061	g l h
-1.6119168	u l h
-1.1930337	x l h
-1.6374915	v l h
-1.5198348	r l h
-1.3824383	n l h
-1.334697	q l h
-1.5977541	t l h
-1.1842036	o l h
-1.2202808	w l h
-1.8032733	k m h
-1.0183958	h m h
-1.2067984	c m h
-1.338763	b m h
-1.0860631	f m h
-1.7622664	i m h
-1.0901353	a m h
-1.3859543	d m h
-1.6725248	j m h
-1.1358724	e m h
-1.4482381	p m h
-1.8826023	l m h
-1.9433411	m m h
-1.6332294	s m h
-1.1677642	g m h
-1.9063509	u m h
-1.7110898	x m h
-2.165934	v m h
-1.3774859	r m h
-1.7143077	n m h
-1.3209348	q m h
-1.4577405	t m h
-1.8581212	o m h
-1.7781131	k s h
-0.9839643	h s h
-1.0455545	c s h
-1.1030371	b s h
-1.0804412	f s h
-1.6413676	i s h
-1.0403738	a s h
-1.0675851	d s h
-1.5997279	j s h
-1.2601298	e s h
-1.2571597	p s h
-1.6744733	l s h
-1.6880691	m s h
-1.3323792	s s h
-1.5859901	g s h
-1.4866999	u s h
-1.3799882	x s h
-1.5790131	v s h
-1.71879	r s h
-2.2271798	n s h
-2.0235224	q s h
-1.6248614	t s h
-0.8135377	k g h
-0.48002726	h g h
-0.72099376	c g h
-0.59350944	b g h
-0.6663676	f g h
-0.6888023	i g h
-0.6502918	a g h
-0.5937772	d g h
-0.7128771	j g h
-0.41010505	e g h
-0.6094902	p g h
-0.5856752	l g h
-0.5178573	m g h
-0.8286288	s g h
-0.8461705	g g h
-0.67291915	u g h
-0.60976446	x g h
-0.5787609	v g h
-0.7216345	r g h
-1.0646381	n g h
-0.5671116	q g h
-0.7368423	t g h
-1.1168041	o g h
-0.71609545	w g h
-1.2473465	k u h
-1.1241409	h u h
-1.0873847	c u h
-1.1999342	b u h
-1.2010356	f u h
-1.3160441	i u h
-1.1865665	a u h
-1.1887374	d u h
-1.7159797	j u h
-1.2669306	e u h
-0.94363743	p u h
-1.5978558	l u h
-1.1853243	m u h
-1.5579811	s u h
-1.1755157	g u h
-1.5877432	u u h
-1.4704008	x u h
-1.6515335	v u h
-1.5080749	r u h
-1.8906474	n u h
-1.5584619	q u h
-1.6711652	t u h
-1.5846363	o u h
-1.4414055	w u h
-1.6377509	k x h
-0.637037	h x h
-0.8965173	c x h
-1.0144798	b x h
-0.91157377	f x h
-1.086805	i x h
-0.8894321	a x h
-0.7454157	d x h
-1.4244127	j x h
-1.0122164	e x h
-0.8806044	p x h
-1.2417346	l x h
-1.2499769	m x h
-1.1915448	s x h
-0.85858965	g x h
-1.4465485	u x h
-1.0425421	x x h
-1.6922038	v x h
-1.3364255	r x h
-1.0716469	n x h
-1.1979423	q x h
-1.3956733	t x h
-1.3518659	o x h
-1.3724725	w x h
-1.398796	k v h
-1.1875831	h v h
-1.1544994	c v h
-1.088798	b v h
-1.0177298	f v h
-1.7120672	i v h
-0.9690408	a v h
-1.0717205	d v h
-1.0564407	j v h
-1.0633755	e v h
-1.854055	p v h
-1.1496147	l v h
-1.0268823	m v h
-1.5523592	s v h
-1.5072335	u v h
-1.3112246	x v h
-1.5032103	v v h
-1.8104254	r v h
-0.8873522	n v h
-1.6574837	q v h
-1.544452	t v h
-1.3958536	k r h
-1.0315902	h r h
-1.1791509	c r h
-1.2711645	b r h
-0.91465384	f r h
-1.251307	i r h
-0.96917325	a r h
-0.9855099	d r h
-1.5838287	j r h
-1.093648	e r h
-1.4985188	p r h
-1.1925623	l r h
-1.5064391	m r h
-1.6424458	s r h
-1.2327068	g r h
-1.3128498	u r h
-1.6034847	x r h
-1.8562411	v r h
-1.7221571	r r h
-0.99500567	n r h
-1.6455772	q r h
-1.2298529	t r h
-1.2290181	o r h
-1.4085698	w r h
-1.8619359	k n h
-1.1405107	h n h
-0.9023336	c n h
-1.2782006	b n h
-1.1793613	f n h
-1.9029784	i n h
-1.090927	a n h
-0.8863108	d n h
-1.9185903	j n h
-0.98284376	e n h
-1.6439927	p n h
-1.6932273	l n h
-1.3753182	m n h
-1.0367583	s n h
-1.5952877	u n h
-1.661301	x n h
-1.1532147	v n h
-1.5376132	r n h
-1.5958414	n n h
-1.1888406	t n h
-1.3990355	o n h
-1.0843409	k q h
-0.85210216	h q h
-0.91995555	c q h
-1.0571214	b q h
-1.0162152	f q h
-1.1929286	i q h
-0.92539746	a q h
-1.316994	d q h
-1.2570155	j q h
-0.9014267	e q h
-0.9622132	p q h
-1.0283195	l q h
-0.936817	m q h
-1.5497651	s q h
-1.2683876	g q h
-1.2986115	u q h
-1.4757218	x q h
-1.6321857	v q h
-1.1626992	r q h
-1.3125036	n q h
-1.397074	q q h
-1.5773739	t q h
-0.89406085	o q h
-1.7544131	w q h
-1.894891	k t h
-0.9343261	h t h
-1.0733507	c t h
-1.107502	b t h
-1.1535697	f t h
-1.4497349	i t h
-0.9170239	a t h
-1.152247	d t h
-1.3795292	j t h
-1.0094048	e t h
-1.1507287	p t h
-1.5680912	l t h
-1.4061182	m t h
-1.5344476	s t h
-0.8577783	g t h
-1.6579491	u t h
-1.2012876	x t h
-1.7798544	v t h
-1.2514929	r t h
-1.4656422	q t h
-1.8457223	t t h
-1.5413476	o t h
-1.2757673	w t h
-1.1960928	k o h
-0.9132867	h o h
-1.2477031	c o h
-1.1176296	b o h
-1.592208	i o h
-0.5958578	a o h
-0.8272849	d o h
-1.292484	j o h
-0.9231298	e o h
-1.2655213	p o h
-1.1896889	l o h
-1.4062403	m o h
-1.165339	s o h
-1.279463	g o h
-1.10845	u o h
-1.1225145	x o h
-1.0430639	r o h
-1.1451274	n o h
-0.8412606	t o h
-1.2151045	o o h
-1.4404011	w o h
-1.2574085	k w h
-0.8734244	h w h
-1.1688999	c w h
-1.297803	b w h
-1.3455559	f w h
-1.144629	i w h
-0.79055953	a w h
-0.7360522	d w h
-0.9250979	e w h
-1.588529	p w h
-0.40061444	l w h
-1.525256	m w h
-0.95175445	s w h
-0.89694417	g w h
-1.1127958	u w h
-1.1569977	x w h
-1.3992108	v w h
-1.2921839	q w h
-1.2873546	t w h
-1.37028	o w h
-0.9210575	k k c
-0.6877129	h k c
-0.45580506	c k c
-1.0263077	b k c
-0.88661	f k c
-1.4680911	i k c
-0.9340803	a k c
-0.9213569	d k c
-1.5072441	j k c
-0.8961457	e k c
-1.173574	p k c
-1.4161645	l k c
-1.4864308	m k c
-1.002028	s k c
-1.1504068	g k c
-1.4294808	u k c
-1.0067017	x k c
-1.1314626	v k c
-1.4707648	r k c
-1.0587075	n k c
-1.1869805	q k c
-1.5373551	t k c
-0.8325461	k h c
-1.0165845	h h c
-0.73964006	c h c
-0.86467123	b h c
-1.1337016	f h c
-1.3471789	i h c
-1.3868718	a h c
-0.97236335	d h c
-0.9728877	j h c
-0.7062868	e h c
-1.1406766	p h c
-1.1525757	l h c
-1.0063863	m h c
-0.92256904	s h c
-1.362967	g h c
-1.0828571	u h c
-1.1138369	x h c
-1.1743113	v h c
-1.1313689	r h c
-1.3085573	n h c
-1.3693049	q h c
-1.1525313	t h c
-1.6301659	o h c
-1.4085547	w h c
-0.70863736	k c c
-0.76305133	h c c
-0.32846475	c c c
-1.041846	b c c
-0.8797961	f c c
-1.2162895	i c c
-1.1479514	a c c
-1.0641208	d c c
-1.1129051	j c c
-1.0052319	e c c
-0.8438711	p c c
-1.1722819	l c c
-1.0446366	m c c
-0.64576685	s c c
-1.2029064	g c c
-0.9886639	u c c
-0.8554077	x c c
-0.9322276	v c c
-1.093016	r c c
-0.8673763	n c c
-0.9759525	q c c
-0.9678442	t c c
-0.8767774	o c c
-1.2341514	w c c
-0.7330023	k b c
-0.76426196	h b c
-0.57319856	c b c
-0.9074869	b b c
-0.85781145	f b c
-0.5405196	i b c
-0.43407983	a b c
-0.6188682	d b c
-0.9778141	j b c
-0.73216057	e b c
-0.63295645	p b c
-0.49668932	l b c
-0.82872844	m b c
-0.6429934	s b c
-0.91007745	g b c
-0.8238802	u b c
-0.67484945	x b c
-0.94722503	v b c
-0.9041432	r b c
-0.8137225	n b c
-0.62793154	q b c
-0.71766114	t b c
-0.95344335	o b c
-0.93082756	w b c
-1.3058825	k f c
-1.4847214	h f c
-0.9584692	c f c
-1.0870008	b f c
-1.3873005	f f c
-1.2739242	i f c
-1.1013162	a f c
-1.2430743	d f c
-1.6365137	j f c
-1.3717234	e f c
-1.3377984	p f c
-1.3040454	l f c
-1.2589107	m f c
-1.1102351	s f c
-1.2916217	g f c
-1.5365093	u f c
-1.524414	x f c
-1.354813	v f c
-1.3384112	r f c
-1.4031923	n f c
-1.4454519	q f c
-1.3118483	t f c
-1.1359572	o f c
-1.6449966	k i c
-1.1452789	h i c
-1.0426017	c i c
-1.0694711	b i c
-1.2127517	f i c
-1.656877	i i c
-1.2650169	a i c
-1.1079863	d i c
-1.8302459	j i c
-1.1474015	e i c
-1.5824234	p i c
-1.8271545	l i c
-1.4415044	m i c
-1.342079	s i c
-0.9206697	g i c
-1.3367575	u i c
-1.9297472	x i c
-0.83432007	v i c
-1.2471865	r i c
-1.5976448	n i c
-1.4322348	q i c
-1.3124691	t i c
-2.02837	o i c
-1.2365408	w i c
-0.9849488	k a c
-1.1305224	h a c
-0.8848072	c a c
-1.1527172	b a c
-0.85066426	f a c
-1.1966265	i a c
-1.23782	a a c
-0.9248771	d a c
-1.2769679	j a c
-0.7643954	e a c
-1.2254565	p a c
-1.3561931	l a c
-1.1897902	m a c
-0.9978961	s a c
-0.8995676	g a c
-1.0164051	u a c
-1.052419	x a c
-1.1963855	v a c
-1.2131605	r a c
-1.2891876	n a c
-1.1123679	q a c
-1.0173755	t a c
-1.5377058	o a c
-1.214765	w a c
-0.7504015	k d c
-0.82549435	h d c
-0.71277654	c d c
-0.70539266	b d c
-0.889706	f d c
-0.78072083	i d c
-0.78402185	a d c
-0.83428276	d d c
-0.5473753	j d c
-0.35214093	e d c
-0.7386851	p d c
-0.76860505	l d c
-0.40298516	m d c
-0.63811713	s d c
-0.98385274	g d c
-0.41666603	u d c
-0.7678994	x d c
-0.8941539	v d c
-0.6831616	r d c
-1.0022483	n d c
-0.6690224	q d c
-0.75389075	t d c
-1.0211793	o d c
-0.86566174	w d c
-1.2179817	k j c
-1.0700893	h j c
-0.88849825	c j c
-1.1436827	b j c
-0.90300345	f j c
-1.2513527	i j c
-1.0194031	a j c
-0.8831248	d j c
-1.3639368	j j c
-1.2647655	e j c
-1.2071246	p j c
-1.4369962	l j c
-1.1977832	m j c
-1.2431177	s j c
-1.089553	g j c
-1.0066608	u j c
-1.2697635	x j c
-1.0291631	v j c
-1.6172407	r j c
-1.348902	n j c
-1.1805983	q j c
-1.0451679	t j c
-2.2110455	o j c
-1.5986379	w j c
-0.9392381	k e c
-0.7279732	h e c
-0.8462966	c e c
-0.96994436	b e c
-1.1865633	f e c
-1.1311394	i e c
-0.84692156	a e c
-0.8267568	d e c
-1.0335317	j e c
-1.0706298	e e c
-0.87819386	p e c
-1.0186149	l e c
-1.2242073	m e c
-0.8402245	s e c
-1.2932603	g e c
-1.0785093	u e c
-0.98656774	x e c
-1.2012386	v e c
-1.0561609	r e c
-1.2984294	n e c
-1.0368273	q e c
-1.2035637	t e c
-1.2828412	o e c
-1.5243937	w e c
-1.2394395	k p c
-1.1570959	h p c
-1.018679	c p c
-0.9900948	b p c
-1.0981104	f p c
-1.660252	i p c
-1.2743382	a p c
-1.0990455	d p c
-1.4987874	j p c
-0.93096334	e p c
-1.3487985	p p c
-1.5084139	l p c
-1.317538	m p c
-1.3452507	s p c
-1.3309745	g p c
-1.2382547	u p c
-1.4196244	x p c
-1.2696272	v p c
-1.2224059	r p c
-1.3712697	n p c
-1.6041992	q p c
-1.316922	t p c
-2.069949	o p c
-1.4869664	w p c
-1.3405552	k l c
-0.8550302	h l c
-0.7846682	c l c
-0.8270655	b l c
-1.0218543	f l c
-1.5454907	i l c
-0.9037413	a l c
-0.8395464	d l c
-1.4954517	j l c
-0.7729149	e l c
-1.8068864	p l c
-1.495407	l l c
-1.2164719	m l c
-1.1360936	s l c
-1.0881996	g l c
-1.4096255	u l c
-2.0215557	x l c
-1.4622254	v l c
-0.7768673	r l c
-1.4307625	n l c
-1.4442956	q l c
-1.1482543	t l c
-2.0750904	o l c
-1.7443956	k m c
-1.1545036	h m c
-1.0815235	c m c
-0.9699787	b m c
-1.1296154	f m c
-1.8860298	i m c
-1.166252	a m c
-1.0669339	d m c
-1.3518782	j m c
-1.2001328	e m c
-1.5568784	p m c
-1.7061156	l m c
-1.9428357	m m c
-1.3484027	s m c
-1.2177906	g m c
-1.8259884	u m c
-1.2297891	x m c
-1.6853812	v m c
-1.5989882	r m c
-1.5888015	n m c
-1.5236467	q m c
-1.854344	t m c
-2.034524	o m c
-1.3853009	w m c
-0.97988486	k s c
-0.7515271	h s c
-0.5570073	c s c
-0.88493776	b s c
-0.84830666	f s c
-1.5268425	i s c
-0.9404918	a s c
-0.8536098	d s c
-1.1515515	j s c
-0.8621245	e s c
-1.1920421	p s c
-1.1676741	l s c
-1.0769323	m s c
-1.0287946	s s c
-0.91363984	g s c
-1.1099615	u s c
-1.2294394	x s c
-1.2033162	v s c
-1.5933958	r s c
-0.95984733	n s c
-1.3155818	q s c
-1.3680683	t s c
-0.9632091	o s c
-1.2624305	k g c
-1.6314036	h g c
-0.9167992	c g c
-1.314295	b g c
-1.2091417	f g c
-1.6252474	i g c
-1.3406725	a g c
-1.2630631	d g c
-1.3031737	j g c
-1.5183911	e g c
-1.74231	p g c
-1.5584424	m g c
-1.3645159	s g c
-1.5142552	g g c
-1.4138848	u g c
-1.3917413	x g c
-1.2997419	v g c
-1.3477402	r g c
-1.1220939	n g c
-1.413132	q g c
-1.479265	t g c
-1.496729	o g c
-1.1150138	w g c
-1.1114949	k u c
-1.0130172	h u c
-0.9215547	c u c
-1.0860128	b u c
-0.98783594	f u c
-1.5203658	i u c
-1.1385703	a u c
-0.9374291	d u c
-1.04413	j u c
-1.0630903	e u c
-1.7878985	p u c
-1.844093	l u c
-1.2951413	m u c
-1.1309249	s u c
-1.1448379	g u c
-1.5286444	u u c
-1.5341085	x u c
-1.4946189	v u c
-1.247645	r u c
-1.1491834	n u c
-1.4858736	q u c
-1.4228901	t u c
-1.2811731	o u c
-1.4414055	w u c
-1.4161974	k x c
-1.0889194	h x c
-0.8600311	c x c
-1.0634279	b x c
-1.0417428	f x c
-1.2628224	i x c
-1.0854099	a x c
-0.9908518	d x c
-1.0480732	j x c
-1.0067196	e x c
-1.787548	p x c
-1.2997068	l x c
-0.99490124	m x c
-1.3924114	s x c
-1.0549246	g x c
-1.324387	u x c
-1.5210494	x x c
-1.4784806	v x c
-1.2223744	r x c
-1.4339026	n x c
-1.6322238	q x c
-1.4168737	t x c
-1.4766992	o x c
-1.3858541	w x c
-1.5215431	k v c
-1.0866158	h v c
-1.2491795	c v c
-1.2467668	b v c
-1.2391679	f v c
-1.5298749	i v c
-1.2005452	a v c
-1.150233	d v c
-1.1786015	j v c
-1.2866132	e v c
-1.5454501	p v c
-1.7751179	l v c
-1.6761782	m v c
-1.3085582	s v c
-1.1937726	g v c
-2.1862648	u v c
-1.6791813	x v c
-1.6467577	v v c
-1.1886965	r v c
-1.6731076	n v c
-1.5757283	q v c
-2.1427562	t v c
-1.1424251	w v c
-0.9296222	k r c
-0.9438774	h r c
-0.8936113	c r c
-0.9835913	b r c
-0.7873694	f r c
-1.309165	i r c
-0.9294995	a r c
-0.8173829	d r c
-1.2832617	j r c
-0.956175	e r c
-1.0994167	p r c
-1.6193372	l r c
-1.1377252	m r c
-1.23076	s r c
-0.9151323	g r c
-1.2259269	u r c
-1.1725876	x r c
-1.252729	v r c
-1.3281496	r r c
-1.2425995	n r c
-1.5295193	q r c
-1.3440608	t r c
-0.7958047	o r c
-1.5338311	w r c
-1.863578	k n c
-1.3716013	h n c
-1.1929021	c n c
-1.0342075	b n c
-1.4566715	f n c
-1.4255589	i n c
-1.3859537	a n c
-0.97697663	d n c
-1.1951383	e n c
-1.6826774	p n c
-2.6678448	l n c
-1.7553713	m n c
-1.3411794	s n c
-2.0884163	u n c
-2.1495192	x n c
-1.5651886	v n c
-1.5437263	r n c
-2.0472455	n n c
-1.4347557	q n c
-1.8098423	t n c
-1.7892525	k q c
-1.1540248	h q c
-1.1045803	c q c
-1.0751542	b q c
-1.3574275	f q c
-1.5492755	i q c
-1.1532978	a q c
-1.0047997	d q c
-1.5947188	j q c
-1.1057997	e q c
-1.2494444	p q c
-1.2258905	l q c
-1.334652	m q c
-1.5411922	s q c
-1.3494186	g q c
-1.3884552	u q c
-1.4995701	x q c
-1.2609193	v q c
-1.5046632	r q c
-1.1305081	n q c
-1.464998	q q c
-1.4128183	t q c
-1.4452661	w q c
-1.0631495	k t c
-0.94071144	h t c
-0.65369105	c t c
-0.82985735	b t c
-0.86518836	f t c
-0.8985198	i t c
-0.84049946	a t c
-0.8009159	d t c
-0.7658324	j t c
-0.82979876	e t c
-1.1507287	p t c
-0.7997832	l t c
-1.0919416	m t c
-1.488201	s t c
-1.3120577	g t c
-1.0437719	u t c
-1.252356	x t c
-1.0674474	v t c
-0.98239344	r t c
-1.2673483	n t c
-1.4317976	q t c
-1.4543177	t t c
-1.096792	w t c
-1.6049062	h o c
-1.6316692	c o c
-1.1269453	b o c
-1.1370442	f o c
-1.732944	i o c
-1.5096583	a o c
-1.148436	d o c
-1.8196888	j o c
-1.3868715	e o c
-1.8034736	p o c
-1.7318027	m o c
-1.5957237	g o c
-1.5003368	u o c
-1.6239387	x o c
-1.281825	w o c
-1.573301	k w c
-1.5924976	h w c
-1.492639	c w c
-1.1581328	b w c
-0.8227783	f w c
-1.4422524	i w c
-1.0779237	a w c
-1.6810799	d w c
-1.2772121	j w c
-1.2053288	e w c
-1.6553397	s w c
-1.964992	g w c
-1.8852545	u w c
-1.4296857	x w c
-1.7105234	v w c
-1.3389795	r w c
-0.5421572	n w c
-1.8965302	q w c
-1.2873546	t w c
-1.4893653	w w c
-1.3906405	k k b
-1.0345201	h k b
-1.0023459	c k b
-0.9146694	b k b
-0.9203476	f k b
-1.2851665	i k b
-0.8611468	a k b
-0.9100013	d k b
-1.3947176	j k b
-1.083977	e k b
-1.4785954	p k b
-1.3196044	l k b
-1.6499273	m k b
-1.313062	s k b
-1.0189596	g k b
-1.3485807	u k b
-1.3651804	x k b
-1.3094405	v k b
-1.0215225	r k b
-1.9439999	n k b
-0.98306686	q k b
-1.4665211	t k b
-1.5275208	o k b
-0.79873407	w k b
-1.3113415	k h b
-1.2236022	h h b
-1.0240692	c h b
-0.8348127	b h b
-1.1732483	f h b
-1.1285268	i h b
-1.2031542	a h b
-0.757223	d h b
-1.1540455	j h b
-0.8823116	e h b
-1.3229643	p h b
-0.94440156	l h b
-1.0974616	m h b
-1.0585012	s h b
-1.0073144	g h b
-1.1479429	u h b
-1.1730642	x h b
-1.0265242	v h b
-1.2193401	r h b
-1.0792044	n h b
-1.1566848	q h b
-0.91279	t h b
-1.0752963	o h b
-1.1058033	w h b
-0.8932283	k c b
-0.78954417	h c b
-0.83361787	c c b
-0.7356472	b c b
-0.84005857	f c b
-0.607575	i c b
-0.67470115	a c b
-0.38213506	d c b
-0.65944225	j c b
-0.83676136	e c b
-0.72004807	p c b
-0.4341855	l c b
-0.73556024	m c b
-0.7712382	s c b
-0.62685496	g c b
-0.7845958	u c b
-0.70444506	x c b
-0.69385654	v c b
-0.6417072	r c b
-0.64603037	n c b
-0.57730657	q c b
-0.38850808	t c b
-0.67910105	o c b
-0.5411394	w c b
-1.2352605	k b b
-1.1842706	h b b
-1.1465734	c b b
-0.3812184	b b b
-1.0116622	f b b
-0.96968657	i b b
-1.1487106	a b b
-1.0665557	d b b
-0.6455044	j b b
-0.96231294	e b b
-1.1174142	p b b
-1.1611304	l b b
-1.0165858	m b b
-1.0788326	s b b
-0.850829	g b b
-0.98186064	u b b
-0.9901039	x b b
-1.0362096	v b b
-0.65110844	r b b
-1.1313486	n b b
-1.1195573	q b b
-1.0488253	t b b
-0.8279467	o b b
-0.96095276	w b b
-1.4828184	k f b
-1.6361487	h f b
-1.1279385	c f b
-0.9086147	b f b
-1.3998708	f f b
-1.0984156	i f b
-1.1970693	a f b
-0.9546053	d f b
-1.3350785	j f b
-1.4726293	e f b
-2.155541	p f b
-1.3525305	l f b
-1.5400538	m f b
-1.2567878	s f b
-1.2683938	g f b
-1.6163214	u f b
-1.4548892	x f b
-1.3303752	v f b
-1.1523969	r f b
-1.9266268	n f b
-1.2564515	q f b
-1.2330416	t f b
-1.6802813	k i b
-1.0849127	h i b
-0.89505416	c i b
-1.0790579	b i b
-1.5172442	f i b
-1.699441	i i b
-1.2675296	a i b
-1.129776	d i b
-1.4555341	j i b
-1.1793872	e i b
-1.3652918	p i b
-1.5278814	l i b
-1.4949988	m i b
-1.2183156	s i b
-1.0989913	g i b
-1.4073988	u i b
-1.234272	x i b
-1.6444536	v i b
-2.028899	r i b
-1.5012131	n i b
-1.3747667	q i b
-1.2346991	t i b
-1.7158474	o i b
-0.7814774	k a b
-0.4598781	h a b
-0.7531726	c a b
-0.6900356	b a b
-0.90479946	f a b
-0.8565792	i a b
-0.91963387	a a b
-0.7930157	d a b
-0.85485995	j a b
-0.87434506	e a b
-0.6243259	p a b
-0.9081146	l a b
-0.98078054	m a b
-0.76812947	s a b
-0.9464789	g a b
-0.8902413	u a b
-0.66262925	x a b
-0.8140859	v a b
-0.73613167	r a b
-0.7711734	n a b
-0.8961369	q a b
-0.8847383	t a b
-1.0532898	o a b
-1.214765	w a b
-1.2177968	k d b
-0.8077783	h d b
-0.9079654	c d b
-0.8634843	b d b
-0.81747186	f d b
-1.099397	i d b
-0.98651856	a d b
-1.1405224	d d b
-1.0661467	j d b
-1.2637459	e d b
-0.9872621	p d b
-1.3543084	l d b
-1.3613721	m d b
-1.0631403	s d b
-0.9411875	g d b
-1.1111951	u d b
-0.9109231	x d b
-0.9209939	v d b
-1.0792509	r d b
-1.1383637	n d b
-1.0018488	q d b
-1.1359322	t d b
-0.97950363	o d b
-0.9639129	w d b
-1.4963124	k j b
-1.2013493	h j b
-0.90593106	c j b
-0.54278684	b j b
-1.3151329	f j b
-1.6926781	i j b
-1.0096515	a j b
-1.0899446	d j b
-1.1780275	j j b
-0.96410525	e j b
-1.3215775	p j b
-1.5003023	l j b
-1.5958314	m j b
-1.5266374	s j b
-0.9924205	g j b
-1.7900136	u j b
-1.8084177	x j b
-1.195957	r j b
-1.549011	n j b
-1.600983	q j b
-1.4580216	t j b
-1.5954024	o j b
-1.1008468	w j b
-1.4813062	k e b
-1.1961815	h e b
-1.2554909	c e b
-0.9466131	b e b
-1.6127409	f e b
-1.3616796	i e b
-1.1183463	a e b
-1.4826231	d e b
-1.0059754	j e b
-1.259527	e e b
-1.5647597	p e b
-1.5950606	l e b
-1.4828548	m e b
-1.3440046	s e b
-1.1489285	g e b
-1.3139447	u e b
-1.2695922	x e b
-1.2866768	v e b
-1.312511	r e b
-1.1780493	n e b
-1.2640908	q e b
-1.415904	t e b
-1.2828412	o e b
-1.2220607	w e b
-1.701785	k p b
-1.4515879	h p b
-1.194803	c p b
-1.1130334	b p b
-1.1778727	f p b
-1.9382453	i p b
-1.1344943	a p b
-1.1348758	d p b
-1.7275971	j p b
-1.2479721	e p b
-1.7853526	p p b
-1.5925828	l p b
-1.7685378	m p b
-1.3452507	s p b
-0.97352296	g p b
-1.3175194	u p b
-1.5773989	x p b
-1.8791382	v p b
-1.2736281	r p b
-1.9765526	n p b
-2.439111	q p b
-1.561014	t p b
-1.5464847	o p b
-2.1948173	w p b
-1.8651212	k l b
-1.1689276	h l b
-0.95953584	c l b
-0.8662081	b l b
-1.1789722	f l b
-1.6849854	i l b
-1.0630623	a l b
-1.3287303	d l b
-1.672482	j l b
-1.2286612	e l b
-1.563772	p l b
-1.5869699	l l b
-1.9539696	m l b
-1.439428	s l b
-1.1192914	g l b
-1.6148309	u l b
-1.9559382	v l b
-1.8294197	n l b
-1.8124694	q l b
-1.6275111	t l b
-1.461647	o l b
-0.86605275	w l b
-1.7443956	k m b
-1.1850498	h m b
-1.1237215	c m b
-1.2231328	b m b
-1.5679061	f m b
-1.8192493	i m b
-1.3769372	a m b
-1.4974065	d m b
-1.5672826	j m b
-1.3586769	e m b
-1.7028067	p m b
-1.8309249	l m b
-1.7467227	m m b
-1.4091026	s m b
-1.167376	g m b
-1.5255407	u m b
-1.4060836	x m b
-1.9864237	v m b
-1.5989882	r m b
-1.5888015	n m b
-1.6202079	q m b
-2.155412	t m b
-1.4853194	o m b
-1.3853009	w m b
-1.0550548	k s b
-0.9075177	h s b
-1.0844138	c s b
-0.7611598	b s b
-1.0075076	f s b
-1.3330157	i s b
-0.9377183	a s b
-0.9893988	d s b
-1.2263837	j s b
-0.9570671	e s b
-1.0380275	p s b
-1.1509396	l s b
-1.0190364	m s b
-1.4089708	s s b
-0.9937388	g s b
-1.1520524	u s b
-1.0940968	x s b
-0.9757968	v s b
-1.4474472	r s b
-1.0044873	n s b
-1.2436018	q s b
-1.1436722	t s b
-1.2575171	o s b
-1.342447	k g b
-1.5005157	h g b
-0.9557514	c g b
-0.7381111	b g b
-1.0173265	f g b
-1.1584786	i g b
-1.0927148	a g b
-1.0835418	d g b
-1.184563	j g b
-1.1566346	e g b
-1.6251444	p g b
-1.0418234	l g b
-1.2344662	m g b
-0.6780565	s g b
-1.2938626	g g b
-1.2233454	u g b
-1.2031909	x g b
-1.1145529	v g b
-1.200653	r g b
-1.3672792	q g b
-1.3024579	t g b
-1.2510041	o g b
-1.4171171	w g b
-1.2891724	k u b
-1.1302133	h u b
-1.1767548	c u b
-1.0823174	b u b
-1.2468288	f u b
-1.5203658	i u b
-1.1699715	a u b
-1.3889173	d u b
-1.3449463	j u b
-1.2177925	e u b
-1.4873565	p u b
-1.7736626	l u b
-1.734021	m u b
-1.6036911	s u b
-1.0248331	g u b
-1.4696863	u u b
-1.6990495	x u b
-1.7810714	v u b
-1.4800699	r u b
-1.7141072	n u b
-1.3956581	q u b
-1.3700233	t u b
-1.5846363	o u b
-1.4414055	w u b
-1.6377509	k x b
-1.2837653	h x b
-1.1002702	c x b
-1.0394304	b x b
-1.1035056	f x b
-1.3876872	i x b
-1.1401597	a x b
-1.1613253	d x b
-1.2301723	j x b
-1.1588755	e x b
-1.0100119	p x b
-1.4457716	l x b
-1.647253	m x b
-1.668502	s x b
-0.9663462	g x b
-1.270531	u x b
-1.5124509	x x b
-1.5032896	v x b
-1.2949904	r x b
-2.1366258	n x b
-1.3556837	q x b
-1.5876821	t x b
-1.5946667	o x b
-1.5109874	w x b
-1.4569104	k v b
-1.073992	h v b
-1.1167114	c v b
-0.972297	b v b
-1.2833799	f v b
-1.4093169	i v b
-1.1450127	a v b
-1.2135004	d v b
-1.6747628	j v b
-1.2374405	e v b
-1.5531505	p v b
-1.4370348	m v b
-1.6769927	s v b
-1.2008687	g v b
-1.7143484	u v b
-1.4926383	x v b
-1.5703204	v v b
-1.4984866	r v b
-1.6794984	n v b
-1.7543812	q v b
-1.2999117	t v b
-1.4887494	k r b
-1.0977749	h r b
-0.9175083	c r b
-0.62478566	b r b
-1.0365765	f r b
-1.4269295	i r b
-0.9268925	a r b
-1.0097331	d r b
-1.0404222	j r b
-1.0558935	e r b
-1.0579537	p r b
-2.0990481	l r b
-1.2840743	m r b
-1.5161327	s r b
-0.8023952	g r b
-1.2259269	u r b
-1.2059894	x r b
-1.1557224	v r b
-1.1250184	r r b
-1.8779632	n r b
-1.5648677	q r b
-1.1823372	t r b
-1.2290181	o r b
-1.2321562	w r b
-1.863578	k n b
-1.468722	h n b
-1.1172488	c n b
-1.3778509	b n b
-1.2965384	f n b
-1.5351053	i n b
-0.7833816	a n b
-1.3653842	d n b
-1.6147633	j n b
-1.3524148	e n b
-2.5976427	p n b
-1.5180776	l n b
-1.658638	m n b
-1.3411794	s n b
-1.5977039	u n b
-1.3606764	x n b
-1.2119675	r n b
-1.7476835	n n b
-1.6167183	q n b
-1.8098423	t n b
-0.90802985	k q b
-0.9179798	h q b
-0.96569884	c q b
-0.9526637	b q b
-0.789278	f q b
-1.1929286	i q b
-0.9949001	a q b
-1.1219299	d q b
-1.508307	j q b
-1.0378758	e q b
-1.2356455	p q b
-1.2920609	l q b
-1.4087393	m q b
-1.4365497	s q b
-0.93088216	g q b
-1.3764062	u q b
-1.3928915	x q b
-1.5054315	v q b
-1.4222795	r q b
-1.0000938	n q b
-1.6178455	q q b
-1.3260822	t q b
-1.0852791	o q b
-1.262489	w q b
-1.3229369	k t b
-1.2851204	h t b
-1.0659806	c t b
-1.0337341	b t b
-0.9063944	f t b
-1.1023662	i t b
-1.0065968	a t b
-1.0911024	d t b
-1.690423	j t b
-0.9545587	e t b
-1.760375	p t b
-1.5662906	l t b
-1.5297143	m t b
-1.5562996	s t b
-0.8898989	g t b
-1.5817009	u t b
-1.6966558	x t b
-1.3482443	v t b
-1.1925675	r t b
-1.8769946	n t b
-1.3260405	q t b
-1.46023	t t b
-0.89997846	o t b
-1.4531547	w t b
-1.6425564	k o b
-1.3932414	h o b
-0.8086065	c o b
-0.70302665	b o b
-1.1139106	f o b
-1.7198653	i o b
-0.8708379	a o b
-0.9093347	d o b
-1.4727365	j o b
-1.2434762	e o b
-2.1847956	p o b
-1.7243235	m o b
-1.2808114	g o b
-1.7398162	u o b
-0.9073172	v o b
-1.3789934	r o b
-1.7324159	q o b
-1.3860754	t o b
-1.419525	o o b
-1.1276258	w o b
-1.1985155	k w b
-1.0802512	h w b
-0.9201881	c w b
-0.8954251	b w b
-1.3339335	f w b
-0.7469876	i w b
-1.0765923	a w b
-1.0398171	d w b
-1.2670515	j w b
-1.1316164	e w b
-1.269956	p w b
-1.0390161	m w b
-1.1049815	s w b
-1.0927811	g w b
-1.2354002	u w b
-1.376744	x w b
-1.6957827	v w b
-1.6257225	r w b
-1.4120657	q w b
-1.569404	t w b
-1.3609052	o w b
-1.3074564	w w b
-1.6952909	k k f
-1.3140987	h k f
-1.5552928	c k f
-1.3912657	b k f
-1.3476963	f k f
-2.0754206	i k f
-1.4541609	a k f
-1.4958743	d k f
-2.178067	j k f
-1.5154451	e k f
-1.6420021	p k f
-2.1205397	l k f
-1.9376128	m k f
-1.5151801	s k f
-1.7067819	u k f
-2.0205827	x k f
-1.8783886	r k f
-1.2371838	n k f
-2.1120536	q k f
-1.7017572	t k f
-1.0366584	k h f
-1.0739738	h h f
-1.0545417	c h f
-1.1962749	b h f
-0.68495077	f h f
-0.7129439	i h f
-0.6078862	a h f
-1.0275425	d h f
-1.1196795	j h f
-0.9278761	e h f
-1.0468299	p h f
-1.1565807	l h f
-1.0495409	m h f
-1.0714616	s h f
-2.0177884	g h f
-0.8784691	u h f
-0.9892892	x h f
-0.6588136	v h f
-1.2444296	r h f
-0.69253176	n h f
-0.70895404	q h f
-0.9449833	t h f
-0.9720427	o h f
-1.4884264	w h f
-1.430885	k c f
-1.2131555	h c f
-1.3820759	c c f
-1.5126246	b c f
-0.8538099	f c f
-1.6983035	i c f
-1.1049713	a c f
-1.633132	d c f
-1.3801191	j c f
-1.2051421	e c f
-1.3695374	p c f
-1.5600591	l c f
-1.4177501	m c f
-1.5393486	s c f
-2.162258	g c f
-1.4283296	u c f
-1.3431842	x c f
-1.2178613	v c f
-1.5706731	r c f
-1.5448526	n c f
-1.319569	q c f
-1.7013932	t c f
-1.8011894	k b f
-1.581984	h b f
-1.7895746	c b f
-1.8291093	b b f
-0.961433	f b f
-1.9062058	i b f
-1.753638	a b f
-1.4779857	d b f
-1.6926745	j b f
-1.622615	e b f
-1.5303545	p b f
-1.9433619	l b f
-1.7234251	m b f
-1.5210909	s b f
-1.8587393	g b f
-1.6718965	u b f
-1.5016925	x b f
-1.4247284	v b f
-1.9001274	r b f
-1.4163557	n b f
-1.5452528	q b f
-1.5733914	t b f
-1.5622545	o b f
-1.6389613	w b f
-0.81109744	k f f
-1.0823902	h f f
-0.8855476	c f f
-1.1133242	b f f
-0.37817818	f f f
-1.4777311	i f f
-1.0557281	a f f
-1.1235362	d f f
-1.0902684	j f f
-1.1385114	e f f
-1.4170731	p f f
-1.2369901	l f f
-1.3282533	m f f
-0.90831506	s f f
-0.5212965	g f f
-1.0597361	u f f
-1.1035906	x f f
-0.61905223	v f f
-1.0378628	r f f
-0.61634797	n f f
-1.134508	q f f
-0.9827394	t f f
-0.764959	w f f
-1.5304896	k i f
-1.1818035	h i f
-1.4508715	c i f
-1.6165833	b i f
-0.8372887	f i f
-2.199256	i i f
-1.5789317	a i f
-1.7297715	d i f
-2.4385889	j i f
-1.3376215	e i f
-1.9833868	p i f
-1.8342649	l i f
-1.955841	m i f
-1.7258453	g i f
-1.9374357	u i f
-1.6375675	x i f
-1.6629448	v i f
-1.8584712	r i f
-1.854812	q i f
-2.0347002	t i f
-1.3193767	k a f
-1.1519228	h a f
-1.123527	c a f
-1.5347979	b a f
-0.8528948	f a f
-1.2453449	i a f
-1.3723596	a a f
-1.0521462	d a f
-1.4234543	j a f
-1.2452506	e a f
-1.5592523	p a f
-1.3567326	l a f
-1.5424467	m a f
-1.2410715	s a f
-2.004873	g a f
-1.3028414	u a f
-1.2755615	x a f
-1.2180251	v a f
-1.8100504	r a f
-0.8925721	n a f
-1.3811367	q a f
-1.3314369	t a f
-1.6830516	o a f
-1.2753124	k d f
-1.175493	h d f
-1.2627075	c d f
-0.9472631	b d f
-0.9244998	f d f
-1.1785463	i d f
-1.017186	a d f
-1.4082448	d d f
-1.3564302	j d f
-1.3237809	e d f
-1.361666	p d f
-1.6626873	l d f
-1.3575088	m d f
-1.3730278	s d f
-1.9594105	g d f
-1.326992	u d f
-1.3311919	x d f
-1.1933503	v d f
-1.2368892	r d f
-1.0677037	n d f
-1.3586457	q d f
-1.3074174	t d f
-2.0501547	o d f
-1.0910962	w d f
-2.0649104	k j f
-1.2922088	h j f
-1.4282568	c j f
-1.9920619	b j f
-1.1196074	f j f
-1.5796582	a j f
-1.5819438	d j f
-2.3386505	j j f
-1.4202001	e j f
-1.5977175	p j f
-2.259981	l j f
-2.0283709	m j f
-1.8853781	s j f
-1.7078042	g j f
-2.1175075	u j f
-1.5273536	v j f
-2.112572	r j f
-1.93806	n j f
-1.7332368	q j f
-1.7136068	t j f
-0.9852298	k e f
-0.93714815	h e f
-1.0436386	c e f
-1.260066	b e f
-0.69350755	f e f
-0.99446356	i e f
-1.0831677	a e f
-0.56622005	d e f
-1.3840324	j e f
-1.3255839	e e f
-0.9461392	p e f
-0.7793625	l e f
-1.1903006	m e f
-1.03922	s e f
-2.1685843	g e f
-1.1557312	u e f
-0.86540955	x e f
-0.92138046	v e f
-1.1793711	r e f
-0.94729	n e f
-1.0702534	q e f
-0.66461957	t e f
-2.1998322	o e f
-1.8280413	w e f
-2.6016273	k p f
-1.2786303	h p f
-0.98868525	c p f
-1.3826587	b p f
-0.85916424	f p f
-1.223726	i p f
-1.2050945	a p f
-1.1326971	d p f
-1.7795565	j p f
-1.2419941	e p f
-1.6361006	p p f
-1.6599929	l p f
-1.7029161	m p f
-1.5895232	s p f
-2.0481155	g p f
-1.3969798	x p f
-1.2712344	v p f
-1.5786508	r p f
-1.6349676	n p f
-1.2746086	q p f
-1.8677524	t p f
-1.5471541	o p f
-0.7640954	w p f
-1.61135	k l f
-1.368727	h l f
-1.5530869	c l f
-1.1960626	b l f
-0.82390815	f l f
-1.5287796	i l f
-1.2539802	a l f
-1.8069581	d l f
-1.8505971	j l f
-1.2323941	e l f
-1.8102514	p l f
-1.6958306	l l f
-2.0179746	m l f
-1.4407735	s l f
-2.0171394	u l f
-1.7183471	x l f
-1.9627736	v l f
-1.8306395	n l f
-1.8150074	q l f
-1.687849	t l f
-1.2313708	w l f
-1.4446878	k m f
-1.3618804	h m f
-1.3677323	c m f
-1.6219032	b m f
-1.2086346	f m f
-2.0650802	i m f
-1.4681023	a m f
-1.303335	d m f
-1.936954	j m f
-1.3706367	e m f
-1.5901141	p m f
-1.8483847	l m f
-1.7280471	m m f
-1.2066767	s m f
-1.7752528	g m f
-1.9077694	u m f
-1.409445	x m f
-1.7672879	v m f
-1.6033611	r m f
-1.891536	n m f
-1.7143402	q m f
-1.861184	t m f
-1.9270196	k s f
-1.3447025	h s f
-1.3843057	c s f
-1.3905834	b s f
-1.1866897	f s f
-1.8995817	i s f
-1.687493	a s f
-1.3133459	d s f
-1.9022076	j s f
-1.3854021	e s f
-2.1213233	p s f
-1.9830593	l s f
-1.565166	m s f
-1.8700505	s s f
-2.3439074	u s f
-1.520498	x s f
-1.6556444	v s f
-1.6243834	r s f
-0.849388	n s f
-1.5461034	q s f
-1.6375207	t s f
-2.216611	h g f
-2.45213	c g f
-2.266112	b g f
-1.6086662	f g f
-2.2666836	a g f
-2.5358133	d g f
-1.9473894	j g f
-2.458025	e g f
-2.0589554	p g f
-1.9927989	l g f
-2.1912737	s g f
-1.6861959	g g f
-2.4552596	u g f
-2.0927534	x g f
-2.0947568	r g f
-1.4877797	t g f
-2.0418713	o g f
-2.0613327	w g f
-2.0138278	k u f
-1.4254391	h u f
-1.4501112	c u f
-1.3155007	b u f
-1.0575628	f u f
-1.8707975	i u f
-1.429838	a u f
-1.0037203	d u f
-1.2664168	j u f
-1.3482565	e u f
-1.4890757	p u f
-1.452554	l u f
-1.6101309	m u f
-1.328118	s u f
-1.6433802	g u f
-1.7130096	u u f
-1.5583484	x u f
-1.4314682	v u f
-1.4136716	r u f
-1.3788614	n u f
-1.9998976	q u f
-1.6717224	t u f
-1.9897971	w u f
-1.1611218	k x f
-1.0709248	h x f
-1.0760648	c x f
-1.3451068	b x f
-0.7846794	f x f
-1.960907	i x f
-1.0317155	a x f
-1.0200081	d x f
-1.4244127	j x f
-1.1588755	e x f
-1.3109187	p x f
-1.4457716	l x f
-1.046023	m x f
-1.4467517	s x f
-1.3260876	g x f
-1.4465485	u x f
-1.7148196	x x f
-1.9551097	v x f
-1.735066	r x f
-1.8332462	n x f
-1.4842013	q x f
-1.7639463	t x f
-1.4978675	o x f
-1.6874679	w x f
-1.3475482	k v f
-0.9805174	h v f
-1.0295625	c v f
-1.0566148	b v f
-0.6530866	f v f
-1.3120636	i v f
-0.79185414	a v f
-0.97457635	d v f
-1.0312002	e v f
-1.5531505	p v f
-1.4622592	l v f
-1.8049638	m v f
-1.5013084	s v f
-1.5546561	u v f
-1.5090281	x v f
-1.3267927	v v f
-1.4984866	r v f
-1.2714368	n v f
-1.4022335	q v f
-1.6705627	t v f
-1.6794084	w v f
-2.2396607	k r f
-1.3620946	h r f
-1.4385214	c r f
-1.3960212	b r f
-1.3728007	f r f
-1.8602654	i r f
-1.5538176	a r f
-1.3820664	d r f
-1.7177905	j r f
-1.6325259	e r f
-1.5007699	l r f
-1.9014891	s r f
-2.0607817	g r f
-1.9762839	u r f
-2.0143683	x r f
-1.5609367	v r f
-1.9864502	r r f
-1.8926607	q r f
-2.0606258	t r f
-1.7541112	o r f
-1.4475492	k n f
-0.99655443	h n f
-1.0832158	c n f
-1.27683	b n f
-0.5387814	f n f
-1.9004703	i n f
-0.90772116	a n f
-1.1783054	d n f
-1.4304948	j n f
-1.1788884	e n f
-1.5662425	p n f
-1.2662622	l n f
-1.5117326	m n f
-1.6399726	s n f
-0.9485965	g n f
-1.2238669	u n f
-1.4372665	x n f
-0.94565594	v n f
-1.0223753	r n f
-1.0715503	n n f
-1.0583068	q n f
-1.7952547	t n f
-1.3324108	h q f
-1.3536296	c q f
-1.4754288	b q f
-1.0568018	f q f
-1.8206403	i q f
-1.478637	a q f
-1.1381794	d q f
-1.5798244	j q f
-1.563925	e q f
-1.7162803	p q f
-1.5358324	m q f
-1.7201037	s q f
-1.3530743	g q f
-1.8714464	u q f
-1.8821182	x q f
-1.5710875	v q f
-1.8451056	r q f
-1.6598897	n q f
-1.7554098	q q f
-1.5814589	t q f
-1.6935222	k t f
-1.1686099	h t f
-1.3435699	c t f
-1.485179	b t f
-1.0835524	f t f
-1.5026757	i t f
-1.186414	a t f
-1.2095584	d t f
-1.2021798	j t f
-1.1426713	e t f
-1.4628801	p t f
-1.3274832	l t f
-1.7103503	m t f
-1.9334786	s t f
-1.5468028	u t f
-1.4967121	x t f
-1.7839997	v t f
-1.4984242	r t f
-1.5794996	n t f
-1.6926128	q t f
-1.6315697	t t f
-1.8559887	h o f
-2.2230806	a o f
-2.2485383	p o f
-2.1806548	g o f
-1.8412129	u o f
-1.8355292	q o f
-1.5486988	w o f
-1.7488654	h w f
-1.518638	c w f
-2.00665	b w f
-2.2589545	a w f
-2.340609	e w f
-2.0575228	s w f
-1.3600678	g w f
-2.4307907	x w f
-1.688408	t w f
-1.4876554	k k i
-1.5240564	h k i
-1.5011189	c k i
-1.2335297	b k i
-1.7042928	f k i
-1.0418222	i k i
-1.5487156	a k i
-1.3035331	d k i
-0.985978	j k i
-1.3109845	e k i
-1.1390331	p k i
-1.2044003	l k i
-0.8960705	m k i
-1.5635947	s k i
-1.4005095	u k i
-1.3536857	x k i
-1.3122699	v k i
-1.1170233	r k i
-1.2354436	n k i
-0.99222	q k i
-1.5836723	t k i
-0.7506625	o k i
-0.8000144	w k i
-1.1335634	k h i
-2.3830357	h h i
-2.2059412	c h i
-2.2856817	b h i
-1.9473746	f h i
-1.651784	i h i
-2.088788	a h i
-2.598013	d h i
-1.1389829	j h i
-2.2382524	e h i
-1.5857288	p h i
-1.6854095	l h i
-1.6580573	m h i
-2.2864704	s h i
-1.861546	g h i
-2.3746781	u h i
-1.906258	x h i
-2.201623	v h i
-1.6119037	r h i
-1.1430726	n h i
-1.7949069	q h i
-2.060384	t h i
-1.7856557	o h i
-1.5863742	w h i
-1.99458	k c i
-2.430371	h c i
-2.5718348	c c i
-2.379802	b c i
-2.4743993	f c i
-1.476238	i c i
-2.816077	a c i
-2.696358	d c i
-1.7009984	j c i
-2.1324472	e c i
-1.6613861	p c i
-1.8218408	l c i
-1.562699	m c i
-2.5951896	s c i
-2.7104514	g c i
-1.8723738	u c i
-1.79108	x c i
-1.7469269	r c i
-2.2530484	n c i
-1.9742702	q c i
-2.6422527	t c i
-1.757617	o c i
-1.46247	k b i
-2.3629475	h b i
-1.9025633	c b i
-2.4121382	b b i
-2.2611613	f b i
-1.5699506	i b i
-2.2709231	a b i
-2.332502	d b i
-1.1156746	j b i
-2.3415513	e b i
-1.3167988	p b i
-1.5457239	l b i
-1.3549569	m b i
-1.8577851	s b i
-2.3401923	g b i
-1.931369	u b i
-2.2368286	x b i
-1.6196272	v b i
-2.0465505	r b i
-1.6441257	n b i
-2.0215013	q b i
-2.3864632	t b i
-2.0579097	o b i
-2.1398754	w b i
-1.5429646	k f i
-2.851752	h f i
-2.5933833	c f i
-2.7977114	b f i
-2.7811763	f f i
-1.4525173	i f i
-2.8519504	a f i
-2.5580533	d f i
-1.8243947	j f i
-2.6443841	e f i
-2.160078	p f i
-1.7877614	l f i
-2.465175	m f i
-2.6323073	u f i
-2.2520435	x f i
-2.6082659	v f i
-1.859231	r f i
-2.5549152	n f i
-1.8691461	q f i
-2.018284	t f i
-1.0607877	k i i
-0.9665809	h i i
-1.167411	c i i
-1.0808442	b i i
-0.86559963	f i i
-0.60716087	i i i
-1.0820465	a i i
-1.2785428	d i i
-1.0128152	j i i
-0.9787772	e i i
-1.0401587	p i i
-0.7948135	l i i
-0.8966403	m i i
-1.1544976	s i i
-2.0357413	g i i
-1.0005763	u i i
-1.2335645	x i i
-1.0129415	v i i
-1.0710847	r i i
-1.1974177	n i i
-0.8343177	q i i
-1.5333883	t i i
-0.9611111	o i i
-0.8879559	w i i
-1.6956391	k a i
-2.476723	h a i
-2.232978	c a i
-2.0936923	b a i
-2.3196516	f a i
-1.0860755	i a i
-1.828564	a a i
-2.1553838	d a i
-1.3094156	j a i
-2.281521	e a i
-1.5592523	p a i
-1.5164862	l a i
-1.3846816	m a i
-2.1708302	s a i
-2.2796166	g a i
-2.229395	u a i
-1.892575	x a i
-1.9174062	v a i
-2.2082214	r a i
-1.5644357	n a i
-1.6296067	q a i
-1.6874413	t a i
-1.1260942	o a i
-1.7985266	k d i
-2.73187	h d i
-2.8517091	c d i
-2.4947839	b d i
-2.3908508	f d i
-2.179171	i d i
-2.5852525	a d i
-2.507191	d d i
-1.6379664	j d i
-2.5110254	e d i
-1.7279594	p d i
-1.8170339	l d i
-1.9070439	m d i
-2.3736525	s d i
-2.6711125	g d i
-2.8907444	u d i
-2.1355238	x d i
-2.5439353	v d i
-1.9665718	r d i
-1.8963125	n d i
-2.2064514	q d i
-2.1140366	t d i
-1.5532686	o d i
-0.5935048	k j i
-1.727229	h j i
-1.1689711	c j i
-1.182559	b j i
-1.4610481	f j i
-1.0668947	i j i
-1.3151981	a j i
-1.3471035	d j i
-1.1038166	j j i
-1.4407433	e j i
-1.034686	p j i
-1.1240346	l j i
-1.1664118	m j i
-0.41149968	s j i
-1.3934991	g j i
-0.95546687	u j i
-0.9246362	x j i
-1.5155106	v j i
-0.8501508	r j i
-1.0061535	n j i
-1.1226428	q j i
-1.1244488	t j i
-0.9133087	o j i
-1.280597	w j i
-1.5692843	k e i
-1.9727044	h e i
-2.102962	c e i
-2.1087768	b e i
-2.6226032	f e i
-1.2110775	i e i
-2.1486835	a e i
-2.386239	d e i
-1.329621	j e i
-2.1670084	e e i
-1.3276082	p e i
-1.7332565	l e i
-1.6022335	m e i
-2.5060887	s e i
-2.338775	g e i
-1.88926	u e i
-1.8006848	x e i
-1.9795729	v e i
-1.7201003	r e i
-2.1848884	n e i
-1.9243143	q e i
-2.134957	t e i
-1.8908044	o e i
-2.006766	w e i
-0.7850133	k p i
-1.69013	h p i
-1.3226233	c p i
-1.382202	b p i
-1.2756554	f p i
-0.8702934	i p i
-1.2573098	a p i
-1.347419	d p i
-0.8529961	j p i
-1.5246916	e p i
-1.1341128	p p i
-1.1264942	l p i
-0.8160792	m p i
-1.1025052	s p i
-1.5341212	g p i
-1.1132114	u p i
-1.0524124	x p i
-1.0255351	v p i
-1.3016987	r p i
-0.8187457	n p i
-1.1031462	q p i
-1.0474293	t p i
-0.84084743	o p i
-0.5573201	w p i
-1.1438886	k l i
-2.0957193	h l i
-1.4957083	c l i
-1.5933001	b l i
-1.824133	f l i
-1.1441609	i l i
-1.910691	a l i
-1.8478189	d l i
-1.8469415	j l i
-1.8768098	e l i
-1.7094941	p l i
-1.4731412	l l i
-1.6891195	m l i
-1.6612227	s l i
-1.9917347	g l i
-1.4675283	u l i
-1.711823	x l i
-1.3945827	v l i
-0.81223047	r l i
-1.460702	n l i
-1.5485542	q l i
-1.9273655	t l i
-1.1568835	o l i
-1.0890542	k m i
-1.3163588	h m i
-1.5842735	c m i
-1.3782718	b m i
-1.4056917	f m i
-0.77885675	i m i
-1.1835577	a m i
-1.164835	d m i
-0.9618633	j m i
-1.5363865	e m i
-0.8342757	p m i
-1.0999451	l m i
-1.0203514	m m i
-1.2058259	s m i
-1.4186387	g m i
-1.2830895	u m i
-1.1336912	x m i
-1.3178821	v m i
-1.3774859	r m i
-1.374049	n m i
-0.9452654	q m i
-1.5549948	t m i
-1.6335143	o m i
-1.3232908	k s i
-2.1954215	h s i
-2.2533324	c s i
-1.9009196	b s i
-1.5853723	i s i
-2.2335494	a s i
-1.7417915	d s i
-1.3932008	j s i
-2.232088	e s i
-1.4191087	p s i
-1.4981251	l s i
-1.4264842	m s i
-2.2865188	s s i
-2.1084964	u s i
-2.2417817	x s i
-2.26694	v s i
-1.9258101	r s i
-1.5659548	n s i
-1.7050596	q s i
-2.1030157	t s i
-1.2648362	o s i
-0.86562663	k g i
-2.7094026	h g i
-2.7096846	c g i
-3.1610315	b g i
-1.8344059	i g i
-2.1606371	a g i
-2.5422337	d g i
-1.3186226	j g i
-2.5208592	e g i
-2.0752244	p g i
-2.9533927	g g i
-2.1614883	x g i
-1.6814696	q g i
-2.1542795	t g i
-1.2091973	k u i
-1.9016987	h u i
-1.7503384	c u i
-1.9496175	b u i
-1.7759532	f u i
-1.3440952	i u i
-1.8422165	a u i
-1.786674	d u i
-1.1989404	j u i
-1.9218717	e u i
-1.010561	p u i
-1.1163176	l u i
-1.2886144	m u i
-1.6547843	s u i
-2.489834	g u i
-1.7310957	u u i
-1.8589343	x u i
-1.4354331	v u i
-1.6986799	r u i
-1.1906005	n u i
-1.344487	q u i
-1.6199878	t u i
-1.5846363	o u i
-1.5084164	w u i
-1.4161974	k x i
-2.0564523	h x i
-1.8487517	c x i
-1.8615164	b x i
-2.0587854	f x i
-1.086805	i x i
-1.7624104	a x i
-1.7632575	d x i
-1.3272691	j x i
-1.9066994	e x i
-1.5659944	p x i
-1.6674726	l x i
-1.1531554	m x i
-1.7476339	s x i
-2.2024982	g x i
-1.8178599	u x i
-1.877484	x x i
-1.9551097	v x i
-1.6379224	r x i
-1.5310462	n x i
-1.5871592	q x i
-1.7074016	t x i
-1.4978675	o x i
-1.7456269	w x i
-1.8750595	h v i
-2.6885884	c v i
-2.218328	b v i
-2.2746642	f v i
-2.0319324	i v i
-1.982972	a v i
-2.3618143	d v i
-1.3698051	j v i
-2.5092711	e v i
-1.8698734	p v i
-1.2822956	l v i
-1.9888527	m v i
-2.4653337	s v i
-1.9731897	x v i
-1.6527234	v v i
-1.8248658	r v i
-2.011554	n v i
-1.7582839	q v i
-2.1720905	t v i
-1.5113056	k r i
-1.76081	h r i
-1.9243337	c r i
-1.5593619	b r i
-1.989804	f r i
-0.88412565	i r i
-1.6439805	a r i
-1.9510114	d r i
-0.96952724	j r i
-2.2303543	e r i
-1.1981841	p r i
-1.0353847	l r i
-1.2058718	m r i
-1.473777	s r i
-1.7469233	g r i
-1.267942	u r i
-1.7019453	x r i
-1.2022606	v r i
-1.6293592	r r i
-0.9368984	n r i
-1.4787085	q r i
-1.1025374	o r i
-1.4102337	w r i
-1.0063092	k n i
-1.8489013	h n i
-2.2058778	c n i
-1.5027657	b n i
-1.7115607	f n i
-1.2818956	i n i
-1.8104347	a n i
-1.9713165	d n i
-1.3068993	j n i
-1.7687393	e n i
-1.4225843	p n i
-1.2157218	l n i
-1.6088835	m n i
-1.3393729	s n i
-1.3717448	u n i
-1.661301	x n i
-1.8817475	v n i
-1.5376132	r n i
-1.2958338	n n i
-1.8024873	t n i
-1.3990355	o n i
-1.0055937	k q i
-1.6664999	h q i
-1.7116966	c q i
-1.6164184	b q i
-2.27218	f q i
-0.9473096	i q i
-1.5888355	a q i
-1.5053359	d q i
-1.232285	j q i
-1.5163944	e q i
-1.1263332	p q i
-1.070425	l q i
-1.0695369	m q i
-1.620473	s q i
-1.2693956	g q i
-1.2616059	u q i
-1.4876833	x q i
-1.2609193	v q i
-1.2748888	r q i
-1.642784	n q i
-1.304915	q q i
-1.5204203	t q i
-1.4452661	w q i
-1.3255227	k t i
-2.1810207	h t i
-2.0709865	c t i
-1.7919446	b t i
-1.9189245	f t i
-1.8094412	i t i
-2.2353563	a t i
-1.9616826	d t i
-1.7221005	j t i
-1.9358758	e t i
-1.2857997	p t i
-1.7140044	m t i
-2.2388697	s t i
-1.9369596	u t i
-1.802103	x t i
-1.2737503	n t i
-1.5886972	q t i
-1.819661	t t i
-1.5645319	o t i
-1.9682599	k o i
-1.753658	h o i
-1.8041025	c o i
-1.8417916	b o i
-1.0817896	i o i
-0.80555695	j o i
-1.4418149	e o i
-1.2934794	p o i
-1.0314147	l o i
-1.1435007	m o i
-1.4610529	g o i
-1.4268553	u o i
-1.9259175	x o i
-1.3912953	r o i
-1.5135562	n o i
-1.367386	q o i
-1.3258022	o o i
-1.461442	w o i
-1.4929452	i w i
-1.3377901	j w i
-2.340609	e w i
-1.3194754	p w i
-1.9280216	m w i
-2.2857604	u w i
-1.247235	v w i
-1.3855169	r w i
-1.8909777	w w i
-1.8927836	k k a
-1.1643908	h k a
-1.3454298	c k a
-1.1033223	b k a
-0.91122293	f k a
-1.6317614	i k a
-1.0549613	a k a
-1.1582518	d k a
-1.730709	j k a
-1.1854535	e k a
-2.2301505	p k a
-1.6930821	l k a
-1.6516929	m k a
-1.7697779	s k a
-1.152283	g k a
-1.4605237	u k a
-1.4809449	x k a
-1.5698642	r k a
-1.5419172	n k a
-1.6170664	q k a
-1.797627	t k a
-0.8159049	k h a
-1.0720874	h h a
-0.81577325	c h a
-0.7770041	b h a
-0.5560519	f h a
-0.88192797	i h a
-0.65061414	a h a
-0.95162535	d h a
-0.91912746	j h a
-0.87525606	e h a
-0.9221893	p h a
-0.9885324	l h a
-0.7218137	m h a
-0.8536421	s h a
-0.49271497	g h a
-0.66885376	u h a
-0.8891262	x h a
-0.7637459	v h a
-0.7141302	r h a
-0.6574174	n h a
-0.8160188	q h a
-0.86162496	t h a
-0.6727802	o h a
-0.59834284	w h a
-1.2700708	k c a
-1.0837913	h c a
-1.2162402	c c a
-0.8660439	b c a
-0.8773371	f c a
-0.96161455	i c a
-0.83085114	a c a
-1.1812695	d c a
-1.1232446	j c a
-0.8190687	e c a
-1.3033906	p c a
-1.2524296	l c a
-1.0391767	m c a
-1.1897457	s c a
-0.9149109	g c a
-1.0738583	u c a
-1.3127346	x c a
-1.1264813	v c a
-1.1468636	r c a
-1.1948509	n c a
-0.858384	q c a
-1.1873542	t c a
-1.1226791	o c a
-1.1345301	w c a
-0.41059047	k b a
-0.76602435	h b a
-0.40086612	c b a
-0.83154374	b b a
-0.8445405	f b a
-0.760574	i b a
-0.717345	a b a
-0.82643294	d b a
-0.79041004	j b a
-0.8131057	e b a
-0.75289816	p b a
-0.8999665	l b a
-0.6100825	m b a
-0.47999364	s b a
-0.74798334	g b a
-0.8057831	u b a
-0.7334178	x b a
-0.8283148	v b a
-0.7544246	r b a
-0.8740468	n b a
-0.6418996	q b a
-0.88113177	t b a
-0.7530491	o b a
-0.708073	w b a
-1.0430088	k f a
-1.2844392	h f a
-0.84010434	c f a
-0.99817026	b f a
-1.3120961	f f a
-1.0112544	i f a
-0.871121	a f a
-0.9052016	d f a
-1.1345317	j f a
-1.1436788	e f a
-1.2569705	p f a
-1.5095168	l f a
-1.1637784	m f a
-1.1987355	s f a
-1.3580829	g f a
-1.440194	u f a
-1.1840302	x f a
-1.0802925	v f a
-1.1109943	r f a
-1.6236091	n f a
-1.1055574	q f a
-1.4093677	t f a
-1.5976863	k i a
-0.97609246	h i a
-0.9076159	c i a
-0.88481665	b i a
-1.149443	f i a
-1.0036285	i i a
-0.48400635	a i a
-0.7721651	d i a
-1.3661455	j i a
-0.783366	e i a
-1.507845	p i a
-1.5269971	l i a
-1.1124787	m i a
-1.2174314	s i a
-1.2248425	g i a
-1.2381245	u i a
-1.5338961	x i a
-1.1404251	v i a
-1.284978	r i a
-1.2433442	n i a
-1.2587483	q i a
-1.5333883	t i a
-1.3065577	o i a
-0.8879559	w i a
-0.9397176	k a a
-1.0890453	h a a
-0.9156697	c a a
-0.87835485	b a a
-1.0382427	f a a
-0.6019299	i a a
-0.37145025	a a a
-0.8541293	d a a
-0.8292209	j a a
-0.7364115	e a a
-0.9524296	p a a
-0.8076806	l a a
-0.698789	m a a
-0.92423826	s a a
-0.84909755	g a a
-0.75456524	u a a
-0.99531084	x a a
-0.837559	v a a
-0.8531871	r a a
-1.1358082	n a a
-0.60257864	q a a
-0.7569435	t a a
-1.0950443	o a a
-0.990448	w a a
-1.3767198	k d a
-1.2326198	h d a
-1.3272185	c d a
-1.2092499	b d a
-1.1081352	f d a
-1.0702491	i d a
-0.8464025	a d a
-1.3929149	d d a
-1.2731571	j d a
-1.486392	e d a
-1.8727577	p d a
-1.5321757	l d a
-1.4194096	m d a
-1.2732712	s d a
-1.071067	g d a
-1.4538652	u d a
-1.2929202	x d a
-1.3332744	v d a
-1.3270891	r d a
-1.4663149	n d a
-0.99507993	q d a
-1.4322965	t d a
-1.5513866	o d a
-1.1720815	w d a
-1.4923971	k j a
-0.89617753	h j a
-0.88329864	c j a
-1.004376	b j a
-1.0445899	f j a
-1.5311133	i j a
-0.73720646	a j a
-0.9526054	d j a
-1.4684956	j j a
-0.8900806	e j a
-1.8959899	p j a
-1.6473408	l j a
-1.4103421	m j a
-1.4386616	s j a
-1.0221913	g j a
-1.3080642	u j a
-1.189754	x j a
-1.3347818	v j a
-1.3977854	r j a
-2.2278647	n j a
-1.848536	q j a
-1.523286	t j a
-1.3487369	o j a
-1.5986379	w j a
-1.0833046	k e a
-0.9770958	h e a
-0.76359475	c e a
-0.8709593	b e a
-1.4291617	f e a
-0.92560387	i e a
-0.66910034	a e a
-1.2408679	d e a
-1.2020326	j e a
-1.0849103	e e a
-1.3053463	p e a
-1.2892675	l e a
-1.165285	m e a
-1.1678957	s e a
-1.2634287	g e a
-1.1586552	u e a
-1.2100271	x e a
-1.4627903	v e a
-0.9418067	r e a
-1.6566811	n e a
-0.9399116	q e a
-1.2197043	t e a
-1.8908044	o e a
-1.2599676	w e a
-1.4915104	k p a
-1.3044019	h p a
-1.186368	c p a
-1.1300819	b p a
-1.2041914	f p a
-1.6380179	i p a
-1.1762974	a p a
-1.2937536	d p a
-1.6027911	j p a
-1.0935369	e p a
-1.6180884	p p a
-1.4433944	l p a
-1.3438226	m p a
-1.491106	s p a
-0.8679563	g p a
-1.1132114	u p a
-1.3327174	x p a
-1.2696272	v p a
-0.9722846	r p a
-1.2634009	n p a
-1.3708323	q p a
-1.4636118	t p a
-1.3422707	o p a
-1.8204786	w p a
-1.7767286	k l a
-1.5534295	h l a
-1.2464743	c l a
-1.1471905	b l a
-1.4557176	f l a
-1.6025951	i l a
-1.0725088	a l a
-1.242549	d l a
-1.7502806	j l a
-1.2249601	e l a
-1.9326303	p l a
-1.6157309	l l a
-1.6408457	m l a
-1.3236985	s l a
-1.2664161	g l a
-1.5922296	u l a
-2.0215557	x l a
-1.9492087	v l a
-1.3052801	r l a
-1.56534	n l a
-1.510951	q l a
-2.2295501	t l a
-2.0750904	o l a
-1.2251171	k m a
-1.0741936	h m a
-0.95677257	c m a
-0.9701104	b m a
-1.2153586	f m a
-1.5684427	i m a
-1.0971973	a m a
-1.0382539	d m a
-1.3714913	j m a
-1.1865978	e m a
-1.6334752	p m a
-1.3819954	l m a
-1.3393424	m m a
-1.5982904	s m a
-1.1104635	g m a
-1.3152745	u m a
-1.9537528	v m a
-1.3774859	r m a
-1.8906853	n m a
-1.1448402	q m a
-1.2018566	t m a
-1.5536462	o m a
-1.7270534	w m a
-1.3682777	k s a
-1.0033181	h s a
-1.3569633	c s a
-1.0645168	b s a
-1.3443913	f s a
-1.0985807	i s a
-0.9635439	a s a
-1.1144491	d s a
-1.7757113	j s a
-1.1332742	e s a
-1.2328788	p s a
-1.2740618	l s a
-1.0864944	m s a
-1.4614186	s s a
-0.96603703	g s a
-1.3283849	u s a
-1.5579215	x s a
-1.5566847	v s a
-1.408303	r s a
-1.509665	n s a
-1.2951872	q s a
-1.448806	t s a
-1.194024	k g a
-1.1325352	h g a
-0.74375904	c g a
-0.9004476	b g a
-0.85986173	f g a
-1.0115223	i g a
-0.72184086	a g a
-0.5887945	d g a
-1.5517267	j g a
-0.88897353	e g a
-1.0683118	p g a
-1.0137203	l g a
-0.97585416	m g a
-0.99448854	s g a
-1.1652042	g g a
-0.85696995	u g a
-1.3024918	x g a
-1.11288	v g a
-0.8536966	r g a
-0.80042005	n g a
-1.024084	q g a
-0.7418067	t g a
-1.3973497	o g a
-1.1141737	w g a
-2.0076444	k u a
-1.0200776	h u a
-1.0907633	c u a
-0.8977472	b u a
-0.95993346	f u a
-1.374084	i u a
-0.95252955	a u a
-1.0340543	d u a
-1.1912589	j u a
-1.15625	e u a
-1.3905442	p u a
-1.4623461	l u a
-1.3903459	m u a
-1.8374354	s u a
-1.2568475	g u a
-1.3245827	u u a
-1.256426	x u a
-1.3795955	v u a
-1.2219516	r u a
-1.7141072	n u a
-1.4536742	q u a
-1.3108876	t u a
-1.1837782	o u a
-1.4414055	w u a
-1.064261	k x a
-1.052109	h x a
-1.0433238	c x a
-0.97449625	b x a
-1.0417428	f x a
-1.0076483	i x a
-0.927446	a x a
-1.1176649	d x a
-1.1094173	j x a
-0.93396753	e x a
-1.0891684	p x a
-1.3154953	l x a
-1.4715304	m x a
-1.6227691	s x a
-0.89103293	g x a
-1.2098525	u x a
-1.5572538	x x a
-1.286683	v x a
-1.4915276	r x a
-1.6563746	n x a
-1.1736764	q x a
-1.2407047	t x a
-1.0509942	o x a
-1.2676159	w x a
-1.6034303	k v a
-1.193265	h v a
-1.1995255	c v a
-1.7255558	b v a
-1.1955763	f v a
-1.3344122	i v a
-1.1779847	a v a
-1.2051972	d v a
-1.6747628	j v a
-1.059464	e v a
-1.854055	p v a
-1.7874938	l v a
-1.1360228	m v a
-1.8524742	s v a
-1.4644831	u v a
-2.020868	x v a
-1.3938483	v v a
-1.3188192	r v a
-1.9979403	n v a
-1.3564788	q v a
-1.1028905	t v a
-1.0396423	k r a
-0.9438774	h r a
-0.99434614	c r a
-0.810591	b r a
-0.98472047	f r a
-1.3881319	i r a
-0.7183313	a r a
-0.7718618	d r a
-0.84422386	j r a
-0.9648842	e r a
-1.1701343	p r a
-1.1791837	l r a
-0.8064375	m r a
-1.2629101	s r a
-0.9315282	g r a
-1.1535337	u r a
-1.4575684	x r a
-1.5542425	v r a
-1.3162673	r r a
-0.69096476	n r a
-1.2183045	q r a
-1.3440608	t r a
-1.0025189	o r a
-1.4085698	w r a
-2.2488563	k n a
-1.0413905	h n a
-1.1476331	c n a
-1.1960645	b n a
-1.4085178	f n a
-1.7738605	i n a
-0.96527755	a n a
-1.0106289	d n a
-1.4281051	j n a
-1.2041863	e n a
-1.7504846	p n a
-1.6443648	l n a
-1.4323907	m n a
-1.6363854	s n a
-0.36337525	g n a
-0.95411104	u n a
-2.1268945	x n a
-1.5557107	v n a
-1.2034478	r n a
-1.9166768	n n a
-1.6067741	q n a
-1.3103293	t n a
-1.3901558	o n a
-1.2404594	k q a
-0.8640111	h q a
-0.83811206	c q a
-0.8197533	b q a
-0.8977188	f q a
-0.927241	i q a
-0.62488735	a q a
-0.87068117	d q a
-1.1503961	j q a
-0.7173455	e q a
-1.4870449	p q a
-1.1163286	l q a
-1.0885496	m q a
-1.205132	s q a
-0.73817295	g q a
-1.1100552	u q a
-1.3400109	x q a
-1.3285241	v q a
-1.316794	r q a
-1.0851619	q q a
-0.96497715	t q a
-1.4392496	o q a
-1.1372293	w q a
-1.770177	k t a
-1.002844	h t a
-1.3040612	c t a
-1.2030356	b t a
-1.2080144	f t a
-1.7053502	i t a
-1.0832888	a t a
-1.2175671	d t a
-1.1982275	j t a
-1.2789954	e t a
-1.5680912	l t a
-1.6099851	m t a
-1.493103	s t a
-1.1037694	g t a
-1.4115468	u t a
-1.6569543	x t a
-1.554878	v t a
-1.79694	r t a
-1.8835102	n t a
-1.421078	q t a
-1.3487264	t t a
-1.5413476	o t a
-1.7706077	w t a
-1.3387934	k o a
-1.0943266	h o a
-1.1402112	c o a
-1.344871	b o a
-1.1184397	f o a
-1.4185348	i o a
-1.2421426	a o a
-0.93337655	d o a
-1.0734793	j o a
-1.2856522	e o a
-2.4829838	p o a
-1.6011674	m o a
-1.4997381	s o a
-1.2472857	g o a
-1.6079924	x o a
-1.3851007	r o a
-1.4177488	q o a
-1.3908887	t o a
-1.5180765	o o a
-1.5805634	k w a
-1.0499887	h w a
-0.9220341	c w a
-1.0536479	b w a
-1.3514857	f w a
-1.7451994	i w a
-1.1164632	a w a
-1.3587104	d w a
-1.2061307	e w a
-1.5960914	p w a
-1.2209876	m w a
-1.2554593	s w a
-1.1634815	g w a
-1.113531	u w a
-1.6350857	x w a
-1.3430101	r w a
-1.9046577	q w a
-1.5941151	t w a
-1.8000486	w w a
-1.5399917	k k d
-1.2348324	h k d
-1.3087195	c k d
-0.99234074	b k d
-1.1341342	f k d
-1.363497	i k d
-1.1049541	a k d
-0.94987416	d k d
-1.3802178	j k d
-0.9516702	e k d
-1.5522554	p k d
-1.5443026	l k d
-1.8097615	m k d
-1.2435377	s k d
-1.0203451	g k d
-1.3493721	u k d
-1.3078314	x k d
-1.1295946	v k d
-1.39013	r k d
-1.155747	n k d
-0.83382434	q k d
-1.355569	t k d
-1.531524	o k d
-1.5247328	k h d
-1.3729401	h h d
-1.2236776	c h d
-1.058407	b h d
-1.493865	f h d
-1.5805137	i h d
-1.4355347	a h d
-0.889813	d h d
-1.439976	j h d
-1.320552	e h d
-1.4240507	p h d
-1.0965526	l h d
-1.3984644	m h d
-1.3679698	s h d
-1.2229818	g h d
-1.5329609	u h d
-1.4543875	x h d
-1.2926105	v h d
-1.4203323	r h d
-1.3526902	n h d
-1.6466568	q h d
-1.2297353	t h d
-1.047092	o h d
-1.2077132	w h d
-1.0000125	k c d
-0.91087407	h c d
-1.0670555	c c d
-0.50909793	b c d
-0.7854182	f c d
-0.84737533	i c d
-0.8429217	a c d
-0.68215203	d c d
-0.56960654	j c d
-0.77041644	e c d
-0.9194611	p c d
-0.917575	l c d
-0.8931165	m c d
-0.87334335	s c d
-0.8777851	g c d
-0.8505424	u c d
-0.8261201	x c d
-0.7797115	v c d
-0.67910135	r c d
-0.79956126	n c d
-0.9984189	q c d
-0.84233	t c d
-0.94435894	o c d
-1.3636466	w c d
-1.3548546	k b d
-0.70455354	h b d
-1.2098937	c b d
-1.3047948	b b d
-0.6647046	f b d
-1.1853504	i b d
-1.1296016	a b d
-0.868675	d b d
-1.4786124	j b d
-1.078344	e b d
-1.102448	p b d
-1.0651333	l b d
-1.3707647	m b d
-1.2978382	s b d
-1.175331	g b d
-1.2096304	u b d
-0.9526504	x b d
-0.9014485	v b d
-1.2675391	r b d
-1.1571802	n b d
-1.3204896	q b d
-0.96922684	t b d
-1.4350537	o b d
-1.4125066	w b d
-1.1063453	k f d
-1.1834185	h f d
-0.9336612	c f d
-0.8203316	b f d
-1.0499897	f f d
-0.751411	i f d
-0.68363196	a f d
-0.84778464	d f d
-0.81001514	j f d
-0.7725239	e f d
-1.0961548	p f d
-0.7594348	l f d
-1.035603	m f d
-1.0761509	s f d
-1.2916217	g f d
-1.050785	u f d
-1.1250433	x f d
-1.0938627	v f d
-0.8966676	r f d
-1.0064826	n f d
-0.9756741	q f d
-0.8346641	t f d
-1.1359572	o f d
-1.598195	k i d
-1.2402705	h i d
-1.1485529	c i d
-1.1846299	b i d
-1.1160798	f i d
-1.4161893	i i d
-1.2467973	a i d
-1.0362456	d i d
-1.868596	j i d
-1.1631773	e i d
-1.3786559	p i d
-1.5015519	l i d
-1.524267	m i d
-1.2763089	s i d
-0.8234848	g i d
-1.5780989	u i d
-1.456126	x i d
-1.3245305	v i d
-1.1807194	r i d
-1.5012131	n i d
-1.5506638	q i d
-1.1097572	t i d
-2.372872	o i d
-1.1544876	k a d
-1.3092285	h a d
-0.93681186	c a d
-1.3926996	b a d
-0.74394643	f a d
-1.2211447	i a d
-1.1542435	a a d
-0.77525806	d a d
-1.4937124	j a d
-1.0948751	e a d
-1.4358597	p a d
-1.0349901	l a d
-1.2051395	m a d
-1.1813	s a d
-0.85362506	g a d
-1.123392	u a d
-1.4441681	x a d
-1.0927099	v a d
-1.434002	r a d
-1.261072	n a d
-1.2713999	q a d
-1.1812524	t a d
-1.0667667	o a d
-1.088282	w a d
-1.1698434	k d d
-0.94992924	h d d
-1.1113286	c d d
-1.0915563	b d d
-1.0505276	f d d
-0.8445302	i d d
-0.8400705	a d d
-0.3623408	d d d
-1.2368314	j d d
-1.115407	e d d
-1.0509077	p d d
-0.6251366	l d d
-1.1600518	m d d
-1.121879	s d d
-0.9150674	g d d
-1.0764403	u d d
-0.9566842	x d d
-1.0002103	v d d
-1.0430332	r d d
-1.4399202	n d d
-1.0228125	q d d
-0.58098835	t d d
-0.9998418	o d d
-0.93718904	w d d
-2.0119114	k j d
-1.2353315	h j d
-1.1693035	c j d
-1.6881218	b j d
-1.0290997	f j d
-1.9942625	i j d
-1.3156551	a j d
-1.0779815	d j d
-1.8571602	j j d
-1.5217031	e j d
-1.4728949	l j d
-2.5032141	m j d
-1.7842278	s j d
-1.4760303	g j d
-1.7933704	u j d
-2.0014942	x j d
-1.8430009	v j d
-2.0973215	r j d
-1.6257489	n j d
-1.6027195	q j d
-1.7068143	t j d
-1.9060479	o j d
-0.6911698	k e d
-0.92225677	h e d
-0.7840039	c e d
-0.8783032	b e d
-0.3543604	f e d
-0.8525162	i e d
-0.9182071	a e d
-0.72428656	d e d
-0.93246275	j e d
-0.98971236	e e d
-0.9252947	p e d
-0.61551934	l e d
-0.938272	m e d
-0.64200723	s e d
-0.6487049	g e d
-0.91397536	u e d
-0.9423185	x e d
-0.40698543	v e d
-0.7933786	r e d
-0.37236634	n e d
-0.80189526	q e d
-0.64229965	t e d
-0.7037707	o e d
-0.9836756	w e d
-1.6507995	k p d
-1.3103876	h p d
-1.3226233	c p d
-1.0693328	b p d
-1.253389	f p d
-1.6100394	i p d
-1.0849866	a p d
-0.9390432	d p d
-1.7786833	j p d
-1.3905087	e p d
-1.8695216	p p d
-1.7839906	l p d
-2.2416718	m p d
-1.1492044	s p d
-1.2677649	g p d
-1.414555	u p d
-1.6738285	x p d
-1.8791382	v p d
-1.877574	r p d
-1.8787808	n p d
-1.6708598	q p d
-1.6867744	t p d
-2.069949	o p d
-1.8204786	w p d
-1.5771376	k l d
-0.936419	h l d
-0.9580762	c l d
-1.1403435	b l d
-0.95785123	f l d
-1.3517512	i l d
-0.8583788	a l d
-0.5370364	d l d
-1.4077396	j l d
-0.9309481	e l d
-1.3654141	p l d
-1.1742407	l l d
-1.4800825	m l d
-1.784255	s l d
-1.0076727	g l d
-1.3577329	u l d
-1.5307302	x l d
-1.090546	v l d
-1.3026063	r l d
-1.9057639	n l d
-1.210309	q l d
-1.0508404	t l d
-1.5842651	o l d
-1.2202808	w l d
-1.437076	k m d
-1.0090557	h m d
-0.9976754	c m d
-0.9580284	b m d
-0.81175894	f m d
-1.5426024	i m d
-1.0594923	a m d
-0.9901122	d m d
-1.7588906	j m d
-1.0934467	e m d
-1.2882638	p m d
-1.682655	l m d
-1.3353744	m m d
-1.097341	s m d
-1.0869148	g m d
-1.3744445	u m d
-1.104749	x m d
-1.6853812	v m d
-1.7762799	r m d
-1.2018541	n m d
-1.348021	q m d
-1.201102	t m d
-1.729892	o m d
-1.7221848	w m d
-1.4194032	k s d
-1.192985	h s d
-1.0734105	c s d
-0.986685	b s d
-1.0291942	f s d
-0.9214467	i s d
-1.0546122	a s d
-0.8860191	d s d
-1.1561685	j s d
-0.9011469	e s d
-1.2621832	p s d
-1.462034	l s d
-1.6880691	m s d
-1.4780662	s s d
-1.0575643	g s d
-1.5835711	u s d
-1.3991202	x s d
-1.477339	v s d
-1.350912	r s d
-1.3804779	n s d
-1.3160524	q s d
-1.3061587	t s d
-1.1948881	k g d
-1.3311234	h g d
-1.0740447	c g d
-1.255698	b g d
-0.9108987	f g d
-1.0210401	i g d
-0.8840828	a g d
-0.8792778	d g d
-1.3031737	j g d
-1.17895	e g d
-1.5499024	p g d
-1.1542268	l g d
-1.9614531	m g d
-1.3645159	s g d
-1.2439197	g g d
-1.3346059	u g d
-1.6361666	x g d
-1.5718353	r g d
-1.4652662	n g d
-1.2531381	q g d
-1.1771618	t g d
-1.4448783	o g d
-1.5427728	w g d
-1.0832683	k u d
-0.94209987	h u d
-1.0873847	c u d
-0.9624864	b u d
-0.9278841	f u d
-1.3160441	i u d
-1.1922421	a u d
-0.80516136	d u d
-1.2311015	j u d
-1.0757885	e u d
-1.2937124	p u d
-1.2623705	l u d
-0.8895333	m u d
-1.4277581	s u d
-1.4874072	g u d
-1.476633	u u d
-1.0418183	x u d
-1.1840355	v u d
-1.4453351	r u d
-0.9536984	n u d
-1.3822892	q u d
-1.5461706	t u d
-1.5846363	o u d
-1.2863884	w u d
-1.7167847	k x d
-1.3671415	h x d
-1.1562829	c x d
-1.229736	b x d
-1.0659577	f x d
-1.3085552	i x d
-1.250258	a x d
-1.0866985	d x d
-1.5497411	j x d
-1.2442883	e x d
-1.787548	p x d
-1.4915044	l x d
-1.647253	m x d
-1.8444701	s x d
-1.2632688	g x d
-1.6682495	u x d
-1.6402078	x x d
-1.6544487	v x d
-1.4915276	r x d
-1.6563746	n x d
-1.5353415	q x d
-1.513842	t x d
-1.41876	o x d
-1.989668	w x d
-1.4569104	k v d
-1.0247446	h v d
-0.8037858	c v d
-0.8180386	b v d
-0.98198277	f v d
-2.0165586	i v d
-0.76456934	a v d
-0.84940356	d v d
-0.9514318	e v d
-1.076113	p v d
-1.1496147	l v d
-1.3790474	m v d
-1.3418581	s v d
-1.4255664	u v d
-1.5815752	x v d
-1.3065597	v v d
-0.946791	r v d
-1.2714368	n v d
-1.3150884	q v d
-1.2698152	t v d
-1.6794084	w v d
-1.7345619	k r d
-1.0475234	h r d
-1.2334764	c r d
-1.311954	b r d
-1.0820934	f r d
-1.4857551	i r d
-1.3786006	a r d
-1.2155713	d r d
-1.4470408	j r d
-1.2778949	e r d
-1.0212142	p r d
-1.2515724	l r d
-1.3828416	m r d
-1.7232895	s r d
-1.2009748	g r d
-1.4226717	u r d
-1.6048733	x r d
-1.2022606	v r d
-1.7383761	r r d
-1.55711	n r d
-1.5880198	q r d
-1.3031394	t r d
-1.5360527	w r d
-1.7830843	k n d
-1.0384793	h n d
-0.85953885	c n d
-0.82843935	b n d
-1.4558345	f n d
-1.6804482	i n d
-1.1742318	a n d
-0.9241471	d n d
-1.6111159	j n d
-1.0442264	e n d
-1.8983856	p n d
-1.9074742	l n d
-1.975207	m n d
-1.6435895	s n d
-2.0809803	u n d
-1.5359362	x n d
-1.5620062	v n d
-1.5376132	r n d
-1.6220428	n n d
-1.253339	q n d
-1.8024873	t n d
-1.6131489	k q d
-1.1614169	h q d
-1.0896796	c q d
-1.2177458	b q d
-1.2948607	f q d
-1.6712989	i q d
-1.2431259	a q d
-1.0376242	d q d
-1.8794632	j q d
-1.1027884	e q d
-1.4539976	p q d
-1.1684818	l q d
-1.296783	m q d
-1.5602918	s q d
-1.1441628	g q d
-1.7826562	u q d
-1.6091145	x q d
-1.6361994	v q d
-1.5427586	r q d
-1.6442231	q q d
-1.5794116	t q d
-1.4434048	o q d
-1.5933485	k t d
-0.9916105	h t d
-1.0380509	c t d
-1.0241917	b t d
-0.8886597	f t d
-1.2893703	i t d
-0.93733066	a t d
-0.64846516	d t d
-1.1962647	j t d
-0.9641815	e t d
-1.760375	p t d
-0.93992215	l t d
-1.6085435	m t d
-1.5129247	s t d
-0.8272367	g t d
-1.4860418	u t d
-1.055994	x t d
-1.7777965	v t d
-1.3964577	r t d
-1.3241868	n t d
-1.3614775	q t d
-1.1469315	t t d
-0.720299	o t d
-1.273741	w t d
-1.9842168	k o d
-1.221293	h o d
-1.1427882	c o d
-1.0448357	b o d
-1.6019182	i o d
-0.8992005	a o d
-0.96125597	d o d
-1.031761	e o d
-1.3084668	p o d
-1.328317	l o d
-1.7887616	m o d
-1.5204341	s o d
-1.3665562	g o d
-1.9425086	x o d
-0.9213167	v o d
-1.8318444	o o d
-1.0657911	h w d
-1.2683207	c w d
-1.2013361	b w d
-1.3514857	f w d
-1.7451994	i w d
-1.0437579	a w d
-1.0443457	d w d
-1.2474785	e w d
-1.5960914	p w d
-0.7918538	l w d
-1.8441309	m w d
-1.9700593	s w d
-1.4704654	g w d
-1.7143561	u w d
-1.6350857	x w d
-1.6496627	r w d
-1.9046577	q w d
-1.2915572	t w d
-1.8000486	w w d
-0.9571676	k k j
-1.4879352	h k j
-1.3005754	c k j
-1.484312	b k j
-1.4688781	f k j
-0.98748356	i k j
-1.2755741	a k j
-1.1428659	d k j
-1.1797347	j k j
-1.4658312	e k j
-1.1927383	p k j
-0.51049185	l k j
-1.3023611	m k j
-0.81466866	s k j
-0.92038995	g k j
-1.2329987	u k j
-1.1609751	x k j
-1.092115	v k j
-0.8833301	r k j
-0.8442151	n k j
-1.0672926	q k j
-0.49970973	t k j
-0.85142154	o k j
-0.79873407	w k j
-2.168219	k h j
-2.897509	h h j
-2.9040952	c h j
-2.7837806	b h j
-2.8066068	f h j
-1.8457301	i h j
-2.983016	a h j
-2.4710407	d h j
-1.7065797	j h j
-2.3644392	e h j
-2.2611206	p h j
-1.3338788	l h j
-1.9774917	m h j
-2.7798676	s h j
-2.6395001	g h j
-2.6932957	u h j
-2.2101922	x h j
-2.2727633	r h j
-2.4673843	n h j
-2.4532058	q h j
-2.2234025	w h j
-1.4047077	k c j
-2.7116446	h c j
-2.4603157	c c j
-2.5559232	b c j
-2.3140795	f c j
-1.6863896	i c j
-2.3898695	a c j
-1.9080125	d c j
-1.8978899	j c j
-2.2651918	e c j
-1.8003066	p c j
-1.1091092	l c j
-1.7970724	m c j
-1.9571157	s c j
-1.9653664	g c j
-2.225234	u c j
-2.5534897	x c j
-1.8867738	r c j
-2.1513212	q c j
-2.3967347	t c j
-1.2537463	o c j
-2.2696445	w c j
-1.6000049	k b j
-2.5739663	h b j
-2.514573	c b j
-1.8614559	b b j
-2.0854454	f b j
-1.8400779	i b j
-2.6016293	a b j
-2.684806	d b j
-1.0157367	j b j
-2.448294	e b j
-1.7940948	p b j
-1.847928	l b j
-1.8040985	m b j
-1.9308589	s b j
-1.9593558	g b j
-2.071254	u b j
-2.4171026	x b j
-2.390287	v b j
-1.7041633	r b j
-1.9497691	n b j
-1.9645678	q b j
-1.8754936	t b j
-1.0797627	o b j
-1.6675066	k f j
-2.9092755	h f j
-2.535973	c f j
-2.6700797	b f j
-2.9764512	f f j
-1.6563495	i f j
-2.4849784	a f j
-2.4401135	d f j
-2.133673	j f j
-2.5960174	e f j
-2.1578035	p f j
-1.7860641	l f j
-1.9701511	m f j
-1.8034768	s f j
-2.0162687	u f j
-2.737348	x f j
-1.889312	v f j
-2.160814	r f j
-2.5478039	n f j
-2.4757638	q f j
-2.5035887	t f j
-0.8500449	k i j
-1.2203695	h i j
-1.355121	c i j
-1.1893677	b i j
-1.3383251	f i j
-1.116441	i i j
-1.4456683	a i j
-1.2785428	d i j
-0.72442234	j i j
-1.6110027	e i j
-0.67693394	p i j
-0.60478216	l i j
-1.1665412	m i j
-1.4210277	s i j
-1.3052874	g i j
-0.9373316	u i j
-0.7288954	x i j
-1.0129415	v i j
-0.8715044	r i j
-0.8641666	n i j
-0.8520369	q i j
-0.8509866	t i j
-0.85583806	o i j
-1.0281749	w i j
-1.3936713	k a j
-1.9544044	h a j
-2.054851	c a j
-2.1134717	b a j
-2.6657538	f a j
-1.7221509	i a j
-2.4654312	a a j
-2.095516	d a j
-1.7465092	j a j
-2.6345787	e a j
-1.5935065	p a j
-1.4286672	l a j
-1.7919784	m a j
-1.5109422	s a j
-2.3192902	g a j
-2.3521264	u a j
-2.446521	x a j
-2.0902538	v a j
-1.8550456	r a j
-1.4378142	n a j
-1.9456966	q a j
-1.7487228	t a j
-1.9967916	o a j
-2.0250146	w a j
-1.7985266	k d j
-2.40202	h d j
-2.484507	c d j
-2.6105049	b d j
-2.277601	f d j
-1.4128947	i d j
-2.523549	a d j
-2.522533	d d j
-1.7360083	j d j
-2.706999	e d j
-2.5741744	p d j
-1.8509028	l d j
-1.9653113	m d j
-2.0054276	s d j
-2.427179	g d j
-2.8907444	u d j
-2.618267	x d j
-2.0301833	v d j
-1.6641476	r d j
-1.2555258	n d j
-2.3839412	q d j
-2.034812	t d j
-1.1195629	o d j
-1.0108454	k j j
-1.6308465	h j j
-1.4502566	c j j
-1.0723944	b j j
-1.4397438	f j j
-1.1875312	i j j
-1.1371039	a j j
-1.5785373	d j j
-0.6845023	j j j
-0.90386575	e j j
-1.3833307	p j j
-1.0889912	l j j
-1.4569873	m j j
-0.98842996	s j j
-1.5725261	g j j
-1.0066608	u j j
-1.1068546	x j j
-1.0112518	v j j
-0.89511764	r j j
-0.861833	n j j
-1.2474964	q j j
-1.0963827	t j j
-0.8494989	o j j
-0.87276137	w j j
-1.9586325	k e j
-2.57884	h e j
-2.7900252	c e j
-2.4958353	b e j
-2.9234831	f e j
-1.8269912	i e j
-2.7577088	a e j
-2.743118	d e j
-2.1823158	j e j
-2.7252555	e e j
-2.003223	p e j
-1.9371412	l e j
-1.9033263	m e j
-2.5060887	s e j
-2.2895803	g e j
-2.2488978	u e j
-2.4974723	x e j
-2.8259912	v e j
-2.0724964	r e j
-1.9599867	n e j
-2.7707324	q e j
-2.4346242	t e j
-1.408432	o e j
-2.006766	w e j
-1.2256675	k p j
-1.7868392	h p j
-1.4552959	c p j
-1.5286105	b p j
-1.6848618	f p j
-1.3994758	i p j
-1.6867993	a p j
-1.6881205	d p j
-1.2123866	j p j
-1.457589	e p j
-1.7727838	p p j
-1.2340453	l p j
-1.1459572	m p j
-1.4498001	s p j
-1.4719476	g p j
-1.3175194	u p j
-1.8940794	x p j
-1.8791382	v p j
-1.5752858	r p j
-1.4701525	n p j
-1.4720259	q p j
-1.2868652	t p j
-1.4953043	o p j
-1.1705632	w p j
-1.2458277	k l j
-1.4692345	h l j
-1.6806462	c l j
-1.5933001	b l j
-1.6019771	f l j
-1.0826572	i l j
-1.7692635	a l j
-1.9121667	d l j
-1.0268147	j l j
-1.6714168	e l j
-1.3660209	p l j
-1.1990769	l l j
-1.3914404	m l j
-1.6612227	s l j
-1.3649269	g l j
-1.8345559	u l j
-1.711823	x l j
-1.2845122	v l j
-0.9922494	r l j
-1.115664	n l j
-1.4442956	q l j
-1.3524894	t l j
-1.2825302	o l j
-1.6476604	k m j
-1.7194556	h m j
-1.3989469	c m j
-1.6584587	b m j
-2.227269	f m j
-1.5508648	i m j
-1.9776876	a m j
-1.5803165	d m j
-1.0510004	j m j
-1.7077842	e m j
-1.4663116	p m j
-1.3181652	l m j
-1.4982195	m m j
-1.6309614	s m j
-1.1954641	g m j
-1.5632763	u m j
-1.2297891	x m j
-1.8614787	v m j
-1.4734504	r m j
-1.6391072	n m j
-1.6202079	q m j
-1.6782401	t m j
-1.470009	o m j
-1.7221848	w m j
-0.9609237	k s j
-1.8587435	h s j
-1.8930911	c s j
-1.9594756	b s j
-1.7267926	f s j
-1.1783888	i s j
-2.5298593	a s j
-1.7993205	d s j
-0.9918401	j s j
-1.7528989	e s j
-1.1632112	p s j
-1.3713827	l s j
-1.4664792	m s j
-2.029367	s s j
-2.281765	u s j
-1.9671329	x s j
-1.9561077	v s j
-0.8484056	r s j
-1.509665	n s j
-1.7595328	q s j
-1.5737208	t s j
-1.2611612	o s j
-1.75108	k g j
-2.4364789	h g j
-2.2004812	c g j
-2.2037573	b g j
-2.3429165	f g j
-1.1010373	i g j
-2.3915381	a g j
-2.4506576	d g j
-1.207184	j g j
-2.2442503	e g j
-2.0432742	p g j
-1.6455531	l g j
-1.7846899	m g j
-2.1635466	s g j
-2.6325934	g g j
-1.9404247	u g j
-2.129538	x g j
-1.5739877	r g j
-2.3819637	q g j
-2.094722	t g j
-1.3195583	o g j
-2.032574	w g j
-1.6444789	k u j
-2.0791752	h u j
-2.2963643	c u j
-2.251855	b u j
-1.7448095	i u j
-2.1707516	a u j
-2.4220529	d u j
-1.3456429	j u j
-1.8876729	e u j
-2.3019614	p u j
-1.2431964	l u j
-1.4817263	m u j
-2.01511	s u j
-1.8874258	g u j
-1.9269845	u u j
-2.521016	x u j
-1.9974275	v u j
-1.9069933	r u j
-1.8940094	n u j
-1.9998976	q u j
-1.9063643	t u j
-1.5878776	o u j
-1.9897971	w u j
-1.4161974	k x j
-2.8996556	h x j
-2.1494653	c x j
-2.404794	b x j
-2.3609855	f x j
-1.2214499	i x j
-1.9667637	a x j
-2.3995118	d x j
-1.9321411	j x j
-2.3039756	e x j
-1.9122409	p x j
-1.6005785	l x j
-1.9471787	m x j
-1.9235775	s x j
-2.2024982	g x j
-2.4445589	u x j
-2.1405575	x x j
-1.8882684	v x j
-2.1629865	r x j
-1.5310462	n x j
-2.3239174	q x j
-1.9781562	t x j
-1.280558	o x j
-1.8922895	w x j
-1.7025533	k v j
-1.931688	h v j
-2.3757675	c v j
-2.210347	b v j
-2.0913448	f v j
-1.3596345	i v j
-2.4578917	a v j
-1.858063	d v j
-1.5791171	j v j
-2.0656173	e v j
-1.2541302	p v j
-1.0984732	l v j
-1.9849153	m v j
-2.1557193	s v j
-2.6762052	u v j
-1.8283156	x v j
-1.5715643	v v j
-1.8175856	r v j
-1.6590406	q v j
-1.6729602	t v j
-1.1677345	k r j
-1.76081	h r j
-1.8624163	c r j
-1.8274658	b r j
-1.8119467	f r j
-1.728363	i r j
-1.9443073	a r j
-2.1947446	d r j
-1.1764069	j r j
-1.9303263	e r j
-1.3240032	p r j
-1.6215588	l r j
-1.5086607	m r j
-1.7654021	s r j
-1.8727424	g r j
-1.7898841	u r j
-1.4005105	x r j
-1.8595828	v r j
-1.6804559	r r j
-0.99573773	n r j
-1.831621	q r j
-2.0508504	t r j
-1.2308587	o r j
-1.3318548	k n j
-1.8489013	h n j
-2.498441	c n j
-1.5027657	b n j
-1.6322092	f n j
-1.0830889	i n j
-1.986124	a n j
-2.2787907	d n j
-1.3068993	j n j
-1.5617156	e n j
-1.5570426	p n j
-1.0395665	l n j
-1.4280766	m n j
-0.8423693	s n j
-1.5952877	u n j
-2.1418457	x n j
-1.8817475	v n j
-1.5376132	r n j
-1.2958338	n n j
-1.3052709	q n j
-1.4936986	t n j
-1.1094081	k q j
-1.8212577	h q j
-2.0380943	c q j
-1.700437	b q j
-1.6733463	i q j
-2.0298762	a q j
-1.3150401	j q j
-2.4421916	e q j
-1.3089584	p q j
-2.1030498	l q j
-1.3842198	m q j
-2.0886202	g q j
-1.8714464	u q j
-1.7151889	x q j
-2.012035	r q j
-1.3230852	n q j
-1.8439989	q q j
-1.826686	t q j
-1.092663	o q j
-1.7799516	w q j
-1.3397738	k t j
-1.9932505	h t j
-1.8548067	c t j
-1.9924412	b t j
-2.0912678	f t j
-1.2581912	i t j
-2.2301047	a t j
-2.3272808	d t j
-1.2818638	j t j
-2.232612	e t j
-1.279343	p t j
-1.5698992	l t j
-1.8337953	m t j
-2.0226235	s t j
-1.9993252	u t j
-2.396192	x t j
-1.8630993	v t j
-2.1069434	r t j
-1.4345114	n t j
-2.131901	q t j
-2.148337	t t j
-1.5470287	o t j
-0.98225915	k o j
-1.6912259	h o j
-1.2488015	c o j
-1.5199698	b o j
-0.6288203	i o j
-1.4994073	a o j
-1.1693206	j o j
-1.1388884	e o j
-1.2353557	p o j
-1.1911149	l o j
-1.2198837	m o j
-1.4930528	s o j
-1.7582474	g o j
-1.4201399	u o j
-1.2032943	x o j
-0.953586	n o j
-1.1050332	q o j
-1.3860754	t o j
-1.0058298	o o j
-1.1276258	w o j
-1.5805634	k w j
-1.8963922	h w j
-1.1879551	c w j
-1.6075606	b w j
-1.7451994	i w j
-1.8613727	a w j
-1.2823831	j w j
-2.24305	e w j
-1.5960914	p w j
-1.3580983	l w j
-1.348219	m w j
-1.889626	u w j
-1.7321479	x w j
-1.7180856	v w j
-1.6496627	r w j
-1.5980052	q w j
-1.5941151	t w j
-0.82730365	o w j
-1.39537	w w j
-1.8224301	k k e
-0.99695396	h k e
-1.5313638	c k e
-1.0684779	b k e
-0.96929103	f k e
-1.4497706	i k e
-1.1678115	a k e
-1.091657	d k e
-1.5922974	j k e
-1.2301716	e k e
-1.5354686	p k e
-1.6658449	l k e
-1.5605302	m k e
-1.4670167	s k e
-1.1485387	g k e
-1.3036268	u k e
-1.3301537	x k e
-1.3122699	v k e
-1.4693565	r k e
-1.9469692	n k e
-1.78867	q k e
-1.7939517	t k e
-1.531524	o k e
-0.95522463	k h e
-1.107734	h h e
-0.77919966	c h e
-0.8304548	b h e
-0.80440176	f h e
-1.1673565	i h e
-1.2142245	a h e
-1.0000134	d h e
-1.0342555	j h e
-0.82033765	e h e
-1.2480239	p h e
-1.2077624	l h e
-1.0974616	m h e
-0.97022	s h e
-0.8898294	g h e
-0.87675637	u h e
-1.0952972	x h e
-1.0941614	v h e
-0.9384509	r h e
-1.1915491	n h e
-1.1530054	q h e
-1.2139326	t h e
-1.047092	o h e
-1.2827543	w h e
-1.3009549	k c e
-0.776171	h c e
-1.203805	c c e
-0.9938661	b c e
-0.94057304	f c e
-0.9214493	i c e
-0.6903676	a c e
-1.1278744	d c e
-1.1941237	j c e
-0.770594	e c e
-0.8735161	p c e
-1.1973895	l c e
-1.1428621	m c e
-1.1175439	s c e
-0.87295973	g c e
-1.0335299	u c e
-0.92067003	x c e
-1.0516574	v c e
-1.0429602	r c e
-1.0692801	n c e
-1.0692189	q c e
-1.2472745	t c e
-1.4304655	o c e
-0.92637485	w c e
-1.5754846	k b e
-0.87596846	h b e
-1.4417449	c b e
-1.1044371	b b e
-0.98747003	f b e
-1.2771592	i b e
-1.1970357	a b e
-1.1036167	d b e
-1.1482716	j b e
-0.67560697	e b e
-1.361163	p b e
-1.591459	l b e
-1.0237672	m b e
-1.5529553	s b e
-0.7546245	g b e
-0.9457404	u b e
-1.2974535	x b e
-1.056424	v b e
-1.1883292	r b e
-1.2912258	n b e
-1.1864767	q b e
-1.4201545	t b e
-0.88617766	o b e
-0.64342785	w b e
-0.7060125	k f e
-0.30608362	h f e
-0.6373159	c f e
-0.5862211	b f e
-0.6782197	f f e
-0.74051166	i f e
-0.7143561	a f e
-0.5183385	d f e
-0.66351795	j f e
-0.61245984	e f e
-0.32743508	p f e
-0.49600795	l f e
-0.59228194	m f e
-0.6526172	s f e
-0.5338138	g f e
-0.48177636	u f e
-0.37669593	x f e
-0.65441847	v f e
-0.7625663	r f e
-0.63545007	n f e
-0.63452876	q f e
-0.45236373	t f e
-0.32460377	o f e
-0.31457722	w f e
-1.8560815	k i e
-1.4800438	h i e
-1.0546952	c i e
-1.1087393	b i e
-1.2565548	f i e
-1.7630599	i i e
-1.2313297	a i e
-1.0780528	d i e
-1.7060673	j i e
-0.96139145	e i e
-1.6470188	p i e
-1.8289212	l i e
-1.577909	m i e
-1.7692484	s i e
-0.9901772	g i e
-1.6115235	u i e
-1.7571692	x i e
-1.8516067	r i e
-1.9056582	n i e
-1.3747667	q i e
-2.0129163	t i e
-1.5340571	o i e
-1.2407312	w i e
-1.2130468	k a e
-1.300182	h a e
-0.9959018	c a e
-1.2980548	b a e
-1.2265687	f a e
-1.2229501	i a e
-1.2056439	a a e
-1.1469833	d a e
-1.2769679	j a e
-0.86669064	e a e
-1.1954896	p a e
-1.2869287	l a e
-0.93989414	m a e
-1.2774798	s a e
-1.0075306	g a e
-1.0601248	u a e
-1.4110789	x a e
-1.4391631	v a e
-1.2534416	r a e
-1.3864447	n a e
-1.2502146	q a e
-1.3310411	t a e
-1.192951	o a e
-1.0366158	w a e
-0.50461894	k d e
-0.81109065	h d e
-0.45384187	c d e
-0.9296921	b d e
-0.65206784	f d e
-0.7636905	i d e
-0.8633342	a d e
