\data\
ngram 1=27
ngram 2=578
ngram 3=12536

\1-grams:
-2.6146083	<unk>	0
0	<s>	-0.30103
-2.482296	</s>	0
-1.3656614	g	-1.1312264
-1.38346	h	-1.1864227
-1.38346	a	-1.1646833
-1.38346	b	-1.1671531
-1.38346	c	-1.1772795
-1.38346	d	-1.157188
-1.38346	e	-1.1934338
-1.38346	f	-1.1563472
-1.38346	u	-1.1895528
-1.38346	x	-1.1918855
-1.38346	i	-1.1521184
-1.38346	m	-1.1848491
-1.38346	q	-1.1671531
-1.38346	s	-1.1679734
-1.38346	r	-1.161368
-1.38346	t	-1.1487055
-1.38346	p	-1.1864227
-1.38346	k	-1.1704247
-1.38346	v	-1.1638569
-1.38346	l	-1.1409268
-1.38346	n	-1.1452655
-1.38346	o	-1.0861621
-1.38346	j	-1.1655082
-1.38346	w	-1.098836

\2-grams:
-2.9470227	c </s>	0
-0.28270975	<s> g	-1.6437049
-1.306394	g g	-2.7336464
-1.3800334	h g	-2.4398565
-1.358294	a g	-2.0655184
-1.3800253	b g	-1.989734
-1.3580484	c g	-2.0207
-1.3507987	d g	-1.8651409
-1.3686013	e g	-2.4127722
-1.3692193	f g	-2.0605779
-1.4024248	u g	-1.256601
-1.3854964	x g	-1.5406048
-1.4519172	i g	-1.2612747
-1.4390132	m g	-1.3284321
-1.3800253	q g	-1.1301674
-1.5187709	s g	-0.991445
-1.4377503	r g	-1.1748222
-1.499503	t g	-0.59589237
-1.3800334	p g	-1.4610039
-1.4949747	k g	-1.1630844
-1.5724488	v g	-0.9774404
-1.5495188	l g	-0.859414
-1.378293	n g	-1.2130477
-1.3625444	o g	-1.1048179
-1.3985357	j g	-0.98776484
-1.3530002	w g	-1.3785074
-1.2897832	g h	-2.5065546
-1.3627162	h h	-3.1196237
-1.3409768	a h	-2.7212665
-1.361939	b h	-2.475555
-1.3591893	c h	-2.3495684
-1.3334817	d h	-2.2690637
-1.3697274	e h	-2.4809988
-1.3326408	f h	-2.3215766
-1.3658463	u h	-1.396345
-1.3681791	x h	-1.7366595
-1.3469043	i h	-1.7303894
-1.3796349	m h	-1.4162239
-1.361939	q h	-1.9061089
-1.3820739	s h	-1.4575652
-1.3754686	r h	-1.45286
-1.3434912	t h	-1.2394819
-1.3627162	p h	-1.6878806
-1.3652105	k h	-1.3893656
-1.3779573	v h	-1.3681486
-1.3357127	l h	-1.3356082
-1.3400513	n h	-1.4672239
-1.3002626	o h	-1.379419
-1.3796086	j h	-1.5181834
-1.3331504	w h	-1.2186888
-1.30752	g a	-1.996762
-1.3627162	h a	-2.73947
-1.3409768	a a	-3.0274072
-1.3434467	b a	-2.652069
-1.3591893	c a	-2.52051
-1.3712885	d a	-2.1214824
-1.3697274	e a	-2.3985727
-1.3326408	f a	-2.268917
-1.3843385	u a	-1.282284
-1.3681791	x a	-1.7322108
-1.328412	i a	-1.5510092
-1.3611426	m a	-1.2917728
-1.361939	q a	-1.5493958
-1.3627591	s a	-1.4540992
-1.3376616	r a	-1.7580929
-1.3830199	t a	-1.1972007
-1.3627162	p a	-1.6932555
-1.3652105	k a	-1.4641533
-1.3779573	v a	-1.2435678
-1.4187313	l a	-1.1578895
-1.359366	n a	-1.1188459
-1.4123013	o a	-1.000511
-1.3418018	j a	-1.6933212
-1.451322	w a	-0.95917004
-1.30752	g b	-2.041309
-1.3627162	h b	-2.443324
-1.3409768	a b	-2.66681
-1.3434467	b b	-3.0338829
-1.3591893	c b	-2.7210388
-1.3334817	d b	-2.4051702
-1.3697274	e b	-2.2987616
-1.3326408	f b	-2.1100025
-1.3843385	u b	-1.3256273
-1.3866713	x b	-1.39491
-1.3469043	i b	-1.6532317
-1.3989496	m b	-1.2728562
-1.3434467	q b	-1.5490941
-1.344267	s b	-1.9636048
-1.3561538	r b	-1.6356685
-1.3434912	t b	-1.2872959
-1.3627162	p b	-1.3333378
-1.3467183	k b	-1.7694453
-1.4193722	v b	-1.2009413
-1.3752413	l b	-1.3613452
-1.42307	n b	-1.1811843
-1.3874618	o b	-1.126445
-1.3418018	j b	-1.7196784
-1.3766404	w b	-1.0140046
-1.30752	g c	-1.9655547
-1.3627162	h c	-2.4281688
-1.3409768	a c	-2.5188806
-1.3434467	b c	-2.7489703
-1.3591893	c c	-3.2534277
-1.3334817	d c	-2.641622
-1.3697274	e c	-2.6456144
-1.351133	f c	-2.3299768
-1.3658463	u c	-1.6810582
-1.3681791	x c	-1.508334
-1.3469043	i c	-1.4440131
-1.3611426	m c	-1.5737324
-1.361939	q c	-1.4077445
-1.344267	s c	-1.8734281
-1.3376616	r c	-1.6452982
-1.3249991	t c	-1.7351909
-1.3627162	p c	-1.5229576
-1.3467183	k c	-1.8530132
-1.3586426	v c	-1.2756156
-1.3357127	l c	-1.5878869
-1.359366	n c	-1.429285
-1.3874618	o c	-1.0425884
-1.3602939	j c	-1.714293
-1.3543513	w c	-1.1341016
-1.30752	g d	-1.8795589
-1.3627162	h d	-2.0422428
-1.3409768	a d	-2.2659545
-1.3434467	b d	-2.3453515
-1.3591893	c d	-2.6865675
-1.3519738	d d	-2.7691736
-1.3697274	e d	-2.5965679
-1.3326408	f d	-2.2247596
-1.3658463	u d	-1.746696
-1.4474008	x d	-1.2673398
-1.328412	i d	-1.2540327
-1.3611426	m d	-1.6370865
-1.4014677	q d	-1.258187
-1.3627591	s d	-1.5710013
-1.4168833	r d	-1.2454413
-1.3249991	t d	-1.3149283
-1.4005232	p d	-1.2922999
-1.3652105	k d	-1.5781353
-1.3586426	v d	-1.2174894
-1.3550274	l d	-1.319704
-1.359366	n d	-1.1482973
-1.3639665	o d	-0.9418147
-1.3998226	j d	-1.097871
-1.451322	w d	-0.9005134
-1.30752	g e	-2.399051
-1.3627162	h e	-2.5584943
-1.3409768	a e	-2.365694
-1.361939	b e	-2.3596296
-1.3591893	c e	-2.6151736
-1.3334817	d e	-2.6112812
-1.3697274	e e	-3.1846147
-1.3326408	f e	-2.5125468
-1.3658463	u e	-1.8037109
-1.3681791	x e	-1.4356158
-1.366219	i e	-1.2977617
-1.3611426	m e	-1.8319434
-1.361939	q e	-1.4088283
-1.3627591	s e	-1.5252019
-1.3376616	r e	-1.3227379
-1.3249991	t e	-1.6149265
-1.3627162	p e	-1.5635828
-1.3652105	k e	-1.4465054
-1.3401504	v e	-1.7723734
-1.3357127	l e	-1.3994863
-1.3400513	n e	-1.5014238
-1.2809478	o e	-1.3189386
-1.3796086	j e	-1.4344198
-1.2751296	w e	-1.4341608
-1.345327	g f	-1.98173
-1.3627162	h f	-2.4166937
-1.359469	a f	-2.2279932
-1.3812537	b f	-2.0226905
-1.3591893	c f	-2.3598497
-1.3519738	d f	-2.1539364
-1.3697274	e f	-2.5390813
-1.3326408	f f	-2.8731875
-1.3843385	u f	-1.4079094
-1.3681791	x f	-1.5241948
-1.4076338	i f	-1.1905265
-1.3989496	m f	-1.4645679
-1.4014677	q f	-1.0515872
-1.4022878	s f	-1.259511
-1.4168833	r f	-1.163856
-1.4042208	t f	-1.034092
-1.4005232	p f	-1.4326645
-1.3845253	k f	-1.2662344
-1.3401504	v f	-1.387559
-1.467066	l f	-1.0108168
-1.3795799	n f	-1.3495845
-1.4386481	o f	-0.8728069
-1.3998226	j f	-1.2845936
-1.3129364	w f	-1.1505754
-1.365541	g u	-1.2878997
-1.3812084	h u	-1.5217915
-1.359469	a u	-1.3710427
-1.3434467	b u	-1.5193037
-1.3776652	c u	-1.6045828
-1.3915025	d u	-1.3499961
-1.3697274	e u	-1.8534665
-1.351133	f u	-1.4817363
-1.3658463	u u	-2.0145643
-1.3681791	x u	-1.7439221
-1.3864329	i u	-1.1582133
-1.3796349	m u	-1.4237506
-1.3434467	q u	-1.5872923
-1.344267	s u	-1.7315024
-1.3754686	r u	-1.572265
-1.3434912	t u	-1.7579043
-1.3812084	p u	-1.2375538
-1.3845253	k u	-1.1654196
-1.3401504	v u	-1.957922
-1.3357127	l u	-1.2674407
-1.3215591	n u	-1.4023341
-1.3002626	o u	-1.157318
-1.3796086	j u	-1.151279
-1.2936217	w u	-1.503463
-1.365541	g x	-1.298711
-1.3627162	h x	-1.8230433
-1.3409768	a x	-1.5785019
-1.361939	b x	-1.4938045
-1.3591893	c x	-1.5503525
-1.3334817	d x	-1.4211087
-1.3697274	e x	-1.5040592
-1.3906617	f x	-1.3188307
-1.3658463	u x	-1.6070575
-1.3681791	x x	-1.9935969
-1.3469043	i x	-1.5180149
-1.3989496	m x	-1.1162772
-1.361939	q x	-1.9463282
-1.344267	s x	-1.6931745
-1.3561538	r x	-1.6907392
-1.3628061	t x	-1.6669335
-1.3812084	p x	-1.3595766
-1.3652105	k x	-1.2619832
-1.3586426	v x	-1.5532585
-1.3752413	l x	-1.1037508
-1.3795799	n x	-1.0061612
-1.3416773	o x	-1.1174384
-1.3602939	j x	-1.351304
-1.2751296	w x	-1.5058347
-1.345327	g i	-1.2449628
-1.3812084	h i	-1.5572588
-1.359469	a i	-1.5846907
-1.3812537	b i	-1.5087992
-1.3969622	c i	-1.5249931
-1.3519738	d i	-1.2587756
-1.3882196	e i	-1.490311
-1.3906617	f i	-1.1796668
-1.4036533	u i	-1.065124
-1.3681791	x i	-1.3613452
-1.3864329	i i	-1.670749
-1.3796349	m i	-1.4123623
-1.361939	q i	-1.2228076
-1.4022878	s i	-1.1975667
-1.3376616	r i	-1.4634998
-1.42651	t i	-0.81837714
-1.3627162	p i	-1.7507263
-1.3652105	k i	-1.4580469
-1.3779573	v i	-1.1974466
-1.3752413	l i	-1.2187561
-1.3795799	n i	-1.2883308
-1.3204764	o i	-1.0187526
-1.3418018	j i	-1.8449894
-1.7526557	w i	-0.9001185
-1.345327	g m	-1.2974038
-1.4005232	h m	-1.4778082
-1.3989977	a m	-1.1731572
-1.4014677	b m	-1.4719203
-1.3776652	c m	-1.5954014
-1.4127034	d m	-1.470166
-1.3697274	e m	-1.8535192
-1.3906617	f m	-1.4639202
-1.3658463	u m	-1.5306312
-1.3866713	x m	-1.2263653
-1.3469043	i m	-1.3358585
-1.3611426	m m	-1.9449704
-1.3434467	q m	-0.9997684
-1.4022878	s m	-1.1050037
-1.3754686	r m	-1.0377071
-1.3628061	t m	-1.0245008
-1.3627162	p m	-1.5726653
-1.3652105	k m	-1.6448461
-1.3401504	v m	-1.3880794
-1.3172204	l m	-1.5838357
-1.3215591	n m	-1.8077618
-1.3002626	o m	-1.4254276
-1.3602939	j m	-1.5873933
-1.3331504	w m	-1.0850738
-1.3867418	g q	-1.2511253
-1.4005232	h q	-1.545506
-1.3989977	a q	-1.661693
-1.3812537	b q	-1.4995315
-1.3776652	c q	-1.5035415
-1.3915025	d q	-1.3021288
-1.3697274	e q	-1.5666437
-1.4341516	f q	-1.2518821
-1.3658463	u q	-1.6779345
-1.3681791	x q	-1.8174616
-1.4534183	i q	-1.146621
-1.3796349	m q	-1.2208387
-1.361939	q q	-1.7213802
-1.3627591	s q	-1.7362931
-1.3376616	r q	-1.8800588
-1.3830199	t q	-1.3013363
-1.4005232	p q	-1.2551734
-1.4047391	k q	-1.162961
-1.3779573	v q	-1.2527225
-1.3550274	l q	-1.0872828
-1.4977516	n q	-0.84173304
-1.3874618	o q	-0.84395957
-1.3418018	j q	-1.4587034
-1.3543513	w q	-0.99836344
-1.4837126	g s	-1.0766916
-1.3627162	h s	-1.627973
-1.359469	a s	-1.458518
-1.361939	b s	-1.6886992
-1.3591893	c s	-1.9456497
-1.3334817	d s	-1.5382147
-1.3697274	e s	-1.6087923
-1.3704478	f s	-1.397224
-1.3658463	u s	-1.8279449
-1.3681791	x s	-1.7793558
-1.4076338	i s	-1.1611576
-1.3611426	m s	-1.3328567
-1.3434467	q s	-1.5548893
-1.344267	s s	-2.170454
-1.3376616	r s	-1.9083341
-1.3249991	t s	-1.9839517
-1.3812084	p s	-1.345994
-1.3652105	k s	-1.5227163
-1.3401504	v s	-1.5806051
-1.3172204	l s	-1.4603183
-1.3795799	n s	-1.1468228
-1.4966835	o s	-0.70045817
-1.3602939	j s	-1.4642469
-1.2936217	w s	-1.3162693
-1.4090309	g r	-1.0183457
-1.3627162	h r	-1.4448426
-1.3989977	a r	-1.4428182
-1.3434467	b r	-1.822743
-1.3776652	c r	-1.6874365
-1.4127034	d r	-1.2759675
-1.3882196	e r	-1.3285927
-1.351133	f r	-1.1338401
-1.3658463	u r	-1.4806967
-1.3681791	x r	-1.5938115
-1.4076338	i r	-1.1507909
-1.3611426	m r	-1.1682673
-1.361939	q r	-1.7135816
-1.344267	s r	-2.073352
-1.3376616	r r	-1.8603227
-1.3434912	t r	-1.4319521
-1.4005232	p r	-0.99561286
-1.3652105	k r	-1.5693833
-1.3779573	v r	-1.5826765
-1.4187313	l r	-0.91768825
-1.4465653	n r	-1.0624934
-1.4966835	o r	-0.7000269
-1.3796086	j r	-1.2996581
-1.3331504	w r	-1.1845255
-1.5117614	g t	-1.0109489
-1.420737	h t	-1.0758574
-1.3989977	a t	-1.4668202
-1.4014677	b t	-1.2718214
-1.4840708	c t	-1.411731
-1.3334817	d t	-1.4121078
-1.3882196	e t	-1.56704
-1.3906617	f t	-1.2126013
-1.3658463	u t	-1.9726305
-1.4059861	x t	-1.352882
-1.4299229	i t	-0.93904495
-1.3611426	m t	-1.5156643
-1.3434467	q t	-1.4573742
-1.344267	s t	-1.7790093
-1.3754686	r t	-1.3628899
-1.3249991	t t	-1.5412112
-1.3627162	p t	-0.88207567
-1.4047391	k t	-1.2614677
-1.3401504	v t	-1.5248122
-1.4422266	l t	-0.9729571
-1.3795799	n t	-0.95917004
-1.466697	o t	-0.58726186
-1.4433126	j t	-0.8936281
-1.3766404	w t	-1.1023499
-1.345327	g p	-1.3524702
-1.3627162	h p	-1.8096324
-1.3989977	a p	-1.5737864
-1.3812537	b p	-1.5482163
-1.3591893	c p	-1.5039343
-1.4584879	d p	-1.5168499
-1.3697274	e p	-1.489471
-1.4118625	f p	-1.2311805
-1.3658463	u p	-1.0993297
-1.3681791	x p	-1.4714607
-1.3469043	i p	-1.8917445
-1.3611426	m p	-1.4502175
-1.3434467	q p	-1.5651215
-1.3820739	s p	-1.118009
-1.3754686	r p	-1.1263962
-1.3830199	t p	-1.0072991
-1.3627162	p p	-1.8782123
-1.3467183	k p	-1.4447035
-1.3981713	v p	-1.156487
-1.3550274	l p	-1.4155307
-1.3795799	n p	-1.3247322
-1.3204764	o p	-1.3289269
-1.3602939	j p	-1.5863075
-1.3543513	w p	-1.0226886
-1.4325262	g k	-1.1324834
-1.3812084	h k	-1.5731992
-1.3409768	a k	-1.5216421
-1.3434467	b k	-1.7025294
-1.3591893	c k	-1.8559777
-1.3519738	d k	-1.4477897
-1.3697274	e k	-1.645653
-1.3906617	f k	-1.2454413
-1.3843385	u k	-1.3884864
-1.3681791	x k	-1.2625535
-1.3469043	i k	-1.5503967
-1.3796349	m k	-1.7098496
-1.361939	q k	-1.0442557
-1.3820739	s k	-1.6006593
-1.3376616	r k	-1.3297515
-1.3434912	t k	-1.487472
-1.4005232	p k	-1.510381
-1.3467183	k k	-1.981264
-1.3586426	v k	-1.0785308
-1.3172204	l k	-1.8669661
-1.3795799	n k	-1.3133723
-1.3416773	o k	-1.022011
-1.3418018	j k	-1.8529065
-1.479371	w k	-0.56926095
-1.5417478	g v	-1.0595102
-1.4005232	h v	-1.3016887
-1.4908226	a v	-1.2540982
-1.4226686	b v	-1.0565192
-1.3969622	c v	-1.6045377
-1.3712885	d v	-1.2949013
-1.4075344	e v	-1.3831929
-1.3704478	f v	-1.5287328
-1.3843385	u v	-1.7999289
-1.3681791	x v	-1.7781706
-1.3864329	i v	-1.1506125
-1.3611426	m v	-1.217629
-1.4014677	q v	-1.4168596
-1.3627591	s v	-1.7348247
-1.3754686	r v	-1.4073334
-1.3434912	t v	-1.3497915
-1.4005232	p v	-1.2445393
-1.4047391	k v	-1.1388894
-1.3586426	v v	-1.7663164
-1.467066	l v	-0.7651485
-1.4007808	n v	-0.967251
-1.6015135	o v	-0.82894886
-1.4210234	j v	-1.0532249
-1.3331504	w v	-1.340276
-1.4325262	g l	-0.7716794
-1.3812084	h l	-1.2475113
-1.3787838	a l	-1.4612617
-1.4226686	b l	-1.2691268
-1.3969622	c l	-1.5335636
-1.3915025	d l	-1.3365293
-1.4075344	e l	-1.4732015
-1.3704478	f l	-1.1376612
-1.3658463	u l	-1.5401573
-1.4474008	x l	-0.89984715
-1.4076338	i l	-1.189243
-1.3611426	m l	-1.7954745
-1.4014677	q l	-0.92584324
-1.4022878	s l	-1.1816242
-1.4168833	r l	-0.9340101
-1.3830199	t l	-1.0548427
-1.3812084	p l	-1.3463008
-1.3467183	k l	-1.6976919
-1.3981713	v l	-0.7539079
-1.3357127	l l	-1.3948573
-1.3795799	n l	-1.432374
-1.4386481	o l	-0.97094524
-1.4433126	j l	-1.1468357
-1.6556242	w l	-0.72446173
-1.5417478	g n	-0.9642496
-1.420737	h n	-1.3926646
-1.4201986	a n	-1.285117
-1.4449577	b n	-0.923212
-1.3969622	c n	-1.5237718
-1.4349926	d n	-1.101589
-1.3697274	e n	-1.4845153
-1.4118625	f n	-1.2373706
-1.3843385	u n	-1.2127922
-1.4059861	x n	-1.2148858
-1.366219	i n	-1.0474179
-1.3796349	m n	-1.6168174
-1.3812537	q n	-0.97730887
-1.4022878	s n	-1.1059399
-1.4875073	r n	-0.9017203
-1.5292405	t n	-0.91635674
-1.4005232	p n	-1.5988029
-1.4047391	k n	-1.4367598
-1.3779573	v n	-1.0151204
-1.3752413	l n	-1.2867018
-1.3400513	n n	-1.6551284
-1.3204764	o n	-1.451349
-1.4210234	j n	-1.4036255
-1.451322	w n	-0.7589224
-1.4090309	g o	-1.2199763
-1.420737	h o	-1.1537193
-1.5171694	a o	-1.0860975
-1.4684529	b o	-1.0362172
-1.4383361	c o	-1.0506113
-1.5096741	d o	-0.8635299
-1.4489491	e o	-1.1305993
-1.5088333	f o	-0.97902834
-1.4673572	u o	-1.1810887
-1.3681791	x o	-1.3998735
-1.4534183	i o	-0.9793316
-1.3989496	m o	-1.3270463
-1.7239414	q o	-0.37928274
-1.5485084	s o	-0.8072471
-1.6388941	r o	-0.5004597
-1.7054937	t o	-0.59018904
-1.3627162	p o	-1.6216161
-1.42594	k o	-1.1223046
-1.4899961	v o	-0.79686296
-1.3752413	l o	-1.1363833
-1.359366	n o	-1.2438725
-1.4123013	o o	-1.3272371
-1.3998226	j o	-1.1161828
-1.451322	w o	-0.80284584
-1.4090309	g j	-1.0485014
-1.3627162	h j	-1.4087398
-1.3409768	a j	-1.5461621
-1.3434467	b j	-1.7340885
-1.3591893	c j	-1.5482051
-1.4127034	d j	-1.3288292
-1.3882196	e j	-1.4714139
-1.3704478	f j	-1.34184
-1.4036533	u j	-0.8020023
-1.3866713	x j	-1.2224574
-1.328412	i j	-1.7421335
-1.3611426	m j	-1.5160886
-1.4014677	q j	-1.3312418
-1.344267	s j	-1.5914825
-1.3376616	r j	-1.3748711
-1.3434912	t j	-1.0786401
-1.3627162	p j	-1.5452958
-1.3467183	k j	-2.0656953
-1.4416614	v j	-0.9626654
-1.3752413	l j	-1.3469161
-1.359366	n j	-1.3470855
-1.3416773	o j	-1.0957302
-1.3418018	j j	-1.8375078
-1.4249752	w j	-0.60988015
-1.4837126	g w	-1.3067342
-1.420737	h w	-1.2660713
-1.5452183	a w	-1.01278
-1.5196393	b w	-1.1573232
-1.4840708	c w	-1.1694596
-1.5677094	d w	-0.87554944
-1.4075344	e w	-1.2267932
-1.59908	f w	-1.1561892
-1.4036533	u w	-1.2933897
-1.3681791	x w	-1.568285
-1.4534183	i w	-0.82449216
-1.5109884	m w	-1.016324
-1.4449577	q w	-1.178904
-1.4022878	s w	-1.3738256
-1.4168833	r w	-1.3087412
-1.4500053	t w	-0.9626654
-1.4419379	p w	-1.1388118
-1.4965639	k w	-0.90726066
-1.3779573	v w	-1.2693276
-1.5214618	l w	-0.6219366
-1.5557868	n w	-0.70456475
-1.466697	o w	-0.765525
-1.4668078	j w	-0.86899996
-1.3543513	w w	-1.3159355

\3-grams:
-3.1900754	k c </s>
-0.1122131	g g g
-0.9351921	h g g
-1.0847971	a g g
-1.1289392	b g g
-0.9979715	c g g
-1.0652713	d g g
-1.0437189	e g g
-1.0021305	f g g
-1.3611913	u g g
-1.234427	x g g
-0.9008632	i g g
-1.1439381	m g g
-1.4335771	q g g
-1.0775313	s g g
-1.3034713	r g g
-1.3216618	t g g
-1.294544	p g g
-1.4098802	k g g
-1.5832573	v g g
-1.0895574	l g g
-1.0912819	n g g
-0.6379833	o g g
-1.059177	j g g
-0.3591336	w g g
-0.7717298	g h g
-1.3407731	h h g
-0.9328851	a h g
-1.1210148	b h g
-1.2736932	c h g
-1.2466526	d h g
-1.1537817	e h g
-1.8348627	f h g
-1.377208	u h g
-1.3498057	x h g
-1.0678129	i h g
-1.2543156	m h g
-1.1790748	q h g
-1.418294	s h g
-1.2851301	r h g
-1.2647467	t h g
-0.9608465	p h g
-1.8312237	k h g
-1.3341122	l h g
-1.8714421	n h g
-0.80261934	o h g
-1.6578954	j h g
-1.6276441	w h g
-0.6373636	g a g
-1.3804978	h a g
-1.9464533	a a g
-1.3672316	b a g
-1.5173981	c a g
-1.3625656	d a g
-1.675123	e a g
-1.8053693	f a g
-1.7358061	u a g
-1.1590178	x a g
-1.7442646	i a g
-1.6792141	m a g
-1.570795	q a g
-2.1871967	s a g
-1.6177183	r a g
-1.7439101	t a g
-1.5454909	p a g
-1.209036	k a g
-2.5999508	v a g
-1.54972	l a g
-2.1314545	n a g
-1.3897486	o a g
-1.6380215	w a g
-0.62672365	g b g
-1.5659044	h b g
-1.7513814	a b g
-1.7972764	b b g
-1.6468437	c b g
-1.6868345	d b g
-1.2878813	e b g
-1.5966742	f b g
-2.7039862	u b g
-1.8744198	x b g
-1.5038794	m b g
-2.2759795	q b g
-1.9788027	s b g
-1.6744986	r b g
-1.71195	t b g
-1.7546242	p b g
-2.3286912	k b g
-1.9236962	l b g
-2.5596209	n b g
-1.5201201	o b g
-1.3577173	j b g
-1.038221	w b g
-0.64492327	g c g
-1.4171968	h c g
-1.5661656	a c g
-1.6254263	b c g
-2.006468	c c g
-1.6671929	d c g
-1.5532107	e c g
-2.1248984	f c g
-1.7445415	u c g
-2.0008907	x c g
-2.4864676	i c g
-1.6547419	m c g
-2.1541324	q c g
-1.8297844	s c g
-2.2011516	r c g
-1.8706521	t c g
-1.6411699	p c g
-1.5883061	k c g
-2.6319242	v c g
-1.7777148	l c g
-1.7905341	n c g
-1.1121228	o c g
-1.6926036	j c g
-1.2416964	w c g
-1.0039569	g d g
-1.4762335	h d g
-1.4204748	a d g
-1.3794434	b d g
-1.5353526	c d g
-1.9105235	d d g
-1.9125413	e d g
-1.8618017	f d g
-1.6096234	u d g
-1.7799429	x d g
-1.3526651	i d g
-1.8264184	m d g
-1.5986502	q d g
-1.6887931	s d g
-2.5945876	r d g
-1.4941223	t d g
-1.1227748	p d g
-1.8960752	k d g
-2.5667427	v d g
-1.6411073	l d g
-1.6538274	o d g
-1.2196633	j d g
-1.1924591	w d g
-0.7317145	g e g
-1.1163054	h e g
-1.382922	a e g
-1.3204331	b e g
-1.3592855	c e g
-0.87718344	d e g
-1.2865051	e e g
-1.8721361	f e g
-1.3927577	u e g
-1.696348	x e g
-1.3159351	i e g
-1.1817086	m e g
-1.7318647	q e g
-1.2638754	s e g
-1.7621803	r e g
-1.339287	t e g
-1.7368381	p e g
-1.567319	k e g
-1.8363861	v e g
-1.2800038	l e g
-1.7587802	n e g
-1.1714916	o e g
-1.2903523	j e g
-1.519192	w e g
-0.52924985	g f g
-1.555398	h f g
-1.5640981	a f g
-1.4843934	b f g
-1.4046694	c f g
-1.6219937	d f g
-1.0078484	e f g
-1.960136	f f g
-1.0724772	u f g
-2.1486487	x f g
-1.8971571	i f g
-1.6781913	m f g
-1.6063008	q f g
-1.8232639	s f g
-1.1137967	r f g
-1.1666219	t f g
-1.8095492	p f g
-1.721102	k f g
-1.6552304	n f g
-1.4275204	o f g
-1.2505146	j f g
-1.3979316	w f g
-0.76602006	g u g
-1.4442036	h u g
-1.2559998	a u g
-1.4773362	b u g
-1.5277901	c u g
-1.613274	d u g
-1.3586715	e u g
-1.8244706	f u g
-1.8474531	u u g
-1.6348907	x u g
-2.5587797	i u g
-2.1640496	m u g
-2.3441203	q u g
-1.9913847	s u g
-2.972921	r u g
-2.1006386	t u g
-1.8032398	p u g
-2.698221	v u g
-2.6680818	l u g
-1.0622933	o u g
-1.9236959	j u g
-1.6580663	w u g
-0.9615352	g x g
-0.83827186	h x g
-1.3845884	a x g
-1.2515714	b x g
-1.1763544	c x g
-1.0670023	d x g
-1.0300021	e x g
-1.6600633	f x g
-1.7986948	u x g
-1.9510093	x x g
-1.1049513	i x g
-1.0356399	m x g
-1.5936544	q x g
-2.031076	s x g
-2.12567	r x g
-2.2112315	t x g
-2.0817301	p x g
-1.9841368	k x g
-1.5256356	l x g
-2.3898988	n x g
-1.4959521	o x g
-1.1145259	j x g
-1.6219685	w x g
-0.7975633	g i g
-1.4703138	h i g
-1.3257953	a i g
-1.5686015	b i g
-1.2826821	c i g
-0.8333197	d i g
-1.6667677	e i g
-1.6703236	u i g
-2.1148787	x i g
-1.7101494	i i g
-2.182663	m i g
-1.5601217	s i g
-1.9245083	r i g
-1.5805254	t i g
-2.129377	k i g
-1.8452652	v i g
-1.2540469	o i g
-2.5955932	j i g
-1.0834923	g m g
-1.6271853	h m g
-1.2581567	a m g
-1.6867958	b m g
-1.7728221	c m g
-1.2864289	d m g
-1.1750604	e m g
-2.2786374	u m g
-1.95959	x m g
-1.7459469	i m g
-1.5509256	m m g
-1.7830846	q m g
-1.5184268	r m g
-1.778302	t m g
-2.3206716	p m g
-2.1389978	v m g
-1.9457769	l m g
-1.9643527	n m g
-1.3705363	o m g
-2.320618	j m g
-1.41444	g q g
-1.9021884	h q g
-1.572493	a q g
-1.2806495	b q g
-1.3087485	c q g
-1.5229142	d q g
-1.7777646	e q g
-2.4132576	u q g
-2.13803	x q g
-1.3735173	i q g
-1.768004	m q g
-2.0587888	q q g
-2.1706073	s q g
-2.217467	r q g
-2.007151	t q g
-1.6118559	p q g
-1.5842475	k q g
-2.631273	v q g
-1.3400235	l q g
-1.0636845	o q g
-1.6730733	j q g
-2.376736	w q g
-1.5239745	g s g
-1.6121181	h s g
-1.8718002	a s g
-1.7305031	b s g
-1.809552	c s g
-1.4999311	d s g
-2.1896026	e s g
-1.8518748	f s g
-2.2706034	x s g
-2.3518827	s s g
-2.671442	r s g
-2.203198	t s g
-2.862437	p s g
-1.9900988	k s g
-1.662847	l s g
-2.663205	n s g
-1.0460048	g r g
-1.9617219	h r g
-1.7885197	a r g
-1.5380833	b r g
-1.5700366	c r g
-2.0323598	d r g
-2.216735	u r g
-2.3267872	x r g
-1.8518705	m r g
-2.2993896	q r g
-2.6408422	s r g
-1.8814058	r r g
-1.7194481	p r g
-1.4277008	k r g
-1.687719	l r g
-2.498057	n r g
-0.96603596	o r g
-1.4594862	j r g
-1.4152658	w r g
-1.4371305	g t g
-1.2951316	h t g
-1.7191923	a t g
-2.0403717	b t g
-2.9090047	c t g
-1.997007	d t g
-2.1787024	e t g
-2.709999	f t g
-2.418945	u t g
-2.85008	x t g
-1.9619787	m t g
-2.9546661	q t g
-2.3380067	s t g
-3.0385034	t t g
-2.0384293	k t g
-1.5609425	j t g
-1.1518652	g p g
-1.1258669	h p g
-1.1513836	a p g
-1.1902618	b p g
-1.3941957	c p g
-1.094447	d p g
-1.1102326	e p g
-1.972476	f p g
-1.1013119	u p g
-1.3317592	x p g
-1.6493819	i p g
-1.2063287	m p g
-1.9025307	q p g
-1.8850724	s p g
-1.8807217	r p g
-2.385731	t p g
-1.5166643	p p g
-1.5046681	k p g
-1.5545475	v p g
-2.121347	l p g
-2.0832524	o p g
-1.9885281	j p g
-2.4011922	w p g
-1.3384799	g k g
-1.3332524	h k g
-2.1818976	a k g
-1.2187514	b k g
-1.6276783	c k g
-1.7171605	d k g
-2.1108677	e k g
-2.1473222	u k g
-2.054963	x k g
-1.9077243	m k g
-2.537161	q k g
-2.1058514	r k g
-1.9939165	p k g
-2.022253	k k g
-2.3725493	l k g
-1.5564512	o k g
-1.9919615	j k g
-2.0501149	a v g
-1.5188694	b v g
-1.4628346	c v g
-2.8648386	d v g
-1.8426334	e v g
-1.575775	f v g
-1.7630477	u v g
-1.3836075	m v g
-2.986817	q v g
-2.3182156	s v g
-2.977168	r v g
-2.70894	k v g
-1.1037881	j v g
-1.9457946	w v g
-1.4881463	h l g
-1.9506254	a l g
-1.2036074	b l g
-1.7340322	c l g
-1.7435856	d l g
-1.6939396	e l g
-1.791415	f l g
-2.342855	u l g
-2.7364187	i l g
-1.9099896	m l g
-1.9560488	s l g
-1.6806223	r l g
-2.8101838	k l g
-2.3012187	v l g
-0.5376418	g n g
-1.6768912	h n g
-2.1096292	a n g
-1.0352318	b n g
-1.6292725	c n g
-1.3874735	d n g
-1.2017655	e n g
-1.464279	f n g
-1.7779527	u n g
-1.9234737	x n g
-1.5239123	i n g
-1.6117406	m n g
-1.1704752	r n g
-1.2024047	t n g
-2.975549	p n g
-1.7395277	k n g
-1.7556723	v n g
-2.0892458	n n g
-1.28533	o n g
-1.6194478	j n g
-1.1144227	w n g
-0.62848157	g o g
-1.3371005	h o g
-1.040551	a o g
-1.3116728	b o g
-1.8183004	c o g
-1.0893325	d o g
-1.3140798	e o g
-1.1859263	f o g
-1.771527	u o g
-1.576311	x o g
-1.5298705	i o g
-2.016529	m o g
-1.7539014	p o g
-2.4833794	k o g
-2.1578326	v o g
-1.5449649	l o g
-1.0634716	o o g
-1.3797811	j o g
-1.8101864	w o g
-1.3177717	g j g
-2.8056672	h j g
-1.6629875	a j g
-1.3083663	b j g
-1.4296639	c j g
-2.0416691	d j g
-2.7385478	f j g
-2.199083	u j g
-1.7751387	x j g
-1.4977369	m j g
-2.7281692	q j g
-2.3309317	s j g
-1.9247074	r j g
-1.8065976	t j g
-2.2732534	p j g
-2.3252964	k j g
-1.6628579	v j g
-2.7438436	l j g
-2.7438965	n j g
-1.8436581	o j g
-2.2927547	j j g
-0.5482477	g w g
-1.4418806	h w g
-1.4210464	a w g
-1.0414494	b w g
-0.7939845	c w g
-0.7677573	d w g
-1.0680987	e w g
-1.1556292	f w g
-1.9995075	u w g
-1.9254684	x w g
-1.2362001	i w g
-1.5114105	m w g
-1.7279577	q w g
-1.3712047	s w g
-1.2406968	r w g
-1.6533473	t w g
-1.502184	p w g
-1.4133933	v w g
-1.2065046	l w g
-1.7691693	w w g
-0.009460727	<s> g h
-1.2913238	g g h
-0.5761006	h g h
-0.690028	a g h
-0.75885546	b g h
-0.89094687	c g h
-0.74133307	d g h
-0.46775514	e g h
-0.45059615	f g h
-0.6714375	u g h
-1.1413785	x g h
-1.461513	i g h
-0.96747196	m g h
-0.95866984	q g h
-0.8503543	s g h
-0.7996008	r g h
-1.8843222	t g h
-1.037023	p g h
-0.78503036	k g h
-1.027443	v g h
-0.6891307	l g h
-0.8477967	n g h
-0.9662464	o g h
-1.0128926	j g h
-1.2769328	w g h
-0.7691498	g h h
-0.14489181	h h h
-0.8380509	a h h
-0.8315978	b h h
-0.77316	c h h
-0.80643386	d h h
-0.9616725	e h h
-0.84832096	f h h
-1.0331228	u h h
-0.64914227	x h h
-0.95374674	i h h
-0.74594617	m h h
-1.2939624	q h h
-0.83939344	s h h
-1.1178432	r h h
-0.8916175	t h h
-0.7604001	p h h
-0.8185463	k h h
-0.89142203	v h h
-1.0135089	l h h
-1.147948	n h h
-0.86372286	o h h
-0.72005904	j h h
-1.2511944	w h h
-0.8009391	g a h
-0.5121007	h a h
-1.251529	a a h
-0.53372306	b a h
-0.9713962	c a h
-0.9459528	d a h
-0.8667159	e a h
-1.0027024	f a h
-1.464204	u a h
-1.3184022	x a h
-0.9884942	i a h
-0.9727637	m a h
-1.6156131	q a h
-1.0783963	s a h
-0.74704635	r a h
-0.6149338	t a h
-0.861213	p a h
-1.2192941	k a h
-1.0643628	v a h
-1.0354776	l a h
-0.79173493	n a h
-0.82949615	o a h
-0.7321044	j a h
-1.23282	w a h
-0.8901205	g b h
-0.7473098	h b h
-1.2646322	a b h
-1.4292806	b b h
-0.9880423	c b h
-0.8150914	d b h
-0.847991	e b h
-1.0451297	f b h
-1.0711992	u b h
-0.96173805	x b h
-1.0595818	i b h
-0.95791185	m b h
-1.036693	q b h
-1.1190752	s b h
-1.2336894	r b h
-1.1084807	t b h
-0.95706254	p b h
-1.1335628	k b h
-1.1676214	v b h
-0.9386512	l b h
-1.1334163	n b h
-1.2738891	o b h
-1.5334761	j b h
-1.2164601	g c h
-0.75740075	h c h
-1.3273314	a c h
-1.2932724	b c h
-1.6712285	c c h
-1.3415127	d c h
-1.1256801	e c h
-1.3264916	f c h
-1.0756932	u c h
-1.0039928	x c h
-1.3831027	i c h
-1.5301338	m c h
-1.4633763	q c h
-1.3910139	s c h
-1.425879	r c h
-1.2977417	t c h
-1.182834	p c h
-1.5569596	k c h
-1.4698645	v c h
-1.6689566	l c h
-1.3676649	n c h
-1.2379346	o c h
-1.5632749	j c h
-1.4460461	w c h
-1.1984767	g d h
-0.5740973	h d h
-0.87898064	a d h
-0.9133233	b d h
-1.4873044	c d h
-1.4437438	d d h
-1.2112746	e d h
-1.0084974	f d h
-1.4239722	u d h
-1.2764807	x d h
-1.0151151	i d h
-1.2834041	m d h
-1.0486639	q d h
-1.613424	s d h
-1.0900764	r d h
-0.90845364	t d h
-0.9867188	p d h
-1.1805654	k d h
-0.6765166	v d h
-1.1230377	l d h
-1.0086347	n d h
-2.273683	o d h
-1.3428495	j d h
-0.9488248	w d h
-1.1442748	g e h
-0.76751316	h e h
-1.0860958	a e h
-0.98776615	b e h
-0.9658171	c e h
-1.1966408	d e h
-1.491431	e e h
-1.0061027	f e h
-1.4249479	u e h
-1.453862	x e h
-0.8812113	i e h
-1.4266698	m e h
-1.4307474	q e h
-1.0400182	s e h
-0.96815425	r e h
-1.6893172	t e h
-1.451427	p e h
-1.0686743	k e h
-1.3132836	v e h
-1.1891476	l e h
-1.1758823	n e h
-1.5293536	o e h
-1.5903819	j e h
-1.6281886	w e h
-1.3596561	g f h
-0.8949176	h f h
-1.021097	a f h
-1.0070524	b f h
-1.1817751	c f h
-0.95593476	d f h
-0.6083722	e f h
-1.6932784	f f h
-0.9982598	u f h
-1.2550972	x f h
-1.1511558	i f h
-0.6140978	m f h
-1.0824751	q f h
-1.0711914	s f h
-1.2876406	r f h
-1.0550673	t f h
-1.3644358	p f h
-1.1786925	k f h
-1.0692532	v f h
-1.158573	l f h
-0.77798223	n f h
-1.2026336	o f h
-1.1444335	j f h
-1.8664733	w f h
-1.3096437	g u h
-1.2175723	h u h
-1.4758703	a u h
-1.4759666	b u h
-1.526526	c u h
-1.6894169	d u h
-1.2269601	e u h
-1.2541693	f u h
-1.9712272	u u h
-1.7383235	x u h
-1.5783335	i u h
-1.6808931	m u h
-1.688824	q u h
-1.5913655	s u h
-1.9149727	r u h
-2.4927802	t u h
-1.6734695	p u h
-1.9002955	k u h
-1.8177849	v u h
-1.827604	l u h
-2.0261788	n u h
-2.5215645	o u h
-1.4465401	j u h
-1.8587817	w u h
-0.8679135	g x h
-0.87485397	h x h
-1.0181602	a x h
-0.97981566	b x h
-1.2271272	c x h
-1.0666807	d x h
-1.1378608	e x h
-1.4038401	f x h
-1.2814846	u x h
-1.3015351	x x h
-1.536217	i x h
-1.6025615	m x h
-1.4510819	q x h
-1.4620993	s x h
-1.2355944	r x h
-1.5389246	t x h
-1.1735498	p x h
-1.2387662	k x h
-1.8517629	v x h
-0.7275888	l x h
-1.4328113	n x h
-1.1171883	o x h
-0.92216146	j x h
-1.3778257	w x h
-0.5873959	g i h
-0.7169369	h i h
-0.954089	a i h
-0.8177794	b i h
-1.0378116	c i h
-0.59737897	d i h
-0.91416806	e i h
-0.7697139	f i h
-1.2926649	u i h
-1.5858058	x i h
-1.2442056	i i h
-1.2413863	m i h
-1.2673962	q i h
-1.3587968	s i h
-1.0289277	r i h
-1.556911	t i h
-1.4460936	p i h
-1.7363564	k i h
-0.9071288	v i h
-1.9234918	l i h
-1.5343058	n i h
-1.1220189	o i h
-1.1735071	j i h
-1.0586041	g m h
-1.0110594	h m h
-1.2141682	a m h
-1.4495333	b m h
-1.4096903	c m h
-1.2987188	d m h
-1.2724353	e m h
-1.1920576	f m h
-1.5670003	u m h
-1.9472396	x m h
-2.2409554	m m h
-2.3778632	q m h
-1.7522478	s m h
-1.807187	r m h
-2.402457	t m h
-1.6090344	p m h
-2.350578	k m h
-1.7287792	v m h
-1.9404811	l m h
-1.6606469	n m h
-2.1492798	o m h
-2.3082676	j m h
-1.0696167	w m h
-0.5675881	g q h
-0.6139476	h q h
-0.67383945	a q h
-0.6327311	b q h
-1.045532	c q h
-0.41083828	d q h
-0.6328648	e q h
-0.81804836	f q h
-1.2746897	u q h
-1.6450479	x q h
-1.3051094	i q h
-1.2014767	m q h
-1.5268295	q q h
-1.2952853	s q h
-1.1642559	r q h
-1.2214829	t q h
-1.0812616	p q h
-1.0384462	k q h
-1.8625507	v q h
-0.71065956	l q h
-0.6414053	n q h
-0.6634417	o q h
-1.1210696	j q h
-1.6965731	g s h
-1.0065179	h s h
-1.0428121	a s h
-1.255301	b s h
-1.4837612	c s h
-1.5746942	d s h
-1.4183508	e s h
-1.7414446	f s h
-1.7871984	u s h
-1.7010787	x s h
-2.071474	m s h
-1.6406115	q s h
-1.8877864	s s h
-1.6225501	r s h
-1.762364	t s h
-1.9090376	p s h
-1.8007094	k s h
-1.8836894	v s h
-1.1781156	l s h
-1.7003158	n s h
-1.7055111	j s h
-1.6046442	w s h
-2.3922422	g r h
-0.8110162	h r h
-1.0513674	a r h
-1.2058778	b r h
-1.3053011	c r h
-1.1186817	d r h
-1.0989894	e r h
-1.0857311	f r h
-1.4236164	u r h
-1.2695793	x r h
-1.8301724	i r h
-1.1285919	m r h
-2.06983	q r h
-1.8921324	s r h
-2.0340128	r r h
-1.5292747	t r h
-1.5287437	p r h
-1.363007	k r h
-2.3197842	v r h
-1.5000136	l r h
-1.4373503	o r h
-1.4559691	j r h
-1.4793091	g t h
-1.0854673	h t h
-0.8255701	a t h
-1.0169376	b t h
-1.5741762	c t h
-0.996209	d t h
-1.5808694	e t h
-1.7899685	f t h
-2.0528586	u t h
-1.5982407	x t h
-2.2810056	i t h
-1.4367828	m t h
-2.0169985	q t h
-1.6501907	s t h
-1.6662524	r t h
-1.7368107	t t h
-2.2241814	p t h
-1.8327191	k t h
-2.8666785	v t h
-1.7238042	l t h
-0.9629552	o t h
-1.5341603	j t h
-1.8063054	w t h
-1.0766963	g p h
-0.8045615	h p h
-0.9018439	a p h
-1.0198046	b p h
-1.1167784	c p h
-1.1251779	d p h
-0.9058017	e p h
-1.0316012	f p h
-2.4604313	u p h
-1.289882	x p h
-1.6489606	i p h
-1.3604186	m p h
-1.2032534	q p h
-1.2384878	s p h
-1.4845507	r p h
-1.2236772	t p h
-1.3016264	p p h
-1.6002338	k p h
-1.0533116	v p h
-1.4150367	l p h
-1.7474335	n p h
-1.7829973	o p h
-1.4124184	j p h
-1.4018677	w p h
-1.070746	g k h
-0.97596514	h k h
-1.4307243	a k h
-1.4712791	b k h
-1.7158208	c k h
-1.5092131	d k h
-1.360091	e k h
-1.6650736	f k h
-2.1204076	u k h
-1.5577604	x k h
-2.0752478	i k h
-1.9669425	m k h
-1.6277786	q k h
-1.6645032	s k h
-1.6063936	r k h
-1.5549431	t k h
-1.5855465	p k h
-1.7385418	k k h
-1.7201502	v k h
-2.124059	l k h
-1.8416363	n k h
-1.4141337	o k h
-1.8095446	j k h
-1.3035837	h v h
-1.017352	a v h
-0.824732	b v h
-1.1723535	c v h
-1.1511183	d v h
-0.883125	e v h
-0.8966329	f v h
-1.6601646	u v h
-2.0396252	x v h
-1.6772819	i v h
-1.1985226	m v h
-1.8758253	q v h
-2.0720453	s v h
-1.8478668	r v h
-1.7712673	t v h
-1.5649271	p v h
-1.7355413	k v h
-1.4434404	v v h
-1.513842	l v h
-1.2939204	o v h
-1.3970665	j v h
-1.6999152	w v h
-1.042877	g l h
-0.99841684	h l h
-0.5870148	a l h
-1.3324728	b l h
-1.1625868	c l h
-1.0696998	d l h
-1.3247144	e l h
-1.249849	f l h
-2.8744671	u l h
-2.2340791	x l h
-2.523522	i l h
-1.7693298	m l h
-1.6589167	q l h
-1.5213834	s l h
-1.6391742	r l h
-1.7384888	t l h
-1.3297927	p l h
-1.5351981	k l h
-1.353971	v l h
-2.7290523	l l h
-1.5084404	n l h
-1.6061124	o l h
-2.481226	j l h
-1.6392208	g n h
-0.7037852	h n h
-0.8326639	a n h
-0.987704	b n h
-1.4066961	c n h
-1.17134	d n h
-1.1595469	e n h
-0.9816149	f n h
-1.2763689	u n h
-1.3719712	x n h
-2.3860738	i n h
-0.9085762	m n h
-1.3393371	q n h
-1.4684069	s n h
-1.3912585	r n h
-1.099772	t n h
-1.9696583	p n h
-1.374575	k n h
-1.451103	v n h
-1.5352349	l n h
-1.5930911	n n h
-1.5497017	j n h
-1.4168732	w n h
-1.2278501	g o h
-0.7359385	h o h
-0.7579014	a o h
-1.4028203	b o h
-1.2804983	c o h
-1.4004319	d o h
-0.9535085	e o h
-0.430121	f o h
-1.2019132	u o h
-1.4184238	x o h
-1.6899704	i o h
-1.0302346	m o h
-1.100788	q o h
-1.3018576	s o h
-0.8597124	r o h
-1.1253643	p o h
-1.8732964	k o h
-1.0648882	v o h
-1.3572714	l o h
-1.3020914	n o h
-1.4706558	o o h
-1.744761	j o h
-0.97431946	g j h
-1.0194016	h j h
-1.1841936	a j h
-1.3813065	b j h
-1.4290761	c j h
-0.9428526	d j h
-0.6942284	e j h
-1.5899723	f j h
-1.6039907	u j h
-1.6470653	x j h
-1.5300635	i j h
-1.6936176	m j h
-1.331475	q j h
-1.6736048	s j h
-1.6199311	r j h
-2.4564831	t j h
-0.7410451	p j h
-1.3167562	k j h
-1.4793333	v j h
-1.6463823	l j h
-1.6641383	o j h
-1.8151199	j j h
-1.1960595	g w h
-0.88925254	h w h
-0.5605162	a w h
-0.8185048	b w h
-1.0937005	c w h
-0.906211	d w h
-1.0375051	e w h
-0.942047	f w h
-1.2991478	u w h
-1.3721765	x w h
-1.357855	i w h
-1.2853694	m w h
-1.7500001	s w h
-1.6514741	r w h
-1.472662	t w h
-1.8866816	p w h
-1.0097302	k w h
-1.2544376	v w h
-1.2030567	l w h
-1.318478	j w h
-1.88866	w w h
-1.8531532	g g a
-1.3704605	h g a
-0.7648957	a g a
-1.1484785	b g a
-1.1932817	c g a
-0.8222904	d g a
-1.1605475	e g a
-1.3428648	f g a
-1.0397308	u g a
-2.105566	x g a
-2.2386556	i g a
-1.4772674	m g a
-1.6528505	q g a
-0.7773594	s g a
-1.177521	r g a
-0.79240835	t g a
-1.3224539	p g a
-1.4559293	k g a
-1.5834816	v g a
-0.8842944	l g a
-1.2675368	n g a
-1.520814	o g a
-1.7002591	j g a
-1.4744884	w g a
-0.5457738	g h a
-1.3203164	h h a
-0.51214445	a h a
-0.8719474	b h a
-1.0075319	c h a
-1.031258	d h a
-0.95270574	e h a
-0.49980792	f h a
-1.0969177	u h a
-1.1101211	x h a
-1.006976	i h a
-1.1822815	m h a
-1.2180756	q h a
-1.1450018	s h a
-0.81698525	r h a
-1.0275042	t h a
-1.1677488	p h a
-0.99795604	k h a
-0.9440416	v h a
-1.2609653	l h a
-0.5614265	n h a
-0.9673226	o h a
-1.2712368	j h a
-0.8703636	w h a
-0.88010645	g a a
-1.1116532	h a a
-0.12711054	a a a
-1.0067322	b a a
-0.84044874	c a a
-0.87255055	d a a
-0.93590957	e a a
-0.92411214	f a a
-0.7246088	u a a
-1.1478219	x a a
-0.6588596	i a a
-1.0121803	m a a
-0.519872	q a a
-1.0953982	s a a
-1.1605872	r a a
-1.0177675	t a a
-1.1018738	p a a
-0.88262707	k a a
-0.85793936	v a a
-0.89409244	l a a
-0.7014114	n a a
-1.1579459	o a a
-0.9757127	j a a
-1.1532428	w a a
-0.9718783	g b a
-0.9883015	h b a
-0.68344957	a b a
-1.2135249	b b a
-0.5816208	c b a
-0.96140414	d b a
-1.0528973	e b a
-1.0864446	f b a
-0.89503074	u b a
-1.4612582	x b a
-1.1612442	i b a
-0.8905908	m b a
-1.0427758	q b a
-0.74102765	s b a
-1.2485673	r b a
-1.2326247	t b a
-1.0221522	p b a
-0.7824234	k b a
-1.2184957	v b a
-1.2240314	l b a
-1.341934	n b a
-1.2727377	o b a
-0.9740163	j b a
-1.3146896	w b a
-1.0040288	g c a
-1.0934547	h c a
-0.57006395	a c a
-1.1827385	b c a
-1.5486537	c c a
-1.1859243	d c a
-0.98958355	e c a
-1.107214	f c a
-1.193784	u c a
-1.5059519	x c a
-1.047372	i c a
-1.1784025	m c a
-0.7792266	q c a
-1.5669572	s c a
-1.1499275	r c a
-1.403689	t c a
-1.3270283	p c a
-1.3455088	k c a
-1.3795736	v c a
-1.4622416	l c a
-1.3093779	n c a
-2.3998816	o c a
-1.0728674	j c a
-0.76445496	w c a
-1.0282791	g d a
-1.0657611	h d a
-0.5797243	a d a
-1.4732112	b d a
-1.5396662	c d a
-1.5750959	d d a
-1.4806461	e d a
-1.2389699	f d a
-2.086626	u d a
-1.4114913	x d a
-0.92153794	i d a
-1.1890479	m d a
-0.91636294	q d a
-1.431542	s d a
-1.3132164	r d a
-1.2265688	t d a
-1.4550791	p d a
-1.317519	k d a
-1.0635442	v d a
-1.4386678	l d a
-1.5219604	j d a
-0.95070666	w d a
-1.2179332	g e a
-1.302609	h e a
-0.46607298	a e a
-1.0895761	b e a
-1.0904541	c e a
-1.5093386	d e a
-1.6372318	e e a
-1.3742685	f e a
-1.6356857	u e a
-1.6964357	x e a
-1.2783222	i e a
-1.3389336	m e a
-1.4095491	q e a
-1.2531859	s e a
-1.4623066	r e a
-1.4721317	t e a
-1.7369099	p e a
-1.5219015	k e a
-1.7114034	v e a
-0.9942127	l e a
-1.6920347	n e a
-1.1994927	o e a
-0.9387804	j e a
-1.1122053	w e a
-1.7238925	g f a
-0.93188226	h f a
-0.804979	a f a
-1.2445043	b f a
-0.95528424	c f a
-0.91953075	d f a
-1.003125	e f a
-1.6183195	f f a
-1.3869356	u f a
-1.0982145	x f a
-1.1511558	i f a
-1.0620672	m f a
-1.4772822	q f a
-1.1872194	s f a
-1.7096484	r f a
-1.1063086	t f a
-1.4682703	p f a
-1.2452176	k f a
-1.6717347	v f a
-1.0909433	l f a
-1.8729529	n f a
-1.59436	o f a
-2.6155932	j f a
-1.5697161	w f a
-1.61233	g u a
-1.6960336	h u a
-1.4312124	a u a
-1.2133608	b u a
-1.6634505	c u a
-1.4358325	d u a
-1.47496	e u a
-1.4078646	f u a
-1.9541984	u u a
-1.87746	x u a
-2.2152042	i u a
-1.9836454	m u a
-1.8654631	q u a
-2.1663032	s u a
-1.2356789	r u a
-1.6518468	t u a
-1.6756021	p u a
-1.3024116	k u a
-1.848322	v u a
-1.3455782	n u a
-2.5399873	o u a
-1.3815532	j u a
-2.886158	w u a
-1.1283653	g x a
-0.953574	h x a
-0.71446055	a x a
-0.7377189	b x a
-0.9087076	c x a
-1.2076432	d x a
-0.8290137	e x a
-0.85351	f x a
-1.4389874	u x a
-1.6065377	x x a
-1.2460409	i x a
-1.7245748	m x a
-1.7782581	q x a
-1.4739902	s x a
-1.8812474	r x a
-2.2086923	t x a
-1.6376536	p x a
-1.3771678	k x a
-1.4712152	v x a
-0.9494693	l x a
-1.557564	n x a
-1.7124571	o x a
-1.7678819	j x a
-1.7460791	w x a
-1.152699	g i a
-0.8778399	h i a
-0.79958177	a i a
-1.1847272	b i a
-0.97967136	c i a
-1.4025049	d i a
-1.0967841	e i a
-1.353797	f i a
-1.6504531	u i a
-1.3987285	x i a
-0.8806975	i i a
-1.4697118	m i a
-1.7421478	q i a
-1.5995164	s i a
-1.5629095	r i a
-1.2591385	t i a
-1.8373773	p i a
-2.7850254	k i a
-1.9536356	v i a
-1.2699344	l i a
-1.6307001	n i a
-1.5447963	o i a
-1.7492083	j i a
-0.8787309	w i a
-1.9353107	g m a
-1.221893	h m a
-1.324403	a m a
-0.94927174	b m a
-1.2708784	c m a
-1.0413755	d m a
-1.4633166	e m a
-1.917796	f m a
-2.2616026	u m a
-1.7670674	x m a
-1.73804	i m a
-1.9199003	m m a
-1.7646372	q m a
-2.4645507	s m a
-2.397374	r m a
-1.2533824	t m a
-1.867095	p m a
-1.9461462	k m a
-1.9475037	v m a
-1.938693	l m a
-1.9599243	n m a
-2.2697318	o m a
-2.0031788	j m a
-2.444539	w m a
-1.0819323	g q a
-0.8175074	h q a
-0.9231515	a q a
-1.3179306	b q a
-0.96755075	c q a
-1.4640688	d q a
-1.1118224	e q a
-1.3400011	f q a
-1.5833701	u q a
-1.9322954	x q a
-1.3373702	i q a
-1.1637022	m q a
-1.5811208	q q a
-1.692803	s q a
-1.961273	r q a
-1.3231305	t q a
-1.8294872	p q a
-1.5822213	k q a
-1.7409416	v q a
-1.7460719	l q a
-1.2189074	n q a
-1.1572106	j q a
-1.5669924	w q a
-2.4371614	g s a
-1.206646	h s a
-1.3274581	a s a
-1.2776484	b s a
-1.2829136	c s a
-1.3070023	d s a
-0.94968176	e s a
-1.1849961	f s a
-1.8279257	u s a
-1.6511729	x s a
-2.521986	i s a
-2.0670085	m s a
-2.1145685	q s a
-1.9331193	s s a
-2.1652355	r s a
-2.03976	t s a
-1.6855304	p s a
-1.6240795	k s a
-2.1051016	v s a
-2.0985305	l s a
-1.8727005	n s a
-2.061249	o s a
-1.3060986	j s a
-1.1787132	g r a
-0.87937427	h r a
-0.89124286	a r a
-0.8744011	b r a
-0.6292258	c r a
-0.8172977	d r a
-0.8096153	e r a
-1.1505458	f r a
-1.4221599	u r a
-1.2310451	x r a
-1.164366	i r a
-1.1979389	m r a
-1.7681175	q r a
-1.5181636	s r a
-1.6104571	r r a
-1.5552084	t r a
-1.0983464	p r a
-0.9966963	k r a
-1.919366	v r a
-1.0748519	l r a
-0.8452981	n r a
-1.428356	o r a
-1.0071372	j r a
-1.8521956	w r a
-1.5518473	g t a
-1.7728976	h t a
-0.9974394	a t a
-1.0178913	b t a
-1.4517478	c t a
-1.5047395	d t a
-1.2730834	e t a
-1.3467754	f t a
-2.1060944	u t a
-2.3203888	i t a
-1.1719012	m t a
-1.8984894	q t a
-2.197221	s t a
-2.0724847	r t a
-2.9225392	t t a
-1.6597979	p t a
-2.6428492	k t a
-2.0720158	v t a
-1.435921	l t a
-1.2749925	o t a
-1.5104207	w t a
-0.7989671	g p a
-1.340625	h p a
-0.8540032	a p a
-0.7785597	b p a
-0.67689586	c p a
-1.058283	d p a
-0.8950777	e p a
-0.6365516	f p a
-1.1874901	u p a
-1.4102993	x p a
-1.6055354	i p a
-1.4647975	m p a
-1.4548113	q p a
-1.2892458	s p a
-1.3715272	r p a
-1.2901082	t p a
-1.3828908	p p a
-1.4073136	k p a
-1.769053	v p a
-1.8726436	l p a
-1.2360724	n p a
-1.8402804	o p a
-1.9413197	j p a
-0.7633308	w p a
-0.87675416	g k a
-1.2668575	h k a
-0.7906991	a k a
-1.2171662	b k a
-1.4007882	c k a
-1.2698379	d k a
-1.2712938	e k a
-1.3129123	f k a
-1.7701352	u k a
-1.2965733	x k a
-1.470661	i k a
-2.0914984	m k a
-1.5046706	q k a
-1.8058996	s k a
-1.9045969	r k a
-1.3630636	t k a
-1.3314831	p k a
-1.7997564	k k a
-1.6416539	v k a
-1.9483511	l k a
-1.664614	n k a
-2.385388	o k a
-1.8095446	j k a
-1.4450097	g v a
-1.4996517	h v a
-1.2763977	a v a
-1.2899612	b v a
-1.1338468	c v a
-1.313488	d v a
-1.2229178	e v a
-1.4893823	f v a
-1.9910798	u v a
-1.9147989	x v a
-1.6772819	i v a
-1.9714621	m v a
-1.7796245	q v a
-2.2937574	s v a
-2.1478078	r v a
-1.5947301	t v a
-1.3602643	p v a
-1.9079571	k v a
-1.8124017	v v a
-1.1186991	l v a
-2.2053373	o v a
-1.3970665	j v a
-1.3519912	g l a
-1.6072679	h l a
-1.0274447	a l a
-1.6165811	b l a
-1.3534882	c l a
-1.4115931	d l a
-1.0060241	e l a
-1.6492157	f l a
-2.3163424	u l a
-2.3167865	x l a
-1.4800134	i l a
-1.8794869	m l a
-1.2765906	q l a
-1.9311602	s l a
-2.3972342	p l a
-2.0041733	k l a
-2.1710043	v l a
-1.6626726	l l a
-1.7688457	j l a
-1.6433251	g n a
-1.3950456	h n a
-0.8831916	a n a
-1.5057633	b n a
-1.3931624	c n a
-1.4272223	d n a
-1.724097	e n a
-1.4629159	f n a
-1.4761366	u n a
-2.572491	x n a
-1.6436728	i n a
-1.5732257	m n a
-1.7318401	q n a
-1.8222855	s n a
-2.2591515	r n a
-2.3607364	p n a
-1.737905	k n a
-2.3728843	v n a
-2.6444116	l n a
-1.9906228	n n a
-1.831744	o n a
-2.0989008	j n a
-1.6345842	g o a
-1.3702185	h o a
-1.0840653	a o a
-1.7258247	b o a
-1.4802785	c o a
-1.4178039	d o a
-1.6884472	e o a
-1.735546	f o a
-1.5210317	x o a
-1.5371795	i o a
-2.7372653	m o a
-1.9202045	p o a
-1.9021107	k o a
-1.5533805	v o a
-1.3077846	n o a
-1.8643334	j o a
-1.1619669	w o a
-1.2061174	g j a
-0.781574	h j a
-1.0259873	a j a
-0.90691173	b j a
-1.0864526	c j a
-1.3769515	d j a
-1.1539221	e j a
-1.2871029	f j a
-0.8603921	u j a
-0.90496564	x j a
-1.6132579	i j a
-1.5823497	m j a
-2.0911286	q j a
-1.3481674	s j a
-1.192246	r j a
-1.0992662	t j a
-1.6625563	p j a
-1.3024613	k j a
-1.4739509	v j a
-1.4460576	l j a
-1.4916775	n j a
-0.7802597	o j a
-1.3757552	j j a
-1.3106349	w j a
-1.5321007	g w a
-1.3374956	h w a
-1.742383	a w a
-1.2229116	b w a
-1.5162435	c w a
-1.3515751	d w a
-1.6235685	e w a
-0.69465077	f w a
-3.0177054	x w a
-1.374578	i w a
-2.62818	q w a
-1.609063	p w a
-1.6742959	v w a
-1.3834201	n w a
-1.2011504	j w a
-1.780396	w w a
-1.8376563	g g b
-1.1761293	h g b
-1.0657917	a g b
-0.4956528	b g b
-0.9030289	c g b
-1.1488023	d g b
-1.3872327	e g b
-1.161349	f g b
-1.4687973	u g b
-1.4806602	x g b
-0.7868239	i g b
-1.3358977	m g b
-1.2887174	q g b
-1.5792884	s g b
-2.1317928	r g b
-0.68457824	t g b
-1.3842163	p g b
-1.0666065	k g b
-0.8305775	v g b
-1.393999	l g b
-1.1493505	n g b
-1.1273344	o g b
-1.0592425	j g b
-2.6842206	w g b
-0.9866249	g h b
-1.5185105	h h b
-1.2141913	a h b
-0.7711781	b h b
-1.1763986	c h b
-0.9513146	d h b
-0.8849177	e h b
-0.9838146	f h b
-1.9035065	u h b
-1.5684295	x h b
-1.3515002	i h b
-1.2538087	m h b
-1.5272198	q h b
-1.1960998	s h b
-1.2335335	r h b
-1.2447543	t h b
-1.6444211	p h b
-1.1139768	k h b
-1.8282522	v h b
-1.4450907	l h b
-1.0076741	n h b
-1.0813497	o h b
-1.3955889	j h b
-1.1272717	w h b
-0.9672381	g a b
-0.52874106	h a b
-1.3811674	a a b
-0.6083638	b a b
-0.9223848	c a b
-1.1374608	d a b
-1.0666014	e a b
-1.0487218	f a b
-1.0517757	u a b
-0.9048869	x a b
-0.89168626	i a b
-0.94538456	m a b
-0.83055544	q a b
-0.9313024	s a b
-1.2029467	r a b
-1.0177675	t a b
-0.76831657	p a b
-1.0023876	k a b
-1.3663709	v a b
-0.8821893	l a b
-0.90591323	n a b
-1.0767725	o a b
-0.9634796	j a b
-1.1532428	w a b
-0.8056174	g b b
-0.8155099	h b b
-0.8546837	a b b
-0.17504673	b b b
-0.7840567	c b b
-0.8292207	d b b
-0.7830486	e b b
-0.85486794	f b b
-1.1411227	u b b
-0.9538884	x b b
-1.069581	i b b
-0.8026609	m b b
-1.134838	q b b
-1.160899	s b b
-0.4844219	r b b
-1.0568684	t b b
-0.8633753	p b b
-1.106523	k b b
-0.72070724	v b b
-1.0994118	l b b
-1.838039	n b b
-0.7750281	o b b
-0.78325367	j b b
-0.5653444	w b b
-0.88960487	g c b
-0.9903151	h c b
-0.89915615	a c b
-0.8078602	b c b
-1.2626681	c c b
-0.52602804	d c b
-0.90492916	e c b
-1.1809602	f c b
-0.892772	u c b
-0.8901253	x c b
-0.83911616	i c b
-1.091318	m c b
-1.2089944	q c b
-1.1351424	s c b
-1.204247	r c b
-0.7014308	t c b
-0.9764079	p c b
-1.1188407	k c b
-0.81248087	v c b
-0.8387923	l c b
-1.1575032	n c b
-1.085709	o c b
-1.2421111	j c b
-1.0308008	w c b
-0.9809382	g d b
-0.9546184	h d b
-1.1120509	a d b
-0.5691331	b d b
-1.0844222	c d b
-1.4552209	d d b
-0.9021393	e d b
-0.94688267	f d b
-1.354492	u d b
-1.5553602	x d b
-1.2814265	i d b
-1.29234	m d b
-1.2414786	q d b
-0.89346033	s d b
-1.5240762	r d b
-1.3387542	t d b
-1.2567517	p d b
-1.1889886	k d b
-1.4190134	v d b
-1.4102453	l d b
-1.3758483	n d b
-0.6660123	o d b
-0.87983406	j d b
-0.7690451	w d b
-1.3709468	g e b
-1.2004185	h e b
-1.2482407	a e b
-0.7179519	b e b
-1.3440491	c e b
-1.3935851	d e b
-1.5706915	e e b
-1.431634	f e b
-1.3775423	u e b
-1.6964357	x e b
-1.402801	i e b
-1.5464817	m e b
-1.5857302	q e b
-1.7192297	s e b
-1.0649822	r e b
-1.3393126	t e b
-1.4056427	p e b
-1.443135	k e b
-1.7114034	v e b
-1.3767024	l e b
-1.7588673	n e b
-1.261488	o e b
-1.0477931	j e b
-1.9949291	w e b
-1.446728	g f b
-1.3810139	h f b
-1.1851665	a f b
-0.54779816	b f b
-1.3094591	c f b
-0.9325273	d f b
-1.497918	e f b
-1.6172105	f f b
-1.5951408	u f b
-1.9400103	x f b
-1.3471217	i f b
-1.2017792	m f b
-0.87914187	q f b
-1.1551796	s f b
-1.1499895	r f b
-2.3649662	t f b
-1.5092431	p f b
-1.2452176	k f b
-1.0278478	v f b
-1.464414	l f b
-1.6519463	n f b
-1.59436	o f b
-1.2903277	j f b
-1.2708384	w f b
-1.3563145	g u b
-1.4101095	h u b
-1.4768639	a u b
-1.2547619	b u b
-1.3510389	c u b
-1.486988	d u b
-1.5889248	e u b
-1.12386	f u b
-2.1481023	u u b
-1.87746	x u b
-1.7060096	i u b
-1.6153138	m u b
-2.0408978	q u b
-1.7266742	s u b
-1.6615478	r u b
-1.8437406	t u b
-1.5786816	p u b
-2.5480468	k u b
-1.9530938	v u b
-2.0065718	l u b
-1.0264579	n u b
-1.3815532	j u b
-2.2561343	w u b
-1.058383	g x b
-1.2684485	h x b
-1.3720253	a x b
-1.5762801	b x b
-1.4314456	c x b
-1.2805146	d x b
-1.3182703	e x b
-1.3590127	f x b
-1.740726	u x b
-1.6683906	x x b
-1.9366213	i x b
-1.7277333	m x b
-1.983014	q x b
-1.7756503	s x b
-1.7062219	r x b
-1.8413192	t x b
-1.4757736	p x b
-1.3268745	k x b
-2.9383647	v x b
-1.5257632	l x b
-1.4960676	o x b
-1.5256897	j x b
-1.6220316	w x b
-0.97420645	g i b
-1.1022043	h i b
-1.1709858	a i b
-0.88464797	b i b
-0.9385807	c i b
-1.0530885	d i b
-1.4351369	e i b
-0.9967381	f i b
-1.1846821	u i b
-1.3207648	x i b
-1.4053307	i i b
-1.2955241	m i b
-1.0454577	q i b
-1.2644049	r i b
-1.556911	t i b
-0.8820587	p i b
-1.2870708	k i b
-1.5163028	v i b
-1.4121535	l i b
-1.0836757	n i b
-1.1220189	o i b
-1.0957978	j i b
-0.9821848	w i b
-1.2240328	g m b
-1.5335026	h m b
-1.9498146	a m b
-1.1677814	b m b
-1.3711996	c m b
-1.3435645	d m b
-1.5589246	e m b
-1.6795565	f m b
-1.9670488	u m b
-1.4014941	x m b
-1.5640581	i m b
-2.1374562	m m b
-1.7739089	q m b
-2.435047	r m b
-1.7651513	p m b
-1.7433751	k m b
-1.7305098	v m b
-1.599978	l m b
-1.8652864	n m b
-1.7511113	o m b
-2.0073047	j m b
-1.5117849	w m b
-1.6548289	g q b
-0.9792261	h q b
-1.0559626	a q b
-1.0302339	b q b
-0.7860163	c q b
-1.0361464	d q b
-1.1839281	e q b
-1.637711	f q b
-1.4462194	u q b
-1.630725	x q b
-1.3039284	i q b
-1.9367915	m q b
-1.8525181	q q b
-1.692061	s q b
-1.7250023	r q b
-1.6979988	t q b
-1.6082542	p q b
-1.3381284	k q b
-2.5948133	v q b
-0.7538991	l q b
-1.5207767	n q b
-2.1856782	o q b
-1.2628958	j q b
-1.7360429	w q b
-0.8254773	g s b
-0.76840377	h s b
-0.7581713	a s b
-0.7954759	b s b
-0.8357957	c s b
-0.7231125	d s b
-0.90421635	e s b
-0.7415273	f s b
-1.1690481	u s b
-1.7358683	x s b
-1.0143191	i s b
-1.1676193	m s b
-1.2516689	q s b
-1.60837	s s b
-1.4001765	r s b
-1.3508291	t s b
-1.324151	p s b
-0.7737422	k s b
-1.5001	v s b
-0.74416935	l s b
-0.69852024	n s b
-0.7854248	o s b
-1.1807253	j s b
-1.095229	w s b
-0.7427155	g r b
-0.9051804	h r b
-1.2646043	a r b
-0.77986366	b r b
-1.1762888	c r b
-1.5423614	d r b
-1.2567137	e r b
-1.1169305	f r b
-1.5477068	u r b
-1.5700996	x r b
-1.1652253	i r b
-1.013346	m r b
-1.3080765	q r b
-1.3935285	s r b
-1.3938513	r r b
-1.6534294	t r b
-1.224449	p r b
-0.9869472	k r b
-1.5801619	v r b
-1.4499846	n r b
-1.2588954	o r b
-1.5123554	j r b
-1.6762996	w r b
-0.7027645	g t b
-0.9168671	h t b
-1.1079125	a t b
-1.2034125	b t b
-1.1954501	c t b
-1.6110498	d t b
-1.166517	e t b
-1.6173555	f t b
-2.1614547	u t b
-1.6770219	x t b
-1.6743808	i t b
-1.7710245	m t b
-1.6529737	q t b
-2.0962665	s t b
-1.5202001	r t b
-1.8817494	t t b
-1.1873639	p t b
-1.7100784	k t b
-2.0660176	v t b
-1.5531626	l t b
-1.2667246	o t b
-1.5341603	j t b
-1.1085892	w t b
-0.95741826	g p b
-1.3272687	h p b
-1.451797	a p b
-1.265585	b p b
-1.378404	c p b
-1.8559753	d p b
-1.2525964	e p b
-1.4285351	f p b
-1.5380753	u p b
-1.4280012	x p b
-1.9729995	i p b
-1.9012303	m p b
-2.296461	q p b
-1.586741	s p b
-1.3395618	r p b
-1.8814784	t p b
-1.7379774	p p b
-1.8028581	k p b
-1.5527098	v p b
-1.814329	l p b
-2.0477104	n p b
-1.7829973	o p b
-1.8627456	j p b
-1.4971992	w p b
-1.1218424	g k b
-0.910309	h k b
-0.8623762	a k b
-0.89839286	b k b
-0.91448325	c k b
-1.1647897	d k b
-1.0446994	e k b
-1.2663008	f k b
-1.3820572	u k b
-1.095292	x k b
-1.549197	i k b
-1.6841774	m k b
-1.2052195	q k b
-1.4140189	s k b
-1.3060116	r k b
-1.1566327	t k b
-1.803983	p k b
-1.4986676	k k b
-1.8116055	v k b
-1.0280898	l k b
-1.2368006	n k b
-1.3149478	o k b
-1.156616	j k b
-1.9142064	w k b
-1.6491973	h v b
-1.222574	a v b
-1.5048553	b v b
-1.6524665	c v b
-2.1842434	d v b
-1.1728151	e v b
-1.3143746	f v b
-2.06101	u v b
-2.524988	x v b
-1.6828809	i v b
-2.005961	q v b
-1.7729199	s v b
-1.3381475	r v b
-1.9025197	t v b
-1.5684006	p v b
-1.4415267	k v b
-1.9244134	v v b
-2.1827261	l v b
-1.6244549	j v b
-2.7578812	w v b
-1.1249725	g l b
-1.255161	h l b
-1.1431102	a l b
-1.0453357	b l b
-0.84156275	c l b
-1.1767122	d l b
-1.3838382	e l b
-0.96419907	f l b
-1.440478	u l b
-1.3495188	x l b
-1.7747614	i l b
-1.552997	m l b
-2.2994363	q l b
-1.6218431	s l b
-2.4281716	t l b
-1.3314751	p l b
-1.418783	k l b
-1.4379793	l l b
-1.674546	n l b
-1.4299369	o l b
-2.520629	j l b
-1.2443533	g n b
-1.5318345	h n b
-1.3734974	a n b
-0.9502907	b n b
-0.96704215	c n b
-1.2852908	d n b
-1.0484927	e n b
-1.4165213	f n b
-1.6135042	m n b
-1.6554574	s n b
-1.2730967	r n b
-1.9023148	t n b
-2.0747879	p n b
-1.3970162	k n b
-1.7655821	v n b
-1.7192918	l n b
-2.3998392	n n b
-1.7390152	o n b
-1.2509207	j n b
-1.5343827	g o b
-1.8136834	h o b
-0.93635416	a o b
-1.2717024	b o b
-0.79182816	c o b
-1.2232976	d o b
-0.99894196	e o b
-1.099846	x o b
-1.7107859	i o b
-1.8411984	m o b
-1.7650365	q o b
-1.5443188	p o b
-1.2479672	v o b
-1.7355251	l o b
-1.6711943	n o b
-1.5436841	o o b
-1.4608943	j o b
-1.159711	w o b
-0.69536084	g j b
-0.7731565	h j b
-0.7967602	a j b
-0.85910296	b j b
-0.9617329	c j b
-1.1008548	d j b
-1.1952562	e j b
-1.2524232	f j b
-1.2147359	u j b
-1.4676812	x j b
-1.6985449	i j b
-1.2941496	m j b
-1.6274359	q j b
-1.1958406	s j b
-1.0541353	r j b
-1.3991945	t j b
-1.9622107	p j b
-1.5105597	k j b
-0.9957075	v j b
-1.7209297	l j b
-1.693905	n j b
-1.4393396	o j b
-1.131219	j j b
-0.83425933	w j b
-1.9702156	g w b
-1.5104785	h w b
-2.387621	a w b
-1.8330381	b w b
-1.664504	c w b
-0.96701634	d w b
-1.438682	e w b
-1.4564981	u w b
-1.6736975	x w b
-1.695515	m w b
-1.5095235	q w b
-2.3177266	s w b
-2.0516775	r w b
-1.6583833	t w b
-2.5138757	p w b
-1.3146511	k w b
-1.3283653	v w b
-1.3698735	n w b
-1.5304722	w w b
-1.626769	g g c
-1.4424962	h g c
-1.308629	a g c
-1.0679553	b g c
-0.6803677	c g c
-1.2931252	d g c
-1.291119	e g c
-1.4304084	f g c
-1.6120437	u g c
-1.2344544	x g c
-1.9055984	i g c
-1.2487283	m g c
-0.8568944	q g c
-1.3770525	s g c
-1.4818183	r g c
-1.0310395	t g c
-1.0226791	p g c
-0.8289131	k g c
-1.5834816	v g c
-1.4925771	l g c
-1.568932	n g c
-1.4253857	o g c
-1.7002591	j g c
-1.8445042	w g c
-1.3890783	g h c
-1.5066658	h h c
-1.3303077	a h c
-1.1070846	b h c
-0.62139994	c h c
-0.9189267	d h c
-0.8043078	e h c
-1.3240572	f h c
-0.91295487	u h c
-1.1393982	x h c
-1.5110629	i h c
-1.1324902	m h c
-1.392048	q h c
-0.91757864	s h c
-1.28463	r h c
-1.5254358	t h c
-1.1386051	p h c
-1.068123	k h c
-1.0734117	v h c
-1.0529768	l h c
-1.2271984	n h c
-1.9869865	o h c
-1.3826928	j h c
-1.5481843	w h c
-1.0665414	g a c
-1.1433645	h a c
-1.407184	a a c
-1.009452	b a c
-0.56521726	c a c
-1.1723652	d a c
-0.8101262	e a c
-0.8467406	f a c
-1.0985899	u a c
-1.4378991	x a c
-1.3468608	i a c
-1.0911503	m a c
-1.0393106	q a c
-0.99519604	s a c
-0.87518585	r a c
-1.2917385	t a c
-1.2314899	p a c
-1.0157238	k a c
-0.7475878	v a c
-1.5478157	l a c
-1.2380723	n a c
-0.8735542	o a c
-1.2644637	j a c
-1.4562569	w a c
-1.0452664	g b c
-0.7595268	h b c
-0.4470796	a b c
-1.095748	b b c
-0.69728786	c b c
-0.73642826	d b c
-0.915135	e b c
-0.9770981	f b c
-0.9249397	u b c
-1.0544662	x b c
-0.66780025	i b c
-1.2381947	m b c
-0.6936373	q b c
-1.0152926	s b c
-0.9480709	r b c
-1.1658216	t b c
-0.99289393	p b c
-0.88917595	k b c
-0.8762002	v b c
-0.8630254	l b c
-1.0429862	n b c
-1.304966	o b c
-0.8801402	j b c
-0.77867895	w b c
-0.8257936	g c c
-0.7048792	h c c
-0.8813132	a c c
-0.77611756	b c c
-0.13986458	c c c
-0.83727	d c c
-0.77217424	e c c
-0.5479185	f c c
-0.78514206	u c c
-0.7157113	x c c
-0.9852311	i c c
-0.8140915	m c c
-0.8165711	q c c
-0.51884854	s c c
-0.7812035	r c c
-1.2905693	t c c
-0.84133923	p c c
-0.6644931	k c c
-0.77040714	v c c
-1.1054726	l c c
-0.84939533	n c c
-1.0607578	o c c
-0.98330134	j c c
-1.1670831	w c c
-0.7398033	g d c
-0.98503613	h d c
-1.1407565	a d c
-0.82840806	b d c
-0.6805639	c d c
-1.1399395	d d c
-0.44444203	e d c
-0.7669858	f d c
-0.45118174	u d c
-0.6206269	x d c
-0.720494	i d c
-0.7567569	m d c
-0.9514199	q d c
-1.1298141	s d c
-1.3112571	r d c
-1.0072188	t d c
-0.9660519	p d c
-1.104259	k d c
-1.5634599	v d c
-0.9095127	l d c
-1.1767678	n d c
-0.9141899	o d c
-0.7252257	j d c
-0.68056136	w d c
-0.95113057	g e c
-0.8295854	h e c
-0.9177738	a e c
-0.95040345	b e c
-0.6238071	c e c
-1.0931737	d e c
-1.264836	e e c
-0.9114411	f e c
-1.2489183	u e c
-0.8034348	x e c
-0.8669887	i e c
-1.2171668	m e c
-0.79713416	q e c
-0.9470523	s e c
-1.2197082	r e c
-1.1264946	t e c
-1.0764568	p e c
-1.0322281	k e c
-1.0539546	v e c
-1.0252088	l e c
-0.6744304	n e c
-1.5959473	o e c
-1.3482308	j e c
-0.8355773	w e c
-1.359857	g f c
-1.2640722	h f c
-1.0279676	a f c
-1.1568774	b f c
-0.46900243	c f c
-1.4576857	d f c
-1.0439575	e f c
-1.4397146	f f c
-1.1414584	u f c
-1.3551655	x f c
-1.3483305	i f c
-1.2233667	m f c
-1.3832164	q f c
-0.75248384	s f c
-1.712616	r f c
-1.4691848	p f c
-0.8870835	k f c
-1.1947784	v f c
-1.3388507	l f c
-1.3523952	n f c
-2.2223284	o f c
-1.2497855	j f c
-1.17525	w f c
-1.133548	g u c
-0.8585007	h u c
-1.6509378	a u c
-1.1006219	b u c
-0.78355366	c u c
-1.0886047	d u c
-1.0768466	e u c
-1.0591062	f u c
-1.5456027	u u c
-1.5895588	x u c
-1.7032658	i u c
-1.3135453	m u c
-1.4397612	q u c
-1.4665369	s u c
-1.8361254	r u c
-1.7971267	t u c
-1.4313216	p u c
-1.0288281	k u c
-1.5961125	v u c
-1.3066629	l u c
-1.145318	n u c
-1.9004428	o u c
-1.3227166	j u c
-1.413774	w u c
-1.403666	g x c
-1.327797	h x c
-1.5005288	a x c
-1.0115182	b x c
-1.3284134	c x c
-0.96043277	d x c
-1.3992503	e x c
-1.0574944	f x c
-1.4669931	u x c
-1.7075098	x x c
-1.5820068	i x c
-1.6592972	m x c
-1.868355	q x c
-1.5531101	s x c
-1.8812474	r x c
-1.6437166	t x c
-0.90776473	p x c
-1.325975	k x c
-1.7279605	v x c
-1.8250463	l x c
-0.88914216	n x c
-1.7124571	o x c
-1.5915484	j x c
-1.5028336	w x c
-1.5951387	g i c
-1.151592	h i c
-1.5228523	a i c
-1.7494913	b i c
-0.8301171	c i c
-1.4612762	d i c
-1.1864522	e i c
-1.0867903	f i c
-1.3959789	u i c
-1.4452199	x i c
-1.664328	i i c
-1.5161297	m i c
-1.9213954	q i c
-1.0900553	s i c
-1.2410007	r i c
-2.1637497	t i c
-1.2632747	p i c
-1.495311	k i c
-1.2105173	v i c
-2.5639646	l i c
-1.5476595	o i c
-1.8385684	j i c
-0.9821848	w i c
-1.2573979	g m c
-1.1152967	h m c
-0.8584235	a m c
-0.94927174	b m c
-1.0818264	c m c
-1.0735589	d m c
-1.1219715	e m c
-1.1719353	f m c
-1.7206684	u m c
-1.5452541	x m c
-1.1628029	i m c
-1.8346071	m m c
-1.2976689	q m c
-1.6042237	s m c
-1.1612319	r m c
-1.4630586	t m c
-1.3780924	p m c
-1.2123965	k m c
-1.385782	v m c
-2.1580195	l m c
-1.5123678	n m c
-1.9693688	o m c
-1.7021819	j m c
-1.3318146	w m c
-1.1789286	g q c
-1.3468318	h q c
-1.2872739	a q c
-1.4937661	b q c
-1.2020487	c q c
-1.3265779	d q c
-1.1052005	e q c
-0.7389334	f q c
-1.5376751	u q c
-1.6312594	x q c
-1.3722211	i q c
-1.3677294	m q c
-1.5268295	q q c
-1.692803	s q c
-2.0701497	r q c
-1.8257135	t q c
-1.4073852	p q c
-2.0075073	k q c
-1.4449545	v q c
-1.3454329	n q c
-0.99521786	o q c
-1.816781	j q c
-1.3471782	w q c
-1.1976526	g s c
-1.1995151	h s c
-0.8390966	a s c
-1.0171915	b s c
-0.72547376	c s c
-1.3306028	d s c
-1.0251513	e s c
-1.042146	f s c
-1.295585	u s c
-1.3345913	x s c
-0.8268269	i s c
-0.9742211	m s c
-1.4176028	q s c
-1.2989601	s s c
-1.3008909	r s c
-1.6012515	t s c
-1.0239453	p s c
-1.0610024	k s c
-1.236827	v s c
-1.1772606	l s c
-1.0957865	n s c
-0.70583016	o s c
-1.1807253	j s c
-1.6014723	w s c
-1.5971922	g r c
-1.4697678	h r c
-0.99079984	a r c
-0.983807	b r c
-0.8282436	c r c
-0.56692547	d r c
-0.9555734	e r c
-1.116131	f r c
-2.1949213	u r c
-1.9105167	x r c
-0.97200245	i r c
-1.0855379	m r c
-1.265098	q r c
-1.6319513	s r c
-1.7981199	r r c
-1.3511969	t r c
-1.6982245	p r c
-1.0859206	k r c
-1.919366	v r c
-1.2763948	l r c
-1.3508885	n r c
-1.1327797	o r c
-1.4028921	j r c
-1.8521956	w r c
-0.94482493	g t c
-0.98319024	h t c
-0.74001896	a t c
-0.47045833	b t c
-0.9525699	c t c
-0.7184421	d t c
-0.6358496	e t c
-0.81376904	f t c
-1.3409995	u t c
-1.0763118	x t c
-1.2032237	i t c
-1.0393561	m t c
-1.5434457	q t c
-1.795188	s t c
-1.7100708	r t c
-1.6272827	t t c
-0.88925177	p t c
-1.5346874	k t c
-1.0834811	v t c
-1.0370362	l t c
-1.1520839	n t c
-1.2626489	o t c
-0.553645	j t c
-1.2621174	w t c
-1.1652045	g p c
-1.3908991	h p c
-1.1511053	a p c
-1.0377668	b p c
-1.0487069	c p c
-0.9132294	d p c
-1.1276543	e p c
-1.1951504	f p c
-1.1005728	u p c
-1.3932908	x p c
-1.7814343	i p c
-1.2763283	m p c
-1.3705924	q p c
-1.586741	s p c
-1.3395618	r p c
-1.5875456	t p c
-1.9137995	p p c
-1.7243409	k p c
-1.3011469	v p c
-1.5703245	l p c
-2.0477104	n p c
-2.6900918	o p c
-1.7385671	j p c
-1.7904214	w p c
-1.2872392	g k c
-0.7611816	h k c
-0.88922584	a k c
-0.8261006	b k c
-0.6358083	c k c
-0.86937374	d k c
-1.0794133	e k c
-0.8865973	f k c
-1.5775357	u k c
-1.0164624	x k c
-1.5077866	i k c
-1.2543746	m k c
-1.4069805	q k c
-1.1559345	s k c
-1.1816211	r k c
-1.1196806	t k c
-1.5635647	p k c
-1.2428772	k k c
-1.4193883	v k c
-1.5701897	l k c
-1.4128976	n k c
-1.1685108	o k c
-1.37031	j k c
-1.9142064	w k c
-1.2303916	h v c
-1.2033126	a v c
-1.5553946	b v c
-1.1640741	c v c
-1.3538179	d v c
-1.4259524	e v c
-1.3376474	f v c
-2.0941436	u v c
-1.7757646	x v c
-1.1287174	i v c
-1.6711946	m v c
-1.6993284	q v c
-1.6565065	s v c
-1.5462418	r v c
-1.6723477	t v c
-1.6600405	p v c
-1.3703915	k v c
-1.765645	v v c
-1.5092287	l v c
-1.1998997	n v c
-1.4916084	o v c
-1.7891723	j v c
-2.6973817	w v c
-1.2164667	g l c
-0.6975744	h l c
-1.0169971	a l c
-0.880526	b l c
-1.0011836	c l c
-0.9621206	d l c
-0.73098904	e l c
-0.99750984	f l c
-1.169354	u l c
-1.4732525	i l c
-1.0321923	m l c
-1.6589167	q l c
-1.0475597	s l c
-0.98928577	r l c
-1.561699	t l c
-1.8535943	p l c
-1.4294435	k l c
-1.1388804	v l c
-1.39489	l l c
-1.7130129	n l c
-1.2974933	o l c
-1.4627559	j l c
-0.82222533	w l c
-1.2394444	g n c
-1.2419306	h n c
-1.2315992	a n c
-1.287232	b n c
-0.7037964	c n c
-0.9364785	d n c
-0.9341964	e n c
-1.346667	f n c
-1.9489118	u n c
-1.4054611	x n c
-1.6436728	i n c
-1.6522461	m n c
-1.4369919	q n c
-1.3455216	s n c
-1.877934	t n c
-1.9716909	p n c
-1.3946588	k n c
-1.75124	v n c
-1.6157392	l n c
-1.6905571	n n c
-1.831744	o n c
-2.116295	w n c
-1.6320218	g o c
-1.668473	h o c
-1.7905328	a o c
-2.4216557	b o c
-0.64314497	c o c
-1.2232976	d o c
-1.2575796	e o c
-1.3334686	f o c
-1.4566128	u o c
-1.191725	x o c
-2.3650267	i o c
-1.535802	m o c
-1.8858591	r o c
-1.8455995	p o c
-1.5039892	k o c
-1.5477697	v o c
-1.7355251	l o c
-2.712769	o o c
-1.3805379	g j c
-1.0655205	h j c
-0.7007422	a j c
-1.2788243	b j c
-0.82736635	c j c
-0.5794884	d j c
-0.984919	e j c
-1.0661191	f j c
-0.9664609	u j c
-1.64488	x j c
-1.1215411	i j c
-1.3615682	m j c
-0.8864726	q j c
-1.3263862	s j c
-1.3176719	r j c
-1.1969814	t j c
-1.6125178	p j c
-1.3859097	k j c
-1.1061573	v j c
-1.9405954	l j c
-2.7057998	n j c
-1.0279602	o j c
-1.3826613	j j c
-2.6595876	g w c
-0.8896563	h w c
-0.74450034	a w c
-1.3442832	b w c
-0.86646366	c w c
-1.3402239	d w c
-0.8715725	e w c
-1.2587135	u w c
-2.9211144	x w c
-2.177149	i w c
-1.6909488	m w c
-1.5074713	q w c
-1.3120687	s w c
-2.0463939	r w c
-1.7205207	p w c
-1.312203	k w c
-2.6222987	v w c
-1.3654503	n w c
-2.1176825	o w c
-2.3782663	w w c
-1.8154008	g g d
-1.5216111	h g d
-1.0456005	a g d
-1.4160842	b g d
-1.0632952	c g d
-0.77530044	d g d
-1.354436	e g d
-1.3867365	f g d
-1.4117098	u g d
-1.6892542	x g d
-0.710371	i g d
-1.4151	m g d
-1.4336888	q g d
-1.2807724	s g d
-1.3835984	r g d
-0.9361805	t g d
-1.5426346	p g d
-1.5073239	k g d
-1.5834816	v g d
-0.9425807	l g d
-1.5176983	n g d
-1.81451	o g d
-1.1673784	j g d
-1.7186722	w g d
-1.6058402	g h d
-1.848483	h h d
-1.6659292	a h d
-1.3215663	b h d
-1.7136936	c h d
-0.85287726	d h d
-1.5283062	e h d
-1.5626934	f h d
-1.2298735	u h d
-1.8426852	x h d
-1.5901543	i h d
-1.4976954	m h d
-1.9873638	q h d
-1.6831988	s h d
-1.6750991	r h d
-1.6038394	t h d
-1.5933434	p h d
-1.4409087	k h d
-2.729338	v h d
-1.0529768	l h d
-1.5676391	n h d
-1.9073191	o h d
-1.6814528	j h d
-2.5800369	w h d
-1.2899246	g a d
-1.507421	h a d
-1.6727916	a a d
-1.4355073	b a d
-1.3100551	c a d
-0.50008583	d a d
-1.3934062	e a d
-0.78895503	f a d
-1.151067	u a d
-1.4595944	x a d
-2.107187	i a d
-1.1877435	m a d
-1.439945	q a d
-1.4710242	s a d
-1.3466661	r a d
-1.5210993	t a d
-1.6183877	p a d
-1.3735685	k a d
-1.0062487	v a d
-1.0887495	l a d
-1.3850766	n a d
-1.2050364	o a d
-1.6543013	j a d
-0.9764921	w a d
-1.2924101	g b d
-0.98690295	h b d
-1.1337847	a b d
-1.5802633	b b d
-1.2604489	c b d
-0.68388987	d b d
-1.2144513	e b d
-0.9786352	f b d
-1.1411227	u b d
-1.4612582	x b d
-1.3402523	i b d
-1.4664612	m b d
-1.53212	q b d
-1.6013652	s b d
-1.7159302	r b d
-1.4082139	t b d
-0.96548307	p b d
-1.4072058	k b d
-0.97360337	v b d
-1.3206226	l b d
-1.2679567	n b d
-1.8182204	o b d
-1.4361373	j b d
-1.6269568	w b d
-1.2200333	g c d
-0.999892	h c d
-1.0548713	a c d
-0.54381335	b c d
-1.4500167	c c d
-0.6975492	d c d
-1.009891	e c d
-0.9783687	f c d
-1.1366456	u c d
-1.3715317	x c d
-1.2070494	i c d
-1.1704402	m c d
-1.0580547	q c d
-1.6083057	s c d
-0.9411533	r c d
-1.2067337	t c d
-1.0394474	p c d
-1.2175517	k c d
-1.3795736	v c d
-0.9708528	l c d
-1.3279511	n c d
-1.5422378	o c d
-0.66083384	j c d
-0.7467225	w c d
-1.022666	g d d
-0.87989724	h d d
-0.921176	a d d
-1.1156787	b d d
-1.0731118	c d d
-0.16058595	d d d
-1.0217388	e d d
-0.90741646	f d d
-1.4243721	u d d
-1.255013	x d d
-1.1686046	i d d
-1.1816938	m d d
-0.9159808	q d d
-1.4619355	s d d
-0.9658295	r d d
-0.8151599	t d d
-1.8219738	p d d
-1.2534212	k d d
-0.86959153	v d d
-0.89405346	l d d
-1.0414317	n d d
-1.4232361	j d d
-1.4517386	w d d
-0.79247636	g e d
-1.0672454	h e d
-1.200662	a e d
-1.1798298	b e d
-1.0928469	c e d
-0.8944679	d e d
-1.3130553	e e d
-0.5894183	f e d
-1.2065258	u e d
-0.90729344	x e d
-1.2115726	i e d
-1.2659776	m e d
-0.85082483	q e d
-1.3096231	s e d
-1.4112681	r e d
-1.1707339	t e d
-1.1836982	p e d
-1.2009871	k e d
-0.88996315	v e d
-0.91263074	l e d
-0.75958776	n e d
-0.9780408	o e d
-1.0325737	j e d
-0.8405964	w e d
-1.1167687	g f d
-1.1338737	h f d
-0.88514495	a f d
-1.2015557	b f d
-1.0392425	c f d
-0.83998203	d f d
-1.1679965	e f d
-1.538418	f f d
-1.0560037	u f d
-1.4307921	x f d
-1.2381781	i f d
-1.2684443	m f d
-1.0824751	q f d
-1.3706713	s f d
-1.4903305	r f d
-1.4081383	t f d
-1.6621716	p f d
-1.3238093	k f d
-1.1150264	v f d
-0.8551575	l f d
-1.2909337	n f d
-1.59436	o f d
-1.3359942	j f d
-2.481645	w f d
-0.9294246	g u d
-1.0414517	h u d
-0.5128659	a u d
-1.4090984	b u d
-0.79578555	c u d
-1.2433282	d u d
-0.97596717	e u d
-1.1235182	f u d
-1.5593843	u u d
-1.3998305	x u d
-0.7255651	i u d
-1.0127515	m u d
-1.529696	q u d
-1.4887959	s u d
-1.9149727	r u d
-1.6213129	t u d
-1.6734695	p u d
-1.3591874	k u d
-1.381372	v u d
-1.6068615	l u d
-1.1230414	n u d
-0.97692996	o u d
-1.524831	j u d
-1.780157	w u d
-1.2150185	g x d
-1.6180152	h x d
-1.4406904	a x d
-1.3278462	b x d
-1.7073772	c x d
-1.0445514	d x d
-1.3197898	e x d
-2.7642536	f x d
-1.8700279	u x d
-2.383093	x x d
-1.2590313	i x d
-2.5619435	m x d
-2.2894313	q x d
-2.4428763	s x d
-1.9185821	r x d
-1.6867326	k x d
-2.99886	v x d
-1.6597761	l x d
-1.5969762	j x d
-1.9305842	w x d
-1.2119209	g i d
-1.2422984	h i d
-1.4711082	a i d
-1.5628483	b i d
-1.5379746	c i d
-1.1172111	d i d
-1.1951319	e i d
-1.353797	f i d
-1.6504531	u i d
-2.0871716	x i d
-2.0032172	i i d
-1.4697118	m i d
-1.6177443	q i d
-2.5243535	s i d
-1.8150191	r i d
-1.1638232	t i d
-2.2863183	p i d
-1.3405597	k i d
-1.5145355	v i d
-1.3787559	l i d
-1.8377706	n i d
-1.7192035	o i d
-1.949043	j i d
-0.9811594	w i d
-1.1606637	g m d
-1.0922867	h m d
-0.95500535	a m d
-1.003943	b m d
-1.0112466	c m d
-1.0114135	d m d
-1.1436747	e m d
-0.8762158	f m d
-1.4871098	u m d
-1.7670674	x m d
-1.2250181	i m d
-1.5496747	m m d
-1.7646372	q m d
-1.1508853	s m d
-1.5660374	r m d
-1.5869796	t m d
-1.1773698	p m d
-1.9461462	k m d
-1.4270788	v m d
-1.2789149	l m d
-1.3270266	n m d
-1.1682988	o m d
-1.7601691	j m d
-1.807691	w m d
-1.5424471	h q d
-1.440578	a q d
-1.8388406	b q d
-1.3470863	c q d
-1.4664593	d q d
-1.4067985	e q d
-1.518455	f q d
-2.2403529	u q d
-1.6323302	x q d
-1.8600639	i q d
-1.593267	m q d
-1.8045787	q q d
-1.732151	s q d
-2.0727007	r q d
-2.0116034	t q d
-1.7107533	p q d
-1.3418306	k q d
-1.7460246	v q d
-2.2411315	n q d
-2.8584752	j q d
-1.7497185	w q d
-1.2796184	g s d
-1.5278696	h s d
-1.3438743	a s d
-1.363016	b s d
-1.1791443	c s d
-1.0303115	d s d
-0.78837454	e s d
-0.7504777	f s d
-1.8737811	u s d
-2.0191941	x s d
-1.5931301	m s d
-1.8940188	q s d
-1.9980643	s s d
-1.8301659	r s d
-2.2603934	t s d
-1.3854985	p s d
-1.6749786	k s d
-2.2827063	v s d
-1.2211045	l s d
-2.5079126	n s d
-1.3701483	o s d
-1.4822054	j s d
-1.8270319	w s d
-1.609998	g r d
-1.3472881	h r d
-1.2048787	a r d
-1.6296276	b r d
-1.4029644	c r d
-0.83225644	d r d
-1.4535769	e r d
-1.0573208	f r d
-2.0155704	x r d
-1.663996	m r d
-2.4736376	q r d
-2.0318959	s r d
-2.5891001	r r d
-1.479775	t r d
-1.5344603	p r d
-2.0301652	k r d
-2.997716	v r d
-1.381164	l r d
-1.2820464	j r d
-1.8679609	w r d
-1.0026315	g t d
-2.3991687	h t d
-1.2569705	a t d
-1.6587636	b t d
-1.3702312	c t d
-0.7820184	d t d
-1.1315398	e t d
-1.4265673	f t d
-2.2264512	u t d
-1.7710829	x t d
-1.3766415	i t d
-1.4040302	m t d
-1.79604	q t d
-2.094492	s t d
-1.4611566	r t d
-1.8798771	t t d
-2.205747	p t d
-1.3153348	k t d
-1.6987023	v t d
-1.1900845	l t d
-1.1520839	n t d
-1.2626489	o t d
-2.2166865	j t d
-1.8019944	w t d
-1.7070085	g p d
-1.7327765	h p d
-1.4840567	a p d
-1.686108	b p d
-1.5412295	c p d
-0.5861728	d p d
-1.5554639	e p d
-1.6746578	f p d
-1.9663644	x p d
-1.9748974	i p d
-2.849035	m p d
-1.7577051	q p d
-1.5405068	s p d
-2.0100904	r p d
-2.1379573	p p d
-2.8435345	k p d
-2.5554755	v p d
-2.1256053	l p d
-2.723419	n p d
-2.0880167	o p d
-2.3427048	j p d
-1.799721	w p d
-1.4303823	g k d
-1.2975034	h k d
-1.3850307	a k d
-1.0993276	b k d
-1.3802769	c k d
-0.9313027	d k d
-1.0308293	e k d
-1.0118908	f k d
-1.2782599	u k d
-1.731603	x k d
-2.0752478	i k d
-1.7912346	m k d
-1.5046706	q k d
-1.7156775	s k d
-1.4821643	r k d
-1.3331012	t k d
-1.5068183	p k d
-1.6749223	k k d
-1.5175728	v k d
-1.4965501	l k d
-2.0191278	n k d
-1.1901934	j k d
-1.9326217	w k d
-1.739947	h v d
-0.95633155	a v d
-2.4135752	b v d
-1.6038663	c v d
-0.8710009	d v d
-2.7402375	e v d
-1.2894156	f v d
-2.355876	u v d
-3.1352	x v d
-1.2470318	i v d
-2.574735	m v d
-2.1686308	q v d
-1.3394852	s v d
-1.7493529	r v d
-1.7690895	t v d
-1.5632006	p v d
-1.1382267	k v d
-2.067398	v v d
-0.8632208	l v d
-1.1998997	n v d
-2.1860907	o v d
-1.3165114	j v d
-2.0894413	w v d
-0.9204209	g l d
-1.4762633	h l d
-1.703615	a l d
-1.4655368	b l d
-1.2576323	c l d
-0.72535527	d l d
-1.0828896	e l d
-0.97482145	f l d
-1.8344883	u l d
-1.1726761	x l d
-1.4749328	i l d
-1.8763239	m l d
-2.2792974	q l d
-1.9167069	s l d
-1.4674729	r l d
-1.3409743	t l d
-1.6789352	p l d
-2.2214794	k l d
-1.2358813	v l d
-1.1053939	l l d
-2.1169655	n l d
-1.9266758	j l d
-1.469999	h n d
-1.0685122	a n d
-1.382895	b n d
-1.3531686	c n d
-1.2813548	d n d
-0.9972436	e n d
-1.3076748	f n d
-1.6168718	x n d
-1.814297	i n d
-2.3473718	m n d
-1.7318401	q n d
-1.4246671	s n d
-1.393932	r n d
-2.2733486	t n d
-1.9716909	p n d
-1.5332187	k n d
-2.3728843	v n d
-1.8367492	l n d
-2.2111893	n n d
-1.7801393	o n d
-2.7611823	j n d
-1.2399157	w n d
-1.3279014	g o d
-1.5119975	h o d
-2.4482524	a o d
-0.89416885	b o d
-1.351773	c o d
-0.5992869	d o d
-1.181705	e o d
-1.3312368	f o d
-1.3547133	u o d
-1.6433332	x o d
-2.3416243	i o d
-1.6139337	m o d
-1.7416309	q o d
-1.3917394	s o d
-1.1216624	t o d
-2.3532476	p o d
-1.8903546	k o d
-1.9170343	n o d
-1.7575668	j o d
-1.6801078	g j d
-1.7098514	h j d
-1.9145494	a j d
-1.5949721	b j d
-1.5088743	c j d
-1.1568568	d j d
-2.202622	e j d
-1.7686441	f j d
-2.2003658	u j d
-1.9173144	i j d
-1.7272093	m j d
-1.5656855	q j d
-1.7840226	s j d
-1.9248894	r j d
-1.806872	t j d
-2.175101	p j d
-2.2582355	k j d
-1.6631154	v j d
-2.7451255	l j d
-1.8439454	o j d
-1.5333861	j j d
-1.7769855	g w d
-2.0047731	h w d
-1.5594671	a w d
-1.4313332	b w d
-1.6736107	c w d
-1.3752987	e w d
-2.6047385	f w d
-1.8366438	u w d
-1.6773874	x w d
-1.2943885	m w d
-2.62818	q w d
-1.672929	t w d
-1.3815662	k w d
-2.7189248	v w d
-2.1534245	n w d
-2.7653577	w w d
-1.3507757	g g e
-0.5976826	h g e
-0.91533303	a g e
-0.96128047	b g e
-0.804042	c g e
-0.81409717	d g e
-0.58076745	e g e
-1.161349	f g e
-1.1416762	u g e
-0.63868	x g e
-1.0560125	i g e
-0.5740496	m g e
-1.2310874	q g e
-1.2020117	s g e
-1.2359782	r g e
-0.79240835	t g e
-0.98801374	p g e
-1.0109944	k g e
-1.0284448	v g e
-1.0896518	l g e
-1.2163436	n g e
-1.17276	o g e
-0.78470224	j g e
-1.365005	w g e
-0.99823874	g h e
-1.4188113	h h e
-1.0925325	a h e
-0.82085216	b h e
-0.7637303	c h e
-0.8574971	d h e
-0.6906592	e h e
-1.035723	f h e
-0.9775097	u h e
-1.2609226	x h e
-1.3116559	i h e
-0.8310329	m h e
-1.0028919	q h e
-1.135466	s h e
-1.2583307	r h e
-1.2087053	t h e
-1.2055169	p h e
-1.0468924	k h e
-0.9440416	v h e
-1.2779685	l h e
-1.1277289	n h e
-1.4534519	o h e
-0.79529107	j h e
-0.76492524	w h e
-1.0915002	g a e
-1.2645931	h a e
-1.5773112	a a e
-1.3569503	b a e
-1.0959431	c a e
-1.2150134	d a e
-0.50501645	e a e
-1.1865313	f a e
-1.3624105	u a e
-1.3879762	x a e
-1.2678736	i a e
-1.0555348	m a e
-1.4563029	q a e
-1.2143272	s a e
-1.3624358	r a e
-1.9150987	t a e
-1.2516509	p a e
-1.2414933	k a e
-1.6108801	v a e
-1.1952684	l a e
-1.482755	n a e
-1.2578611	o a e
-1.1839597	j a e
-1.3303249	w a e
-0.9687443	g b e
-0.9399916	h b e
-1.4490938	a b e
-1.3563514	b b e
-1.2773991	c b e
-1.2162567	d b e
-0.6174702	e b e
-1.0885011	f b e
-1.2258089	u b e
-1.0943431	x b e
-1.7626708	i b e
-0.95791185	m b e
-1.3702788	q b e
-1.4878565	s b e
-1.4169629	r b e
-1.3581941	t b e
-1.8774002	p b e
-1.6291859	k b e
-1.4970384	l b e
-1.3431243	n b e
-1.004251	o b e
-1.3758665	j b e
-1.3163334	w b e
-0.9869153	g c e
-0.8757072	h c e
-0.8571558	a c e
-0.97310567	b c e
-1.3856364	c c e
-1.0552621	d c e
-0.6647582	e c e
-1.1809602	f c e
-1.3187107	u c e
-1.1956959	x c e
-1.0391004	i c e
-1.0720258	m c e
-1.0253195	q c e
-1.0039062	s c e
-1.4506708	r c e
-1.403689	t c e
-1.243513	p c e
-1.0938221	k c e
-1.1521281	v c e
-1.1767757	l c e
-1.5773966	n c e
-1.3177685	o c e
-1.1574601	j c e
-1.1447952	w c e
-0.833127	g d e
-0.90095305	h d e
-1.0444907	a d e
-0.9118489	b d e
-0.39918464	c d e
-1.3099531	d d e
-0.8617054	e d e
-0.7376314	f d e
-1.1378478	u d e
-1.0111023	x d e
-1.1059593	i d e
-1.0102382	m d e
-0.8825087	q d e
-0.7292024	s d e
-1.0621104	r d e
-1.0174192	t d e
-1.394789	p d e
-0.83239114	k d e
-0.92457	v d e
-1.1942308	l d e
-0.8996176	n d e
-2.273683	o d e
-1.2465082	j d e
-1.4487599	w d e
-0.6497526	g e e
-0.7387584	h e e
-0.8194454	a e e
-0.63900024	b e e
-0.73039687	c e e
-0.81293076	d e e
-0.16521068	e e e
-0.75132054	f e e
-0.7244588	u e e
-0.8223139	x e e
-1.0256754	i e e
-0.61766046	m e e
-0.87430865	q e e
-0.9684954	s e e
-0.942867	r e e
-1.0675861	t e e
-0.8411972	p e e
-0.90574557	k e e
-0.8818445	v e e
-1.1341958	l e e
-1.2703875	n e e
-0.8917885	o e e
-0.9153236	j e e
-1.0115937	w e e
-0.52340233	g f e
-0.51404285	h f e
-0.91271096	a f e
-0.9631204	b f e
-1.1023778	c f e
-0.705246	d f e
-0.79910046	e f e
-1.250568	f f e
-1.2714312	u f e
-0.5726327	x f e
-1.2147341	i f e
-1.1816528	m f e
-1.0824751	q f e
-0.8398854	s f e
-0.7774132	r f e
-0.929951	t f e
-0.32185292	p f e
-0.9833191	k f e
-1.152829	v f e
-0.93481475	l f e
-0.8205172	n f e
-1.3557512	o f e
-0.8675916	j f e
-1.2708384	w f e
-1.0086069	g u e
-1.0926116	h u e
-1.1195102	a u e
-0.79970795	b u e
-1.1288911	c u e
-0.88464105	d u e
-0.80344766	e u e
-0.8983439	f u e
-1.3265587	u u e
-1.6337168	x u e
-1.1390129	i u e
-1.2556124	m u e
-1.3540347	q u e
-1.4453633	s u e
-1.1532053	r u e
-1.636017	t u e
-1.04667	p u e
-0.9040283	k u e
-1.5627084	v u e
-1.2653459	l u e
-0.811284	n u e
-1.061081	o u e
-1.0233649	j u e
-1.413774	w u e
-1.1546305	g x e
-1.3342288	h x e
-1.3593177	a x e
-0.9068188	b x e
-1.2094245	c x e
-1.7165675	d x e
-1.4635358	e x e
-1.4038401	f x e
-1.5638111	u x e
-1.9503505	x x e
-1.2808154	i x e
-2.4830105	m x e
-1.7782581	q x e
-1.5251044	s x e
-2.0270603	r x e
-1.6851356	t x e
-1.7761544	p x e
-1.5815057	k x e
-1.4863877	v x e
-2.4702103	l x e
-1.4328113	n x e
-2.4841175	o x e
-1.3280871	j x e
-1.6790632	w x e
-1.1827717	g i e
-1.3587018	h i e
-1.488815	a i e
-1.5235356	b i e
-1.1754396	c i e
-1.404878	d i e
-0.7417268	e i e
-1.1222413	f i e
-1.4838834	u i e
-2.0963082	x i e
-1.7065004	i i e
-2.1633775	m i e
-1.925662	q i e
-1.5416675	r i e
-1.5615909	t i e
-1.7911277	p i e
-1.7379726	k i e
-1.9278196	l i e
-1.535806	n i e
-1.5505416	o i e
-2.102161	j i e
-1.1182542	w i e
-0.66054314	g m e
-0.8349791	h m e
-1.0940456	a m e
-0.96084	b m e
-0.6688275	c m e
-0.9902249	d m e
-0.71791035	e m e
-0.7922646	f m e
-1.1195531	u m e
-1.7670674	x m e
-1.2976607	i m e
-1.1818848	m m e
-1.2976689	q m e
-1.1964873	s m e
-1.4137628	r m e
-1.2213324	t m e
-1.0067798	p m e
-1.2635875	k m e
-1.1722753	v m e
-1.5983449	l m e
-1.5320723	n m e
-1.2165911	o m e
-1.2073544	j m e
-1.3318146	w m e
-1.0819323	g q e
-1.522404	h q e
-1.1448005	a q e
-1.4213334	b q e
-1.1167772	c q e
-1.762135	d q e
-1.0005867	e q e
-1.1807071	f q e
-1.2990313	u q e
-1.8811415	x q e
-1.8516579	i q e
-1.9410812	m q e
-1.7569308	q q e
-2.0720305	s q e
-2.1368957	r q e
-1.2593371	t q e
-2.0025096	p q e
-1.8828416	k q e
-2.0320582	v q e
-1.5646863	l q e
-1.2393593	o q e
-1.2634192	j q e
-1.5669924	w q e
-0.7957341	g s e
-1.1864839	h s e
-1.3274581	a s e
-1.199809	b s e
-1.2073925	c s e
-1.1119338	d s e
-1.0983434	e s e
-1.7851406	f s e
-1.7308396	u s e
-2.2533329	x s e
-1.3527374	i s e
-1.526416	m s e
-1.8151629	q s e
-1.7112602	s s e
-1.6432961	r s e
-2.2603934	t s e
-1.6855304	p s e
-1.4329188	k s e
-2.2827063	v s e
-1.3236295	l s e
-1.4761754	n s e
-2.061249	o s e
-1.4408084	j s e
-1.3021437	g r e
-1.0618169	h r e
-1.0506923	a r e
-1.4603888	b r e
-1.5127983	c r e
-1.5408278	d r e
-1.2069185	e r e
-1.6187326	f r e
-1.5977091	u r e
-1.7072341	x r e
-1.8222914	i r e
-1.1730108	m r e
-1.7681175	q r e
-1.841482	s r e
-1.7634295	r r e
-2.1284456	t r e
-1.6982245	p r e
-1.5489972	k r e
-1.6205285	v r e
-1.6641768	l r e
-1.749791	n r e
-2.0361524	o r e
-1.5109998	j r e
-1.5476023	w r e
-0.593364	g t e
-0.98319024	h t e
-1.445411	a t e
-1.361284	b t e
-0.973714	c t e
-0.6843322	d t e
-0.8732476	e t e
-0.521	f t e
-1.8169764	u t e
-1.2974579	x t e
-1.9795545	i t e
-1.3200443	m t e
-2.1850612	q t e
-1.5917171	s t e
-1.4611566	r t e
-1.7673223	t t e
-0.75222445	p t e
-0.8863417	k t e
-1.939695	v t e
-1.1900845	l t e
-1.026941	n t e
-0.9609254	o t e
-1.5304326	j t e
-1.5038939	w t e
-0.836774	g p e
-1.2660313	h p e
-1.3957629	a p e
-0.9596517	b p e
-1.2611504	c p e
-1.1251779	d p e
-0.98281807	e p e
-1.0984361	f p e
-1.1418607	u p e
-1.4280012	x p e
-1.5045887	i p e
-1.7266556	m p e
-1.2789125	q p e
-0.9899941	s p e
-1.0247693	r p e
-2.3684764	t p e
-1.8724802	p p e
-1.9560568	k p e
-2.0566168	v p e
-1.5703245	l p e
-1.6506743	n p e
-1.4844573	o p e
-1.8627456	j p e
-1.2001264	w p e
-0.87675416	g k e
-1.3082187	h k e
-1.4470901	a k e
-1.2701449	b k e
-1.3481073	c k e
-1.3258817	d k e
-0.8579487	e k e
-1.5681713	f k e
-1.3451245	u k e
-1.3166591	x k e
-1.9494653	i k e
-1.5028118	m k e
-1.6187282	s k e
-1.6063936	r k e
-1.5549431	t k e
-1.5068183	p k e
-1.9563606	k k e
-1.5175728	v k e
-1.7567396	l k e
-1.5392104	n k e
-2.385388	o k e
-1.6458687	j k e
-1.9326217	w k e
-0.7558118	g v e
-0.5125316	h v e
-0.7866368	a v e
-0.9260826	b v e
-0.71382934	c v e
-0.82361686	d v e
-0.529407	e v e
-0.9884565	f v e
-1.8133277	u v e
-1.474857	x v e
-0.91870946	i v e
-1.3717242	m v e
-0.9619152	q v e
-1.1909362	s v e
-1.3032744	r v e
-1.3707851	t v e
-1.0856922	p v e
-1.4349346	k v e
-1.4426545	v v e
-0.9704435	l v e
-0.8980001	n v e
-0.6430363	o v e
-1.3149972	j v e
-1.0987905	w v e
-0.8684614	g l e
-1.1743207	h l e
-0.84665287	a l e
-1.1350623	b l e
-0.9896169	c l e
-1.2262869	d l e
-1.1584055	e l e
-1.022117	f l e
-1.5727558	u l e
-1.6382452	x l e
-1.5511895	i l e
-1.684228	m l e
-1.2688373	q l e
-1.2683066	s l e
-1.2437962	r l e
-1.4364114	t l e
-2.030346	p l e
-1.2268595	k l e
-1.353971	v l e
-1.3226862	l l e
-1.4572041	n l e
-0.992718	o l e
-2.481226	j l e
-0.89414597	g n e
-0.82722604	h n e
-0.84875655	a n e
-0.987704	b n e
-0.9456787	c n e
-0.8476295	d n e
-0.9339533	e n e
-0.82149553	f n e
-1.4745562	u n e
-1.1380608	x n e
-1.8092784	i n e
-1.2211432	m n e
-2.3159108	q n e
-0.9470895	s n e
-1.1673799	r n e
-1.4108981	t n e
-1.2438248	p n e
-1.8330373	k n e
-1.2768844	v n e
-2.6251688	l n e
-1.9102066	n n e
-1.4763902	o n e
-1.110646	w n e
-0.6612699	g o e
-0.9326815	h o e
-0.757437	a o e
-0.85922575	b o e
-0.87546515	c o e
-1.1426799	d o e
-0.76007164	e o e
-0.91481364	f o e
-1.447383	u o e
-1.4626846	x o e
-1.6849189	i o e
-1.3074646	m o e
-1.0956092	q o e
-1.4719718	s o e
-1.7797929	r o e
-1.4507447	p o e
-1.7039782	k o e
-1.2342111	v o e
-1.4667003	l o e
-2.5232046	n o e
-1.360953	o o e
-0.85611063	j o e
-2.0821311	w o e
-0.9606142	g j e
-1.1988126	h j e
-1.4185133	a j e
-1.4917158	b j e
-1.2436745	c j e
-1.1863348	d j e
-0.87899244	e j e
-0.8234194	f j e
-1.1413043	u j e
-1.4705896	x j e
-1.6815261	i j e
-1.282895	m j e
-1.6307081	q j e
-1.8496809	s j e
-2.7527163	r j e
-1.5222998	k j e
-1.3526176	v j e
-1.724847	l j e
-1.6975834	n j e
-1.2971636	o j e
-1.6903923	j j e
-1.9876453	w j e
-0.48172146	g w e
-0.7949734	h w e
-0.94080496	a w e
-1.0963849	b w e
-1.4590905	c w e
-0.85197186	d w e
-0.90045965	e w e
-0.6920031	f w e
-1.2962366	u w e
-1.8399808	x w e
-0.6897694	i w e
-1.3761466	m w e
-1.2252396	q w e
-1.5159025	s w e
-1.1481578	r w e
-1.0429657	t w e
-1.5869384	p w e
-1.1295029	k w e
-1.8649763	v w e
-0.6365668	l w e
-1.9780517	n w e
-1.1946443	o w e
-1.4876493	j w e
-1.370661	w w e
-1.7206765	g g f
-0.99763066	h g f
-1.0340874	a g f
-1.4272732	b g f
-1.5125573	c g f
-1.6136955	d g f
-1.5256194	e g f
-0.7089425	f g f
-1.7115022	u g f
-1.5543896	x g f
-1.4275906	i g f
-1.9977298	m g f
-1.658834	q g f
-1.5067469	s g f
-1.9396818	t g f
-1.2957994	p g f
-1.6382842	k g f
-1.179138	v g f
-1.5003093	l g f
-1.2181445	n g f
-1.5254871	o g f
-1.0613502	j g f
-1.4821817	g h f
-1.5877953	h h f
-0.8338901	a h f
-1.203346	b h f
-1.1593157	c h f
-1.1964928	d h f
-1.1344433	e h f
-0.86328506	f h f
-1.085613	u h f
-1.6421223	x h f
-1.006976	i h f
-1.2860804	m h f
-0.7507217	q h f
-0.91757864	s h f
-1.4884471	r h f
-0.52895236	t h f
-1.7691356	p h f
-1.5930295	k h f
-1.4793103	v h f
-1.1446372	l h f
-1.3912454	n h f
-1.6844994	o h f
-1.7352071	j h f
-1.2511944	w h f
-1.6961411	g a f
-1.4010762	h a f
-1.7262988	a a f
-1.470922	b a f
-1.1167488	c a f
-1.1277907	d a f
-1.3856639	e a f
-0.77829313	f a f
-1.7359523	u a f
-0.88678557	x a f
-1.428913	i a f
-1.4884896	m a f
-1.6413813	q a f
-0.9886493	s a f
-1.6968086	r a f
-1.4815328	t a f
-1.3882985	p a f
-1.2654109	k a f
-1.3090932	v a f
-1.1088018	l a f
-1.3866035	n a f
-1.5824244	j a f
-2.3167417	w a f
-1.9555185	g b f
-1.6284676	h b f
-1.8836685	a b f
-1.8042843	b b f
-1.5990747	c b f
-1.6635646	d b f
-1.6150066	e b f
-0.5789355	f b f
-1.6730404	u b f
-1.4631753	x b f
-1.4379486	i b f
-1.8072307	m b f
-1.8767068	q b f
-1.7695789	s b f
-1.8501222	r b f
-1.6149088	t b f
-1.3143114	p b f
-1.6755418	k b f
-0.79733825	v b f
-1.4981619	l b f
-1.0721513	n b f
-1.5076504	j b f
-1.2024546	g c f
-1.3076441	h c f
-1.1897459	a c f
-1.4170368	b c f
-1.4812592	c c f
-1.5540924	d c f
-1.3495258	e c f
-0.6151073	f c f
-1.5527596	u c f
-0.99783707	x c f
-1.5080034	i c f
-1.8303529	m c f
-1.3498951	q c f
-1.5669572	s c f
-1.726368	r c f
-1.4958874	t c f
-1.483738	p c f
-1.5883332	k c f
-1.2411358	v c f
-1.4774575	l c f
-1.4865029	n c f
-2.3998816	o c f
-1.7119108	j c f
-1.8446496	w c f
-1.0092256	g d f
-1.4928341	h d f
-1.028569	a d f
-0.97771657	b d f
-1.3481587	c d f
-1.6013663	d d f
-1.258159	e d f
-0.9754171	f d f
-1.5072092	u d f
-1.300876	x d f
-1.3045472	i d f
-1.3111795	m d f
-1.1545162	q d f
-1.3882215	s d f
-1.3633016	r d f
-1.4942013	t d f
-1.4538587	p d f
-1.0336317	k d f
-1.5653272	v d f
-1.2994744	l d f
-1.0092442	n d f
-2.2921052	o d f
-1.2197325	j d f
-1.5810729	g e f
-1.0653167	h e f
-1.2202141	a e f
-1.3186167	b e f
-0.9935467	c e f
-0.54954815	d e f
-1.518139	e e f
-0.9054783	f e f
-1.2717744	u e f
-1.220037	x e f
-1.2783222	i e f
-1.3389336	m e f
-1.0326941	q e f
-0.9630345	s e f
-1.0649822	r e f
-0.6731587	t e f
-1.201433	p e f
-1.2330804	k e f
-1.2990394	v e f
-0.9942127	l e f
-1.1951779	n e f
-1.4716268	o e f
-1.2903869	j e f
-1.9949291	w e f
-0.96192706	g f f
-1.0128846	h f f
-0.8792498	a f f
-0.81135225	b f f
-0.91307616	c f f
-0.9126023	d f f
-0.9465234	e f f
-0.12521142	f f f
-1.201339	u f f
-1.0982145	x f f
-1.0166109	i f f
-1.1624178	m f f
-0.92175806	q f f
-0.8708521	s f f
-0.9367864	r f f
-0.7078893	t f f
-1.080795	p f f
-1.0701108	k f f
-0.5993385	v f f
-0.93481475	l f f
-0.67535543	n f f
-0.7902353	o f f
-1.444879	j f f
-1.6932259	w f f
-1.61233	g u f
-0.9378929	h u f
-0.8637073	a u f
-1.3797318	b u f
-1.3623224	c u f
-1.0283328	d u f
-1.2564366	e u f
-1.1995825	f u f
-1.7086214	u u f
-1.4581866	x u f
-1.27834	i u f
-1.6153138	m u f
-2.9699874	q u f
-1.8386978	s u f
-2.0135307	r u f
-1.9528918	t u f
-1.6756021	p u f
-1.3604072	k u f
-1.9945033	v u f
-1.4624283	l u f
-2.2535644	n u f
-1.3815532	j u f
-2.2561343	w u f
-2.6653192	g x f
-1.327797	h x f
-0.99151635	a x f
-1.2288934	b x f
-0.8875332	c x f
-1.3070056	d x f
-1.4144517	e x f
-0.695971	f x f
-1.8643811	u x f
-1.7286859	x x f
-1.6912434	i x f
-1.3633138	m x f
-1.6602409	q x f
-1.8257893	s x f
-1.4715549	r x f
-1.6851356	t x f
-1.9807105	p x f
-1.2387662	k x f
-2.1482773	v x f
-1.5237187	l x f
-2.3726501	n x f
-2.4841175	o x f
-1.7678819	j x f
-2.0475934	w x f
-1.4680585	g i f
-1.3846118	h i f
-1.4578867	a i f
-1.5059814	b i f
-1.7379308	c i f
-1.611819	d i f
-1.2668478	e i f
-1.0265192	f i f
-1.8387564	u i f
-1.662947	x i f
-2.234055	i i f
-1.7747604	m i f
-1.2241665	q i f
-1.5672046	r i f
-2.2242498	t i f
-1.7706164	p i f
-2.8639607	k i f
-1.2722036	v i f
-1.5388215	n i f
-2.2823453	j i f
-1.6398343	g m f
-1.0113286	h m f
-1.1105677	a m f
-1.5751897	b m f
-1.1224731	c m f
-1.0192702	d m f
-1.4562728	e m f
-0.86222756	f m f
-1.6930745	u m f
-1.3167639	x m f
-1.6015006	m m f
-1.7739089	q m f
-1.5511104	s m f
-1.8118476	r m f
-1.3702409	t m f
-2.134718	p m f
-1.5313606	k m f
-1.2524914	v m f
-1.4109583	l m f
-1.4674146	n m f
-1.9749199	o m f
-1.6777918	j m f
-1.9677093	g q f
-1.7580472	h q f
-1.6401505	a q f
-1.5827298	b q f
-1.6613786	c q f
-1.8914406	d q f
-1.7211928	e q f
-1.0654846	f q f
-2.0172436	u q f
-2.2376366	x q f
-1.6448514	m q f
-2.019125	q q f
-1.732151	s q f
-2.219368	r q f
-2.0116034	t q f
-2.0117848	p q f
-2.5625722	k q f
-1.396647	v q f
-1.5327013	n q f
-1.9173732	j q f
-2.398095	w q f
-1.2583845	h s f
-1.6156615	a s f
-1.5215845	b s f
-1.4260135	c s f
-1.8775948	d s f
-1.9515147	e s f
-1.4001156	f s f
-2.2313175	u s f
-2.0220504	x s f
-1.6627553	i s f
-1.4708445	m s f
-1.8976119	q s f
-1.9719466	s s f
-1.9457058	r s f
-2.0873895	t s f
-2.0894747	p s f
-1.6026708	k s f
-1.6793007	v s f
-1.3328252	n s f
-2.1899912	j s f
-1.8323771	w s f
-0.807726	g r f
-1.2798793	h r f
-1.4843163	a r f
-1.9066699	b r f
-1.6664662	c r f
-1.5469953	d r f
-1.5119356	e r f
-0.9548377	f r f
-1.9058865	u r f
-1.8375012	x r f
-1.838199	i r f
-2.1708803	q r f
-2.1572788	s r f
-2.5891001	r r f
-2.145314	t r f
-1.715337	p r f
-1.308962	k r f
-1.846988	v r f
-2.4772923	n r f
-2.7147846	j r f
-1.7342883	g t f
-1.5958184	h t f
-1.536175	a t f
-1.6751391	c t f
-1.6151319	d t f
-1.7408314	e t f
-1.1013782	f t f
-2.232642	u t f
-1.6885816	i t f
-1.8552114	m t f
-2.8598187	q t f
-1.9544512	s t f
-2.0768962	r t f
-2.1102593	t t f
-1.491237	p t f
-2.0187013	k t f
-1.5066768	v t f
-2.3754997	l t f
-1.3366802	n t f
-1.4145471	w t f
-1.660733	g p f
-1.5677476	h p f
-1.0285734	a p f
-1.611328	b p f
-1.3104098	c p f
-1.8594182	d p f
-1.3951929	e p f
-1.3216934	f p f
-1.3323644	x p f
-1.1879405	i p f
-2.2066147	m p f
-1.2216803	q p f
-1.2915819	s p f
-1.4090344	r p f
-1.7690552	t p f
-1.0919211	p p f
-1.6604427	k p f
-1.6524402	v p f
-1.6401123	l p f
-1.7516106	n p f
-2.727758	o p f
-1.6439037	j p f
-1.2117321	h k f
-2.084675	a k f
-1.5262586	b k f
-1.5914402	c k f
-2.0108225	d k f
-1.556605	e k f
-0.88731116	f k f
-1.9484092	u k f
-1.4928406	x k f
-1.7738929	i k f
-2.1446714	m k f
-2.4271755	q k f
-1.9216183	s k f
-1.6079369	r k f
-1.6071656	t k f
-1.2652156	p k f
-2.2050452	k k f
-1.8205099	v k f
-2.6033049	l k f
-1.7180631	n k f
-1.3181587	o k f
-1.442213	j k f
-0.950112	g v f
-1.0541782	h v f
-1.361134	a v f
-2.395149	b v f
-1.2808759	c v f
-1.3528715	d v f
-1.470545	e v f
-0.9884565	f v f
-1.658967	u v f
-2.3342125	x v f
-1.6717539	i v f
-2.5563066	m v f
-1.2364954	q v f
-1.448096	s v f
-1.9664063	r v f
-1.3295019	t v f
-1.35811	p v f
-1.6640705	k v f
-1.8105658	v v f
-1.504664	l v f
-2.3057468	n v f
-1.0499959	o v f
-1.3934301	j v f
-1.4943712	w v f
-2.2367432	g l f
-2.7123425	h l f
-1.5611058	a l f
-1.719066	b l f
-1.4110577	c l f
-1.7831068	d l f
-1.6312125	e l f
-1.110492	f l f
-2.0208945	u l f
-2.54905	m l f
-1.2002716	q l f
-1.4826274	r l f
-2.8110085	p l f
-1.7731686	k l f
-2.219147	v l f
-2.154303	l l f
-1.8228978	n l f
-1.339382	g n f
-1.2590014	h n f
-0.950624	a n f
-1.5090779	b n f
-1.1146734	c n f
-1.349719	d n f
-1.1135846	e n f
-0.902272	f n f
-1.443007	u n f
-1.8253698	x n f
-1.5812423	i n f
-1.7781131	m n f
-1.5631748	q n f
-1.2798872	s n f
-1.4779178	r n f
-2.192942	p n f
-1.357532	k n f
-1.2131903	v n f
-1.123314	n n f
-2.1410694	o n f
-2.78131	j n f
-1.6371617	g o f
-1.1950564	h o f
-1.182983	a o f
-0.94935787	d o f
-2.4158006	f o f
-1.3100119	x o f
-1.3151801	i o f
-1.6197175	m o f
-1.8160095	q o f
-2.2436416	s o f
-1.9367881	r o f
-1.7065302	p o f
-1.7312462	k o f
-1.5590649	v o f
-2.0385087	o o f
-1.1844516	j o f
-1.317867	g j f
-1.5109986	h j f
-1.0875039	a j f
-2.0732548	b j f
-1.6515187	c j f
-1.6370354	d j f
-1.2188787	e j f
-0.6600474	f j f
-2.2003658	u j f
-2.6204467	x j f
-1.5056918	i j f
-2.2443206	m j f
-1.6323535	q j f
-1.7840226	s j f
-2.1034722	r j f
-2.943269	p j f
-1.988816	k j f
-2.3604836	v j f
-1.8231443	l j f
-2.0980718	n j f
-2.593746	j j f
-1.1166893	g w f
-1.6794523	h w f
-1.1192636	b w f
-1.5036179	c w f
-1.3346577	d w f
-2.538088	e w f
-1.5861255	f w f
-1.8169571	u w f
-1.3715652	x w f
-2.135888	i w f
-1.6819581	m w f
-1.4251767	q w f
-1.3974932	r w f
-1.1698842	t w f
-0.6613225	p w f
-1.3073481	k w f
-1.872617	v w f
-0.63855886	l w f
-1.3567367	n w f
-1.0725024	o w f
-1.4957095	j w f
-1.7639147	w w f
-2.769366	g g u
-1.8633031	h g u
-1.8319762	a g u
-2.028942	b g u
-2.2778187	c g u
-1.8454164	d g u
-2.4687173	e g u
-2.2155464	f g u
-1.1736007	u g u
-1.3667974	x g u
-2.624754	i g u
-1.6943815	m g u
-0.77528656	q g u
-1.6880511	s g u
-1.9598225	t g u
-1.6547511	p g u
-1.8225846	k g u
-1.1805592	v g u
-1.5750458	n g u
-1.7142829	j g u
-1.3214686	w g u
-2.3125274	g h u
-2.6119637	h h u
-2.2136066	a h u
-2.1597877	b h u
-1.9311345	c h u
-2.4024253	d h u
-2.1556857	e h u
-2.202498	f h u
-1.6007825	u h u
-1.6591461	x h u
-1.706126	i h u
-1.3595412	m h u
-1.766443	q h u
-1.5432436	s h u
-1.4893003	r h u
-1.5269555	t h u
-1.8212423	p h u
-1.7724682	k h u
-1.0042667	v h u
-2.7151177	l h u
-2.8465807	n h u
-2.0061557	j h u
-0.7770716	w h u
-2.1729984	g a u
-2.250533	h a u
-2.8457353	a a u
-2.0070226	b a u
-2.1762931	c a u
-2.2735412	d a u
-2.3202846	e a u
-2.22682	f a u
-1.2624211	u a u
-1.4713149	x a u
-1.6865553	i a u
-2.6496391	m a u
-1.3472149	s a u
-1.948017	r a u
-1.6195279	t a u
-1.635417	p a u
-1.8188453	k a u
-1.2116482	v a u
-2.1868243	l a u
-1.7915152	n a u
-2.357448	o a u
-1.6172239	j a u
-2.3167417	w a u
-2.1448781	g b u
-1.8772249	h b u
-2.2402084	a b u
-2.4466152	b b u
-2.1946652	c b u
-2.27635	d b u
-1.954222	e b u
-2.3483553	f b u
-1.225157	u b u
-1.4156145	x b u
-2.3827639	i b u
-1.9771757	m b u
-2.8909302	q b u
-1.2438203	s b u
-1.518711	r b u
-1.0816526	t b u
-1.5085052	p b u
-2.0623288	k b u
-1.6517515	v b u
-1.6200618	l b u
-2.5231702	n b u
-1.5161997	o b u
-1.715596	j b u
-1.3146896	w b u
-2.0987153	g c u
-1.9662168	h c u
-2.1660626	a c u
-1.9860065	b c u
-2.613105	c c u
-2.0759284	d c u
-1.9701799	e c u
-2.552996	f c u
-1.2008846	u c u
-1.4689722	x c u
-1.508921	i c u
-1.9109262	m c u
-1.3505881	q c u
-2.006589	s c u
-1.2666755	r c u
-1.5989662	t c u
-2.3722217	p c u
-2.0767386	k c u
-1.3292602	v c u
-1.7790189	l c u
-2.1016836	n c u
-1.7540653	j c u
-1.1456066	w c u
-2.3216355	g d u
-2.4265492	h d u
-2.1880007	a d u
-2.2059922	b d u
-2.1668007	c d u
-2.4940612	d d u
-1.9703151	e d u
-1.9941559	f d u
-1.5081782	u d u
-1.4126636	x d u
-1.808912	i d u
-2.072686	m d u
-1.9151945	q d u
-1.3380939	s d u
-1.9718875	r d u
-1.5639281	t d u
-1.4508513	k d u
-1.8681353	l d u
-1.5576938	n d u
-1.6628464	o d u
-1.3473022	j d u
-1.8442583	g e u
-1.8787938	h e u
-2.003957	a e u
-1.7675229	b e u
-1.9840124	c e u
-2.1561596	d e u
-2.191581	e e u
-1.8721471	f e u
-0.95922923	u e u
-0.99833286	x e u
-1.9543488	i e u
-1.4740353	m e u
-1.1876285	q e u
-1.1336524	s e u
-0.95113355	r e u
-1.1707339	t e u
-1.351257	p e u
-1.2677358	k e u
-1.2340825	v e u
-1.6099013	l e u
-1.1062773	n e u
-1.4716268	o e u
-1.3183465	j e u
-1.0847844	w e u
-1.6809251	g f u
-1.7495278	h f u
-1.865042	a f u
-1.761593	b f u
-2.3359272	c f u
-1.8886209	d f u
-2.1517167	e f u
-2.4040072	f f u
-1.6853275	u f u
-1.1654376	x f u
-1.0471485	i f u
-1.7432369	m f u
-1.2377698	q f u
-1.8203831	s f u
-0.8915848	r f u
-1.1655524	t f u
-2.782355	p f u
-1.5449034	k f u
-1.3297416	v f u
-1.653638	n f u
-0.9045993	o f u
-1.8141408	j f u
-1.3965387	w f u
-1.5315015	g u u
-1.0484015	h u u
-1.5844294	a u u
-1.0783571	b u u
-1.2604911	c u u
-1.1591123	d u u
-1.1152335	e u u
-1.2425994	f u u
-0.5526279	u u u
-0.93512475	x u u
-1.5783335	i u u
-1.1376115	m u u
-1.0534352	q u u
-1.0234854	s u u
-0.9722688	r u u
-0.7808461	t u u
-1.0596201	p u u
-1.4259362	k u u
-0.88032293	v u u
-1.0060493	l u u
-1.2779462	n u u
-1.0311819	o u u
-0.97239923	j u u
-0.7899645	w u u
-1.657403	g x u
-1.7129159	h x u
-1.3358527	a x u
-1.383677	b x u
-1.4028927	c x u
-1.8905342	d x u
-1.6566533	e x u
-1.5127552	f x u
-1.3421464	u x u
-1.1056471	x x u
-1.8375374	i x u
-1.3633138	m x u
-1.0481607	q x u
-0.9199243	s x u
-0.9208681	r x u
-0.87533057	t x u
-1.4747612	p x u
-1.2801852	k x u
-1.0105731	v x u
-1.4267492	l x u
-1.4328113	n x u
-1.4159428	o x u
-1.0269251	j x u
-1.1436561	w x u
-1.6598859	h i u
-2.1291234	a i u
-1.7203512	b i u
-1.9788436	c i u
-2.8751676	e i u
-1.4247886	f i u
-1.8337389	u i u
-1.4015163	x i u
-2.2309568	i i u
-1.4120449	m i u
-1.3790338	q i u
-1.3029945	s i u
-1.3445854	r i u
-1.3908563	t i u
-1.6903646	p i u
-1.5183157	k i u
-1.4203148	v i u
-1.4497793	l i u
-1.6363453	n i u
-2.4033284	o i u
-1.5012901	j i u
-1.8596956	g m u
-1.650114	h m u
-1.9249713	b m u
-1.7112179	c m u
-1.4478625	d m u
-1.7964351	e m u
-1.2022636	f m u
-1.1437706	u m u
-1.3421818	x m u
-1.178089	i m u
-1.4899955	m m u
-0.8492645	q m u
-1.1517622	s m u
-0.9560649	r m u
-1.5898674	t m u
-1.5676441	p m u
-1.7423872	k m u
-1.0301176	v m u
-1.5614488	l m u
-2.0855625	n m u
-1.4477866	o m u
-1.3753239	j m u
-1.2661512	w m u
-1.3541936	g q u
-1.4550126	h q u
-1.5413694	a q u
-1.3885589	b q u
-1.7153131	c q u
-1.8819778	d q u
-1.4609792	e q u
-1.4474782	f q u
-0.7098363	u q u
-1.0831753	x q u
-1.2459606	i q u
-1.2419897	m q u
-1.1718636	q q u
-1.2343657	s q u
-1.3974136	r q u
-1.1238825	t q u
-1.4062212	p q u
-1.8785554	k q u
-0.97079873	v q u
-1.337186	l q u
-1.2753447	n q u
-1.3624406	o q u
-1.6130126	j q u
-1.0922471	w q u
-1.377451	g s u
-1.3616986	h s u
-1.2668468	a s u
-1.2851448	b s u
-1.6488175	c s u
-1.7270931	d s u
-1.6925226	e s u
-1.4843841	f s u
-1.1643015	u s u
-1.1896133	x s u
-1.5288182	i s u
-1.0709436	m s u
-0.9924153	q s u
-1.1037232	s s u
-1.1885568	r s u
-1.2702689	t s u
-1.4301492	p s u
-1.4812348	k s u
-1.1813052	v s u
-1.6525999	l s u
-1.4744296	n s u
-1.1871035	o s u
-1.4023052	j s u
-1.3454927	w s u
-1.3053539	g r u
-1.5814037	h r u
-1.7831354	a r u
-1.3405589	b r u
-1.4434385	c r u
-1.8437335	d r u
-2.054461	e r u
-1.7460321	f r u
-1.1224011	u r u
-1.0555911	x r u
-2.524274	i r u
-1.1476818	q r u
-1.2523847	s r u
-1.1881635	r r u
-1.0331959	t r u
-1.4028773	p r u
-1.453911	k r u
-1.2801346	v r u
-1.0263098	l r u
-2.0738199	o r u
-1.1047432	j r u
-0.9438439	w r u
-1.4215577	g t u
-1.4619697	h t u
-1.1079125	a t u
-1.6156002	b t u
-1.0987526	c t u
-1.85167	d t u
-1.4122036	e t u
-1.3705444	f t u
-1.2269835	u t u
-0.91558415	x t u
-1.0299788	i t u
-1.6206028	m t u
-0.9502402	q t u
-0.43894923	s t u
-0.8091486	r t u
-0.993294	t t u
-0.9905807	p t u
-1.0622754	k t u
-1.0084265	v t u
-1.3357234	l t u
-1.3305937	n t u
-1.0465457	j t u
-0.87826943	w t u
-2.731827	g p u
-1.7668841	h p u
-1.7685709	a p u
-1.8890597	b p u
-2.2395253	c p u
-1.6025283	d p u
-1.6639633	e p u
-1.9727457	f p u
-1.4434708	u p u
-1.507901	x p u
-1.5857376	i p u
-1.4278928	m p u
-1.5601652	q p u
-1.7124145	s p u
-1.5318592	r p u
-1.0928222	t p u
-1.7685118	p p u
-1.8046533	k p u
-1.2789509	v p u
-2.7041838	n p u
-1.6888766	o p u
-1.2122345	j p u
-1.3253157	w p u
-1.8317674	h k u
-2.2608156	a k u
-1.6613994	b k u
-2.2907994	c k u
-2.8306031	d k u
-2.0992804	e k u
-1.7928642	f k u
-1.4250762	u k u
-1.7340091	x k u
-1.6481918	i k u
-1.8433981	m k u
-0.9073525	q k u
-1.5780941	s k u
-1.156481	r k u
-1.6653081	t k u
-2.2785351	p k u
-1.675325	k k u
-1.1678231	v k u
-2.0907474	l k u
-1.7180631	n k u
-2.2877283	j k u
-1.9518524	w k u
-1.4410089	g v u
-1.1135935	h v u
-1.1407733	a v u
-0.9879803	b v u
-1.1482633	c v u
-0.99292374	d v u
-1.4250405	e v u
-1.0000236	f v u
-0.9412123	u v u
-0.3940829	x v u
-0.97305906	i v u
-0.80057836	m v u
-0.93641895	q v u
-0.8519128	s v u
-0.7102438	r v u
-0.5936384	t v u
-0.7371072	p v u
-0.85653734	k v u
-0.8784188	v v u
-0.91294986	l v u
-1.1316965	n v u
-1.5811543	o v u
-0.98122656	j v u
-0.6604626	w v u
-2.1059115	g l u
-1.9496704	h l u
-1.827462	b l u
-1.3135084	c l u
-2.1065378	d l u
-1.9208134	e l u
-2.4720972	f l u
-1.4390938	u l u
-0.80594444	x l u
-1.1753486	i l u
-1.5754193	m l u
-1.0667049	q l u
-0.94524604	s l u
-1.6391742	r l u
-0.9238044	t l u
-1.631218	p l u
-1.3542209	k l u
-2.0882697	v l u
-1.8302963	l l u
-0.9196097	n l u
-2.3046467	o l u
-2.481226	j l u
-0.63717353	w l u
-1.0318295	g n u
-1.4167922	h n u
-1.4930056	a n u
-1.2055632	b n u
-1.5397338	c n u
-1.6424229	d n u
-1.5969601	e n u
-1.7017431	f n u
-0.9538369	u n u
-1.2163265	x n u
-1.0855889	i n u
-1.7465805	m n u
-0.64556825	q n u
-1.5170505	s n u
-1.5658972	r n u
-0.83936274	t n u
-1.1071148	p n u
-1.5048099	k n u
-0.61049664	v n u
-1.4673457	l n u
-1.9086559	n n u
-1.2993964	o n u
-1.247894	j n u
-0.8642975	w n u
-1.7447246	g o u
-1.4278446	h o u
-2.3496003	c o u
-1.4004319	d o u
-1.6709346	e o u
-1.5400175	f o u
-0.76470065	u o u
-0.9154576	x o u
-1.2245028	i o u
-1.229433	m o u
-1.100788	q o u
-2.1058698	s o u
-0.8597124	r o u
-0.54415506	t o u
-1.365942	p o u
-1.5882123	k o u
-0.7679482	v o u
-1.5375822	l o u
-1.5060353	n o u
-2.6259203	o o u
-1.0425701	j o u
-1.2760135	w o u
-2.4266977	g j u
-2.1782134	h j u
-1.8666943	a j u
-1.6912798	b j u
-1.8260037	c j u
-1.4884027	d j u
-1.8960216	e j u
-1.8917713	f j u
-1.7723887	x j u
-1.6637707	i j u
-2.1007154	q j u
-1.4517683	s j u
-1.0963439	r j u
-1.6253442	t j u
-1.3632984	p j u
-1.7218678	k j u
-1.4793333	v j u
-1.6463823	l j u
-1.5518512	n j u
-2.473674	o j u
-1.8151199	j j u
-0.9166937	w j u
-1.4640312	g w u
-1.0305647	h w u
-1.5364076	a w u
-1.3398724	b w u
-1.8863345	c w u
-1.7306154	e w u
-0.82395935	f w u
-0.7194371	u w u
-0.74217284	x w u
-1.351342	i w u
-0.43799037	m w u
-0.9051716	q w u
-0.8868219	s w u
-0.907103	r w u
-1.2469422	t w u
-0.94814694	p w u
-1.0648096	k w u
-1.163598	v w u
-1.0130347	l w u
-1.9964726	n w u
-0.82529914	o w u
-0.88406837	j w u
-1.0735809	w w u
-2.6902974	g g x
-2.133522	h g x
-2.045856	a g x
-2.1834812	b g x
-2.243143	c g x
-1.446352	d g x
-1.913637	e g x
-1.8167298	f g x
-1.0413576	u g x
-1.2357785	x g x
-1.7356596	i g x
-1.1457275	m g x
-1.8390815	q g x
-1.509678	s g x
-1.9598225	t g x
-1.8968836	p g x
-0.9725489	v g x
-2.2228248	l g x
-1.8830296	n g x
-1.8284421	o g x
-1.3214686	w g x
-1.9687029	g h x
-2.1347525	h h x
-2.2949848	a h x
-1.9151484	b h x
-1.9463369	c h x
-1.5810304	d h x
-2.1021094	e h x
-2.0561223	f h x
-1.0638499	u h x
-0.74359536	x h x
-1.1925377	i h x
-1.8007121	m h x
-1.2347753	q h x
-1.3507916	s h x
-1.2457552	r h x
-1.1298369	t h x
-1.7023169	p h x
-1.8969727	k h x
-0.70333284	v h x
-1.5958784	l h x
-1.8695781	n h x
-1.1519948	o h x
-1.5705094	j h x
-1.2167447	w h x
-1.9567999	g a x
-2.7327845	h a x
-2.5317764	a a x
-1.7292185	b a x
-1.7146528	c a x
-1.8555036	d a x
-2.3726554	e a x
-2.422332	f a x
-2.6217852	u a x
-1.3879762	x a x
-1.8470037	i a x
-2.023443	m a x
-1.7564545	q a x
-2.010277	s a x
-1.2316858	r a x
-1.107753	t a x
-2.0460832	p a x
-1.615042	k a x
-1.4336442	v a x
-2.497134	l a x
-1.6089772	n a x
-1.1579459	o a x
-1.2044775	j a x
-1.1532428	w a x
-2.1459215	g b x
-2.1468875	h b x
-2.117525	a b x
-2.7688255	b b x
-2.1831772	c b x
-2.1008673	d b x
-2.237571	e b x
-1.9238003	f b x
-1.2579186	u b x
-1.3750987	x b x
-3.0135455	i b x
-2.6330419	m b x
-0.90708435	q b x
-1.7690539	s b x
-1.3341757	r b x
-2.0100958	t b x
-1.752598	p b x
-1.4832188	k b x
-1.6540759	v b x
-1.6215539	l b x
-1.8417807	n b x
-1.7833583	j b x
-1.4455538	w b x
-2.5215878	g c x
-1.8960987	h c x
-2.1931238	a c x
-2.3007457	b c x
-2.6511095	c c x
-2.3553336	d c x
-2.450987	e c x
-2.2500236	f c x
-1.4436334	u c x
-1.205444	x c x
-1.4622612	i c x
-2.3042452	m c x
-1.3845288	q c x
-1.447089	s c x
-2.0772004	r c x
-1.3945558	t c x
-1.2892543	p c x
-1.5469859	k c x
-1.328366	v c x
-1.5627365	l c x
-1.4865029	n c x
-0.80993265	o c x
-1.8498224	j c x
-1.4460461	w c x
-2.0744386	g d x
