\data\
ngram 1=29
ngram 2=612
ngram 3=6463

\1-grams:
-2.6264544	<unk>	0
0	<s>	-2.5325625
-1.4260362	</s>	0
-1.4260362	t	-1.003286
-1.4260362	h	-0.79219437
-1.3726737	e	-1.1305323
-1.4260362	p	-0.85387194
-1.4075106	r	-0.7575114
-1.3726737	o	-1.0183
-1.509224	j	-0.8176598
-1.4260362	c	-0.845098
-1.509224	g	-0.7378881
-1.3726737	u	-0.8460231
-1.4260362	n	-0.7998705
-1.4075106	b	-0.8261885
-1.4868863	k	-0.7154642
-1.4260362	f	-0.7943884
-1.389743	d	-0.87693727
-1.3726737	a	-1.0569048
-1.4075106	s	-1.0602133
-1.389743	i	-1.0737863
-1.4075106	v	-0.8598213
-1.389743	y	-0.9732479
-1.4075106	l	-0.80837524
-1.4260362	w	-0.75696194
-1.4260362	m	-0.86258876
-1.4656414	q	-1.146128
-1.6422884	x	-0.45079234
-1.6746014	z	-0.54406804

\2-grams:
-1.4243417	t </s>	0
-1.5079356	h </s>	0
-1.3951993	e </s>	0
-1.5977527	p </s>	0
-1.5773332	r </s>	0
-1.6615715	o </s>	0
-1.5834653	c </s>	0
-1.5709574	g </s>	0
-2.0177183	u </s>	0
-1.438517	n </s>	0
-1.9653603	b </s>	0
-1.3832004	k </s>	0
-1.5741087	f </s>	0
-1.3852655	d </s>	0
-1.403698	a </s>	0
-1.3298396	s </s>	0
-1.3384532	i </s>	0
-1.2398889	v </s>	0
-1.3048007	y </s>	0
-1.4278079	l </s>	0
-1.826965	w </s>	0
-1.3887105	m </s>	0
-0.9848207	x </s>	0
-0.9054019	<s> t	-2.0498974
-1.3699193	t t	-2.2680755
-1.4486032	h t	-1.6007406
-1.37591	e t	-2.1766555
-1.5273367	p t	-1.2252777
-1.5101895	r t	-1.9508471
-1.2930707	o t	-2.0152028
-1.5128343	c t	-1.641063
-1.8117043	g t	-1.7836053
-1.1217214	u t	-1.8398215
-1.438517	n t	-2.1832466
-1.6212517	b t	-0.9284969
-1.3224657	k t	-1.3810906
-1.505163	f t	-1.6723946
-1.3852655	d t	-2.1598532
-1.2787578	a t	-2.1799562
-1.3096007	s t	-2.1571352
-1.3006952	i t	-2.2432935
-1.3048007	y t	-1.9922633
-1.5385289	l t	-1.5291959
-1.826965	w t	-1.3333908
-1.4306289	m t	-1.558628
-1.2083775	x t	-0.7532572
-1.2767162	<s> h	-1.8184882
-1.2385138	t h	-2.6062863
-1.5766765	h h	-1.4814696
-1.4153854	e h	-2.215212
-1.2160625	p h	-0.9480614
-1.5773332	r h	-1.8818918
-1.4693583	o h	-1.372738
-1.042825	c h	-1.8561339
-1.5709574	g h	-1.5935484
-2.12653	u h	-1.6640004
-1.438517	n h	-1.8330266
-1.9653603	b h	-0.28483978
-1.3832004	k h	-0.8002284
-1.6561042	f h	-1.5708053
-1.4232408	d h	-1.9521824
-1.403698	a h	-0.71901554
-1.2902632	s h	-2.000015
-1.3798094	i h	-2.0170867
-1.3842555	y h	-1.7384084
-1.5385289	l h	-1.3512852
-0.8996091	w h	-2.5448265
-1.6563518	m h	-1.2627634
-1.4670863	x h	-0.59132695
-1.5433474	<s> e	-1.1467319
-1.23487	t e	-2.1445415
-0.9805993	h e	-2.4687116
-1.4322697	e e	-1.7363113
-1.0130198	p e	-1.7746184
-0.9890953	r e	-2.332781
-1.6073779	o e	-1.2723187
-0.62946385	j e	-1.6077884
-1.0394814	c e	-2.0140462
-1.0162661	g e	-1.627512
-1.3328345	u e	-1.260148
-1.0865858	n e	-1.9439634
-0.94440776	b e	-1.9129732
-0.9323383	k e	-1.4633405
-1.0835735	f e	-1.5003295
-1.1173724	d e	-2.0142224
-2.2282698	a e	-0.29614922
-1.2866623	s e	-2.10844
-1.3345549	i e	-1.7867916
-0.76315707	v e	-2.1869357
-1.213683	y e	-1.4496541
-1.0135547	l e	-2.0084693
-0.9161098	w e	-1.6211418
-1.0815232	m e	-2.1011894
-1.4455274	x e	-1.0424378
-0.4541996	z e	-0.72705114
-1.3865461	<s> p	-1.5325919
-1.4543443	t p	-1.4292066
-1.7591057	h p	-0.9479117
-1.4822683	e p	-1.751869
-1.6818377	p p	-1.9078273
-1.5773332	r p	-1.4361993
-1.3849335	o p	-1.6514206
-2.1157453	c p	-0.2912663
-2.012637	g p	-0.6677691
-1.0753677	u p	-1.3596417
-1.4898981	n p	-1.1754922
-1.8713397	b p	-0.28483978
-1.3832004	k p	-0.5875963
-1.6561042	f p	-0.9456931
-1.6208179	d p	-1.2534618
-1.3165468	a p	-1.8037555
-1.351068	s p	-1.8374298
-1.4020647	i p	-1.1017616
-1.446656	y p	-1.3447069
-1.6875093	l p	-0.9622966
-1.9166037	w p	-0.36390212
-1.5880175	m p	-1.7408165
-1.6941409	x p	-1.5716909
-1.5162984	<s> r	-1.6344563
-1.2565619	t r	-2.1964386
-1.5042634	h r	-1.360477
-1.3746632	e r	-2.4027865
-0.9955346	p r	-2.3572812
-1.6511989	r r	-1.8694941
-1.2338623	o r	-2.1286123
-1.7740746	j r	-0.3804736
-1.113406	c r	-1.6824074
-0.9937883	g r	-1.9323004
-1.0741659	u r	-1.9463929
-1.486436	n r	-1.2497053
-1.0111668	b r	-1.5463113
-1.8618498	k r	-0.33195993
-1.0189447	f r	-2.1986995
-1.1834974	d r	-1.709188
-1.2775767	a r	-1.9787852
-1.4744346	s r	-1.4825641
-1.33715	i r	-1.6050022
-1.0637085	v r	-1.1006329
-1.382431	y r	-1.5106618
-1.6821699	l r	-1.3825443
-0.9826759	w r	-1.6801443
-1.1962714	m r	-0.8409424
-1.3374232	<s> o	-1.4272907
-1.23487	t o	-2.2514513
-0.9999001	h o	-1.9735582
-1.4113024	e o	-1.8596314
-1.0333791	p o	-1.7061936
-1.0282923	r o	-1.89974
-1.4337785	o o	-1.5268621
-0.59099466	j o	-1.126336
-0.9977188	c o	-2.1128476
-0.99123746	g o	-1.3304641
-1.4723278	u o	-0.96233964
-1.0454937	n o	-2.1006603
-1.0089992	b o	-1.2305142
-1.313937	k o	-1.0956275
-0.99635243	f o	-2.11658
-1.1374522	d o	-1.7178576
-1.8668643	a o	-1.0195159
-1.3058367	s o	-1.8892052
-1.3345549	i o	-2.0525048
-0.7398208	v o	-1.6834651
-1.1761107	y o	-2.4266274
-1.0529401	l o	-1.8170983
-0.9161098	w o	-1.6670609
-1.1450446	m o	-1.9443601
-1.5390393	x o	-0.2699402
-1.5233085	z o	-0.25553486
-2.6380343	<s> j	-0.6387516
-2.0290074	t j	-0.5331816
-2.0204067	h j	-0.2630678
-1.7488132	e j	-1.2712
-1.7832329	r j	-0.6235116
-2.0440216	o j	-1.4218663
-1.8074158	j j	-0.3804736
-2.0696585	g j	-0.2630678
-2.1843657	u j	-0.37032762
-1.6344991	n j	-1.411882
-1.9040352	b j	-1.892357
-2.0196552	f j	-0.63874364
-1.8951491	d j	-0.6553459
-1.8304126	a j	-0.38047355
-1.8247257	s j	-0.78796387
-2.0041995	i j	-0.5187763
-1.6726754	y j	-0.73401606
-2.1602912	l j	-0.3804736
-2.00493	m j	-0.4773836
-1.3617636	<s> c	-1.5791831
-1.5213892	t c	-1.5284853
-1.5079356	h c	-0.782293
-1.3951993	e c	-2.1593723
-2.0135136	p c	-0.33195996
-1.5773332	r c	-1.6225967
-1.3142796	o c	-1.5783803
-1.4520994	c c	-1.6372681
-1.9006522	g c	-0.7609104
-1.481427	u c	-1.9222088
-1.4898981	n c	-2.1664593
-1.5382239	k c	-0.64908123
-1.7572699	f c	-1.0624623
-1.5108893	d c	-1.1801027
-1.2972414	a c	-1.8111789
-1.3298396	s c	-1.8088441
-1.3384532	i c	-1.8979421
-2.002628	v c	-0.33195993
-1.414336	y c	-1.4827787
-1.6066619	l c	-1.0235193
-1.826965	w c	-0.67146546
-1.5880175	m c	-0.7166224
-1.4670863	x c	-1.1188958
-1.9593093	<s> g	-1.0530299
-1.5695728	t g	-1.2534618
-1.9276136	h g	-0.7927187
-1.4886959	e g	-1.4518123
-1.958575	p g	-0.28483978
-1.5964961	r g	-1.2988734
-1.6271037	o g	-1.312262
-1.7001301	g g	-0.8542534
-1.6277854	u g	-1.7294383
-1.6344991	n g	-2.0533686
-1.7841445	f g	-0.7531993
-1.5763649	d g	-1.3001246
-1.3217387	a g	-1.79817
-1.5828186	s g	-1.1370959
-1.4319497	i g	-1.8247176
-1.5723001	y g	-1.091678
-1.7095488	l g	-1.1823571
-1.861665	w g	-0.51787233
-1.7593031	m g	-0.6171575
-1.9579843	<s> u	-1.3309569
-1.3171557	t u	-1.7734019
-1.1118444	h u	-1.4472265
-1.4322697	e u	-1.3916686
-1.125957	p u	-1.3809779
-1.0282923	r u	-1.450238
-1.2498841	o u	-2.390324
-0.49259084	j u	-1.4790629
-1.0856915	c u	-1.6157013
-1.0428259	g u	-1.3782967
-2.0877056	u u	-0.4046604
-1.3062356	n u	-1.1284107
-0.94440776	b u	-2.177156
-1.6254133	k u	-0.62468517
-1.0600718	f u	-1.7118884
-1.2039464	d u	-1.3613291
-1.3537028	a u	-1.5523058
-1.3058367	s u	-1.8252988
-1.7166497	i u	-1.0571672
-1.8130857	v u	-0.6235117
-1.4747672	y u	-1.0310094
-1.2603459	l u	-1.2293282
-1.9915233	w u	-0.49178895
-1.1684656	m u	-1.8496634
-0.03077067	q u	-1.9798107
-1.5390393	x u	-0.28483978
-1.5712798	<s> n	-1.6031901
-1.4243417	t n	-1.6847486
-1.5766765	h n	-1.0424254
-1.3574412	e n	-2.2842937
-2.0135136	p n	-0.25553486
-1.6567903	r n	-1.3784842
-1.2350296	o n	-2.2634532
-2.1157453	c n	-0.33195993
-1.5709574	g n	-1.0484618
-1.0334878	u n	-1.7329087
-1.4898981	n n	-1.7488289
-1.9653603	b n	-0.2630678
-0.98509043	k n	-1.9804251
-1.7572699	f n	-1.1142057
-1.5623847	d n	-2.0449982
-1.2439954	a n	-2.2941375
-1.4217939	s n	-1.9239208
-1.2829797	i n	-2.3657167
-1.446656	y n	-1.2777923
-1.5385289	l n	-1.6969447
-1.826965	w n	-1.0565104
-1.5880175	m n	-0.9551631
-1.6941409	x n	-0.33195993
-1.4256052	<s> b	-1.5692608
-1.452344	t b	-1.7802708
-1.5723774	h b	-0.874243
-1.4351221	e b	-1.6763686
-1.9156165	p b	-0.3236552
-1.5726718	r b	-1.2718315
-1.3585268	o b	-1.711216
-1.9030143	c b	-0.29614922
-1.8033737	g b	-0.9744071
-1.5378702	u b	-1.3395146
-1.5442271	n b	-1.4821571
-1.7229067	b b	-0.49669892
-1.4499637	k b	-0.6077174
-1.6509734	f b	-0.9886761
-1.5589589	d b	-1.731448
-1.3152584	a b	-1.7176462
-1.3953787	s b	-1.5447644
-1.3783761	i b	-1.6369551
-1.992879	v b	-0.2630678
-1.382431	y b	-1.3614664
-1.5347333	l b	-1.4531436
-1.8187065	w b	-0.643715
-1.6519604	m b	-1.3799994
-1.681888	x b	-0.33195993
-2.5072608	<s> k	-0.89235693
-1.7681801	t k	-1.3694782
-1.9180274	h k	-0.25853238
-1.5974798	e k	-0.93063134
-1.6740094	r k	-0.92052734
-1.6242303	o k	-1.0808226
-1.6822487	c k	-0.9362003
-2.054686	g k	-0.4046604
-2.0505397	u k	-1.3984115
-1.712317	n k	-1.224877
-2.1260383	b k	-0.33195993
-2.1234202	f k	-0.5345085
-1.8878112	d k	-0.7326561
-1.5869471	a k	-1.6023302
-1.6613348	s k	-0.7518512
-1.4820352	i k	-1.5661101
-1.729096	y k	-0.8453604
-1.9442633	l k	-0.7281416
-2.0715318	w k	-1.1006329
-2.1970937	m k	-0.33195993
-1.471742	<s> f	-1.5074222
-1.4243417	t f	-1.6493189
-1.5079356	h f	-0.9473926
-1.37591	e f	-1.8334967
-1.6818377	p f	-0.69347894
-1.6567903	r f	-1.6728879
-1.2728493	o f	-2.0116396
-2.1157453	c f	-0.28483978
-1.9006522	g f	-1.1539837
-1.5413747	u f	-1.3948758
-1.4898981	n f	-1.7821202
-2.0855255	b f	-0.33195993
-1.3832004	k f	-0.76714474
-1.505163	f f	-1.5530623
-1.5108893	d f	-1.532106
-1.35794	a f	-1.6221308
-1.4217939	s f	-1.6020508
-1.3798094	i f	-1.6034453
-1.3842555	y f	-1.5288118
-1.6066619	l f	-1.299739
-1.6892989	w f	-0.73353565
-1.7374831	m f	-0.9423078
-1.4670863	x f	-0.2734176
-1.4613991	<s> d	-1.6139538
-1.4822769	t d	-1.657179
-1.5681207	h d	-0.92905545
-1.3550546	e d	-2.2130454
-1.6723907	p d	-0.2699402
-1.5680598	r d	-1.4859838
-1.4077989	o d	-1.3540721
-1.575764	c d	-0.51386404
-1.6627532	g d	-0.9081467
-1.3350168	u d	-1.3995161
-1.5403059	n d	-2.1811762
-1.8558708	b d	-0.51645565
-1.6312194	k d	-0.2748502
-1.7444315	f d	-0.99589753
-1.5555599	d d	-1.261496
-1.3139739	a d	-1.7835588
-1.4447294	s d	-1.4788679
-1.316674	i d	-1.6674606
-1.7008246	v d	-0.33195993
-1.4104347	y d	-1.7080266
-1.5309705	l d	-1.6988319
-1.8106021	w d	-0.8166887
-1.1699032	m d	-1.1923735
-1.5478227	x d	-0.2630678
-1.5301269	z d	-0.33195993
-0.9975815	<s> a	-1.6006213
-1.2540264	t a	-1.9380811
-0.9999001	h a	-2.3018203
-1.3538662	e a	-2.2338955
-0.9935724	p a	-1.7013587
-1.0282923	r a	-1.8564801
-1.4060624	o a	-1.3073341
-1.4082646	j a	-0.29614922
-0.9977188	c a	-1.9370484
-1.0162661	g a	-1.426679
-1.3328345	u a	-1.4995592
-1.1086881	n a	-1.6864332
-0.98638445	b a	-1.331485
-1.313937	k a	-0.6612527
-1.016571	f a	-1.5065455
-1.1374522	d a	-1.8863925
-1.6953732	a a	-0.4856955
-1.3058367	s a	-1.8657397
-1.2971201	i a	-1.5455648
-0.81396586	v a	-1.6298214
-1.3002568	y a	-1.512023
-1.032801	l a	-1.7284145
-0.936469	w a	-1.880141
-1.1228223	m a	-1.8945982
-1.0390339	x a	-0.89606833
-0.99396676	z a	-0.33771363
-1.1721671	<s> s	-1.6243258
-1.4224746	t s	-1.6303736
-1.5042634	h s	-1.1059883
-1.3562462	e s	-2.2292438
-1.4638605	p s	-0.8918464
-1.5726718	r s	-1.736193
-1.3351035	o s	-1.8897508
-1.9030143	c s	-0.27171364
-1.5661523	g s	-0.92424124
-1.0129274	u s	-1.8282222
-1.4354398	n s	-1.7780488
-1.5316718	b s	-1.301103
-1.319604	k s	-0.8332414
-1.5698564	f s	-1.1468449
-1.5078452	d s	-1.4910327
-1.2775767	a s	-2.074267
-1.3953787	s s	-1.9073937
-1.3179172	i s	-2.1912436
-1.992879	v s	-0.33195993
-1.4123809	y s	-1.4859507
-1.5347333	l s	-1.2800653
-1.8187065	w s	-0.7998866
-1.4741188	m s	-1.2055304
-1.5567875	x s	-0.33195993
-1.0281613	<s> i	-1.5476003
-1.2360811	t i	-2.1897278
-0.98169565	h i	-2.1438298
-1.3925966	e i	-1.9386537
-1.0783943	p i	-1.3746955
-1.029618	r i	-1.9353915
-1.3569763	o i	-1.3504416
-1.063143	c i	-1.4850174
-0.992511	g i	-1.547616
-1.2967806	u i	-1.4024935
-1.1335032	n i	-1.7057707
-1.1785406	b i	-0.9894701
-1.0680931	k i	-1.2363791
-1.0390216	f i	-1.7030978
-1.1186086	d i	-1.9302245
-1.3772389	a i	-1.8911269
-1.3272071	s i	-1.9919509
-1.4223439	i i	-1.2888244
-0.7181866	v i	-1.6933608
-1.2783729	y i	-1.3692105
-1.0146943	l i	-1.8308231
-0.8976424	w i	-2.0459943
-1.1241162	m i	-1.6441604
-0.9259034	x i	-0.8885435
-0.76356196	z i	-0.9935769
-1.916085	<s> v	-1.2584206
-1.519056	t v	-1.1292871
-1.5723774	h v	-0.60728556
-1.3562462	e v	-2.5226557
-2.1135	p v	-0.33195993
-1.5726718	r v	-1.7879453
-1.2917367	o v	-2.080288
-1.9030143	c v	-0.47457075
-1.8033737	g v	-0.45697063
-1.922239	u v	-0.6939636
-1.5442271	n v	-1.5108074
-2.07282	b v	-0.33195993
-1.9730754	k v	-0.33195993
-1.8806524	f v	-0.8098221
-1.6169009	d v	-1.5414675
-1.4021239	a v	-2.4236393
-1.6088601	s v	-1.1750537
-1.4239302	i v	-2.0680382
-1.517062	y v	-0.92338836
-1.4763331	l v	-1.2697753
-1.9064739	w v	-0.5345085
-1.7321954	m v	-0.8790443
-1.3135415	x v	-1.1208363
-1.537054	z v	-0.89235693
-1.4675019	<s> y	-1.9976935
-1.3927847	t y	-1.5814501
-1.4422164	h y	-1.1756406
-1.4126592	e y	-1.6150026
-1.5899537	p y	-0.9085337
-1.3083903	r y	-1.5302919
-1.4972911	o y	-1.436173
-1.5062802	c y	-0.6915767
-1.5613999	g y	-1.3270277
-2.1002653	u y	-1.2767241
-1.4323844	n y	-1.4763172
-1.0100816	b y	-1.1800061
-1.3766463	k y	-1.0946035
-1.4979317	f y	-1.3723496
-1.4593968	d y	-1.2796297
-1.4513173	a y	-1.570103
-1.418543	s y	-1.3030955
-2.0631025	i y	-0.44950888
-1.7008246	v y	-0.29614922
-1.3264918	y y	-1.6246852
-1.0753689	l y	-1.756518
-1.8106021	w y	-1.3162327
-1.0633839	m y	-1.8119661
-1.6699712	x y	-0.2630678
-1.5301269	z y	-0.3017031
-1.438826	<s> l	-1.7665732
-1.4224746	t l	-2.065319
-1.5042634	h l	-0.92338836
-1.3746632	e l	-1.9764158
-1.0150721	p l	-2.0360923
-1.6511989	r l	-1.2932651
-1.3351035	o l	-1.7663546
-1.064317	c l	-1.5095383
-1.104669	g l	-1.4825641
-1.0966607	u l	-1.8570775
-1.486436	n l	-1.9439547
-1.035147	b l	-2.1175337
-1.533531	k l	-0.5895963
-1.1378937	f l	-1.6367502
-1.4621186	d l	-1.4467522
-1.2775767	a l	-1.9770707
-1.3953787	s l	-1.6384797
-1.2995002	i l	-1.9031987
-1.517062	y l	-1.4999495
-1.5347333	l l	-1.9669726
-1.9064739	w l	-0.9964099
-1.5842626	m l	-0.6606178
-1.2043355	x l	-0.7160437
-1.537054	z l	-0.33195993
-1.1655035	<s> w	-1.8846712
-1.2385138	t w	-2.0678115
-1.5079356	h w	-1.3982397
-1.4153854	e w	-1.7937229
-1.6818377	p w	-0.927887
-1.6567903	r w	-1.7492251
-1.2930707	o w	-1.7729299
-1.7727035	c w	-0.78555655
-1.9006522	g w	-1.1932828
-2.12653	u w	-1.7269895
-1.438517	n w	-1.7342616
-1.8713397	b w	-0.28483978
-1.3224657	k w	-0.9367761
-1.6561042	f w	-1.2835636
-1.3852655	d w	-1.9011754
-1.403698	a w	-1.1759654
-1.3298396	s w	-1.9998279
-1.4020647	i w	-1.8700805
-1.3561242	y w	-1.76816
-1.5385289	l w	-1.4773836
-1.4304267	w w	-1.0059853
-1.5289876	m w	-1.1705241
-1.4670863	x w	-0.28483978
-1.2286457	<s> m	-1.7074237
-1.3962786	t m	-1.6140764
-1.5766765	h m	-1.3764305
-1.3574412	e m	-1.983333
-1.6818377	p m	-0.7249978
-1.6567903	r m	-1.6813868
-1.3600829	o m	-1.9532613
-2.1157453	c m	-0.33195993
-1.5709574	g m	-1.4301432
-1.2653515	u m	-1.4471768
-1.4898981	n m	-1.5755193
-1.8713397	b m	-0.9563759
-1.3832004	k m	-1.0284154
-1.6561042	f m	-1.487773
-1.3503454	d m	-1.769428
-1.35794	a m	-1.6883655
-1.351068	s m	-1.6424311
-1.3384532	i m	-1.7597616
-1.3561242	y m	-1.4993067
-1.5385289	l m	-1.521499
-1.826965	w m	-1.0523673
-1.4770297	m m	-1.5148101
-1.5659412	x m	-0.28483978
-2.8975952	<s> q	-0.9825336
-1.9139681	t q	-0.8198063
-1.5104564	e q	-2.2862694
-2.154041	p q	-0.2630678
-1.7684295	r q	-0.6815036
-1.8475977	o q	-1.1933869
-2.1430535	c q	-1.7078326
-2.0402126	g q	-0.33195993
-2.1544857	u q	-0.33195993
-1.80719	n q	-1.6922275
-1.8927454	k q	-0.2630678
-2.10854	f q	-0.33195993
-1.8805952	d q	-0.4773836
-1.7110878	a q	-0.95450485
-1.6164563	s q	-1.2697753
-1.9922734	i q	-0.85759485
-1.8758681	y q	-0.7326561
-2.1294954	l q	-0.33195993
-2.057131	w q	-0.33195993
-1.9856664	m q	-0.25553486
-1.7197354	x q	-0.2630678
-2.4537125	t x	-0.33195993
-1.4726287	e x	-1.5833379
-2.207938	r x	-0.754787
-2.234661	o x	-0.5535679
-1.9927683	c x	-0.8002284
-2.0163052	u x	-0.29614922
-2.2483132	n x	-1.1208363
-2.323354	d x	-0.33195993
-2.1260154	a x	-0.48043576
-2.508656	s x	-0.33195993
-1.8735083	i x	-0.78324866
-2.4196646	y x	-0.33195993
-1.8524189	l x	-0.9144721
-1.3686266	x x	-1.1884086
-3.990323	<s> z	-0.33195993
-2.2314856	t z	-0.2734176
-2.0988247	e z	-0.6894723
-1.985711	r z	-0.2734176
-2.4892225	o z	-0.33195993
-2.0269372	u z	-0.28483978
-2.129668	n z	-0.6256001
-2.343657	d z	-0.33195993
-1.8564531	a z	-0.5187763
-2.390011	s z	-0.2630678
-1.8780062	i z	-0.9501112
-2.4399676	y z	-0.4773836
-1.3792565	z z	-0.28483978

\3-grams:
-1.3458309	h t </s>
-2.0375304	e t </s>
-0.9167332	p t </s>
-1.8661007	r t </s>
-1.4271199	o t </s>
-1.1707958	c t </s>
-1.3171244	u t </s>
-1.4099873	n t </s>
-2.0376158	b t </s>
-2.756955	f t </s>
-1.4093068	a t </s>
-1.531204	s t </s>
-1.4374095	i t </s>
-1.710076	l t </s>
-1.3596258	x t </s>
-2.0791092	t h </s>
-1.9520209	p h </s>
-2.5029566	o h </s>
-1.3684559	c h </s>
-1.9219693	g h </s>
-1.9197967	a h </s>
-2.0911758	s h </s>
-2.3592923	<s> e </s>
-1.8159142	t e </s>
-1.3280914	h e </s>
-1.8859969	e e </s>
-2.3924289	p e </s>
-1.6217532	r e </s>
-1.3744848	c e </s>
-1.6427804	g e </s>
-1.422648	u e </s>
-1.5904616	n e </s>
-1.4461023	b e </s>
-1.4060757	k e </s>
-2.021794	f e </s>
-1.6772628	d e </s>
-1.6187545	s e </s>
-2.5521526	i e </s>
-1.459659	v e </s>
-2.6697826	y e </s>
-1.427341	l e </s>
-1.7500833	w e </s>
-1.2873805	m e </s>
-1.5565205	z e </s>
-2.3751745	e p </s>
-2.9662895	o p </s>
-1.6302146	u p </s>
-3.0848532	a p </s>
-1.4209129	i p </s>
-1.985673	l p </s>
-1.4080118	e r </s>
-1.5142739	o r </s>
-1.3281628	u r </s>
-2.0195735	a r </s>
-1.6248608	i r </s>
-1.4015363	m r </s>
-1.2999877	t o </s>
-2.0306141	h o </s>
-2.3555186	o o </s>
-1.8569845	g o </s>
-2.1121254	n o </s>
-1.7806804	d o </s>
-1.6949654	s o </s>
-3.3984144	i o </s>
-2.301327	w o </s>
-2.7145743	t c </s>
-1.9747857	e c </s>
-2.3571312	r c </s>
-2.5532045	i c </s>
-1.2494268	m c </s>
-2.2238593	x c </s>
-2.225634	e g </s>
-1.587555	r g </s>
-2.5221648	o g </s>
-1.2022259	u g </s>
-1.1691078	n g </s>
-1.8760777	e u </s>
-1.5585046	o u </s>
-1.7567621	e n </s>
-1.6744381	r n </s>
-1.4502486	o n </s>
-1.6739697	g n </s>
-2.931565	u n </s>
-1.846112	a n </s>
-1.802923	i n </s>
-1.1263342	w n </s>
-1.8585267	m n </s>
-3.077738	e b </s>
-2.683646	r b </s>
-1.391625	r k </s>
-1.6626858	o k </s>
-1.4350352	c k </s>
-1.3223956	n k </s>
-1.999775	a k </s>
-1.3266484	s k </s>
-1.7157842	l k </s>
-2.6775432	<s> f </s>
-2.2890277	e f </s>
-1.1912847	o f </s>
-2.1191006	f f </s>
-1.7384524	i f </s>
-1.1674585	l f </s>
-1.178452	e d </s>
-1.7799816	r d </s>
-1.5025923	o d </s>
-2.5673475	u d </s>
-1.243961	n d </s>
-1.9724743	d d </s>
-1.5392234	a d </s>
-2.5626473	s d </s>
-1.6421509	i d </s>
-0.8159634	v d </s>
-1.1359429	l d </s>
-1.8185158	w d </s>
-2.1255186	t a </s>
-2.6392145	h a </s>
-2.145338	e a </s>
-2.9039972	p a </s>
-2.1334112	r a </s>
-1.926552	o a </s>
-2.063317	g a </s>
-2.2678711	u a </s>
-1.9992679	n a </s>
-1.6390536	k a </s>
-1.8462168	f a </s>
-2.7346547	d a </s>
-2.2588863	s a </s>
-2.5001934	i a </s>
-1.8391664	y a </s>
-2.3826566	l a </s>
-3.0979576	w a </s>
-2.5874636	m a </s>
-1.3141577	t s </s>
-1.9152688	h s </s>
-1.5637032	e s </s>
-1.0918286	p s </s>
-1.3600265	r s </s>
-2.8986955	o s </s>
-1.2482378	c s </s>
-1.3674599	g s </s>
-1.5519503	u s </s>
-1.4792812	n s </s>
-2.356315	b s </s>
-1.0820642	k s </s>
-2.086778	f s </s>
-1.6281043	d s </s>
-1.4214613	a s </s>
-1.39207	s s </s>
-1.370991	i s </s>
-1.7171595	y s </s>
-1.6694038	l s </s>
-1.1302383	w s </s>
-1.423812	m s </s>
-2.0718355	t i </s>
-2.390346	h i </s>
-1.7751633	e i </s>
-2.3957021	p i </s>
-2.119417	r i </s>
-2.145504	o i </s>
-2.576474	c i </s>
-2.1470735	g i </s>
-1.8488524	u i </s>
-1.8019313	n i </s>
-2.2456043	k i </s>
-2.0807416	f i </s>
-1.88578	d i </s>
-3.0451	a i </s>
-1.9820021	s i </s>
-0.38661912	i i </s>
-1.8461245	v i </s>
-1.7614886	y i </s>
-2.2353992	l i </s>
-2.5568986	w i </s>
-2.23446	m i </s>
-1.2388589	x i </s>
-2.712088	r v </s>
-1.8154758	o v </s>
-0.9918078	c v </s>
-2.086668	s v </s>
-1.8296428	i v </s>
-1.741053	l v </s>
-0.6211857	x v </s>
-1.1633928	t y </s>
-1.4690118	h y </s>
-1.6794277	e y </s>
-1.1093092	p y </s>
-1.0536612	r y </s>
-1.9655185	o y </s>
-0.89422303	c y </s>
-2.290937	g y </s>
-1.1177593	n y </s>
-1.1179756	b y </s>
-1.8517365	k y </s>
-2.3596158	f y </s>
-1.4982294	d y </s>
-1.2178668	a y </s>
-1.9013408	s y </s>
-1.0272614	l y </s>
-1.1343775	m y </s>
-1.0383803	z y </s>
-1.8803318	e l </s>
-2.517106	r l </s>
-2.8894343	o l </s>
-2.60763	c l </s>
-1.9753408	u l </s>
-1.7358366	a l </s>
-1.6123251	i l </s>
-1.2219174	l l </s>
-1.3308029	x l </s>
-2.017621	e w </s>
-1.4797721	o w </s>
-2.0173154	a w </s>
-1.9254814	t m </s>
-1.8022401	e m </s>
-2.0444639	r m </s>
-1.8355159	o m </s>
-2.30871	u m </s>
-2.6903517	n m </s>
-2.5868206	f m </s>
-1.6587734	a m </s>
-2.6838412	s m </s>
-1.5234342	i m </s>
-2.6607654	l m </s>
-2.3567007	e x </s>
-1.5390891	r x </s>
-1.1945279	o x </s>
-1.5485367	c x </s>
-1.2049453	a x </s>
-0.67848057	i x </s>
-1.511691	l x </s>
-1.1918184	x x </s>
-3.1391985	<s> t t
-3.4161558	t t t
-1.0532296	h t t
-0.8525752	e t t
-1.1901673	p t t
-1.7015667	r t t
-1.089319	o t t
-1.2568886	c t t
-1.022077	u t t
-1.2532339	n t t
-1.6498191	b t t
-2.013853	f t t
-0.9355474	a t t
-1.5015752	s t t
-1.1033232	i t t
-1.6622512	l t t
-1.7227322	x t t
-2.5903182	<s> h t
-1.7404375	t h t
-1.9325428	p h t
-1.8468423	o h t
-1.3283617	c h t
-0.15890905	g h t
-1.4450563	a h t
-1.6681017	s h t
-2.1707103	<s> e t
-1.4600947	t e t
-1.5120273	h e t
-1.1747613	e e t
-1.4764632	p e t
-1.0336741	r e t
-2.2751253	o e t
-1.2513106	c e t
-0.93480057	g e t
-1.1826591	u e t
-1.4960462	n e t
-1.0354501	b e t
-0.9450081	k e t
-1.7566683	f e t
-1.2485862	d e t
-1.2412852	s e t
-1.3981419	i e t
-1.2540592	v e t
-0.52954394	y e t
-0.61558163	l e t
-1.7984005	w e t
-0.873145	m e t
-0.98353434	z e t
-0.9746158	e p t
-1.7349174	o p t
-0.7982236	u p t
-1.543309	a p t
-1.0892828	i p t
-1.9657669	l p t
-1.0119344	m p t
-0.9541963	e r t
-0.78674096	o r t
-1.223118	u r t
-0.8189789	a r t
-1.0437795	i r t
-2.548504	y r t
-1.9913516	m r t
-1.4066954	<s> o t
-0.98192394	t o t
-1.7878275	h o t
-1.2952627	e o t
-2.333108	p o t
-1.4471172	r o t
-1.3204725	o o t
-0.9988349	g o t
-1.3076917	u o t
-0.2790019	n o t
-0.7487391	b o t
-1.6594484	k o t
-2.5545936	f o t
-1.7663031	d o t
-1.5008554	s o t
-2.7596643	i o t
-1.1444051	v o t
-2.151115	y o t
-2.11436	l o t
-2.716741	w o t
-1.1737732	m o t
-2.745498	<s> c t
-0.53017104	e c t
-1.27437	o c t
-1.0749443	u c t
-2.040943	n c t
-0.7215684	a c t
-1.2381933	i c t
-2.719556	e g t
-0.83561826	r g t
-0.80582595	n g t
-2.1291962	<s> u t
-1.9857582	t u t
-1.321784	h u t
-1.4738616	e u t
-0.4514359	p u t
-1.131732	r u t
-1.0618927	o u t
-1.1484176	c u t
-0.61493796	g u t
-1.2322068	n u t
-0.045187727	b u t
-1.5218173	f u t
-1.0936906	d u t
-0.7863892	a u t
-2.505128	s u t
-1.5002156	y u t
-0.568696	l u t
-1.7430782	m u t
-0.5189514	e n t
-1.0965171	r n t
-0.87316716	o n t
-1.3181547	g n t
-0.5601566	u n t
-2.7371104	n n t
-1.0798688	a n t
-0.9389706	i n t
-0.9373418	w n t
-1.6703557	e b t
-2.5572393	r b t
-1.3145841	o b t
-0.62960184	u b t
-2.997263	a b t
-1.3951459	e k t
-1.4843287	r k t
-1.3431377	o k t
-0.9011236	c k t
-1.0162578	n k t
-1.5141017	a k t
-1.587579	s k t
-0.9925091	l k t
-1.9340357	h f t
-1.2705075	e f t
-0.6624912	o f t
-1.8151487	f f t
-0.4598962	a f t
-1.2229038	i f t
-0.9174378	l f t
-2.648876	<s> d t
-0.7701811	e d t
-1.4642377	r d t
-1.5025923	o d t
-1.3899864	c d t
-1.8916724	g d t
-2.3660502	u d t
-1.0026793	n d t
-1.3884783	d d t
-1.3160764	a d t
-1.4472553	i d t
-1.3767812	l d t
-1.1528445	<s> a t
-0.982489	t a t
-0.49034753	h a t
-0.98903024	e a t
-1.0395222	p a t
-0.8114156	r a t
-1.2499467	o a t
-1.0880601	c a t
-1.0709499	g a t
-1.0559974	u a t
-0.67619544	n a t
-1.0290213	b a t
-0.9513621	k a t
-0.96939266	f a t
-1.11366	d a t
-1.1880517	a a t
-0.9732221	s a t
-0.90673816	i a t
-1.1529197	v a t
-1.1158935	y a t
-0.7696007	l a t
-1.8918434	w a t
-1.1748613	m a t
-1.2434748	x a t
-1.0401504	<s> s t
-1.041585	t s t
-0.5736926	h s t
-0.8189052	e s t
-0.9208637	p s t
-0.7163674	r s t
-0.6821135	o s t
-0.9799962	c s t
-0.84413606	g s t
-0.5586684	u s t
-0.75997555	n s t
-0.6576606	b s t
-0.87740856	k s t
-1.4266768	f s t
-0.9874284	d s t
-0.7299534	a s t
-1.1576564	s s t
-0.85827994	i s t
-1.1210408	y s t
-0.75191754	l s t
-1.0951407	w s t
-0.7485679	m s t
-0.7925688	<s> i t
-1.166608	t i t
-1.716849	h i t
-0.81856894	e i t
-0.9102838	p i t
-0.83189464	r i t
-0.9352875	o i t
-0.93559754	c i t
-1.1284113	g i t
-0.77188313	u i t
-0.71709675	n i t
-0.4978516	b i t
-0.9002093	k i t
-0.8548628	f i t
-0.9295086	d i t
-1.1117523	a i t
-0.81644857	s i t
-2.2651331	i i t
-1.671888	v i t
-0.8999822	y i t
-0.7363011	l i t
-0.3156089	w i t
-0.86495924	m i t
-1.9167953	x i t
-1.0710108	t y t
-1.3209839	h y t
-1.7250844	e y t
-1.1330274	p y t
-0.80052793	r y t
-1.5315431	o y t
-0.9230625	c y t
-2.290937	g y t
-0.94852424	n y t
-0.5576214	b y t
-1.8517365	k y t
-1.6404123	f y t
-1.3841455	d y t
-0.98765063	a y t
-1.5579387	s y t
-0.92006475	l y t
-1.4217108	m y t
-1.0383803	z y t
-1.5319008	e l t
-2.1904213	r l t
-2.5402505	o l t
-1.0558105	u l t
-1.2455848	a l t
-1.4029696	i l t
-1.0902057	l l t
-1.7986635	e w t
-1.1148262	o w t
-1.7001647	a w t
-2.2624378	t m t
-2.26364	h m t
-1.6156424	e m t
-1.946078	r m t
-1.2886332	o m t
-2.6746025	u m t
-2.5836024	n m t
-1.5088818	a m t
-1.4552104	i m t
-2.4560208	l m t
-0.24934594	t x t
-0.9020728	e x t
-1.2819253	o x t
-1.1655972	a x t
-0.86604035	i x t
-0.18254074	<s> t h
-0.48185304	t t h
-0.518584	h t h
-0.50868547	e t h
-0.815407	p t h
-0.5177437	r t h
-0.43697703	o t h
-1.7693214	c t h
-0.26034874	g t h
-0.8301639	u t h
-0.677449	n t h
-1.7220347	b t h
-0.26757252	k t h
-0.23224527	f t h
-0.29718587	d t h
-1.1927018	a t h
-0.77387094	s t h
-0.545069	i t h
-0.25296065	y t h
-0.3846243	l t h
-0.2214916	w t h
-0.2153665	m t h
-1.0458927	x t h
-2.1403794	t h h
-2.4198816	o h h
-1.531603	c h h
-2.5077972	g h h
-1.8533407	a h h
-2.5187993	s h h
-2.2895405	t e h
-1.5056722	h e h
-1.7929406	e e h
-2.4574735	p e h
-1.8252525	r e h
-1.8294941	c e h
-1.923765	g e h
-1.891651	u e h
-1.7978183	n e h
-1.5737714	b e h
-1.2890257	k e h
-2.6212585	f e h
-2.136698	d e h
-1.9622948	s e h
-3.0494046	i e h
-1.5673352	v e h
-2.6831672	y e h
-2.1135702	l e h
-1.6535369	w e h
-1.669569	m e h
-1.5619152	z e h
-1.9128286	<s> p h
-1.863083	h p h
-1.476263	e p h
-1.9944603	r p h
-1.3833073	o p h
-2.2011797	u p h
-2.1531699	n p h
-1.7130753	f p h
-1.8078668	a p h
-2.5019288	s p h
-1.8601909	i p h
-1.8638626	y p h
-2.014657	l p h
-1.6680918	m p h
-2.6937876	<s> r h
-1.4060081	e r h
-1.7003914	o r h
-1.598955	u r h
-2.271117	a r h
-2.1706922	i r h
-2.443524	<s> o h
-1.3343657	t o h
-1.8005508	h o h
-2.3570282	e o h
-2.8070743	r o h
-2.3213735	o o h
-2.8853724	c o h
-1.8893026	u o h
-2.8510268	n o h
-2.341492	d o h
-2.1095123	s o h
-3.5439703	y o h
-2.2791955	w o h
-3.0866947	m o h
-0.98018044	<s> c h
-0.7173353	t c h
-1.4647496	h c h
-1.2302	e c h
-0.6603455	r c h
-1.1010401	o c h
-1.0730803	g c h
-0.2499352	u c h
-1.4975501	n c h
-1.3146816	k c h
-0.98209393	f c h
-0.9759065	d c h
-0.773422	a c h
-1.0232099	s c h
-0.45505	i c h
-0.6803838	y c h
-0.94785315	l c h
-1.3132011	w c h
-1.5914001	m c h
-1.9634192	x c h
-2.7569427	e g h
-2.3774607	o g h
-0.07559369	u g h
-1.3477626	n g h
-0.2556566	i g h
-1.6030724	o u h
-1.868113	e n h
-1.6452194	r n h
-1.7971491	o n h
-2.212434	g n h
-1.4589831	u n h
-2.0063908	a n h
-1.8172698	i n h
-1.3480624	w n h
-1.9697764	m n h
-3.077738	e b h
-2.5062194	r b h
-1.9717809	r k h
-1.6626858	o k h
-1.7552738	c k h
-1.4437662	n k h
-2.6072686	a k h
-1.4015028	s k h
-1.8385508	l k h
-3.074872	e f h
-1.2306727	o f h
-2.5025008	f f h
-1.5197915	i f h
-1.634878	l f h
-1.4039872	e d h
-2.2066863	r d h
-1.6258425	o d h
-1.2263433	c d h
-2.5899668	u d h
-1.5501735	n d h
-2.00689	a d h
-2.5812001	s d h
-1.7887207	i d h
-0.82055205	v d h
-0.9391112	l d h
-1.8778572	<s> a h
-2.3794744	t a h
-3.1023612	h a h
-2.4572368	e a h
-2.8037777	p a h
-2.5777915	r a h
-2.3946817	o a h
-2.6010683	g a h
-2.2678711	u a h
-2.235436	n a h
-2.4755692	b a h
-2.37079	f a h
-2.3731897	d a h
-2.1548436	s a h
-2.7174194	i a h
-2.0699675	y a h
-2.989272	l a h
-2.4088936	m a h
-0.6523885	<s> s h
-0.78709525	t s h
-0.7452663	h s h
-1.2134349	e s h
-1.2346413	p s h
-1.150713	r s h
-1.7787414	o s h
-1.092226	c s h
-0.89469534	g s h
-1.3146728	u s h
-1.2449783	n s h
-2.3348384	b s h
-0.9861547	k s h
-0.8125872	f s h
-0.5010369	d s h
-1.5153738	a s h
-1.1721178	s s h
-0.81492925	i s h
-0.9207468	y s h
-1.2589425	l s h
-0.75746334	w s h
-1.2689126	m s h
-0.5360304	x s h
-1.2624742	<s> i h
-1.7638825	t i h
-2.2379124	h i h
-1.5760447	e i h
-2.4976137	p i h
-1.8937213	r i h
-1.9369904	o i h
-2.0530975	g i h
-1.6858888	u i h
-1.642142	n i h
-1.404774	k i h
-1.6343452	f i h
-1.69835	d i h
-2.8811324	a i h
-1.717136	s i h
-2.3008306	i i h
-1.2589993	y i h
-2.1854272	l i h
-2.7518756	w i h
-2.1524758	m i h
-1.9401213	t y h
-2.399754	h y h
-1.7297468	e y h
-1.566414	p y h
-1.5812968	r y h
-2.0538628	o y h
-1.5601658	c y h
-1.9069434	n y h
-1.2826914	b y h
-1.9010011	f y h
-2.042914	d y h
-1.4267931	a y h
-2.5136569	s y h
-1.4775903	l y h
-1.2031415	m y h
-2.3342104	e l h
-1.970021	r l h
-3.0564578	o l h
-2.5983446	u l h
-2.4007285	a l h
-2.4914038	i l h
-1.4515685	l l h
-0.43703413	<s> w h
-0.6753997	t w h
-0.44237018	h w h
-0.6650807	e w h
-1.0606691	p w h
-0.46432096	r w h
-1.0636452	o w h
-0.69036037	c w h
-0.49042928	g w h
-1.0226313	u w h
-0.2953088	n w h
-0.43382084	b w h
-0.61718893	k w h
-0.30287224	f w h
-0.49849066	d w h
-1.102185	a w h
-0.5288704	s w h
-1.8878349	i w h
-0.6047552	y w h
-0.7816953	l w h
-0.29459772	w w h
-0.4174941	m w h
-0.6638637	x w h
-2.7463913	e m h
-2.1516201	r m h
-1.6811988	o m h
-2.2221148	a m h
-2.784445	s m h
-1.7470683	i m h
-1.6398569	e x h
-1.5216026	o x h
-1.269392	i x h
-1.5161251	<s> t e
-0.53317094	t t e
-1.0348608	h t e
-1.2907887	e t e
-0.8823561	p t e
-1.0800427	r t e
-1.1506339	o t e
-0.8801347	c t e
-2.5682204	g t e
-1.0590405	u t e
-0.9576982	n t e
-0.7191988	b t e
-2.2314506	k t e
-0.5700998	f t e
-1.93069	d t e
-0.8048465	a t e
-1.0667479	s t e
-1.259569	i t e
-1.4823592	y t e
-0.9834726	l t e
-1.864496	w t e
-2.321414	m t e
-0.7556538	x t e
-0.5185456	<s> h e
-0.27832022	t h e
-0.30070952	h h e
-0.51541877	e h e
-0.48938584	p h e
-0.5074817	r h e
-0.51957226	o h e
-0.9788512	c h e
-0.9912508	g h e
-1.3637527	u h e
-0.38584477	n h e
-0.6337755	b h e
-0.28998178	k h e
-0.30326265	f h e
-0.4442716	d h e
-1.017549	a h e
-0.3907151	s h e
-1.5178725	i h e
-0.36847344	y h e
-0.4444386	l h e
-0.6714492	w h e
-0.2649797	m h e
-1.1072545	x h e
-1.8939239	t e e
-1.6818585	h e e
-2.5812318	e e e
-1.9617102	p e e
-1.434311	r e e
-1.4982271	c e e
-2.7646887	g e e
-1.5865155	u e e
-1.8368059	n e e
-1.062864	b e e
-1.1046827	k e e
-0.9762898	f e e
-1.9154418	d e e
-1.056202	s e e
-2.1372375	v e e
-2.5108206	y e e
-1.8820883	l e e
-1.213793	w e e
-1.7935874	m e e
-1.8231663	z e e
-0.8175018	<s> p e
-0.924193	t p e
-0.8433514	h p e
-0.96022415	e p e
-0.64518327	p p e
-0.91069484	r p e
-0.50145423	o p e
-0.7460944	c p e
-0.47824606	g p e
-1.2048647	u p e
-0.8004199	n p e
-0.5693425	k p e
-1.0994004	f p e
-0.5683603	d p e
-1.1578882	a p e
-0.46206594	s p e
-1.264395	i p e
-0.7309259	y p e
-0.84415925	l p e
-0.94996125	w p e
-1.1181244	m p e
-0.22320192	x p e
-0.07862776	<s> r e
-0.50654846	t r e
-0.35578138	h r e
-0.81537914	e r e
-0.3780977	p r e
-0.43091226	r r e
-0.64254975	o r e
-0.371751	c r e
-0.22482222	g r e
-0.6608303	u r e
-0.1360812	n r e
-0.6662306	b r e
-0.5017828	k r e
-0.97565305	f r e
-0.12765455	d r e
-0.59005153	a r e
-0.10823927	s r e
-0.4224038	i r e
-0.03207022	v r e
-0.10413936	y r e
-0.03944826	l r e
-1.0563606	w r e
-0.5583844	m r e
-1.8037784	t o e
-2.3840785	h o e
-3.0292726	p o e
-2.7229896	o o e
-1.7663294	g o e
-2.809767	n o e
-3.407567	f o e
-1.2434099	d o e
-2.1162276	s o e
-2.961591	w o e
-0.6916826	<s> j e
-0.81996614	t j e
-0.6173742	e j e
-0.92303145	r j e
-0.08113127	o j e
-1.7114018	n j e
-0.0042794906	b j e
-0.8872392	f j e
-1.0117289	d j e
-0.6799934	a j e
-1.1640985	s j e
-1.0770787	y j e
-0.95768803	<s> c e
-1.2739954	t c e
-1.0344071	h c e
-0.8050014	e c e
-0.64703417	r c e
-0.8119459	o c e
-0.42108402	c c e
-1.1626599	g c e
-1.0444984	u c e
-0.13854319	n c e
-1.4690664	f c e
-1.5401901	d c e
-0.91589373	a c e
-0.912168	s c e
-0.80595756	i c e
-1.1518326	y c e
-1.2355497	l c e
-1.3118702	w c e
-0.7531951	m c e
-0.3692166	x c e
-0.9463247	<s> g e
-1.3443727	t g e
-1.4770192	h g e
-1.1199371	e g e
-0.5508175	r g e
-0.73628724	o g e
-0.56106496	g g e
-2.51654	u g e
-0.8169169	n g e
-0.82981545	f g e
-0.38598228	d g e
-0.4779402	a g e
-1.2086178	s g e
-0.91185373	i g e
-1.1389371	y g e
-0.29314318	l g e
-1.2792648	m g e
-1.1817843	t u e
-2.5487356	e u e
-2.255793	p u e
-0.76203257	r u e
-2.2599065	o u e
-0.7127816	g u e
-0.9142023	n u e
-1.4344335	d u e
-2.0056143	s u e
-0.87119246	l u e
-0.4096294	q u e
-0.62602794	<s> n e
-0.7791224	t n e
-0.35647282	h n e
-1.2735857	e n e
-0.5702231	r n e
-0.86688864	o n e
-0.659948	g n e
-1.0066859	u n e
-0.3628943	n n e
-0.30187216	b n e
-0.7202534	k n e
-0.6443064	f n e
-0.8869156	d n e
-1.7463965	a n e
-0.89015436	s n e
-1.0633267	i n e
-0.5143985	y n e
-0.75853634	l n e
-1.1347846	w n e
-0.8887748	m n e
-0.28592283	<s> b e
-0.21789297	t b e
-0.55837154	h b e
-0.4056173	e b e
-0.6561274	p b e
-0.4124011	r b e
-0.33382282	o b e
-0.71882343	c b e
-0.60500365	g b e
-1.1930875	u b e
-0.20277682	n b e
-0.27969894	b b e
-0.9411821	k b e
-0.29627687	f b e
-0.2553161	d b e
-1.7998698	a b e
-0.41786146	s b e
-0.47214627	i b e
-0.29449847	y b e
-0.07010353	l b e
-0.5140782	w b e
-0.45220876	m b e
-0.7510663	<s> k e
-1.169555	t k e
-0.47977322	h k e
-0.50531054	e k e
-0.8299146	r k e
-0.5150378	o k e
-0.7551402	c k e
-0.7548981	g k e
-1.7486492	u k e
-1.539311	n k e
-0.2300441	b k e
-0.67020375	f k e
-0.5913656	d k e
-0.1597732	a k e
-0.64843565	s k e
-0.26517287	i k e
-0.8522546	y k e
-0.6918609	l k e
-0.2300441	m k e
-1.1853175	<s> f e
-1.2799013	t f e
-1.5206532	h f e
-0.9807391	e f e
-0.9381947	r f e
-1.7692281	o f e
-1.3353719	g f e
-1.6768466	u f e
-1.1387196	n f e
-0.36094105	f f e
-1.3133187	d f e
-1.0156949	a f e
-1.5673523	s f e
-1.0117507	i f e
-1.0602503	y f e
-1.4819179	l f e
-0.99902934	w f e
-1.7861807	m f e
-0.4484008	<s> d e
-0.36465895	t d e
-0.4708709	h d e
-1.0575726	e d e
-0.8858806	p d e
-0.5454841	r d e
-0.63408566	o d e
-0.8349468	c d e
-0.5169409	g d e
-0.3383777	u d e
-0.8240739	n d e
-0.84926903	k d e
-0.43816334	f d e
-0.516028	d d e
-0.81086504	a d e
-0.29588804	s d e
-0.4007969	i d e
-0.3123465	y d e
-1.2631444	l d e
-0.93102807	w d e
-0.14414705	m d e
-0.3045428	x d e
-3.8129704	h a e
-3.7611716	e a e
-0.69648206	<s> s e
-1.0875956	t s e
-1.0169429	h s e
-1.0612441	e s e
-1.3308204	p s e
-0.74132365	r s e
-0.3344037	o s e
-1.0200399	g s e
-0.6249169	u s e
-0.86235857	n s e
-0.2285984	b s e
-1.9177264	k s e
-0.6445112	f s e
-1.1000938	d s e
-1.1539214	a s e
-0.93789095	s s e
-1.0530047	i s e
-0.253027	v s e
-0.4431125	y s e
-0.8578531	l s e
-1.4725084	w s e
-0.5661478	m s e
-0.53573406	x s e
-1.8662908	<s> i e
-1.5983369	t i e
-2.3698745	h i e
-2.256935	e i e
-1.0534832	p i e
-0.6809531	r i e
-2.4613125	o i e
-0.75607944	c i e
-2.0467734	g i e
-1.3771967	u i e
-1.6601126	n i e
-2.409522	k i e
-1.1974485	f i e
-1.2315949	d i e
-2.3119092	a i e
-1.865589	s i e
-1.4038886	v i e
-1.6177796	y i e
-0.86133826	l i e
-3.0726588	w i e
-2.4112315	m i e
-1.2384567	x i e
-0.7678431	<s> v e
-0.4830776	t v e
-0.40907055	h v e
-0.14938414	e v e
-0.19931288	r v e
-0.05830506	o v e
-0.52519333	g v e
-0.4639676	u v e
-0.282508	n v e
-0.21133544	k v e
-0.7048786	f v e
-0.43749553	d v e
-0.10822031	a v e
-0.24016397	s v e
-0.08992364	i v e
-0.61778706	y v e
-0.108368486	l v e
-0.41589546	w v e
-0.08851594	m v e
-0.9780802	<s> y e
-1.4902883	t y e
-1.7295109	h y e
-1.000707	e y e
-1.5288568	p y e
-1.5487266	r y e
-1.0676557	o y e
-1.774231	c y e
-1.6936679	g y e
-0.81988263	u y e
-1.6389918	n y e
-1.8637384	b y e
-1.0619951	k y e
-1.872804	f y e
-0.9215427	d y e
-1.4050423	a y e
-1.1678319	s y e
-0.23849258	i y e
-0.9353904	y y e
-1.5208634	l y e
-0.9615922	w y e
-1.5229915	m y e
-0.20725912	<s> l e
-0.21491912	t l e
-0.44956633	h l e
-0.9630455	e l e
-0.3314193	p l e
-0.66407275	r l e
-0.786019	o l e
-0.71442205	c l e
-0.42475015	g l e
-1.6956635	u l e
-1.1730621	n l e
-0.16530126	b l e
-0.33386898	k l e
-0.6018473	f l e
-0.47088116	d l e
-1.4141091	a l e
-0.41259584	s l e
-1.1717806	i l e
-0.52516145	y l e
-1.0629139	l l e
-0.14109653	w l e
-0.575685	m l e
-0.23694426	z l e
-1.0391148	<s> w e
-0.8896037	t w e
-0.9375699	h w e
-1.0492479	e w e
-1.5751004	p w e
-1.2105564	r w e
-0.7651192	o w e
-1.370666	c w e
-1.2390741	g w e
-1.3193926	u w e
-1.013454	n w e
-1.1294148	k w e
-1.039106	f w e
-1.0649265	d w e
-1.1817673	a w e
-0.51591164	s w e
-1.4142625	i w e
-0.7612318	y w e
-1.2329261	l w e
-1.0152503	w w e
-0.9515506	m w e
-0.8181	x w e
-0.6097397	<s> m e
-0.5224992	t m e
-0.4542016	h m e
-0.5848249	e m e
-0.6999363	p m e
-0.60687447	r m e
-0.5043422	o m e
-0.5182867	g m e
-0.89375806	u m e
-0.5941664	n m e
-1.1705494	b m e
-0.3841475	k m e
-0.960124	f m e
-0.461123	d m e
-0.43761736	a m e
-0.5233527	s m e
-0.52416766	i m e
-0.64460397	y m e
-0.95070416	l m e
-0.7455199	w m e
-0.40791798	m m e
-0.4610474	x m e
-1.0630143	e x e
-0.5337057	a x e
-0.45091778	i x e
-0.15614925	<s> z e
-0.28331393	t z e
-0.40482637	e z e
-0.28331393	r z e
-0.15614925	o z e
-0.44309872	u z e
-0.15614925	d z e
-0.51793337	a z e
-0.18971634	s z e
-0.07691689	i z e
-0.10572261	y z e
-3.2421577	t t p
-1.9698403	h t p
-2.8214447	e t p
-2.4867268	p t p
-2.9367673	r t p
-1.855534	o t p
-2.3724227	c t p
-2.029916	u t p
-2.3189156	n t p
-2.8558533	f t p
-1.8044705	a t p
-1.9781469	s t p
-2.1609416	i t p
-2.794444	l t p
-2.8144627	t h p
-1.768391	c h p
-2.8487794	g h p
-3.24478	s h p
-2.072019	t e p
-1.457886	h e p
-1.2092334	e e p
-1.3979899	r e p
-1.636317	c e p
-2.645949	g e p
-2.4247668	u e p
-1.9584967	n e p
-1.8449168	b e p
-1.6034253	k e p
-2.6539233	f e p
-1.4332924	d e p
-1.6001475	s e p
-2.1669824	v e p
-2.725989	y e p
-2.0039427	l e p
-1.9500563	w e p
-2.0678663	m e p
-0.8356589	o p p
-0.71792	u p p
-0.27795333	a p p
-2.3877363	i p p
-2.1288958	l p p
-1.8932564	e r p
-2.0505524	o r p
-1.2715688	u r p
-2.3402262	a r p
-2.0600672	i r p
-1.8668604	m r p
-1.3388339	<s> o p
-1.4345102	t o p
-1.2754849	h o p
-1.2444433	e o p
-1.376288	r o p
-1.7659786	o o p
-1.7706041	c o p
-2.5604017	g o p
-1.878716	n o p
-2.414442	f o p
-1.7196121	d o p
-1.583481	s o p
-2.8972702	i o p
-2.3229215	y o p
-2.9590743	l o p
-2.632995	w o p
-3.0448856	m o p
-2.6625524	i c p
-2.0034668	n g p
-0.8171594	<s> u p
-1.4334958	t u p
-2.246674	h u p
-1.1082177	e u p
-1.1102868	p u p
-0.964088	r u p
-2.0687706	o u p
-1.6406944	c u p
-1.5690958	g u p
-0.6992969	u u p
-0.71056014	n u p
-0.26692602	k u p
-1.4089887	f u p
-1.2088944	d u p
-2.2056491	a u p
-0.9642559	s u p
-1.1939664	y u p
-1.389195	l u p
-1.0940464	w u p
-1.9379106	m u p
-2.3108745	e n p
-2.6693845	r n p
-2.3428736	o n p
-2.5274682	u n p
-2.58809	a n p
-2.1725254	i n p
-1.6977845	w n p
-2.1239028	m n p
-2.821933	<s> b p
-3.0499957	e b p
-2.6866713	m b p
-1.9163541	e k p
-1.9717809	r k p
-2.137161	o k p
-1.7552738	c k p
-1.5796626	n k p
-2.6963768	a k p
-1.9463371	s k p
-2.7080657	<s> f p
-1.6489245	o f p
-2.795562	f f p
-2.6362848	i f p
-2.1571262	l f p
-2.2017665	e d p
-2.6929605	r d p
-2.1830993	o d p
-1.7964816	n d p
-2.2291758	a d p
-2.4382572	i d p
-1.7583883	l d p
-1.3909817	<s> a p
-1.778965	t a p
-1.0813178	h a p
-1.8239646	e a p
-1.7118645	p a p
-1.4515724	r a p
-1.3168412	o a p
-1.3949227	c a p
-1.7723619	g a p
-2.4966424	u a p
-1.6777442	n a p
-1.6926118	k a p
-1.9282134	f a p
-1.9536283	d a p
-1.4577725	a a p
-1.5889995	s a p
-2.0214162	i a p
-2.739063	v a p
-1.5736142	y a p
-2.0930915	l a p
-2.95534	w a p
-2.4337442	m a p
-1.5959774	<s> s p
-1.5888269	t s p
-1.9215628	h s p
-1.4396337	e s p
-1.8308036	p s p
-2.00873	r s p
-1.7094399	o s p
-1.7294976	g s p
-1.4915538	u s p
-1.4169166	n s p
-1.7423732	k s p
-1.6463702	f s p
-1.7494079	d s p
-1.7784438	a s p
-2.1019337	s s p
-1.3480878	i s p
-1.6141245	y s p
-2.0183544	l s p
-1.9062653	w s p
-1.7120407	m s p
-2.0824583	<s> i p
-2.448522	t i p
-1.55858	h i p
-2.1262608	e i p
-2.600851	p i p
-2.1770077	r i p
-1.2042614	c i p
-2.7919767	g i p
-2.331978	u i p
-2.300469	n i p
-2.274255	k i p
-2.9565165	f i p
-2.454784	d i p
-2.044499	s i p
-2.5339477	y i p
-2.0949843	l i p
-2.9554756	w i p
-2.7520242	m i p
-1.5306573	z i p
-2.2813487	t y p
-1.8341911	h y p
-2.1760395	e y p
-1.6512227	p y p
-1.6637139	r y p
-1.4608667	c y p
-1.6890367	n y p
-1.6078885	b y p
-2.5642133	d y p
-1.9907328	a y p
-2.5544813	s y p
-1.5403293	l y p
-1.3687305	m y p
-2.139059	e l p
-2.2531257	u l p
-2.0273628	a l p
-3.2136564	i l p
-1.5818439	l l p
-2.5562594	e w p
-2.3096426	o w p
-1.2291467	e m p
-2.9007888	r m p
-1.0198786	o m p
-1.469018	u m p
-1.5953941	a m p
-0.9496569	i m p
-1.860182	y m p
-0.38175943	e x p
-1.5164857	<s> t r
-1.7469428	t t r
-1.8140248	h t r
-1.557328	e t r
-1.8808749	r t r
-1.5618184	o t r
-1.6428661	c t r
-2.2781668	g t r
-1.8776371	u t r
-1.4948047	n t r
-2.0308824	b t r
-2.0880134	k t r
-2.1939628	f t r
-1.9314175	d t r
-1.7459292	a t r
-0.9954399	s t r
-2.3481603	i t r
-1.6686594	y t r
-1.8321623	l t r
-1.7393359	w t r
-1.8485985	m t r
-0.50615263	x t r
-2.0757613	t h r
-1.01142	p h r
-2.501414	o h r
-1.9465858	c h r
-2.7518082	g h r
-2.01924	a h r
-2.9981928	s h r
-2.2547169	<s> e r
-0.50889325	t e r
-0.64050895	h e r
-1.8287978	e e r
-0.39284194	p e r
-2.0922775	r e r
-2.2745967	o e r
-1.0371189	c e r
-0.6336417	g e r
-1.3309915	u e r
-1.2007557	n e r
-1.0625426	b e r
-2.0325563	k e r
-0.59056795	f e r
-0.8504823	d e r
-1.064306	s e r
-1.2379669	i e r
-0.55072826	v e r
-1.3654094	y e r
-1.8179054	l e r
-0.5593929	w e r
-1.24897	m e r
-0.89907575	x e r
-0.4860975	<s> p r
-0.42136514	t p r
-0.50786996	h p r
-0.58177805	e p r
-0.99902314	p p r
-0.39769316	r p r
-0.918362	o p r
-0.89277637	c p r
-0.47712833	g p r
-1.237365	u p r
-0.4804023	n p r
-0.6372176	b p r
-0.39369917	k p r
-0.33425778	f p r
-0.49724394	d p r
-1.162499	a p r
-0.8964885	s p r
-0.7224204	i p r
-0.4439836	y p r
-0.4800393	l p r
-0.65915984	w p r
-1.0274047	m p r
-0.715	x p r
-1.776088	e r r
-1.3695073	o r r
-1.5950816	u r r
-1.2922736	a r r
-1.6913321	i r r
-1.2579505	<s> o r
-1.2437084	t o r
-1.33488	h o r
-1.2306142	e o r
-0.7013479	p o r
-1.4142361	r o r
-1.1787404	o o r
-1.461379	c o r
-1.1970766	g o r
-1.300595	u o r
-1.430853	n o r
-1.4821563	b o r
-1.0399836	k o r
-0.08324463	f o r
-1.2425572	d o r
-0.58244497	a o r
-1.1769154	s o r
-1.9870554	i o r
-2.6730213	v o r
-2.0452485	y o r
-1.5070395	l o r
-0.56079453	w o r
-0.4132606	m o r
-0.5956161	x o r
-0.22871344	j j r
-1.4446719	<s> c r
-1.3146243	t c r
-1.494134	h c r
-1.4557695	e c r
-0.6696154	p c r
-1.8016343	r c r
-1.6727003	o c r
-1.4617252	g c r
-1.7219288	n c r
-1.4851917	f c r
-1.2380857	d c r
-1.1576687	a c r
-1.0336707	s c r
-2.8256454	i c r
-1.4502815	y c r
-1.5929005	l c r
-2.0067775	x c r
-0.65150565	<s> g r
-1.1022125	t g r
-0.22802164	h g r
-0.6153486	e g r
-1.1782098	r g r
-0.82721883	o g r
-0.89682794	g g r
-2.5808074	u g r
-1.5627445	n g r
-0.53501284	f g r
-1.2205248	d g r
-0.6123644	a g r
-0.5748302	s g r
-2.230676	i g r
-0.5401355	y g r
-1.2850661	l g r
-0.79460466	w g r
-1.0008913	m g r
-2.1059663	<s> u r
-0.37043935	t u r
-0.9267941	h u r
-1.5702953	e u r
-0.76337683	p u r
-2.348574	r u r
-0.6455649	o u r
-0.93082523	j u r
-0.64107025	c u r
-1.4029194	g u r
-2.0570347	n u r
-1.6057906	b u r
-1.5452794	f u r
-1.0280671	d u r
-2.4881783	a u r
-0.5616934	s u r
-1.7591022	y u r
-2.1184356	l u r
-1.6671976	m u r
-0.46012568	x u r
-2.1445353	e n r
-2.667192	r n r
-2.660447	o n r
-2.2372408	g n r
-2.4534569	u n r
-2.7014413	a n r
-2.4022703	i n r
-1.8343809	w n r
-1.3562628	<s> b r
-1.4409144	t b r
-1.5079244	h b r
-1.2614896	e b r
-1.5046563	r b r
-1.5038687	o b r
-0.73784745	c b r
-1.6327838	g b r
-2.1972997	u b r
-1.504543	n b r
-1.2262453	f b r
-1.872361	d b r
-1.6243628	a b r
-1.5175015	s b r
-1.5195504	i b r
-1.6157871	y b r
-1.869452	l b r
-1.2801479	w b r
-0.911345	m b r
-2.4389675	c k r
-2.7322233	n k r
-0.52778614	<s> f r
-0.82140744	t f r
-0.7810005	h f r
-0.9752327	e f r
-1.1725411	p f r
-0.37888327	r f r
-1.6263291	o f r
-0.355496	g f r
-1.2356498	u f r
-1.3375828	n f r
-0.8435329	k f r
-1.3241003	f f r
-0.6282087	d f r
-1.0071859	a f r
-0.7462239	s f r
-2.3097816	i f r
-0.57658553	y f r
-1.3794566	l f r
-0.79184866	w f r
-0.62698776	m f r
-0.73376673	x f r
-1.4568027	<s> d r
-1.52995	t d r
-0.8636085	h d r
-1.9440258	e d r
-2.046306	r d r
-1.5232517	o d r
-1.3169619	c d r
-1.8001873	g d r
-1.6337731	u d r
-1.6771656	n d r
-1.6969265	f d r
-0.95772034	d d r
-1.9871522	a d r
-1.3314006	s d r
-2.007818	i d r
-1.647642	y d r
-1.5209645	l d r
-1.5996354	w d r
-2.102712	m d r
-1.291143	<s> a r
-1.5064219	t a r
-1.3679538	h a r
-0.786856	e a r
-0.3894321	p a r
-1.3881408	r a r
-1.2151289	o a r
-0.79512566	j a r
-0.8997675	c a r
-1.4980404	g a r
-0.6092989	u a r
-1.3178024	n a r
-0.904731	b a r
-0.87998736	f a r
-1.4168136	d a r
-1.4397078	a a r
-1.091474	s a r
-1.9113111	i a r
-1.9196103	v a r
-0.95308083	y a r
-1.101697	l a r
-1.2283268	w a r
-1.1399857	m a r
-0.38372773	z a r
-2.111545	t s r
-2.6690266	e s r
-1.8745086	p s r
-2.3279793	r s r
-2.1015794	u s r
-2.7005706	n s r
-2.0258405	k s r
-2.4831939	d s r
-1.9524039	a s r
-2.4572155	s s r
-1.8033167	i s r
-2.242148	y s r
-2.5761733	l s r
-2.0726037	w s r
-2.4813294	m s r
-1.6891245	<s> i r
-1.6243182	t i r
-2.3323562	h i r
-1.2214084	e i r
-0.99610245	p i r
-2.1913526	r i r
-1.5928471	o i r
-1.0617838	c i r
-1.2672095	g i r
-0.9454844	u i r
-1.9309046	n i r
-1.0334969	b i r
-2.0995748	k i r
-0.8626362	f i r
-1.8304076	d i r
-1.0179955	a i r
-1.3484843	s i r
-1.0300417	v i r
-2.0364785	y i r
-2.2650113	l i r
-3.073934	w i r
-1.7391303	m i r
-1.5711428	<s> v r
-1.9215966	t v r
-1.3605514	h v r
-3.3275194	e v r
-2.9301367	o v r
-1.1654415	g v r
-1.1746297	u v r
-2.3337772	d v r
-2.493984	i v r
-1.6147358	y v r
-2.3952062	t y r
-2.3137798	h y r
-2.3955398	e y r
-1.1914512	p y r
-2.0957673	r y r
-2.6159894	o y r
-1.7991171	c y r
-2.1749082	g y r
-1.8276109	n y r
-1.6690469	b y r
-1.9723213	d y r
-1.9297054	a y r
-2.4224436	s y r
-1.4833035	l y r
-1.4025769	m y r
-2.911534	e l r
-3.1316295	o l r
-3.0866978	u l r
-1.6152574	a l r
-1.7094364	l l r
-1.540466	<s> w r
-1.843399	t w r
-2.1811888	h w r
-1.5762193	e w r
-1.7097876	p w r
-1.944523	r w r
-1.5150769	o w r
-1.891096	g w r
-1.6707984	u w r
-1.6077247	n w r
-1.3113574	f w r
-1.6366997	d w r
-1.8869973	a w r
-1.7123371	s w r
-1.5010777	i w r
-1.4181461	y w r
-1.5541672	l w r
-1.846113	w w r
-1.2473075	m w r
-2.3541622	<s> m r
-2.0853765	t m r
-2.2737634	h m r
-2.652639	e m r
-2.6894646	r m r
-2.309366	o m r
-2.389138	g m r
-2.513819	u m r
-2.3899784	n m r
-1.7693107	f m r
-2.4022467	d m r
-2.020869	a m r
-2.026988	s m r
-2.442523	i m r
-2.5071414	y m r
-2.5421934	l m r
-2.3005605	m m r
-0.6440133	<s> t o
-0.6795667	t t o
-0.90707445	h t o
-0.6294543	e t o
-0.8680966	p t o
-0.81488705	r t o
-1.5538095	o t o
-1.1636776	c t o
-0.47024852	g t o
-1.1294129	u t o
-0.89525366	n t o
-0.96833074	b t o
-0.3929974	k t o
-1.2607696	f t o
-0.35522476	d t o
-1.5716114	a t o
-0.7831859	s t o
-1.6529679	i t o
-0.50616217	y t o
-0.73157835	l t o
-0.502889	w t o
-0.4853917	m t o
-1.2528229	x t o
-0.81247085	<s> h o
-1.1601334	t h o
-1.2535629	h h o
-0.7910475	e h o
-1.7225835	p h o
-0.9440404	r h o
-1.3460935	o h o
-1.0710305	c h o
-1.8624339	g h o
-1.1740094	u h o
-0.97422206	n h o
-1.0460439	k h o
-1.2320698	f h o
-1.1232548	d h o
-1.2103164	a h o
-0.6625419	s h o
-0.95991534	i h o
-1.0772728	y h o
-1.223891	l h o
-0.6597683	w h o
-1.1475408	m h o
-0.9377425	x h o
-1.8815625	t e o
-1.560873	h e o
-1.9344575	e e o
-1.5446426	p e o
-1.6460096	r e o
-1.3030202	c e o
-1.4505748	g e o
-1.4586283	u e o
-1.5556185	n e o
-1.6577306	b e o
-1.5120627	k e o
-2.6191812	f e o
-2.1109593	d e o
-1.5153971	s e o
-2.9650571	i e o
-1.7208158	v e o
-2.5876975	y e o
-1.4328038	l e o
-2.3033874	w e o
-1.5255238	m e o
-1.6769673	z e o
-1.109384	<s> p o
-0.9907784	t p o
-1.0463303	e p o
-0.6176944	p p o
-0.8007593	r p o
-1.2859994	o p o
-0.90765667	c p o
-1.1509095	g p o
-0.73960316	u p o
-0.9664177	n p o
-1.2658165	k p o
-1.219342	f p o
-1.2627066	d p o
-1.605041	a p o
-0.6558527	s p o
-1.4536889	i p o
-0.92068344	y p o
-1.3363873	l p o
-1.1663079	w p o
-0.88946307	m p o
-1.1153587	x p o
-1.427629	<s> r o
-0.87963825	t r o
-0.47407615	h r o
-1.3437755	e r o
-0.40872505	p r o
-0.65103585	r r o
-1.6818867	o r o
-0.20579074	j r o
-1.4448351	c r o
-1.3128618	g r o
-1.5108395	u r o
-1.4614463	n r o
-0.6336271	b r o
-0.33813652	f r o
-1.4938805	d r o
-2.06102	a r o
-1.4433807	s r o
-1.386618	i r o
-1.3038347	y r o
-0.46256152	w r o
-1.5550008	m r o
-1.4287249	t o o
-1.8591944	h o o
-1.6102165	p o o
-1.453449	r o o
-2.8072305	o o o
-2.5896544	c o o
-0.57424676	g o o
-1.85258	n o o
-1.0636358	b o o
-2.0053334	f o o
-1.7338812	d o o
-1.2453891	s o o
-1.1702216	l o o
-1.963542	w o o
-2.5283482	m o o
-0.6811465	<s> j o
-0.90759176	t j o
-0.22601917	h j o
-1.1201267	e j o
-0.5016354	r j o
-1.5623667	o j o
-0.66516703	u j o
-0.3280037	n j o
-0.56315863	d j o
-0.52097404	a j o
-0.4131146	s j o
-0.2497959	i j o
-0.6799356	y j o
-0.28485048	<s> c o
-0.32676408	t c o
-0.28887254	h c o
-0.7026752	e c o
-0.64794916	p c o
-0.5992133	r c o
-0.5978844	o c o
-0.5645541	c c o
-0.3305117	g c o
-1.3336141	u c o
-1.1032326	n c o
-0.2891773	k c o
-0.19102608	f c o
-0.2623856	d c o
-1.2331886	a c o
-0.3343738	s c o
-1.1673856	i c o
-0.3387042	y c o
-0.29729185	l c o
-0.3452847	w c o
-0.35671237	m c o
-1.934309	x c o
-0.82345295	<s> g o
-0.8649349	t g o
-0.9938232	h g o
-0.91169584	e g o
-0.8228625	r g o
-0.75873494	o g o
-1.4907382	g g o
-2.5015998	u g o
-1.3586317	n g o
-0.6934595	f g o
-0.8984976	d g o
-1.4770758	a g o
-0.5967727	s g o
-1.67822	i g o
-0.68818635	y g o
-0.892171	l g o
-1.217143	w g o
-0.28458658	m g o
-1.5169623	t u o
-2.4298155	e u o
-2.095179	o u o
-2.7226455	c u o
-1.4933957	n u o
-2.1915603	d u o
-2.4508653	l u o
-1.9866266	q u o
-0.165651	<s> n o
-0.17865664	t n o
-0.33527392	h n o
-1.141088	e n o
-0.30558777	p n o
-0.9812708	r n o
-1.1098632	o n o
-0.23934913	c n o
-0.5720003	g n o
-1.4209737	u n o
-0.31457508	n n o
-0.10039135	k n o
-0.19189984	f n o
-0.072115645	d n o
-1.6191554	a n o
-0.08248597	s n o
-1.7133205	i n o
-0.24286936	y n o
-0.10507992	l n o
-0.91999334	w n o
-0.18565305	m n o
-0.23934913	x n o
-1.4246043	<s> b o
-1.9732634	t b o
-0.74529535	h b o
-1.1794521	e b o
-0.9458281	p b o
-1.2703656	r b o
-1.9935168	o b o
-1.6318204	g b o
-1.8698834	u b o
-1.8237516	n b o
-1.1630119	f b o
-1.690597	d b o
-0.7710893	a b o
-1.4576485	s b o
-2.4069576	i b o
-1.2295628	y b o
-1.7813336	l b o
-1.1231998	w b o
-1.8721474	m b o
-2.0013416	e k o
-1.0532845	r k o
-1.3709172	o k o
-1.4253441	c k o
-1.0523458	n k o
-1.5795436	a k o
-1.58478	s k o
-0.9917563	l k o
-0.4908263	<s> f o
-0.34584174	t f o
-0.30407113	h f o
-0.46617576	e f o
-0.14132285	p f o
-0.6340276	r f o
-1.3818974	o f o
-0.4023372	g f o
-0.68928844	u f o
-0.3652029	n f o
-0.23557982	b f o
-0.41754803	k f o
-1.0628967	f f o
-0.30984828	d f o
-1.5227387	a f o
-0.39091218	s f o
-1.1797091	i f o
-0.4968174	y f o
-0.9879803	l f o
-0.49580243	w f o
-0.22165003	m f o
-0.4119339	x f o
-0.78162	<s> d o
-0.6634496	t d o
-0.99887514	h d o
-1.1854126	e d o
-1.0713056	r d o
-0.86360407	o d o
-0.33632833	c d o
-1.2416404	g d o
-0.88168204	u d o
-1.2672436	n d o
-0.8549266	k d o
-1.2129765	f d o
-0.8140402	d d o
-1.1430277	a d o
-0.8181722	s d o
-0.9984618	i d o
-0.7759254	v d o
-0.96339107	y d o
-1.3181643	l d o
-0.57399976	w d o
-1.0469964	m d o
-3.3658922	t a o
-2.326673	e a o
-2.2656486	r a o
-2.9534323	g a o
-2.9282036	i a o
-3.0266109	m a o
-0.8761625	<s> s o
-0.8428237	t s o
-0.78227943	h s o
-1.0627714	e s o
-1.2082899	p s o
-0.90984577	r s o
-1.4331185	o s o
-1.0974438	c s o
-0.7564046	g s o
-1.5396405	u s o
-0.9805537	n s o
-1.0520518	b s o
-0.7165106	k s o
-0.6243924	f s o
-0.84873265	d s o
-1.237099	a s o
-0.93306243	s s o
-1.5088863	i s o
-1.0693631	y s o
-0.5265594	l s o
-0.95937395	w s o
-0.77701306	m s o
-2.2301328	<s> i o
-0.60130566	t i o
-1.7130967	h i o
-2.4198475	e i o
-2.393821	p i o
-1.5407448	r i o
-2.3862855	o i o
-0.8867709	c i o
-1.7867832	g i o
-1.2569568	n i o
-1.9286343	b i o
-2.2437732	k i o
-2.7652507	f i o
-1.8955611	d i o
-0.93543965	s i o
-2.1403	i i o
-1.2196302	v i o
-2.0359223	y i o
-2.3685193	l i o
-3.2303367	w i o
-2.7842708	m i o
-1.0830538	x i o
-0.71882415	<s> v o
-1.3165021	t v o
-1.1724212	h v o
-1.1137172	e v o
-0.20821358	p v o
-1.6506169	r v o
-2.1594455	o v o
-0.9601168	c v o
-0.8912066	g v o
-1.2061903	n v o
-0.9757204	f v o
-1.6437885	d v o
-0.93451536	a v o
-1.3241857	s v o
-2.1120741	i v o
-0.87110806	y v o
-1.7354157	l v o
-1.0255991	w v o
-1.4146119	m v o
-0.048081223	z v o
-0.053776607	<s> y o
-0.30374017	t y o
-0.24182	h y o
-0.20628497	e y o
-0.93163323	p y o
-0.61128765	r y o
-0.1837364	o y o
-0.9105912	c y o
-0.04541301	g y o
-0.095564246	u y o
-0.37640047	n y o
-1.7528327	b y o
-0.08460516	k y o
-0.06852369	f y o
-0.20587803	d y o
-1.2452779	a y o
-0.13340646	s y o
-0.8318256	v y o
-0.065541156	y y o
-0.9603769	l y o
-0.0712746	w y o
-1.0128442	m y o
-0.3091805	x y o
-0.9996675	z y o
-0.77516603	<s> l o
-1.1929824	t l o
-0.55714047	h l o
-1.2248065	e l o
-1.0015261	p l o
-0.7710917	r l o
-0.836734	o l o
-0.74956244	c l o
-0.98695296	g l o
-1.5176148	u l o
-1.139649	n l o
-1.8812623	b l o
-0.76597255	f l o
-0.60480285	d l o
-1.1294626	a l o
-0.79330325	s l o
-1.538196	i l o
-0.4020167	y l o
-1.1760083	l l o
-1.0409938	w l o
-0.63735914	m l o
-0.8661641	<s> w o
-0.686178	t w o
-0.80585015	h w o
-0.81611025	e w o
-1.5751004	p w o
-0.90048623	r w o
-1.6033561	o w o
-0.21951368	c w o
-0.92485	g w o
-0.78947675	u w o
-1.0755424	n w o
-1.2193795	k w o
-0.9499207	f w o
-1.1562549	d w o
-0.5605041	a w o
-0.9042333	s w o
-0.83822113	i w o
-0.77868503	y w o
-1.0697867	l w o
-1.0152503	w w o
-1.0384285	m w o
-0.6687744	x w o
-0.86904657	<s> m o
-1.1389463	t m o
-0.90826976	h m o
-0.7540994	e m o
-1.4960065	p m o
-1.136925	r m o
-1.4094757	o m o
-0.9466934	g m o
-1.1218399	u m o
-1.2798405	n m o
-1.4420543	f m o
-1.1507006	d m o
-0.97362757	a m o
-0.778802	s m o
-1.543342	i m o
-0.7417655	y m o
-0.24638799	l m o
-1.1642923	w m o
-0.84507847	m m o
-2.4293916	e x o
-1.8280597	i x o
-1.1565913	a z o
-3.2208943	h t j
-3.3326952	u t j
-3.8257914	a t j
-3.0117671	s t j
-4.23852	t h j
-3.4802485	c h j
-3.6520534	t e j
-3.1049554	h e j
-2.3439195	r e j
-3.4593475	n e j
-2.6826584	b e j
-2.8032594	d e j
-3.6238241	s e j
-2.9666638	v e j
-2.4956076	l e j
-3.0296197	m e j
-3.1379037	e r j
-3.1333225	o r j
-2.8642104	u r j
-3.1204195	i r j
-2.6646276	t o j
-1.4331244	r o j
-3.3395402	d o j
-3.2708676	s o j
-1.0753379	<s> j j
-3.5576837	n g j
-3.4455903	o u j
-2.1402547	e n j
-2.67078	o n j
-2.216139	u n j
-3.6461258	a n j
-2.4421592	i n j
-2.4572875	w n j
-1.1695673	o b j
-0.9954295	u b j
-2.9314766	a b j
-2.7308009	o f j
-2.6415968	l f j
-3.5434124	e d j
-2.9024103	n d j
-2.6991606	a d j
-3.152653	l d j
-3.3522718	t a j
-3.7750273	e a j
-3.3814876	r a j
-2.9363945	g a j
-3.2041566	n a j
-2.588296	f a j
-3.2675264	s a j
-3.0420163	t s j
-3.779222	e s j
-3.2703016	r s j
-3.2434385	u s j
-2.3148472	k s j
-2.7974498	a s j
-2.698239	i s j
-3.131375	<s> i j
-3.821549	t i j
-3.7581635	h i j
-3.4245512	e i j
-2.8560543	d i j
-2.577334	h y j
-2.8899279	r y j
-2.7419763	n y j
-2.6252232	b y j
-2.369206	a y j
-0.9054378	v y j
-2.5019639	l y j
-2.5209723	m y j
-3.1565042	l l j
-3.574242	o m j
-3.1610842	a m j
-3.223073	i m j
-2.6276364	h t c
-2.305314	e t c
-2.5285203	p t c
-2.9584262	r t c
-1.6460135	o t c
-2.8101604	c t c
-1.9280931	u t c
-2.1587799	n t c
-1.6535199	a t c
-1.9725971	s t c
-2.0893087	i t c
-2.8366232	l t c
-3.0323324	t h c
-2.1823967	p h c
-2.621739	o h c
-1.8455691	c h c
-2.4918885	g h c
-1.8272448	a h c
-2.8868704	s h c
-2.2657094	<s> e c
-2.3529923	t e c
-1.3624293	h e c
-1.8712642	e e c
-0.87970686	p e c
-1.2366016	r e c
-0.047879662	j e c
-1.5311214	c e c
-2.6140165	g e c
-2.2499468	u e c
-1.2460393	n e c
-1.1880866	b e c
-1.9551218	k e c
-0.7263084	f e c
-1.330946	d e c
-1.5205301	s e c
-1.9694343	i e c
-2.1182547	v e c
-1.2965732	l e c
-1.7056421	w e c
-2.1805115	m e c
-0.72078	x e c
-3.147408	e p c
-2.901064	u p c
-1.4811119	e r c
-1.7468597	o r c
-1.4395195	u r c
-1.2874584	a r c
-1.2440401	i r c
-2.0194085	m r c
-1.5433089	<s> o c
-1.4927988	t o c
-2.0309064	h o c
-2.0786438	e o c
-1.9796964	p o c
-1.4954858	r o c
-1.9154761	o o c
-2.2310715	g o c
-2.0469944	u o c
-1.9132577	n o c
-2.1832252	f o c
-2.016536	d o c
-1.8483547	a o c
-1.5566117	s o c
-2.8756957	i o c
-1.6907927	v o c
-2.8348453	y o c
-1.7321533	l o c
-2.3050451	w o c
-2.9253395	m o c
-2.7170951	<s> c c
-0.8969691	o c c
-0.98692495	u c c
-2.0950315	d c c
-0.8263302	a c c
-2.960689	s c c
-3.0148225	i c c
-1.8238553	m c c
-2.6916075	r g c
-1.8698269	n g c
-2.2636724	e u c
-1.1406999	r u c
-1.8126762	o u c
-0.42165494	d u c
-2.3190775	a u c
-0.7286006	s u c
-1.6912172	l u c
-0.34801412	m u c
-0.9760077	e n c
-2.478973	r n c
-1.4005604	o n c
-2.1090102	g n c
-1.4144602	u n c
-1.0805976	a n c
-1.2555147	i n c
-1.6425977	w n c
-1.9719731	e k c
-1.5804791	r k c
-1.7490613	o k c
-2.1652277	c k c
-2.5592425	n k c
-3.1110692	e f c
-1.5614033	o f c
-2.8410084	i f c
-2.0251706	l f c
-2.2811685	e d c
-2.647218	r d c
-2.0267239	o d c
-1.7165062	n d c
-2.5178463	d d c
-2.1395547	a d c
-2.4209383	i d c
-1.7087004	l d c
-2.0837085	m d c
-1.2344284	<s> a c
-1.3186285	t a c
-2.4988523	h a c
-1.5298314	e a c
-1.7513297	p a c
-1.0613968	r a c
-0.62170124	o a c
-1.7001674	c a c
-1.7702559	g a c
-2.2408006	u a c
-1.2719721	n a c
-0.8085334	b a c
-1.6824936	k a c
-1.1663547	f a c
-1.7560965	d a c
-1.2211553	s a c
-1.597084	i a c
-2.5359147	v a c
-1.3697742	y a c
-1.1722986	l a c
-3.0256858	w a c
-2.0633667	m a c
-0.68200016	x a c
-1.7390428	<s> s c
-1.7056539	t s c
-2.0696638	h s c
-1.6954792	e s c
-2.021173	p s c
-1.8613306	r s c
-2.2432458	o s c
-1.1052439	c s c
-1.3674599	g s c
-1.7812004	u s c
-1.8873413	n s c
-1.944926	b s c
-2.0216002	k s c
-1.7190138	f s c
-1.7253019	d s c
-1.7885075	a s c
-1.8580966	s s c
-1.1374885	i s c
-1.6285642	y s c
-1.9440277	l s c
-1.8940539	w s c
-1.621871	<s> i c
-1.4424953	t i c
-0.76391464	h i c
-1.806106	e i c
-1.0029057	p i c
-1.710026	r i c
-1.0391499	o i c
-2.6619556	c i c
-1.930808	g i c
-1.7744775	u i c
-1.4191778	n i c
-1.9911654	k i c
-0.6648691	f i c
-1.3999816	d i c
-2.9508364	a i c
-1.6340793	s i c
-0.95249665	v i c
-1.6432363	y i c
-0.9501075	l i c
-2.1189961	w i c
-2.0112305	m i c
-1.0833349	x i c
-3.2681317	o v c
-2.1344154	t y c
-1.766186	h y c
-1.8419594	e y c
-1.7320533	p y c
-1.7080144	r y c
-2.6357236	o y c
-2.3375087	g y c
-1.6699774	n y c
-1.8538928	b y c
-2.382523	d y c
-1.6988509	a y c
-2.0851355	s y c
-1.4194251	l y c
-1.1983856	m y c
-2.5116386	e l c
-2.6200566	r l c
-2.351681	u l c
-2.0006938	a l c
-2.913418	i l c
-1.7790697	l l c
-2.5493324	e w c
-2.0225449	o w c
-2.476095	a w c
-2.800135	t m c
-2.9045365	e m c
-3.0174887	r m c
-2.564259	o m c
-1.710291	a m c
-2.6050372	i m c
-2.2517083	y m c
-0.8094901	e x c
-0.7627417	r x c
-1.5216026	o x c
-2.8863096	h t g
-3.385866	e t g
-2.5570345	p t g
-3.321984	r t g
-2.0104969	o t g
-1.3315378	c t g
-2.3130586	u t g
-2.853148	n t g
-2.3636656	a t g
-2.4803169	s t g
-2.562242	i t g
-2.7668352	t h g
-2.8030462	o h g
-2.1134331	c h g
-2.9278088	t e g
-1.9259202	h e g
-3.0781116	e e g
-3.0808918	p e g
-1.8864111	r e g
-2.8401222	c e g
-2.9567442	g e g
-2.0406764	n e g
-1.266066	b e g
-2.2851195	k e g
-2.8247101	f e g
-1.9949875	d e g
-2.6645727	s e g
-3.008623	i e g
-2.207876	v e g
-2.2516303	l e g
-2.6445148	w e g
-2.4209414	m e g
-2.7774894	r p g
-2.4314313	n p g
-2.6479237	y p g
-1.9058688	e r g
-1.572999	o r g
-1.9920748	u r g
-2.7899396	d r g
-1.8534759	a r g
-2.6670558	i r g
-1.5429189	t o g
-3.0325367	h o g
-2.2334492	r o g
-2.2076035	o o g
-2.814073	c o g
-2.9533062	n o g
-3.0288458	d o g
-2.082687	s o g
-3.2517457	i o g
-2.0061567	l o g
-1.6537341	e g g
-1.5275754	u g g
-2.2537992	n g g
-2.0837312	a g g
-1.5847745	r u g
-1.2883818	o u g
-1.8740532	j u g
-2.6885066	f u g
-0.5281134	a u g
-2.5307434	s u g
-1.540029	e n g
-1.2938117	o n g
-1.2660558	u n g
-1.2608916	a n g
-0.46967906	i n g
-2.4572875	w n g
-3.2630663	e f g
-1.9024705	o f g
-3.0901008	i f g
-2.810655	l f g
-1.9847846	e d g
-1.6595049	o d g
-1.002051	u d g
-2.0782967	n d g
-2.553059	d d g
-2.291041	a d g
-2.8685555	i d g
-1.7571046	l d g
-1.668633	<s> a g
-1.5072429	t a g
-2.6315396	h a g
-1.7546914	e a g
-2.1919417	p a g
-1.4920878	r a g
-1.732907	o a g
-1.1081569	g a g
-1.4347336	u a g
-1.5785257	n a g
-1.6952965	k a g
-1.7637364	f a g
-1.7013364	d a g
-1.4601136	a a g
-1.5359408	s a g
-1.4583218	i a g
-1.9239507	v a g
-1.7278229	y a g
-1.8546818	l a g
-2.3043203	w a g
-1.2731543	m a g
-1.9111655	x a g
-2.5757012	t s g
-2.819406	e s g
-2.0693514	p s g
-3.0338953	r s g
-2.550081	u s g
-3.1769283	n s g
-2.7691286	d s g
-2.0812583	a s g
-3.117509	s s g
-1.9692695	i s g
-2.5406241	y s g
-2.6449614	l s g
-2.1883745	<s> i g
-2.3296914	t i g
-2.226086	h i g
-1.5864999	e i g
-1.2409346	r i g
-2.432518	o i g
-2.5741434	u i g
-1.2022899	n i g
-2.474283	k i g
-1.8320286	f i g
-2.0564938	d i g
-3.103914	a i g
-1.6408107	s i g
-2.5563529	v i g
-2.2147598	y i g
-1.0148941	l i g
-3.296926	w i g
-1.1656438	m i g
-2.641216	t y g
-2.801828	e y g
-1.922338	r y g
-2.7250729	o y g
-2.2758062	n y g
-1.6891658	b y g
-2.5450215	d y g
-1.8714786	a y g
-1.8092557	l y g
-1.8186748	m y g
-3.006695	o l g
-1.6226083	u l g
-2.8543413	a l g
-3.1163692	i l g
-1.9193949	l l g
-3.1797075	e w g
-2.657161	o w g
-1.196865	w w g
-3.2425613	e m g
-2.688638	o m g
-2.0663457	a m g
-2.971836	s m g
-3.137246	i m g
-2.587566	<s> t u
-2.822664	t t u
-2.6728628	h t u
-1.3548285	e t u
-1.0959017	p t u
-0.9340068	r t u
-2.2694697	o t u
-1.5990801	c t u
-2.826388	g t u
-1.7659886	u t u
-1.776016	n t u
-2.3862329	f t u
-2.613061	d t u
-1.698268	a t u
-1.8641906	s t u
-1.6241422	i t u
-2.0037882	y t u
-2.6219597	l t u
-1.8837056	x t u
-1.5850563	<s> h u
-2.0634482	t h u
-2.2988815	h h u
-1.6589646	e h u
-2.046906	r h u
-2.0988696	o h u
-2.3433034	c h u
-2.5311818	g h u
-1.8003995	n h u
-1.6176404	k h u
-1.7942996	f h u
-1.6179955	d h u
-0.8203509	a h u
-1.8857472	s h u
-1.3169751	y h u
-1.5747795	l h u
-1.9738857	m h u
-2.2849395	<s> e u
-1.5775237	t e u
-2.2351315	h e u
-3.0371425	e e u
-2.3157039	r e u
-2.0072687	o e u
-2.75708	c e u
-2.7646887	g e u
-2.2641473	u e u
-2.978301	n e u
-2.1925833	b e u
-1.6176072	k e u
-2.7852807	f e u
-2.4807222	d e u
-2.8356848	s e u
-1.1762412	i e u
-2.5185447	v e u
-2.6062117	l e u
-2.8343055	w e u
-2.2071016	m e u
-1.1123075	<s> p u
-1.1859423	t p u
-1.4160837	h p u
-1.2407639	e p u
-1.1706069	r p u
-1.3800356	o p u
-1.3459493	g p u
-1.7493758	u p u
-1.1335987	n p u
-1.169549	f p u
-1.1993499	d p u
-2.153677	a p u
-1.7024374	s p u
-1.3781897	i p u
-1.4286832	y p u
-1.41488	l p u
-1.6629723	m p u
-1.723831	<s> r u
-0.86724496	t r u
-1.955796	h r u
-2.386595	e r u
-1.3095372	p r u
-1.4178951	r r u
-2.2023866	o r u
-0.86082345	c r u
-2.6531882	g r u
-2.11414	u r u
-1.3181084	n r u
-1.7580521	b r u
-0.5075026	k r u
-1.939858	f r u
-1.6670974	d r u
-2.4639816	a r u
-1.6943051	s r u
-2.042289	i r u
-1.6000367	y r u
-1.5363665	l r u
-1.7153585	m r u
-1.2870264	<s> o u
-1.5421075	t o u
-0.45356482	h o u
-1.3133581	e o u
-2.1384814	p o u
-0.91605175	r o u
-1.7139164	o o u
-0.9584761	j o u
-0.6658948	c o u
-1.4677961	g o u
-0.3962672	u o u
-1.2544757	n o u
-0.38128555	b o u
-1.2768155	k o u
-1.1349909	f o u
-0.9345282	d o u
-1.4433475	s o u
-1.0409111	i o u
-0.47265357	v o u
-0.057717614	y o u
-1.2602986	l o u
-0.33835337	w o u
-1.4911695	m o u
-0.33278853	<s> j u
-0.17386852	t j u
-0.1755073	e j u
-0.28313395	r j u
-0.86671	o j u
-0.20076059	g j u
-0.21897607	u j u
-0.29806602	n j u
-0.11439459	f j u
-0.23073442	d j u
-0.3853037	a j u
-0.3037382	s j u
-0.50915796	i j u
-0.19028188	y j u
-0.14415827	l j u
-0.11124433	m j u
-1.8035378	<s> c u
-2.1258721	t c u
-1.3243738	h c u
-1.5905191	e c u
-1.1678321	r c u
-1.7328459	o c u
-0.8516387	c c u
-1.643622	g c u
-2.45851	n c u
-1.4793966	f c u
-1.5494599	d c u
-2.2755077	a c u
-1.7977391	s c u
-1.1972384	i c u
-1.736568	y c u
-1.0931205	l c u
-1.4401768	m c u
-0.6621544	x c u
-0.7668927	<s> g u
-0.43710515	t g u
-1.1569552	e g u
-1.1817873	r g u
-1.467913	o g u
-1.6028717	g g u
-2.615568	u g u
-1.6765041	n g u
-1.5928303	f g u
-1.457833	d g u
-1.9380462	a g u
-0.8526741	s g u
-1.3100108	i g u
-0.9711009	y g u
-0.309346	w g u
-1.4076431	m g u
-2.899394	o u u
-1.9502027	<s> n u
-2.3633122	t n u
-1.9993027	e n u
-2.0731366	r n u
-2.9102397	o n u
-2.1371686	g n u
-2.6854682	n n u
-2.3400536	a n u
-2.6024842	s n u
-2.194786	i n u
-2.056144	y n u
-2.237341	w n u
-0.58379304	<s> b u
-0.6464892	t b u
-0.44667703	h b u
-0.5647937	e b u
-0.46125573	p b u
-0.5648327	r b u
-1.5509284	o b u
-0.54571337	c b u
-0.28386647	g b u
-1.2222105	u b u
-0.75486004	n b u
-0.2526288	k b u
-0.71967775	f b u
-0.79599786	d b u
-1.4272196	a b u
-0.46908277	s b u
-1.0246923	i b u
-0.57728815	y b u
-1.1278433	l b u
-0.5838812	w b u
-1.02086	m b u
-0.23114555	x b u
-2.1721146	r k u
-1.6930572	o k u
-2.2058291	c k u
-2.2271829	n k u
-1.6952978	<s> f u
-0.9651119	t f u
-0.7606278	h f u
-0.9066647	e f u
-1.1025864	r f u
-2.076188	o f u
-1.9932387	g f u
-2.277098	u f u
-1.0979133	n f u
-1.4374595	k f u
-2.0856488	f f u
-1.2495192	d f u
-2.0466974	a f u
-1.3202767	s f u
-1.969891	i f u
-1.8671682	y f u
-1.2944372	l f u
-0.74592984	w f u
-1.564244	m f u
-1.7890953	<s> d u
-1.8993882	t d u
-1.7276889	h d u
-1.6401	e d u
-2.3745172	r d u
-1.2289369	o d u
-1.8105193	g d u
-2.4487271	u d u
-1.5832554	n d u
-0.19502383	b d u
-1.7035537	f d u
-1.4622684	d d u
-2.133095	a d u
-1.7371291	s d u
-2.097116	i d u
-1.5237383	y d u
-2.1967616	l d u
-1.987942	m d u
-1.4665846	<s> a u
-2.6161096	t a u
-2.786492	h a u
-2.0523515	e a u
-2.7780755	p a u
-2.508174	r a u
-2.0479367	o a u
-0.6028276	j a u
-0.9322604	c a u
-2.570891	g a u
-2.1478367	n a u
-2.0634816	b a u
-1.3187155	f a u
-1.4180653	d a u
-2.2256305	s a u
-2.7626216	i a u
-2.654493	v a u
-1.9726421	y a u
-1.4922755	l a u
-2.4397306	m a u
-0.8460218	<s> s u
-1.1903417	t s u
-1.0701219	h s u
-1.4552553	e s u
-1.938729	p s u
-1.2409632	r s u
-1.4104419	o s u
-0.9790505	c s u
-1.3258305	g s u
-1.706456	u s u
-1.222809	n s u
-1.9398704	b s u
-1.6240368	k s u
-0.802804	f s u
-1.2538608	d s u
-1.2982286	a s u
-1.1617558	s s u
-1.9451123	i s u
-1.2539513	y s u
-1.2466807	l s u
-1.1277745	w s u
-1.3081214	m s u
-3.5658944	t i u
-3.4022183	h i u
-3.3157678	e i u
-2.073267	r i u
-2.9847362	g i u
-2.4448793	n i u
-2.679589	d i u
-3.4709384	s i u
-2.9876611	m i u
-1.858489	n v u
-3.278171	i v u
-2.748795	t y u
-2.926235	e y u
-2.1975496	p y u
-1.7818085	r y u
-2.5161512	n y u
-1.9977425	b y u
-2.5599506	f y u
-2.4941761	d y u
-2.3368955	a y u
-2.5722013	s y u
-2.0027854	l y u
-2.0794256	m y u
-2.530803	<s> l u
-2.509284	e l u
-2.0409362	p l u
-2.4051182	r l u
-1.0460407	o l u
-0.9372591	c l u
-1.7577562	b l u
-1.2963789	f l u
-1.832535	a l u
-2.471664	s l u
-3.0482428	i l u
-2.0398257	y l u
-1.9765983	l l u
-2.4022672	o w u
-1.1733305	<s> m u
-1.3452487	t m u
-1.4817365	h m u
-1.4925201	e m u
-1.7569542	r m u
-1.3188982	o m u
-1.6403998	g m u
-0.89056575	u m u
-1.8268104	n m u
-2.271336	f m u
-1.5422242	d m u
-1.5809042	a m u
-0.97942764	s m u
-1.1923441	i m u
-1.0511	y m u
-1.6520498	l m u
-0.6240421	w m u
-1.4029888	m m u
-0.003103556	<s> q u
-0.0045216097	t q u
-0.0001536863	e q u
-0.016519941	p q u
-0.006229451	r q u
-0.0019072664	o q u
-0.00058248825	c q u
-0.014056968	g q u
-0.014056968	u q u
-0.00060382154	n q u
-0.016519941	k q u
-0.014056968	f q u
-0.010010488	d q u
-0.00331124	a q u
-0.0015990951	s q u
-0.0041429973	i q u
-0.0055328608	y q u
-0.014056968	l q u
-0.014056968	w q u
-0.016814644	m q u
-0.016519941	x q u
-2.8436222	e x u
-0.61658126	u x u
-1.5870079	h t n
-2.6889586	e t n
-2.4672475	p t n
-2.3842635	r t n
-2.3656282	o t n
-2.764345	c t n
-1.725814	u t n
-2.480076	n t n
-2.0376158	b t n
-2.41058	f t n
-1.9291726	a t n
-1.9004416	s t n
-1.8574818	i t n
-2.5972383	l t n
-1.950362	x t n
-3.2725327	t h n
-2.5304518	o h n
-2.1020455	c h n
-2.623944	g h n
-2.0630734	a h n
-2.6132789	s h n
-0.685462	<s> e n
-0.8454272	t e n
-1.1072072	h e n
-0.66314757	e e n
-0.86570096	p e n
-1.3157794	r e n
-0.8003726	o e n
-1.0482905	c e n
-0.9491202	g e n
-0.74520653	u e n
-1.747571	n e n
-1.9075701	b e n
-0.8543284	k e n
-1.1682676	f e n
-0.9614743	d e n
-0.8074447	a e n
-0.91181755	s e n
-0.42904395	i e n
-0.8210937	v e n
-1.2692497	y e n
-1.255445	l e n
-1.2706184	w e n
-0.75311553	m e n
-1.7870518	z e n
-2.901064	u p n
-2.4926732	i p n
-1.7784675	e r n
-1.5763967	o r n
-1.1035115	u r n
-1.897397	a r n
-2.2227583	i r n
-0.6689797	<s> o n
-1.4169319	t o n
-1.3268013	h o n
-0.746544	e o n
-0.86150676	p o n
-1.1160971	r o n
-0.7105698	o o n
-1.4117173	j o n
-0.357604	c o n
-0.9019159	g o n
-0.77657056	u o n
-1.5287209	n o n
-1.8323658	b o n
-0.8174123	k o n
-1.6851339	f o n
-0.48877355	d o n
-1.661726	a o n
-0.81631	s o n
-0.07434307	i o n
-1.5011009	y o n
-0.67484814	l o n
-1.8599654	w o n
-0.63970464	m o n
-0.9196449	x o n
-3.5156047	i c n
-2.7569427	e g n
-1.556475	o g n
-2.1301723	n g n
-2.9977753	a g n
-0.85520345	i g n
-0.20767845	<s> u n
-0.6606402	t u n
-0.89464825	h u n
-0.62897015	e u n
-0.9360371	p u n
-0.8637966	r u n
-1.1094043	o u n
-2.3898861	c u n
-1.3726034	g u n
-0.46085024	u u n
-0.6790543	n u n
-2.7998595	b u n
-0.63758147	k u n
-1.369948	f u n
-1.0569066	d u n
-1.3347229	a u n
-1.3863522	s u n
-1.1764394	i u n
-0.19130422	y u n
-0.87179863	l u n
-0.24928428	w u n
-1.51564	m u n
-2.3327382	e n n
-2.569889	r n n
-2.0721953	o n n
-2.2389817	g n n
-1.8743023	u n n
-1.5205489	a n n
-2.1791868	i n n
-2.36715	w n n
-2.1981275	g b n
-2.6661744	y b n
-0.19571218	<s> k n
-0.10039696	t k n
-0.6219713	h k n
-0.4856962	e k n
-0.9502129	r k n
-0.71751595	o k n
-0.85478884	c k n
-0.2864291	g k n
-0.021815032	u k n
-1.1881558	n k n
-0.28610277	f k n
-0.28986725	d k n
-1.3475001	a k n
-1.0555921	s k n
-0.40237936	i k n
-0.24627492	y k n
-0.5995758	l k n
-1.9746038	o f n
-2.9715395	f f n
-2.1725583	i f n
-1.9670489	l f n
-2.0046377	e d n
-1.8746824	r d n
-1.4767442	o d n
-1.8180344	n d n
-2.5457468	d d n
-1.4897121	a d n
-0.9851235	i d n
-0.85991645	l d n
-0.54565674	<s> a n
-0.581968	t a n
-1.0683851	h a n
-0.7851689	e a n
-1.0112447	p a n
-0.63271415	r a n
-0.7844426	o a n
-0.7893513	j a n
-0.49482152	c a n
-0.7154382	g a n
-0.8726959	u a n
-0.6723164	n a n
-0.49608335	b a n
-0.4843102	k a n
-0.83688146	f a n
-0.52822655	d a n
-0.37321633	a a n
-0.637177	s a n
-1.2067362	i a n
-0.63146114	v a n
-0.48881936	y a n
-0.6627916	l a n
-1.126283	w a n
-0.6395868	m a n
-1.09206	x a n
-0.7504547	z a n
-2.7022705	<s> s n
-1.987643	t s n
-1.8072331	e s n
-1.7500511	p s n
-2.4203773	r s n
-1.8386457	u s n
-2.6851444	n s n
-1.9149153	k s n
-2.333187	f s n
-2.6818702	d s n
-1.4154828	a s n
-2.450609	s s n
-1.3396089	i s n
-2.6207027	y s n
-2.540557	l s n
-1.4273515	w s n
-2.447278	m s n
-0.58231807	<s> i n
-0.8514357	t i n
-0.6826141	h i n
-0.57349205	e i n
-0.37846345	p i n
-0.8200032	r i n
-0.43316093	o i n
-1.3101164	c i n
-0.54076856	g i n
-0.9395316	u i n
-0.5777708	n i n
-1.0305691	b i n
-0.22600994	k i n
-0.8189783	f i n
-0.7346733	d i n
-0.25764516	a i n
-0.6475214	s i n
-0.768929	i i n
-0.52256465	v i n
-0.4027059	y i n
-0.8860809	l i n
-1.484494	w i n
-0.46004474	m i n
-1.2815642	x i n
-0.056330618	z i n
-2.181264	t y n
-2.3492029	h y n
-2.3391554	e y n
-2.0310655	r y n
-2.655146	o y n
-1.8320365	c y n
-1.9134594	n y n
-1.8061762	b y n
-2.478511	d y n
-1.65732	a y n
-2.366362	s y n
-2.1087823	l y n
-1.9199198	m y n
-3.149789	e l n
-2.582961	r l n
-2.9408092	o l n
-2.2148721	u l n
-2.688639	a l n
-2.4914038	i l n
-1.1530113	l l n
-2.1438107	e w n
-0.83069026	o w n
-1.1946847	a w n
-2.9243004	t m n
-2.0110958	e m n
-2.8078816	o m n
-1.9874798	u m n
-1.4688998	a m n
-2.0003853	i m n
-2.7616162	l m n
-2.918343	e x n
-1.4948528	h t b
-2.593057	e t b
-2.2992487	p t b
-2.2413375	r t b
-1.291187	o t b
-1.9454648	c t b
-1.6789504	u t b
-1.9727213	n t b
-1.3730408	b t b
-2.4162023	f t b
-2.2202663	a t b
-1.7612802	s t b
-1.7527497	i t b
-2.6974523	l t b
-2.8079505	t h b
-2.2155254	p h b
-1.9786392	c h b
-2.0144613	g h b
-1.9503733	a h b
-3.1786938	s h b
-2.5244958	t e b
-1.9733806	h e b
-2.3132265	e e b
-2.6209877	p e b
-2.0548568	r e b
-2.3948627	j e b
-1.8535892	c e b
-2.060381	g e b
-1.6978905	u e b
-1.93606	n e b
-1.977849	b e b
-2.2730126	k e b
-2.3868804	f e b
-1.9399114	d e b
-2.0348656	s e b
-2.9788265	i e b
-1.5748993	v e b
-1.9736295	l e b
-2.0577526	w e b
-1.684961	m e b
-2.6578572	e p b
-2.4672482	i p b
-2.3604333	l p b
-1.7397043	e r b
-2.050449	o r b
-1.7358323	u r b
-2.250094	a r b
-1.999095	i r b
-2.017542	m r b
-1.141751	<s> o b
-1.1147869	t o b
-2.3933244	h o b
-1.3197252	e o b
-2.88253	p o b
-1.6061493	r o b
-1.3468357	o o b
-1.7085248	g o b
-1.381269	u o b
-2.0908296	n o b
-2.4122198	f o b
-1.6618719	d o b
-1.6211268	s o b
-2.1741033	i o b
-2.2626026	y o b
-2.151304	l o b
-2.7528985	w o b
-2.1951954	m o b
-2.0084007	h c b
-2.8302224	c c b
-3.2906318	i c b
-2.2763488	<s> g b
-2.8674772	e g b
-1.6541519	n g b
-0.72956955	p u b
-2.5986333	r u b
-1.541947	o u b
-3.2357552	b u b
-1.9795041	d u b
-1.1813531	s u b
-2.3614435	l u b
-1.7261416	e n b
-2.2142828	r n b
-1.9408542	o n b
-2.9892404	u n b
-2.1427505	a n b
-2.3222744	i n b
-1.7050819	w n b
-2.2244818	o b b
-2.703976	u b b
-2.559593	a b b
-2.6788607	i b b
-1.4484974	r k b
-2.3477252	o k b
-2.0351582	c k b
-2.3283465	n k b
-2.0564346	a k b
-1.883915	s k b
-3.0728903	e f b
-1.7250504	o f b
-2.7935753	f f b
-2.512687	i f b
-1.5867621	l f b
-1.4029533	e d b
-2.6680522	r d b
-2.263356	o d b
-1.7872659	n d b
-2.543938	d d b
-1.8471739	a d b
-2.0454733	i d b
-0.828435	l d b
-1.5427353	<s> a b
-1.3930404	t a b
-2.4818504	h a b
-1.6755219	e a b
-1.5133791	p a b
-1.1963814	r a b
-1.6058643	o a b
-2.0113697	c a b
-1.6052989	g a b
-1.6365411	u a b
-1.3583887	n a b
-1.0170276	b a b
-1.1042079	k a b
-1.837834	f a b
-1.6676519	d a b
-1.7373574	s a b
-1.4165889	i a b
-2.0296574	v a b
-1.5900387	y a b
-1.667275	l a b
-2.4670362	w a b
-2.4335287	m a b
-1.6956353	t s b
-2.1374347	e s b
-1.4263728	p s b
-1.88103	r s b
-1.276078	c s b
-1.7416537	g s b
-1.5973067	u s b
-2.0068777	n s b
-1.4905986	k s b
-2.317632	f s b
-2.084882	d s b
-1.8008382	a s b
-1.9930992	s s b
-1.9242237	i s b
-1.9877954	y s b
-2.0287526	l s b
-1.4965518	w s b
-2.1079097	m s b
-1.7718573	<s> i b
-2.145725	t i b
-2.41475	h i b
-2.2386975	e i b
-1.5781142	r i b
-2.4077606	o i b
-1.8799113	c i b
-2.2862387	g i b
-2.5439086	u i b
-2.2172124	n i b
-1.6500883	b i b
-2.4392612	k i b
-2.939562	f i b
-2.1690648	d i b
-1.2219784	s i b
-2.305285	y i b
-1.6664354	l i b
-3.260881	w i b
-2.7398307	m i b
-2.0591042	x i b
-2.0933018	s v b
-1.7897177	t y b
-1.9816476	h y b
-2.2664852	e y b
-1.6377488	p y b
-1.7949924	r y b
-2.515227	o y b
-1.3569367	c y b
-1.8524191	n y b
-1.9756505	b y b
-1.8589354	d y b
-1.1460724	a y b
-2.1887188	s y b
-1.4289402	l y b
-2.1557465	m y b
-1.0580347	z y b
-2.8811884	e l b
-2.580817	r l b
-2.66336	o l b
-2.6720872	u l b
-2.584829	a l b
-2.778122	i l b
-1.0973811	l l b
-2.1435328	e w b
-1.9291615	o w b
-2.6210306	a w b
-2.7764003	<s> m b
-1.2403504	e m b
-1.9188089	o m b
-1.1683955	u m b
-1.6351058	a m b
-1.9454845	i m b
-2.9129412	e x b
-3.284637	e t k
-1.9092933	o t k
-2.5944571	u t k
-2.299819	n t k
-3.1290503	f t k
-2.7056317	a t k
-2.9218576	s t k
-3.9389358	t h k
-3.4362025	c h k
-2.2296708	a h k
-2.4430213	h e k
-1.8802377	e e k
-3.6672049	r e k
-3.4156425	c e k
-2.6637027	u e k
-2.7622628	n e k
-3.0027595	b e k
-3.4405053	d e k
-3.2015495	s e k
-2.9691248	i e k
-2.8926957	v e k
-3.2596912	l e k
-3.0242429	w e k
-2.67976	m e k
-2.6964345	e r k
-1.6175351	o r k
-2.7066002	u r k
-1.7405951	a r k
-3.0580866	i r k
-2.0051272	t o k
-2.5287602	h o k
-1.4970179	p o k
-2.3823066	r o k
-0.79393387	o o k
-2.0463607	j o k
-2.9828823	s o k
-2.0172353	v o k
-3.7392392	y o k
-2.4966373	w o k
-2.5141385	e c k
-1.1277416	o c k
-1.7327797	u c k
-1.1246128	a c k
-1.6689904	i c k
-2.899189	n g k
-2.178007	o u k
-2.8169198	d u k
-3.300273	e n k
-3.5521674	o n k
-1.9836781	u n k
-2.1832504	a n k
-1.3544368	i n k
-1.4201194	b b k
-2.5525615	o f k
-3.788734	e d k
-2.625579	n d k
-3.2304087	a d k
-2.4699733	l d k
-2.9680126	<s> a k
-0.98630744	t a k
-3.596003	h a k
-1.4930888	e a k
-2.4735937	o a k
-2.967269	n a k
-3.2601786	d a k
-2.1213892	s a k
-2.876826	y a k
-3.1129086	l a k
-2.4394822	w a k
-0.95897335	m a k
-3.0765061	t s k
-2.977751	e s k
-2.3125584	p s k
-3.1723282	u s k
-3.0281415	n s k
-2.9176826	d s k
-1.8519592	a s k
-3.3507097	s s k
-2.2060845	i s k
-2.4428806	y s k
-2.4209397	<s> i k
-2.7230287	t i k
-3.0546029	h i k
-2.8723767	e i k
-2.2222297	r i k
-2.6403487	o i k
-2.7520432	g i k
-2.545633	n i k
-2.5056486	k i k
-2.6877348	f i k
-2.5463893	d i k
-2.548996	s i k
-2.3399363	y i k
-1.4522562	l i k
-3.3292832	w i k
-2.643677	m i k
-2.956559	t y k
-2.9645214	e y k
-2.6477227	r y k
-2.9728928	n y k
-2.2019625	d y k
-2.2762387	l y k
-2.583839	m y k
-1.8298457	a l k
-3.4550161	i l k
-2.23546	l l k
-1.2964926	a w k
-3.643652	o m k
-1.7533647	h t f
-2.3322182	e t f
-1.7931368	p t f
-2.3842635	r t f
-1.7606397	o t f
-1.7183163	c t f
-1.7342743	u t f
-1.9088681	n t f
-1.9435745	b t f
-2.4984593	f t f
-1.8725826	a t f
-2.0140193	s t f
-1.9572589	i t f
-2.7747974	l t f
-1.950362	x t f
-2.710002	t h f
-1.644695	p h f
-2.621739	o h f
-1.9191442	c h f
-2.0095873	g h f
-1.8272448	a h f
-2.1415694	s h f
-1.5342946	<s> e f
-2.07781	t e f
-1.6325394	h e f
-1.684826	e e f
-2.604935	p e f
-1.386013	r e f
-2.2751253	o e f
-1.8361582	c e f
-2.159738	g e f
-1.9952275	u e f
-1.8952404	n e f
-1.2770181	b e f
-2.5685015	k e f
-2.4697955	f e f
-1.617298	d e f
-1.7877889	s e f
-1.4680375	i e f
-1.9476883	v e f
-1.9494481	y e f
-1.4040887	l e f
-2.244865	w e f
-1.6544014	m e f
-1.7962646	z e f
-2.7552185	e p f
-3.0080924	o p f
-2.3424706	u p f
-3.1233854	a p f
-1.669282	i p f
-1.5693388	e r f
-2.153084	o r f
-1.6549625	u r f
-1.5266774	a r f
-2.033804	i r f
-0.36916113	<s> o f
-1.0760039	t o f
-1.7871407	h o f
-0.3025619	e o f
-1.9425458	p o f
-1.058769	r o f
-1.069512	o o f
-2.5211658	c o f
-0.88175523	g o f
-0.7603464	u o f
-1.1811595	n o f
-0.214751	k o f
-1.9998152	f o f
-0.79046077	d o f
-0.20886116	a o f
-0.73293495	s o f
-2.480743	i o f
-1.3114278	y o f
-1.3775911	l o f
-2.0573878	w o f
-1.5923846	m o f
-0.74449086	x o f
-3.2099242	i c f
-3.013945	u g f
-1.5405905	n g f
-2.4034994	t u f
-2.4328241	h u f
-2.4539654	e u f
-2.6000593	r u f
-1.9956124	o u f
-2.6358504	a u f
-0.96040046	s u f
-2.2155368	e n f
-1.820989	r n f
-1.3864899	o n f
-1.7252853	u n f
-2.7017286	a n f
-1.5608091	i n f
-1.6977845	w n f
-2.1239028	m n f
-2.8277588	u b f
-1.808843	e k f
-1.9717809	r k f
-1.6084843	o k f
-1.8621163	c k f
-2.1560972	n k f
-1.8128372	a k f
-1.6064631	s k f
-1.2942092	e f f
-1.2556108	o f f
-0.19365497	u f f
-2.4684098	f f f
-0.47408327	a f f
-0.92839855	i f f
-1.3190768	l f f
-1.5648841	e d f
-2.2227228	r d f
-1.6085068	o d f
-2.6390793	u d f
-1.8219522	n d f
-1.7068973	a d f
-2.2117534	i d f
-1.7198131	l d f
-1.8661517	w d f
-1.321206	<s> a f
-1.7353296	t a f
-2.5866098	h a f
-1.7477536	e a f
-2.7803094	p a f
-1.6745296	r a f
-1.737341	o a f
-1.8070173	g a f
-1.9783696	u a f
-1.4374963	n a f
-2.3368614	b a f
-1.4600697	k a f
-1.9006975	f a f
-1.845891	d a f
-1.5595983	s a f
-2.483365	i a f
-1.2722714	y a f
-2.0426824	l a f
-2.8955564	w a f
-2.4403863	m a f
-1.8183398	t s f
-2.1382704	e s f
-1.8568373	p s f
-1.9341259	r s f
-2.0067773	g s f
-1.8622543	u s f
-2.1161292	n s f
-2.4027436	b s f
-1.432777	k s f
-1.9235358	d s f
-1.9509884	a s f
-1.8124547	s s f
-1.4473255	i s f
-2.029681	y s f
-2.3748856	l s f
-1.9451056	w s f
-2.447278	m s f
-1.1762079	<s> i f
-1.4648905	t i f
-2.2097766	h i f
-1.5355108	e i f
-2.1567776	p i f
-1.2170397	r i f
-1.9369904	o i f
-1.8402352	c i f
-1.7662721	g i f
-1.4539284	u i f
-1.5318263	n i f
-2.0015779	k i f
-1.950065	f i f
-1.0805953	d i f
-2.8811324	a i f
-1.5700215	s i f
-1.3039862	y i f
-1.465079	l i f
-2.3308475	w i f
-2.0154645	m i f
-1.7074356	t y f
-1.3260429	h y f
-2.7143822	e y f
-1.3205751	p y f
-1.6190789	r y f
-2.6171327	o y f
-1.7136545	c y f
-1.7142078	g y f
-1.9368988	n y f
-1.8482676	b y f
-1.9122622	d y f
-1.8813982	a y f
-2.4234383	s y f
-1.3289945	l y f
-1.3254879	m y f
-0.76267385	e l f
-2.4953163	r l f
-1.9355065	u l f
-1.8856891	a l f
-2.3246913	i l f
-1.7084899	l l f
-2.4689925	e w f
-1.7731278	o w f
-2.3177052	a w f
-2.0556135	w w f
-2.278018	e m f
-3.0947754	r m f
-2.328568	o m f
-2.1900527	a m f
-1.9134012	i m f
-2.8042724	e x f
-1.351798	o x f
-1.4044026	a x f
-1.9194838	h t d
-2.514549	e t d
-2.4034956	p t d
-2.8358738	r t d
-1.7268524	o t d
-2.6463106	c t d
-1.8763916	u t d
-1.7450706	n t d
-1.7827451	a t d
-2.0154903	s t d
-2.2882583	i t d
-2.6217978	l t d
-1.0675539	x t d
-2.6585095	t h d
-2.6538584	o h d
-1.8951141	c h d
-2.5059214	g h d
-1.8502315	a h d
-3.3680463	s h d
-1.7415209	<s> e d
-0.7584798	t e d
-1.3615208	h e d
-0.9842341	e e d
-1.5947018	p e d
-1.1381475	r e d
-2.381149	o e d
-1.1702846	c e d
-0.88743246	g e d
-1.512974	u e d
-0.85132015	n e d
-1.2865605	b e d
-0.9783168	k e d
-2.2822733	f e d
-1.1707468	d e d
-1.043315	s e d
-0.9651073	i e d
-1.1453954	v e d
-1.0347171	y e d
-1.1248778	l e d
-1.3623558	w e d
-0.97714084	m e d
-0.32334173	x e d
-0.44149783	z e d
-3.1584105	e p d
-3.0035987	o p d
-2.7541788	u p d
-2.3839145	i p d
-2.9939125	m p d
-1.5898813	e r d
-1.1264559	o r d
-1.6987499	u r d
-1.1889155	a r d
-2.028019	i r d
-0.3483783	m r d
-2.6204967	<s> o d
-1.4316027	t o d
-1.7834697	h o d
-2.7471795	e o d
-1.7809427	r o d
-0.7903701	o o d
-3.3294978	c o d
-1.1250157	g o d
-2.2109804	n o d
-1.3238435	b o d
-2.9091766	d o d
-2.0564713	s o d
-2.5539088	i o d
-2.6338685	l o d
-2.323146	w o d
-1.5870675	m o d
-3.3297782	e c d
-2.7795694	r c d
-3.4047594	n c d
-3.124579	a c d
-2.4957836	i c d
-1.3870739	m c d
-2.4587579	r g d
-1.9887651	g g d
-1.846442	n g d
-3.0344696	a g d
-1.2090274	t u d
-1.6940725	h u d
-2.3579717	p u d
-0.7788669	r u d
-1.8552952	o u d
-0.54968727	j u d
-2.2264204	n u d
-3.1574917	b u d
-1.3015206	a u d
-1.7682909	s u d
-1.0277277	l u d
-0.85993576	e n d
-2.7005765	r n d
-1.3533767	o n d
-0.6775328	u n d
-0.3433403	a n d
-1.2262343	i n d
-1.844407	w n d
-3.128997	o b d
-2.120916	u b d
-3.0888128	a b d
-2.2367837	o k d
-2.3228521	c k d
-2.2285585	n k d
-1.9532795	l k d
-3.2450638	e f d
-1.6496905	o f d
-3.069628	i f d
-2.5675988	l f d
-2.2453759	e d d
-2.6666217	r d d
-1.8834945	o d d
-1.1329298	u d d
-1.6890363	n d d
-1.2822771	a d d
-2.1763213	i d d
-1.7100418	l d d
-1.037099	<s> a d
-1.7200915	t a d
-1.1179211	h a d
-1.0531561	e a d
-1.530652	r a d
-0.9496627	o a d
-3.0550232	c a d
-1.772086	g a d
-1.2970564	u a d
-1.6902117	n a d
-0.957636	b a d
-1.7869358	k a d
-1.7407838	f a d
-1.8819277	d a d
-1.3159364	a a d
-1.5952638	s a d
-1.6133013	i a d
-2.6354158	v a d
-1.2960066	y a d
-1.4432997	l a d
-2.5385747	w a d
-0.74105006	m a d
-2.225399	t s d
-2.4418507	e s d
-2.089964	p s d
-2.062362	r s d
-2.9498062	o s d
-2.0171285	g s d
-2.2195532	u s d
-2.5387912	n s d
-2.0100636	k s d
-2.6951988	d s d
-1.9756054	a s d
-1.4750497	s s d
-1.674589	i s d
-2.494932	y s d
-2.3855376	l s d
-2.2787585	m s d
-1.4141805	<s> i d
-1.9950047	t i d
-2.088791	h i d
-1.6407764	e i d
-1.6407297	p i d
-1.5816823	r i d
-1.0927752	o i d
-1.2111559	c i d
-1.9283392	g i d
-1.5823475	u i d
-1.8764894	n i d
-0.935316	b i d
-2.235263	k i d
-0.94360685	f i d
-1.0562489	d i d
-0.8601174	a i d
-1.1391802	s i d
-1.2868574	v i d
-1.5284958	y i d
-2.048985	l i d
-2.269957	w i d
-1.3339336	m i d
-2.0198467	x i d
-2.8771017	r v d
-3.206027	o v d
-3.0742502	i v d
-2.2746332	t y d
-1.6188492	h y d
-1.8417048	e y d
-1.5712109	p y d
-1.4394993	r y d
-2.5289278	o y d
-1.8137624	c y d
-1.6697417	n y d
-1.5453253	b y d
-2.3030748	f y d
-2.0490377	d y d
-1.6556721	a y d
-1.3720455	l y d
-1.0332513	m y d
-1.7466959	e l d
-1.0176004	r l d
-0.8922492	o l d
-0.20571326	u l d
-2.343891	a l d
-1.4984432	i l d
-1.7254553	l l d
-2.173536	e w d
-1.7098813	o w d
-2.6175838	a w d
-1.776056	<s> m d
-1.8046374	t m d
-2.171825	h m d
-2.5447147	e m d
-2.2496033	r m d
-2.1036553	o m d
-2.2649333	g m d
-2.357645	u m d
-1.9460489	n m d
-1.766015	f m d
-2.1874635	d m d
-1.9499329	a m d
-1.9688765	s m d
-2.4342685	i m d
-2.3119223	y m d
-2.5244174	l m d
-1.9778711	w m d
-2.012588	m m d
-1.5456032	o x d
-1.4260286	a x d
-1.6115836	e z d
-1.7108848	<s> t a
-1.4835992	t t a
-1.3480815	h t a
-1.5108478	e t a
-1.2824272	p t a
-0.9204848	r t a
-1.1434234	o t a
-1.1599752	c t a
-2.0363452	g t a
-1.1447476	u t a
-1.2212677	n t a
-0.5080876	b t a
-1.8052788	f t a
-1.9889956	d t a
-1.2976543	a t a
-0.8964202	s t a
-1.2921225	i t a
-1.6533936	y t a
-1.2678983	l t a
-2.1642008	w t a
-1.9277381	m t a
-1.6728802	x t a
-0.4338116	<s> h a
-0.7984364	t h a
-0.7897988	h h a
-0.43752235	e h a
-1.321689	p h a
-0.32063457	r h a
-0.41518342	o h a
-0.63509744	c h a
-1.559483	g h a
-0.05921341	u h a
-0.56278276	n h a
-1.0460439	k h a
-0.9706508	f h a
-0.4395014	d h a
-0.6147108	a h a
-0.6874798	s h a
-0.07431982	i h a
-0.41551167	y h a
-0.35188866	l h a
-0.7071014	w h a
-0.8488781	m h a
-0.63676727	x h a
-1.2852521	<s> e a
-1.4850988	t e a
-1.2746869	h e a
-1.3022186	e e a
-0.8361409	p e a
-0.8251575	r e a
-1.2413706	o e a
-1.2693175	j e a
-1.1287285	c e a
-1.4982319	g e a
-1.4037259	u e a
-1.1530143	n e a
-1.0743484	b e a
-0.99410003	k e a
-1.0723237	f e a
-0.9047082	d e a
-1.4401	s e a
-2.4133334	i e a
-1.2721106	v e a
-1.3025538	y e a
-0.7083888	l e a
-1.0549344	w e a
-0.99014175	m e a
-0.56712437	z e a
-0.67557746	<s> p a
-0.8081313	t p a
-0.6081866	h p a
-0.8411154	e p a
-2.04419	p p a
-1.0950738	r p a
-1.3942378	o p a
-0.8919833	c p a
-1.1393228	g p a
-1.1246601	u p a
-0.68061733	n p a
-0.4490897	b p a
-1.1505193	k p a
-0.8372362	f p a
-0.83559465	d p a
-1.1059327	a p a
-1.00103	s p a
-0.74777436	i p a
-0.7304565	y p a
-0.7643197	l p a
-0.6587679	w p a
-0.7658652	m p a
-2.3614876	x p a
-1.3195647	<s> r a
-0.6517724	t r a
-0.80225563	h r a
-1.1566911	e r a
-1.4029677	p r a
-1.0349973	r r a
-1.2639664	o r a
-1.8205686	c r a
-0.65782994	g r a
-1.1914573	u r a
-1.0525051	n r a
-0.68072236	b r a
-1.3122987	f r a
-0.8294295	d r a
-1.2459687	a r a
-1.3198098	s r a
-1.4151541	i r a
-1.6000367	y r a
-1.9340189	l r a
-1.808433	w r a
-1.7153585	m r a
-1.3316667	t o a
-2.0355096	h o a
-2.9876628	e o a
-2.913186	p o a
-1.4366492	r o a
-2.787579	o o a
-2.6422276	c o a
-1.6489036	g o a
-2.5305498	n o a
-1.4018881	b o a
-1.9567581	d o a
-1.8697715	s o a
-3.2562683	i o a
-3.6191785	y o a
-2.2648296	l o a
-2.4533885	w o a
-2.1348484	e j a
-1.6165981	s j a
-1.4591526	y j a
-0.74746776	<s> c a
-0.72657394	t c a
-0.74265456	h c a
-0.9201824	e c a
-0.64794916	p c a
-1.1947625	r c a
-0.91617006	o c a
-0.8237483	c c a
-0.67117995	g c a
-1.1191356	u c a
-1.7093313	n c a
-0.6008874	k c a
-0.9785294	f c a
-0.74712485	d c a
-1.75229	a c a
-0.7893213	s c a
-0.8278192	i c a
-0.23569004	v c a
-0.78349924	y c a
-0.83879	l c a
-0.5371986	w c a
-0.9940851	m c a
-1.1588923	<s> g a
-1.2610587	t g a
-0.85471916	h g a
-0.85282934	e g a
-1.5325437	r g a
-1.1401337	o g a
-1.6841402	g g a
-1.7961115	u g a
-1.013329	n g a
-0.88566744	f g a
-1.3625313	d g a
-0.69255614	a g a
-1.2574548	s g a
-1.327439	i g a
-1.0629337	y g a
-1.8529401	l g a
-1.392588	m g a
-1.1979082	t u a
-2.1103554	e u a
-2.4709597	p u a
-1.3506168	o u a
-1.107006	g u a
-1.3726039	n u a
-1.8738064	d u a
-2.6597674	a u a
-1.4202344	s u a
-1.7388002	l u a
-0.63424146	q u a
-1.6215924	<s> n a
-1.6060536	t n a
-1.7344528	h n a
-1.5216883	e n a
-0.8655126	r n a
-1.2439152	o n a
-0.7300652	g n a
-1.3433013	u n a
-1.9594947	n n a
-2.6241984	k n a
-1.1386584	f n a
-1.875072	d n a
-1.5398984	a n a
-1.5896205	s n a
-1.3734784	i n a
-1.216074	y n a
-2.340718	l n a
-0.94415253	w n a
-1.7341434	m n a
-1.5677923	<s> b a
-1.7487466	t b a
-1.5839751	h b a
-1.3286152	e b a
-1.2053875	r b a
-1.2859081	o b a
-1.3633411	g b a
-1.7473694	u b a
-2.0113003	n b a
-1.0293936	b b a
-1.1256206	k b a
-1.2947879	f b a
-2.0995412	d b a
-1.2792112	a b a
-0.93723685	s b a
-2.1778188	i b a
-1.5586865	y b a
-1.8630176	l b a
-1.1163948	w b a
-0.8817736	m b a
-1.8872802	e k a
-1.1465477	r k a
-1.3709172	o k a
-1.1661818	c k a
-1.4874203	n k a
-1.7787814	a k a
-1.4752475	s k a
-1.5855792	l k a
-0.8480678	<s> f a
-1.0880576	t f a
-1.3910885	h f a
-1.195785	e f a
-1.171855	p f a
-1.1898746	r f a
-1.0488268	o f a
-0.6419131	c f a
-1.4024353	g f a
-1.60342	u f a
-1.3243222	n f a
-0.5084573	k f a
-1.2770438	f f a
-1.1296072	d f a
-1.4039055	a f a
-0.865689	s f a
-1.5257808	i f a
-0.66886234	y f a
-0.8525893	l f a
-0.9123132	w f a
-1.383953	m f a
-0.83346295	<s> d a
-0.8309971	t d a
-0.78845406	h d a
-0.9578664	e d a
-0.7199198	p d a
-0.6050985	r d a
-1.0107392	o d a
-1.2971883	c d a
-0.93817794	g d a
-1.4496773	u d a
-1.1580564	n d a
-0.7282541	k d a
-0.57961756	f d a
-1.185178	d d a
-0.73169625	a d a
-0.99691695	s d a
-1.2629651	i d a
-0.8349095	y d a
-1.2636939	l d a
-0.63198715	w d a
-1.2575822	m d a
-3.6478786	h a a
-3.202692	e a a
-3.0944605	r a a
-3.109454	c a a
-2.9532995	f a a
-2.4579537	i a a
-2.9336257	v a a
-3.062777	l a a
-2.69667	m a a
-1.1143973	<s> s a
-1.0271289	t s a
-1.3122367	h s a
-1.1385502	e s a
-1.1819143	p s a
-1.0149646	r s a
-1.4758962	o s a
-1.0974438	c s a
-1.0797476	g s a
-1.150736	u s a
-1.1956098	n s a
-2.2232707	b s a
-1.1981139	k s a
-1.2545258	f s a
-1.1555182	d s a
-1.2446675	a s a
-0.97824913	s s a
-1.1571779	i s a
-1.2406274	y s a
-1.1546322	l s a
-0.9151711	w s a
-1.2020705	m s a
-1.2605084	<s> i a
-1.6063428	t i a
-2.021299	h i a
-1.5470616	e i a
-1.9803044	p i a
-1.6110979	r i a
-1.9225706	o i a
-1.0939039	c i a
-2.2662256	g i a
-1.9318681	u i a
-1.5444505	n i a
-2.0309827	b i a
-1.7094967	k i a
-1.8797437	f i a
-1.2969666	d i a
-2.696591	a i a
-1.680482	s i a
-2.2634354	i i a
-2.1311026	v i a
-1.437892	y i a
-1.1679659	l i a
-2.5504956	w i a
-1.5715424	m i a
-2.0069869	x i a
-0.8864436	<s> v a
-0.40907064	t v a
-1.0291557	h v a
-0.8366833	e v a
-0.8254471	r v a
-2.0336816	o v a
-0.99983317	c v a
-1.293776	u v a
-0.99376976	n v a
-0.71142423	f v a
-0.63532543	d v a
-1.8582968	a v a
-0.92567617	s v a
-1.2215964	i v a
-0.6218993	y v a
-1.7732729	l v a
-1.2491863	m v a
-2.753534	<s> y a
-1.303859	t y a
-1.4989743	h y a
-1.2593849	e y a
-0.8418536	p y a
-1.176902	r y a
-1.6133416	o y a
-0.9535401	c y a
-2.1492615	g y a
-1.372519	n y a
-0.84419525	b y a
-2.0998259	f y a
-1.7576841	d y a
-1.0306637	a y a
-1.5575318	s y a
-2.3440475	y y a
-0.94278026	l y a
-1.3344254	m y a
-1.0427499	<s> l a
-1.3127937	t l a
-1.6013533	h l a
-1.1688547	e l a
-0.5745399	p l a
-1.1327503	r l a
-0.7065706	o l a
-0.6931308	c l a
-0.6862279	g l a
-1.2202477	u l a
-1.7470216	n l a
-1.4811745	b l a
-1.2841548	k l a
-0.82183397	f l a
-1.2720172	d l a
-1.4535596	a l a
-0.9323242	s l a
-1.6001853	i l a
-0.9910088	y l a
-1.1792003	l l a
-1.7552133	w l a
-1.2963152	m l a
-0.935465	<s> w a
-0.690945	t w a
-0.7586317	h w a
-0.76692665	e w a
-1.585943	p w a
-0.7875837	r w a
-1.1821645	o w a
-1.2812954	c w a
-0.9518202	g w a
-1.2285384	u w a
-0.9897754	n w a
-0.4717555	k w a
-1.2624774	f w a
-1.0847304	d w a
-0.6319192	a w a
-1.1768016	s w a
-0.3919865	i w a
-0.8621494	y w a
-0.27167016	l w a
-1.3588964	w w a
-1.5179025	m w a
-0.63732046	<s> m a
-0.66793287	t m a
-0.8075832	h m a
-0.7635002	e m a
-1.2203445	p m a
-0.8860611	r m a
-0.8190193	o m a
-0.6718703	g m a
-0.65631235	u m a
-0.8704945	n m a
-0.98083925	k m a
-0.9338701	f m a
-0.9387962	d m a
-1.0244069	a m a
-0.76251584	s m a
-0.8125416	i m a
-0.71761173	y m a
-0.9953369	l m a
-0.89225435	w m a
-0.67883205	m m a
-1.0027016	e x a
-1.3362694	o x a
-0.74518293	u x a
-1.2338758	a x a
-1.5245864	i x a
-0.23887582	y x a
-1.9673356	x x a
-1.4072155	e z a
-1.0789026	n z a
-1.039243	a z a
-1.5945405	i z a
-1.2842747	h t s
-1.9907212	e t s
-1.6444414	p t s
-1.5954142	r t s
-1.4471921	o t s
-1.2236527	c t s
-1.4325123	u t s
-1.1675916	n t s
-1.1630546	b t s
-2.4101946	f t s
-1.5555259	a t s
-1.5597388	s t s
-1.352203	i t s
-1.6244898	l t s
-1.9492546	x t s
-2.0057824	t h s
-1.644126	p h s
-2.6197119	o h s
-1.4840448	c h s
-1.9217254	g h s
-1.6646026	a h s
-2.9981928	s h s
-1.5759071	<s> e s
-1.3997381	t e s
-1.2370248	h e s
-1.5762618	e e s
-1.6744221	p e s
-0.820191	r e s
-0.38273525	o e s
-1.641041	j e s
-0.9005203	c e s
-0.8204856	g e s
-0.6020884	u e s
-0.69199246	n e s
-1.1799932	b e s
-1.124543	k e s
-1.5238932	f e s
-1.0308746	d e s
-1.2482277	s e s
-0.95336556	i e s
-1.2872214	v e s
-0.58120227	y e s
-1.0592964	l e s
-1.3140694	w e s
-1.2588347	m e s
-1.2762812	x e s
-1.6347197	<s> p s
-1.857146	e p s
-1.4531319	r p s
-2.226887	o p s
-2.1742442	u p s
-0.84576154	a p s
-1.5547267	i p s
-2.0500646	l p s
-1.0184778	e r s
-1.474376	o r s
-0.9676979	u r s
-2.7825346	d r s
-1.4004464	a r s
-0.79194343	i r s
-1.2954607	t o s
-0.9333106	h o s
-3.0339901	e o s
-0.39392912	p o s
-1.3452184	r o s
-1.4826144	o o s
-1.2697958	j o s
-2.3451526	c o s
-2.238987	g o s
-1.6748875	u o s
-2.3469043	n o s
-1.6122038	b o s
-3.2550392	f o s
-2.6719902	d o s
-1.8284569	s o s
-2.225756	i o s
-1.0662512	l o s
-2.74024	w o s
-0.87843525	m o s
-3.4311254	e c s
-3.2728863	a c s
-2.3042467	i c s
-2.5287101	e g s
-0.71620864	p g s
-2.5200658	o g s
-1.2676331	n g s
-2.9957254	a g s
-0.73956347	<s> u s
-1.243678	t u s
-0.35229504	h u s
-0.78320336	e u s
-1.8836086	p u s
-1.0906211	r u s
-1.0624514	o u s
-0.298781	j u s
-0.7534698	c u s
-1.2999152	g u s
-0.98659563	u u s
-0.78783906	n u s
-1.178516	b u s
-1.2484658	k u s
-0.5970378	f u s
-1.2200091	d u s
-0.47717476	a u s
-1.2111542	s u s
-0.6480077	i u s
-0.7423737	y u s
-0.73513	l u s
-0.9131183	w u s
-0.35579067	m u s
-1.2834405	e n s
-1.3789105	r n s
-0.8998668	o n s
-1.3694335	g n s
-1.8543878	u n s
-1.3639145	a n s
-1.302651	i n s
-1.4348766	w n s
-2.097054	m n s
-2.355294	e b s
-2.2757761	r b s
-0.86077356	o b s
-1.6036367	u b s
-1.0975592	a b s
-2.423567	m b s
-1.4908636	e k s
-0.6643753	r k s
-0.8886672	o k s
-1.0989414	c k s
-0.94403875	n k s
-2.0413501	a k s
-1.4766953	s k s
-1.1164397	l k s
-2.675861	<s> f s
-2.639226	e f s
-1.3252738	o f s
-2.3603053	f f s
-1.518058	i f s
-1.4655365	l f s
-1.5383222	e d s
-1.0640203	r d s
-1.545943	o d s
-2.6374469	u d s
-1.0554645	n d s
-1.6951815	d d s
-1.5608793	a d s
-1.4645188	i d s
-1.4763157	l d s
-1.036596	<s> a s
-1.232154	t a s
-1.1401893	h a s
-0.72665375	e a s
-0.794502	p a s
-1.1575532	r a s
-0.99327475	o a s
-0.9990826	c a s
-1.3544872	g a s
-1.2004411	u a s
-0.9883126	n a s
-1.3977063	b a s
-0.84121597	k a s
-1.2346294	f a s
-1.1611468	d a s
-0.9973293	a a s
-1.2574275	s a s
-1.2879179	i a s
-2.527817	v a s
-0.9770005	y a s
-0.9327154	l a s
-0.21591528	w a s
-1.4946862	m a s
-1.6532578	x a s
-1.6956353	t s s
-2.0966666	h s s
-0.6341382	e s s
-1.2166615	p s s
-1.8207021	r s s
-0.99982065	o s s
-2.0744245	g s s
-1.7010386	u s s
-1.8364799	n s s
-1.4286954	k s s
-2.1378462	d s s
-0.9104338	a s s
-1.8711494	s s s
-1.2425567	i s s
-1.8348956	y s s
-2.1142347	l s s
-2.0212674	w s s
-1.9088584	m s s
-0.9398416	<s> i s
-0.8495152	t i s
-0.48080438	h i s
-0.8194591	e i s
-1.5131886	p i s
-0.97578144	r i s
-0.81606245	o i s
-1.4731052	c i s
-1.470195	g i s
-0.9606304	u i s
-0.8247881	n i s
-1.8161308	b i s
-1.0062566	k i s
-1.9015607	f i s
-0.6905757	d i s
-1.3507044	a i s
-1.0619187	s i s
-0.6728749	v i s
-0.9880942	y i s
-1.1961883	l i s
-1.0811241	w i s
-0.636248	m i s
-0.5600774	x i s
-3.6166778	e v s
-1.8102777	t y s
-1.0649498	h y s
-1.5813051	e y s
-1.4065405	p y s
-1.4309435	r y s
-1.6869116	o y s
-1.5685532	c y s
-1.3515627	n y s
-1.2994938	b y s
-1.5782114	d y s
-0.6876149	a y s
-2.0846786	s y s
-1.2381332	l y s
-0.7899537	m y s
-1.6918486	e l s
-1.9694972	r l s
-3.0543115	o l s
-1.8648876	u l s
-1.2310833	a l s
-1.3779368	i l s
-1.3549625	l l s
-1.7486192	e w s
-1.3134543	o w s
-1.2311858	a w s
-2.8605268	t m s
-1.6007936	e m s
-1.0516849	r m s
-1.9468048	o m s
-1.0963911	u m s
-1.6307945	a m s
-2.7201686	s m s
-1.3392315	i m s
-2.4694302	l m s
-2.8528728	e x s
-1.5480777	o x s
-1.6197056	<s> t i
-1.5761627	t t i
-1.207023	h t i
-1.1402935	e t i
-0.82160884	p t i
-1.1815447	r t i
-1.295494	o t i
-0.490434	c t i
-1.9770335	g t i
-0.7818061	u t i
-0.8873465	n t i
-1.4605627	b t i
-2.2319498	k t i
-2.1035702	f t i
-2.0547	d t i
-0.596496	a t i
-0.9548798	s t i
-0.82206583	i t i
-1.5246732	y t i
-1.2040036	l t i
-1.8647352	w t i
-1.9253566	m t i
-1.5199908	x t i
-0.85739017	<s> h i
-0.8377935	t h i
-0.5856624	h h i
-0.845282	e h i
-0.6917938	p h i
-1.0916623	r h i
-0.69924814	o h i
-0.6976411	c h i
-1.1506593	g h i
-2.3583734	u h i
-0.73155487	n h i
-0.44730964	b h i
-0.69522935	k h i
-0.5127109	f h i
-0.7648406	d h i
-0.84475744	a h i
-1.0879745	s h i
-1.9360564	i h i
-1.3325671	y h i
-1.0622456	l h i
-0.466164	w h i
-0.6877523	m h i
-0.37242597	x h i
-1.4959706	<s> e i
-1.8582854	t e i
-1.3639773	h e i
-1.3067534	e e i
-2.172697	p e i
-1.353264	r e i
-0.7912612	c e i
-1.5551627	g e i
-1.4760563	u e i
-1.2849286	n e i
-1.0524629	b e i
-1.3957205	k e i
-1.393515	f e i
-1.9916604	d e i
-1.4426732	s e i
-2.5515409	i e i
-1.3927101	v e i
-2.493495	y e i
-1.5478132	l e i
-2.1210155	w e i
-1.182548	m e i
-1.6704104	z e i
-1.8284166	<s> p i
-1.4951992	t p i
-1.4415269	e p i
-0.73569375	p p i
-1.5599298	r p i
-0.9796375	o p i
-1.5293345	g p i
-1.0859233	u p i
-1.9738183	n p i
-1.8399942	f p i
-1.95696	d p i
-1.7980356	a p i
-0.95412767	s p i
-1.0671567	i p i
-1.942014	y p i
-1.1336815	l p i
-0.97328395	w p i
-1.9941844	m p i
-1.4717852	x p i
-1.3196248	<s> r i
-0.8012557	t r i
-1.4948311	h r i
-1.089544	e r i
-1.000096	p r i
-0.66710365	r r i
-1.2881076	o r i
-0.46924442	c r i
-1.0020838	g r i
-1.2654649	u r i
-1.1654133	n r i
-0.5072908	b r i
-0.42984733	f r i
-1.3924941	d r i
-1.12716	a r i
-1.0032346	s r i
-1.3798416	i r i
-1.0209829	y r i
-1.7583821	l r i
-0.26837164	w r i
-1.5556433	m r i
-1.6725373	t o i
-1.6240442	h o i
-3.048978	e o i
-1.2602133	p o i
-2.4707303	r o i
-2.4771655	o o i
-1.030392	j o i
-3.2960968	c o i
-1.1419302	g o i
-2.1142662	n o i
-2.4004574	b o i
-3.0749393	f o i
-1.5584021	d o i
-1.8678249	s o i
-0.92914265	v o i
-2.091682	l o i
-2.4410906	w o i
-1.7489347	m o i
-1.915825	<s> c i
-2.3441355	t c i
-1.6572002	h c i
-1.1317756	e c i
-1.4004401	r c i
-1.1700141	o c i
-1.3914747	c c i
-1.6293558	g c i
-1.8569304	u c i
-1.5560716	n c i
-1.8360232	f c i
-1.9425675	d c i
-1.5580974	a c i
-1.581292	s c i
-1.0009451	i c i
-1.6787236	y c i
-1.4654593	l c i
-1.6050946	m c i
-1.0772853	x c i
-0.6658993	<s> g i
-0.5528377	t g i
-1.3709908	h g i
-0.7246797	e g i
-0.81538963	r g i
-0.4987632	o g i
-0.6820655	g g i
-1.874675	u g i
-1.1402465	n g i
-0.9460945	f g i
-0.58057714	d g i
-0.80527675	a g i
-0.7275759	s g i
-1.2743541	i g i
-0.78691447	y g i
-0.57879746	l g i
-0.9787872	w g i
-0.8790144	m g i
-2.8021343	t u i
-0.5914908	e u i
-1.2873452	r u i
-1.6511004	o u i
-2.6381555	c u i
-0.701293	g u i
-1.6195961	n u i
-2.1448452	d u i
-2.53426	a u i
-1.7821324	s u i
-2.3437893	l u i
-0.44424653	q u i
-1.5260646	<s> n i
-0.88974655	t n i
-1.7437934	h n i
-1.2878711	e n i
