\data\
ngram 1=18
ngram 2=126
ngram 3=561

\1-grams:
-1.9597516	<unk>	0
0	<s>	-2.478108
-0.99037534	</s>	0
-1.2037146	f	-1.3172312
-1.0636477	h	-1.7716414
-1.1055102	k	-1.4781613
-1.1055102	l	-1.938
-1.1055102	j	-1.4853069
-1.0636477	g	-1.6633636
-1.5112755	i	-0.7699179
-1.2626336	m	-1.8174703
-1.4117414	n	-1.7461145
-1.2037146	d	-1.4075803
-1.2037146	e	-1.5048099
-1.2037146	c	-1.1594338
-1.4117414	o	-1.7238381
-1.7233645	b	-0.51782876
-1.3308195	a	-1.163799

\2-grams:
-0.9767436	f </s>	0
-1.0252197	h </s>	0
-0.9249264	k </s>	0
-0.9704517	l </s>	0
-0.82992804	j </s>	0
-0.99484426	g </s>	0
-0.97845685	i </s>	0
-0.9186751	m </s>	0
-0.78117394	n </s>	0
-0.99726474	d </s>	0
-0.8603412	e </s>	0
-0.8865924	c </s>	0
-0.6805193	o </s>	0
-1.4143561	<s> f	-0.3355759
-0.84041524	f f	-0.97575617
-0.90330905	h f	-0.8514501
-1.9644814	k f	-0.29089037
-0.8440876	g f	-1.5200365
-0.85919344	d f	-1.1209984
-0.79746747	e f	-1.401541
-0.8004072	c f	-0.47523385
-1.5542144	<s> h	-0.3587283
-0.83697975	f h	-0.90892756
-0.8508893	h h	-1.2664264
-0.86963665	k h	-1.1481647
-1.2733867	l h	-0.39741784
-0.831455	j h	-1.4816684
-0.84252274	g h	-1.6430986
-0.17433049	i h	-0.71241474
-0.99995303	d h	-0.67283857
-1.159569	e h	-0.27023166
-1.6491637	c h	-0.29089037
-0.9216679	<s> k	-0.99297297
-1.83806	f k	-0.27700928
-0.90237653	h k	-1.2614852
-0.8704865	k k	-1.2405891
-0.8462455	l k	-1.4401913
-0.65693176	j k	-1.347879
-0.9394416	g k	-1.052323
-0.82236445	m k	-0.7352069
-0.9086256	n k	-0.44632292
-1.420454	e k	-0.27428553
-0.7723423	<s> l	-0.99791235
-1.2026943	h l	-0.51343566
-0.8198399	k l	-1.4708488
-0.8462455	l l	-1.065508
-0.7656175	j l	-0.8054418
-1.142029	g l	-0.69428265
-0.74271184	m l	-1.3592238
-0.68455416	n l	-0.5772656
-1.8732746	d l	-0.29089037
-0.8079941	o l	-0.27428553
-2.0627582	<s> j	-0.32120973
-1.83806	f j	-0.29089037
-0.8513032	h j	-1.5037012
-0.8198399	k j	-1.5359156
-0.9715674	l j	-0.63386804
-0.8322205	j j	-0.75133497
-1.142029	g j	-0.70234525
-1.0461037	m j	-0.40470403
-1.8732746	d j	-0.29089037
-1.420454	e j	-0.26355818
-0.55944526	<s> g	-1.1837393
-0.83697975	f g	-1.4368889
-0.8052366	h g	-1.6469228
-1.0705341	k g	-0.6668026
-1.1478668	l g	-0.5694314
-1.0059661	j g	-0.7129114
-0.84252274	g g	-1.400546
-0.98974484	i g	-0.29089037
-0.8562781	d g	-1.0651906
-0.7378145	e g	-0.8596492
-1.2609684	c g	-0.3535515
-1.4764436	f i	-0.35380572
-1.2083101	h i	-0.52955806
-2.0089269	k i	-0.29089037
-1.6382773	g i	-0.26355818
-2.4532425	<s> m	-0.35380572
-0.9307506	k m	-0.7075648
-0.79570985	l m	-1.4184601
-1.3988907	j m	-0.33180556
-0.82341146	m m	-0.697579
-0.68545246	n m	-1.2041854
-0.6823951	o m	-0.60714924
-1.1754899	k n	-0.5735091
-0.90599966	l n	-0.96958196
-0.7441652	m n	-1.2138424
-0.91113836	n n	-0.2974414
-0.5848391	o n	-0.88510495
-0.7406962	<s> d	-0.9156199
-0.84041524	f d	-0.951725
-1.2045581	h d	-0.59658957
-1.2405162	g d	-0.46758282
-0.9255961	d d	-0.8738444
-0.79746747	e d	-1.2625743
-0.59844303	c d	-1.0727437
-0.48194808	a d	-0.33180556
-0.9218593	<s> e	-1.0575037
-0.78300595	f e	-1.4284773
-1.593754	h e	-0.56440485
-1.8273003	j e	-0.29089037
-0.9985572	g e	-0.786746
-0.80161	d e	-1.1583099
-0.9432411	e e	-0.8683584
-0.6559207	c e	-0.5815262
-1.2718613	<s> c	-0.72883475
-1.2022259	f c	-0.29634264
-1.6254551	g c	-0.29089037
-0.85919344	d c	-0.97726876
-1.0398413	e c	-0.43217993
-1.0184495	c c	-0.56724524
-0.26757437	b c	-0.29089037
-0.2581622	a c	-0.42041355
-1.9973818	k o	-0.29089037
-1.053297	l o	-0.7170729
-0.92217016	m o	-0.5694314
-0.7841735	n o	-0.97478145
-0.8100911	o o	-0.32120973
-1.95626	d b	-0.29089037
-1.7506266	c b	-0.33180556
-2.8928337	<s> a	-0.29089037
-1.8863931	f a	-0.29089037
-1.2273653	d a	-0.29089037
-1.7059436	c a	-0.26355818
-0.72214335	b a	-0.29089037
-1.2098469	a a	-0.29089037

\3-grams:
-1.7755406	f f </s>
-1.4568791	h f </s>
-1.5322496	g f </s>
-1.5334129	d f </s>
-1.5423886	e f </s>
-1.5772065	f h </s>
-2.1268182	h h </s>
-1.8185695	k h </s>
-1.7311151	j h </s>
-1.6420105	g h </s>
-1.3778529	d h </s>
-0.8410951	f k </s>
-1.4924254	h k </s>
-1.8875884	k k </s>
-1.3366169	l k </s>
-1.4186308	j k </s>
-1.460062	g k </s>
-1.160098	m k </s>
-1.3404117	k l </s>
-1.2748996	l l </s>
-1.1561174	m l </s>
-1.0507613	n l </s>
-0.26522136	d l </s>
-0.81090987	o l </s>
-1.6344774	h j </s>
-1.4935541	k j </s>
-1.0222372	l j </s>
-1.3291621	j j </s>
-1.3812958	g j </s>
-0.24879488	d j </s>
-1.4510301	f g </s>
-1.0016117	h g </s>
-1.2384925	k g </s>
-1.3057207	l g </s>
-1.3480043	j g </s>
-1.3816419	g g </s>
-1.6866152	e g </s>
-1.0691134	h i </s>
-1.3150543	k m </s>
-1.3389711	l m </s>
-1.1727304	n m </s>
-1.2659473	o m </s>
-1.1468441	k n </s>
-1.0758017	l n </s>
-1.0638514	m n </s>
-0.93672895	o n </s>
-1.3696401	f d </s>
-1.2193408	h d </s>
-0.8843376	d d </s>
-1.3236694	e d </s>
-1.3359313	c d </s>
-1.2096758	f e </s>
-1.1240206	h e </s>
-1.3647636	g e </s>
-1.4252825	d e </s>
-0.6275721	e e </s>
-1.260202	c e </s>
-1.4004923	d c </s>
-0.81535006	e c </s>
-1.2249094	c c </s>
-0.50787145	b c </s>
-0.62209404	l o </s>
-0.4614879	m o </s>
-0.6303097	n o </s>
-0.6543324	o o </s>
-0.8907771	<s> f f
-0.5131172	f f f
-1.435115	h f f
-1.1491182	g f f
-0.8352024	d f f
-2.099212	e f f
-0.7271087	c f f
-1.0350342	<s> h f
-1.519365	f h f
-1.8742479	h h f
-1.7604624	k h f
-2.093966	j h f
-1.127826	g h f
-0.9588013	i h f
-1.0337921	d h f
-1.0599842	f k f
-1.2927094	<s> g f
-0.7431286	f g f
-0.48103198	h g f
-0.97011125	k g f
-1.3154167	j g f
-0.6992798	g g f
-0.25066948	i g f
-0.8491494	d g f
-0.92333627	e g f
-0.9049587	c g f
-0.6329199	<s> d f
-0.77366364	f d f
-0.19893959	h d f
-0.666828	g d f
-0.7943858	d d f
-0.73726165	e d f
-0.39493984	c d f
-0.21483743	<s> e f
-0.7374829	f e f
-0.21467789	h e f
-0.27343184	g e f
-0.36645353	d e f
-0.85809124	e e f
-0.3561222	c e f
-1.1299431	<s> c f
-0.57549834	f c f
-1.0492435	d c f
-1.0173326	e c f
-0.88644606	a c f
-0.8445563	<s> f h
-1.1131958	f f h
-0.8431374	h f h
-0.864455	g f h
-1.1941057	d f h
-1.5189737	e f h
-1.1110017	c f h
-0.83138764	<s> h h
-1.1882298	f h h
-0.91898996	h h h
-0.92856765	k h h
-1.012619	l h h
-0.74808955	j h h
-0.87924635	g h h
-0.9373192	d h h
-0.7039726	e h h
-1.4733813	<s> k h
-0.69782686	h k h
-1.0904891	k k h
-1.0322292	l k h
-0.66688734	j k h
-1.059883	g k h
-1.460873	m k h
-0.46248546	e k h
-1.1351123	<s> l h
-2.1233194	k l h
-2.0996683	l l h
-0.71577513	<s> j h
-0.40513498	h j h
-0.23137917	k j h
-1.022789	l j h
-0.5077033	j j h
-0.5039347	g j h
-0.34284675	<s> g h
-0.40705532	f g h
-0.5576948	h g h
-0.25270575	k g h
-0.33310413	l g h
-0.31963372	j g h
-0.4809255	g g h
-0.21094175	d g h
-0.18050979	e g h
-0.44457623	c g h
-0.06874367	f i h
-0.10026713	h i h
-0.08051264	k i h
-0.086297065	g i h
-0.46111262	<s> d h
-1.0968715	f d h
-1.232943	g d h
-1.5637971	d d h
-1.4524635	e d h
-2.100226	d e h
-1.6325039	e e h
-1.4326481	c e h
-2.211268	d c h
-1.9407878	g f k
-0.5035582	<s> h k
-0.43505788	f h k
-1.2098413	h h k
-0.762813	k h k
-0.38312742	l h k
-0.9745058	j h k
-0.88555396	g h k
-1.3147458	d h k
-1.6495197	<s> k k
-0.52480036	f k k
-0.63077396	h k k
-0.5718821	k k k
-0.98418933	l k k
-1.3307323	j k k
-0.6383598	g k k
-0.8791356	m k k
-0.5455248	<s> l k
-0.49964625	h l k
-0.5692409	k l k
-0.46117043	l l k
-0.28512797	j l k
-0.4267807	g l k
-0.32927445	m l k
-0.45006567	n l k
-0.41593045	<s> j k
-0.22115812	f j k
-0.40261874	h j k
-0.62711823	k j k
-0.32716095	l j k
-0.5427891	j j k
-0.34405038	g j k
-0.33663943	m j k
-0.24030651	e j k
-1.5873307	<s> g k
-1.9417274	f g k
-1.3195113	h g k
-0.87515956	k g k
-1.3675045	j g k
-0.90091354	g g k
-1.6482173	e g k
-0.95094675	c g k
-1.0858226	k m k
-0.99872977	l m k
-1.092843	m m k
-1.1608013	n m k
-1.0319071	o m k
-1.2213253	k n k
-1.5216235	l n k
-1.8030751	m n k
-2.0400507	f e k
-1.8168336	g e k
-2.0565543	h h l
-1.8882265	k h l
-0.8574599	l h l
-1.6901387	j h l
-0.09279438	<s> k l
-0.7921609	f k l
-0.65646493	h k l
-0.6808777	k k l
-0.41543838	l k l
-0.43296018	j k l
-0.76902366	g k l
-0.30525902	m k l
-0.2111357	n k l
-1.5463247	<s> l l
-0.49964625	h l l
-0.70026094	k l l
-0.66802806	l l l
-0.9459935	j l l
-1.1807666	g l l
-1.3322537	m l l
-1.007228	n l l
-0.6905268	<s> j l
-2.0345678	h j l
-1.2477833	k j l
-0.69237846	l j l
-1.2542477	j j l
-1.1664419	g j l
-0.91434735	m j l
-2.070195	<s> g l
-2.384075	f g l
-1.911207	h g l
-0.6618737	l g l
-1.4875803	g g l
-0.42377457	k m l
-0.3390248	l m l
-0.3413126	j m l
-0.14480661	m m l
-0.17413568	n m l
-1.1605717	o m l
-1.0844877	k n l
-0.9465419	l n l
-0.7894749	m n l
-0.48529524	n n l
-1.0656602	o n l
-2.5673726	e d l
-1.147982	l o l
-1.1929712	m o l
-1.4662347	n o l
-2.7769628	g f j
-1.0034531	<s> h j
-0.6423394	f h j
-1.5419416	h h j
-0.61601967	k h j
-1.0128596	l h j
-0.79232144	j h j
-0.60831416	g h j
-1.0182271	d h j
-0.25160453	c h j
-1.6178777	<s> k j
-0.5950688	h k j
-0.48229367	k k j
-0.5729102	l k j
-0.5251674	j k j
-0.350941	g k j
-1.2584168	m k j
-0.8679178	n k j
-0.74920833	e k j
-1.3641653	k l j
-1.4896233	l l j
-1.329474	j l j
-1.2311217	g l j
-1.5116572	m l j
-1.1989032	n l j
-0.9881666	h j j
-1.8456126	k j j
-1.159978	l j j
-0.7000332	j j j
-1.1984303	g j j
-0.74045825	m j j
-1.8741246	<s> g j
-1.7797923	h g j
-1.117605	j g j
-1.2939916	g g j
-1.7809769	e g j
-0.22400196	<s> m j
-1.3726519	k m j
-1.8342448	l m j
-2.5673726	e d j
-2.2390363	d e j
-1.719581	e e j
-0.59491575	<s> f g
-0.6914518	f f g
-0.3737466	h f g
-0.5074183	g f g
-0.5954548	d f g
-0.32496136	e f g
-0.37352556	c f g
-0.7605973	<s> h g
-0.61857945	f h g
-0.1281115	h h g
-0.38624883	k h g
-0.985506	l h g
-0.2993881	j h g
-0.44416523	g h g
-0.12451349	i h g
-0.2915774	d h g
-0.37134933	e h g
-1.4545768	h k g
-1.106137	k k g
-2.213712	l k g
-1.7692646	j k g
-0.8451436	e k g
-1.6938226	k l g
-1.1951337	l l g
-1.5134845	g l g
-2.1510148	m l g
-1.133363	h j g
-1.1414423	k j g
-1.098008	j j g
-1.3239002	g j g
-0.37356305	<s> g g
-0.5098684	f g g
-0.76234967	h g g
-1.1745722	k g g
-0.9966793	l g g
-0.73817205	j g g
-0.7107322	g g g
-0.7117357	d g g
-1.1849289	e g g
-0.6925637	c g g
-1.0731883	h i g
-1.3494021	<s> d g
-1.0737104	f d g
-1.1541675	h d g
-0.4368978	g d g
-1.3171694	d d g
-0.9574344	e d g
-1.4926579	c d g
-0.95147574	<s> e g
-1.2979794	f e g
-0.86777735	h e g
-0.23523141	j e g
-1.132667	g e g
-0.789209	d e g
-0.7777396	e e g
-0.5946958	c e g
-1.5262922	<s> c g
-1.3245367	d c g
-1.9252076	h f i
-1.3990932	c f i
-1.1894145	<s> h i
-1.8880463	f h i
-2.2955894	g h i
-1.398928	d h i
-2.7741392	l k i
-2.6718233	h g i
-1.8698219	j g i
-1.1426299	<s> k m
-1.7510865	h k m
-2.0258403	k k m
-1.2247846	l k m
-1.974001	j k m
-1.813073	g k m
-0.77243173	m k m
-0.39745352	<s> l m
-0.70580685	h l m
-0.5135149	k l m
-0.62530494	l l m
-0.6001035	j l m
-0.42267573	g l m
-0.6030548	m l m
-0.6359963	n l m
-0.44601923	o l m
-1.4219513	l j m
-1.1551409	m j m
-1.3947545	k m m
-1.3603898	l m m
-1.0932343	m m m
-1.2495373	n m m
-1.2110187	o m m
-0.28416505	k n m
-0.28361228	l n m
-0.3134705	m n m
-0.42367792	n n m
-0.20081627	o n m
-1.2370172	l o m
-0.6799682	m o m
-0.69375855	n o m
-0.6551744	o o m
-1.8095993	<s> k n
-2.001758	k k n
-1.4434215	l k n
-1.6566556	m k n
-0.7721308	<s> l n
-0.9916779	k l n
-1.4700081	l l n
-1.3832567	g l n
-1.3073591	m l n
-1.0291803	n l n
-0.78604746	o l n
-0.54077035	k m n
-0.51131856	l m n
-0.6078637	j m n
-1.2656535	m m n
-0.98818177	n m n
-0.21269909	o m n
-1.716976	l n n
-1.8042777	m n n
-1.4493073	o n n
-0.20668654	k o n
-0.23512982	l o n
-0.5031288	m o n
-0.30655906	n o n
-0.39495572	o o n
-0.8461672	<s> f d
-0.8715826	f f d
-1.258795	h f d
-1.2342405	g f d
-0.7658218	d f d
-0.78875774	e f d
-0.9434783	c f d
-1.8858289	f h d
-2.0011244	h h d
-1.9485531	g h d
-1.4545279	d h d
-1.6086373	f g d
-2.3266792	h g d
-2.0726418	g g d
-1.5786611	e g d
-1.5161161	<s> d d
-0.89000565	f d d
-1.1880875	g d d
-0.63277507	d d d
-1.2175817	e d d
-0.62466323	c d d
-0.6293664	<s> e d
-0.21024129	f e d
-1.091425	h e d
-0.6615634	g e d
-0.9356368	d e d
-0.8991249	e e d
-1.0255939	c e d
-0.2064465	<s> c d
-0.44991273	f c d
-0.4281546	g c d
-0.22527629	d c d
-0.29596037	e c d
-0.41282317	c c d
-0.4281546	b c d
-0.23924519	a c d
-0.47958496	d a d
-0.38424712	b a d
-0.1824961	a a d
-0.8183573	<s> f e
-0.6197673	f f e
-0.5550686	h f e
-0.24219221	k f e
-0.4235316	g f e
-0.505496	d f e
-0.5356461	e f e
-1.0762677	c f e
-2.0731838	f h e
-1.7799063	g h e
-1.9325912	j j e
-1.984787	<s> g e
-1.4153988	f g e
-1.4433798	h g e
-1.3077639	l g e
-1.0875427	j g e
-1.8936474	g g e
-1.3389627	e g e
-0.7254392	<s> d e
-0.9781142	f d e
-0.92234856	h d e
-0.9134816	g d e
-0.82196414	d d e
-0.46586347	e d e
-0.63447946	c d e
-0.6265731	a d e
-1.1718135	f e e
-1.4060612	g e e
-0.66679096	d e e
-0.589237	e e e
-1.138272	c e e
-0.665896	<s> c e
-0.7144799	f c e
-0.44718188	g c e
-0.98456365	d c e
-0.9237517	e c e
-0.74943423	c c e
-0.81354463	a c e
-1.0414395	<s> f c
-1.9118968	f f c
-1.87325	d f c
-2.654326	g g c
-2.005693	e g c
-0.89629984	<s> d c
-0.4271223	f d c
-0.9878237	g d c
-0.62791425	d d c
-0.68316495	e d c
-1.493723	c d c
-0.36062032	a d c
-2.1052806	f e c
-1.2313552	g e c
-1.6676494	d e c
-1.5803064	e e c
-1.0436078	d c c
-1.1367787	e c c
-0.53135514	c c c
-0.11657297	d b c
-0.38270897	c b c
-0.11314689	<s> a c
-0.11314689	f a c
-0.351461	d a c
-0.121625096	c a c
-0.2785618	b a c
-2.7716732	l k o
-1.8219637	<s> l o
-2.244916	k l o
-1.9596549	l l o
-1.1187087	m l o
-1.4445475	n l o
-0.9191831	k m o
-1.5359029	l m o
-1.5389879	n m o
-1.0691541	o m o
-0.6367264	k n o
-0.63449275	l n o
-0.6320544	m n o
-0.9372865	o n o
-1.3206947	l o o
-1.1943414	m o o
-1.4672452	n o o
-2.5882704	e d b
-1.9047886	d c b
-2.3900933	d f a
-1.8881283	<s> d a
-1.9514298	f d a
-2.282924	e d a
-1.8977731	d c a
-0.33743662	c b a
-0.71152985	d a a

\end\
