\data\
ngram 1=25
ngram 2=205
ngram 3=626

\1-grams:
-2.1800818	<unk>	0
0	<s>	-0.24171601
-2.043605	</s>	0
-1.6256392	l	-0.23326251
-1.0850465	c	-0.56237173
-1.0850465	b	-0.5660166
-1.0600142	d	-0.5373567
-1.1399056	e	-0.558383
-1.0850465	a	-0.5474901
-1.4166538	t	-0.34764102
-1.2027099	h	-0.5588709
-1.5442888	p	-0.22088306
-1.3646061	s	-0.33400798
-1.7258234	m	-0.24171601
-1.5442888	v	-0.22732352
-1.2027099	f	-0.5125459
-1.4166538	u	-0.311728
-1.2378829	x	-0.3524902
-1.6256392	q	-0.24819268
-1.4166538	i	-0.22661625
-1.5442888	r	-0.24982704
-1.3646061	g	-0.3180856
-1.7258234	k	-0.24171601
-1.9399166	j	-0.24171601
-1.9399166	n	-0.24171601

\2-grams:
-2.0657456	h </s>	0
-0.3561514	<s> l	-0.790455
-1.8774155	c l	-0.2922396
-1.9141937	a l	-0.46833086
-1.4526674	u l	-0.2922396
-1.0331149	i l	-0.3433921
-0.74700093	l c	-0.3891496
-0.9043752	c c	-0.9748679
-0.8346188	b c	-1.0314575
-0.95550966	d c	-1.1490012
-0.9279598	e c	-0.77574396
-1.0961607	a c	-0.6417423
-0.45153454	t c	-0.64442205
-0.998629	h c	-0.9454521
-1.1317558	s c	-0.2922396
-0.87781906	m c	-0.46833086
-1.2772444	f c	-0.17609124
-1.1950417	u c	-0.2922396
-1.2590683	x c	-0.110263385
-1.050079	q c	-0.03668712
-1.038704	i c	-0.03668712
-0.6471089	r c	-0.2563914
-1.2076831	g c	-0.03668712
-0.69037896	c b	-1.1424307
-1.0578799	b b	-0.65319103
-0.9055257	d b	-0.7336755
-1.081156	e b	-0.33699608
-0.97559977	a b	-1.0600203
-1.171262	t b	-0.2563914
-1.1442097	h b	-0.7954911
-0.93951255	p b	-0.2563914
-0.98617375	s b	-0.22420673
-0.95984507	v b	-0.790455
-1.0396419	f b	-0.25736147
-1.1950417	u b	-0.790455
-0.63969016	x b	-0.503093
-1.050079	q b	-0.03668712
-1.038704	i b	-0.46833086
-0.9271559	k b	-0.2922396
-0.58412874	j b	-0.03668712
-0.89974374	c d	-1.1726959
-0.87626183	b d	-0.38914958
-1.0057299	d d	-0.77744627
-0.7644132	e d	-1.0238394
-1.0252974	a d	-0.6429264
-1.0210782	t d	-0.31438336
-1.2305777	h d	-0.34464857
-1.055806	p d	-0.16730087
-0.82116675	s d	-0.42126966
-0.86874944	m d	-0.46833086
-0.94855	v d	-0.03668712
-0.9507597	f d	-0.91451234
-1.0647079	u d	-0.56009424
-1.242311	x d	-0.2922396
-1.0368574	q d	-0.03668712
-0.8850827	i d	-0.3433921
-0.9307504	g d	-0.4112934
-0.91700774	k d	-0.03668712
-0.9450573	l e	-0.46833086
-0.9743452	c e	-0.7388288
-1.071233	b e	-0.50746596
-0.8697191	d e	-1.106121
-0.8765085	e e	-0.9228095
-1.19009	a e	-0.5021023
-1.2004492	t e	-0.790455
-0.85238767	h e	-0.71923345
-0.8411311	s e	-0.23862064
-0.8965472	m e	-0.03668712
-0.8090365	v e	-0.2922396
-0.6910865	f e	-1.1672436
-1.2946569	x e	-0.03668712
-0.95761496	g e	-0.4171783
-0.5935514	n e	-0.03668712
-1.0320562	c a	-0.51891255
-0.8346188	b a	-1.2318735
-1.1533731	d a	-0.5932696
-0.8677825	e a	-0.5932696
-0.97559977	a a	-0.8857305
-0.8441378	h a	-0.9126734
-1.0705392	p a	-0.3891496
-0.98617375	s a	-0.26908737
-0.87781906	m a	-0.2922396
-0.79315794	v a	-0.26908737
-1.0396419	f a	-0.6727882
-0.63671595	u a	-0.254451
-0.73101974	x a	-0.6195985
-0.90297806	q a	-0.5021023
-0.84010386	r a	-0.17609124
-0.9271559	k a	-0.03668712
-0.58412874	n a	-0.2922396
-1.0290502	l t	-0.16730087
-1.6388013	c t	-0.5021023
-1.66275	d t	-0.08793964
-1.7428045	e t	-0.46833086
-1.2606449	a t	-0.60269415
-1.777874	h t	-0.16730087
-1.1254762	r t	-0.16730087
-1.3884523	g t	-0.03668712
-1.3988016	c h	-0.52134484
-0.8506394	b h	-0.6858058
-0.9782913	d h	-0.66929215
-1.2217239	e h	-0.37382275
-0.75160706	a h	-1.2040138
-0.9083347	h h	-0.8970891
-0.85496944	s h	-0.18193722
-0.90747845	f h	-1.1020831
-0.9578349	u h	-0.18944462
-1.2074331	x h	-0.3891496
-0.74787456	q h	-0.40433547
-1.0524274	r h	-0.03668712
-0.67607874	g h	-0.5226885
-1.7140657	b p	-0.2563914
-1.7233394	d p	-0.3433921
-1.5773128	a p	-0.27319336
-1.8543915	h p	-0.2922396
-1.7700213	f p	-0.46833086
-1.2245351	i p	-0.2922396
-1.730345	c s	-0.36553586
-1.3232107	b s	-0.27504817
-1.4962589	d s	-0.28940326
-1.7516437	a s	-0.03668712
-1.3020246	t s	-0.03668712
-1.635332	h s	-0.23424762
-1.0386854	p s	-0.31438336
-1.6680152	f s	-0.03668712
-1.1734567	q s	-0.03668712
-1.0855188	l m	-0.2922396
-1.7937738	d m	-0.2563914
-1.8543591	f m	-0.46833086
-0.64938235	j m	-0.46833086
-1.8357227	c v	-0.03668712
-1.8528211	b v	-0.03668712
-1.8129647	e v	-0.03668712
-1.8675082	a v	-0.790455
-0.9925346	m v	-0.3891496
-1.7700213	f v	-0.31438336
-1.0577946	c f	-0.646166
-1.6324725	b f	-0.2922396
-0.9257719	d f	-0.72010267
-0.9482733	e f	-1.1424127
-0.9989242	a f	-0.8493665
-1.0741291	t f	-0.16730087
-0.9617224	h f	-1.1185925
-0.9862743	p f	-0.503093
-1.3146127	s f	-0.03668712
-0.9808318	f f	-0.838363
-0.9578349	u f	-0.4112934
-1.2074331	x f	-0.56524086
-1.2789404	g f	-0.2922396
-1.7627107	c u	-0.03668712
-1.66275	d u	-0.2428416
-1.6129268	e u	-0.18494774
-1.6790569	a u	-0.35597426
-1.777874	h u	-0.790455
-1.4053099	f u	-0.34235477
-1.4488704	x u	-0.03668712
-1.3884523	g u	-0.03668712
-1.6578901	b x	-0.03668712
-1.646916	d x	-0.16730087
-1.4588869	a x	-0.23571694
-1.2482741	t x	-0.03668712
-1.294787	h x	-0.4171783
-0.9987961	p x	-0.03668712
-1.0211984	v x	-0.03668712
-1.28465	u x	-0.110263385
-0.9472191	i x	-0.03668712
-1.0660872	r x	-0.16730087
-1.2987442	g x	-0.2922396
-0.98179096	k x	-0.46833086
-1.3457843	c q	-0.30687594
-1.5605974	b q	-0.09105736
-1.9141937	a q	-0.790455
-1.8983822	h q	-0.790455
-1.3497592	x q	-0.46833086
-1.6582323	b i	-0.03668712
-1.7724986	d i	-0.46833086
-1.7869387	a i	-0.46833086
-1.777874	h i	-0.2922396
-1.4299587	s i	-0.03668712
-1.1916691	q i	-0.16730087
-1.184291	i i	-0.46833086
-1.0310591	k i	-0.46833086
-1.8528211	b r	-0.16730087
-1.7233394	d r	-0.21734326
-1.8675082	a r	-0.03668712
-1.7700213	f r	-0.03668712
-1.5052783	x r	-0.03668712
-1.0579612	k r	-0.03668712
-1.7375383	d g	-0.03668712
-1.5895475	e g	-0.35597426
-1.6512829	a g	-0.3891496
-1.3308425	h g	-0.41802642
-1.0386854	p g	-0.2922396
-1.6680152	f g	-0.76936084
-1.3488888	u g	-0.03668712
-1.4231956	x g	-0.2922396
-1.0169104	g g	-0.6679032
-1.7538177	c k	-0.03668712
-1.778151	b k	-0.18944462
-1.9498801	d k	-0.46833086
-1.9473362	h k	-0.46833086
-1.108743	l j	-0.46833086
-2.0591109	a j	-0.03668712
-2.0409524	d n	-0.2922396
-1.7704396	e n	-0.2922396

\3-grams:
-2.4762578	a h </s>
-2.0222886	b c l
-1.1569294	c a l
-0.39002383	a u l
-0.65191644	q i l
-0.1602903	k i l
-0.06198163	<s> l c
-0.2357213	c l c
-1.6876749	c c c
-0.7342026	b c c
-0.7249854	d c c
-0.69099885	a c c
-0.7572212	t c c
-0.7437177	h c c
-0.6521786	f c c
-0.7087634	g c c
-0.6715727	c b c
-0.44234934	b b c
-0.40271857	d b c
-0.33561683	a b c
-0.81039673	h b c
-0.29772148	p b c
-0.4068482	s b c
-0.45602763	f b c
-0.6665591	q b c
-0.14896773	i b c
-1.1121895	c d c
-0.956541	b d c
-0.27438265	d d c
-0.25948423	e d c
-0.68852806	a d c
-1.3035383	s d c
-1.2527865	f d c
-0.86884546	u d c
-0.80332005	c e c
-1.3084354	b e c
-0.57596695	d e c
-1.5780057	e e c
-1.0132079	a e c
-0.6247245	h e c
-2.063226	f e c
-1.3952653	c a c
-2.0928195	b a c
-0.3522046	d a c
-1.4440788	a a c
-1.9729583	h a c
-1.4144211	f a c
-0.25163403	l t c
-0.16950576	c t c
-0.37082726	d t c
-0.30310154	a t c
-0.25163403	h t c
-0.25163403	r t c
-1.10139	c h c
-0.58391	b h c
-0.6406516	d h c
-1.2676864	e h c
-1.0634757	a h c
-0.61901957	h h c
-1.2865243	f h c
-1.3170207	b s c
-1.3330656	d s c
-0.15186194	j m c
-2.3431375	e f c
-1.6297408	a f c
-2.1004393	h f c
-0.92788243	f u c
-0.94482666	h x c
-1.0204574	b q c
-0.9045986	b i c
-0.32512137	b r c
-0.54043114	x r c
-0.54043114	k r c
-1.0111262	u g c
-0.17063962	l c b
-0.22634386	c c b
-1.2147005	b c b
-0.35261428	d c b
-1.2611368	e c b
-0.1981998	a c b
-0.27882752	t c b
-0.39536294	h c b
-0.22631595	s c b
-0.45583725	x c b
-0.5710938	q c b
-0.5710938	i c b
-0.2710226	r c b
-0.7965151	c b b
-1.3540943	b b b
-1.0340741	d b b
-0.826457	e b b
-1.1452388	a b b
-1.5253866	h b b
-0.93862534	c d b
-1.0824567	b d b
-1.9082218	e d b
-1.1632079	h d b
-0.7094369	v d b
-0.89998853	f d b
-0.1843451	u d b
-0.25711957	x d b
-1.1910064	g d b
-1.9966127	d e b
-1.9103907	e e b
-0.8592328	h e b
-2.0325854	f e b
-0.8034342	x e b
-0.7414984	c a b
-0.6422768	b a b
-0.76455516	e a b
-0.75748813	a a b
-0.6163866	h a b
-0.8412825	s a b
-0.41976374	f a b
-0.30664167	x a b
-0.5106877	a t b
-0.49406728	c h b
-0.7794431	b h b
-0.65242624	d h b
-1.7513819	a h b
-1.9609036	f h b
-0.3129858	b p b
-1.1531858	a p b
-1.2041609	c s b
-0.35515124	b s b
-0.75478894	t s b
-0.067648366	a v b
-1.4062998	c f b
-1.6998429	d f b
-1.9619524	e f b
-1.5705962	a f b
-1.4335984	f f b
-0.87031716	e u b
-0.5350855	b x b
-0.83657146	a x b
-0.92922825	h x b
-0.60001063	p x b
-0.5350855	v x b
-0.60001063	i x b
-1.0204574	b q b
-0.16054355	i i b
-0.3947256	b k b
-0.49425507	a j b
-0.72444105	c c d
-0.29291183	b c d
-0.70712715	d c d
-0.7233044	e c d
-1.4748666	a c d
-0.7564695	t c d
-0.72163564	h c d
-0.6504453	f c d
-1.6474899	c b d
-1.500312	b b d
-1.5679433	d b d
-0.76945424	e b d
-1.9049487	a b d
-0.3041604	t b d
-1.0140171	p b d
-0.7939663	f b d
-0.71568346	x b d
-0.7993519	c d d
-1.6000575	d d d
-0.8550261	e d d
-0.4364614	a d d
-0.9622145	h d d
-1.7171913	f d d
-0.3145633	i d d
-0.37191018	c e d
-0.8115667	d e d
-0.23749362	e e d
-0.3189522	a e d
-0.06255308	t e d
-1.2008227	h e d
-0.42115894	s e d
-0.23841286	v e d
-0.24248599	f e d
-0.7020403	n e d
-0.89319557	c a d
-1.710593	b a d
-0.9099351	d a d
-0.5634944	e a d
-0.87098587	a a d
-1.9073104	h a d
-0.26928896	m a d
-0.9959156	d t d
-0.15973426	e t d
-1.8485091	b h d
-1.4198055	d h d
-1.7716655	a h d
-1.8296264	h h d
-0.8343057	d p d
-0.21037042	c s d
-1.0499821	b s d
-0.5437906	d s d
-0.24559204	p s d
-0.1512764	f m d
-0.73409003	b v d
-1.1622033	c f d
-0.8307011	d f d
-0.5681097	e f d
-0.33239508	a f d
-1.2591482	h f d
-1.7398609	f f d
-0.0695873	h u d
-0.57743895	f u d
-1.0802661	h x d
-1.2304859	c q d
-0.15232271	d i d
-0.60469407	q i d
-0.7240173	d g d
-0.35282773	a g d
-1.300852	h g d
-0.9777232	b k d
-0.15586269	a l e
-0.989143	c c e
-1.5755697	b c e
-1.1096891	d c e
-0.87569743	e c e
-1.5380448	a c e
-1.1165406	h c e
-1.0099928	f c e
-1.7200501	c b e
-1.5086093	b b e
-1.0674329	e b e
-1.9254409	a b e
-1.5316103	h b e
-0.06969342	u b e
-0.3058355	c d e
-0.5956209	b d e
-0.75617206	d d e
-1.0701063	e d e
-0.8392345	a d e
-0.25155112	t d e
-0.28446856	h d e
-0.47503752	s d e
-0.56464034	f d e
-0.6881302	q d e
-1.074514	c e e
-0.18472373	b e e
-1.3524082	d e e
-1.3966192	h e e
-1.000618	s e e
-0.96911055	f e e
-0.4427374	g e e
-0.78880537	n e e
-1.2823706	c a e
-1.2419765	e a e
-1.8599808	a a e
-1.8898062	h a e
-1.3056781	s a e
-1.1868991	a t e
-1.3340142	c h e
-0.9813317	b h e
-1.3875774	d h e
-1.5957181	a h e
-1.2795659	h h e
-0.5085274	s h e
-0.72827756	f h e
-0.37951538	u h e
-0.7098872	q h e
-0.6775631	r h e
-0.9275863	d s e
-0.6706119	a s e
-1.045021	p s e
-0.6706119	q s e
-1.0293667	d m e
-0.6504173	c v e
-0.6504173	e v e
-0.50618404	c f e
-0.2264399	b f e
-0.2887501	d f e
-0.7294771	e f e
-0.6111968	a f e
-0.3388937	t f e
-0.32490712	h f e
-0.35123342	p f e
-0.33461437	f f e
-1.0213637	u f e
-0.2845305	x f e
-1.0598234	p x e
-0.6301598	h g e
-0.84825206	u g e
-0.6344007	g g e
-0.20770912	e n e
-1.25703	c c a
-1.1193153	b c a
-1.8463795	d c a
-0.6890731	e c a
-1.1823789	h c a
-1.1271783	r c a
-0.32680085	c b a
-0.5079575	b b a
-0.98583573	d b a
-0.54165274	e b a
-0.48407987	a b a
-0.32285407	h b a
-0.79287857	s b a
-0.064644665	v b a
-0.23562495	x b a
-0.24837781	k b a
-1.5339788	c d a
-1.1843394	d d a
-2.140473	e d a
-0.66724247	s d a
-0.8932601	f d a
-0.15121329	l e a
-1.0719842	c e a
-1.4974079	d e a
-0.9261504	e e a
-0.9891676	a e a
-0.8763301	h e a
-0.7033722	s e a
-1.4487281	f e a
-0.8815919	c a a
-0.66288924	b a a
-0.99583703	d a a
-0.76455516	e a a
-0.56613046	a a a
-0.9322319	h a a
-0.3800254	s a a
-1.3569685	f a a
-1.1733963	c h a
-0.9790273	b h a
-0.8728146	d h a
-0.4642846	e h a
-0.5088946	a h a
-0.90991795	h h a
-0.95010805	s h a
-0.5409234	f h a
-0.2562152	x h a
-0.9974383	g h a
-0.6783758	a p a
-1.1951773	b s a
-0.58270776	d s a
-0.70506513	h s a
-0.25385195	l m a
-0.1820775	m v a
-0.24188049	f v a
-0.57814753	c f a
-1.0956568	d f a
-2.1361518	e f a
-1.5705962	a f a
-1.1143626	h f a
-0.5329352	c u a
-0.8292657	d u a
-0.5697715	a u a
-0.7122264	f u a
-0.5329352	x u a
-0.59906673	t x a
-0.64577436	h x a
-0.7532066	u x a
-0.6752522	i x a
-0.2331696	g x a
-0.40715095	c q a
-0.0663885	h q a
-0.68335354	d r a
-0.6699742	a r a
-0.82627594	c k a
-0.2057147	d n a
-0.82685435	i l t
-2.2694967	d c t
-0.29973134	u c t
-2.038292	e d t
-0.9339466	i d t
-0.59454656	g e t
-1.0556344	d a t
-2.1218703	h a t
-0.5249976	v a t
-1.8010517	f a t
-0.92909837	u a t
-1.79514	d h t
-0.738908	d r t
-0.57553005	p g t
-1.266213	b c h
-1.7375978	d c h
-0.70833445	e c h
-1.2535305	c b h
-0.80296844	b b h
-0.5195093	d b h
-0.9528309	e b h
-1.1834852	a b h
-0.99438334	t b h
-0.7175426	h b h
-1.0148803	s b h
-0.812018	f b h
-0.676488	j b h
-1.1903846	c d h
-0.6814909	b d h
-1.5818644	d d h
-1.6144714	e d h
-1.5754926	a d h
-0.15763456	m d h
-0.6140019	f d h
-0.19607355	g d h
-2.0555487	d e h
-1.6135298	h e h
-1.640772	f e h
-1.081389	g e h
-0.65832007	c a h
-0.3396784	b a h
-0.92381084	d a h
-0.72083557	e a h
-0.5933852	a a h
-0.4192745	h a h
-0.17774118	p a h
-0.56312644	v a h
-0.72025615	f a h
-0.5579668	u a h
-0.47592622	x a h
-0.75580066	q a h
-0.7641742	r a h
-0.23644215	n a h
-0.6753912	c h h
-0.7223922	b h h
-1.1086646	d h h
-0.9536501	a h h
-1.6186061	h h h
-0.7263055	s h h
-0.7946625	f h h
-0.8346948	x h h
-0.3490827	g h h
-0.9183541	b s h
-1.0955833	d s h
-0.44212958	h s h
-0.6791476	f s h
-0.6438985	c f h
-1.4332724	d f h
-0.4697408	e f h
-0.77774364	a f h
-0.868399	h f h
-0.5489486	f f h
-0.19117536	u f h
-1.1012822	d u h
-1.0458436	e u h
-0.73927313	g u h
-0.44141436	d x h
-0.37932777	a x h
-0.59961	c q h
-0.5773895	b q h
-0.06201083	a q h
-0.7892682	f r h
-0.3145211	e g h
-0.5498052	a g h
-0.5156921	h g h
-0.22377534	x g h
-0.20614904	g g h
-2.7164695	c b p
-1.2296957	h b p
-1.9282225	d d p
-1.7922456	e d p
-2.0731442	b a p
-2.3479095	a a p
-1.2587981	h a p
-1.2088879	g h p
-0.57095635	x f p
-0.28382865	h i p
-1.5073245	b c s
-1.5311688	c b s
-1.8993132	b b s
-1.835222	a b s
-1.387255	f b s
-1.3872975	d d s
-1.4500189	e d s
-2.0037563	a d s
-1.0119491	k a s
-1.0637507	g t s
-1.4240758	h h s
-2.1486845	f h s
-1.2383196	a p s
-0.16054268	f p s
-2.6213133	h f s
-1.1105285	b q s
-0.27435032	u l m
-0.83266914	s d m
-2.475959	f d m
-0.51012945	p f m
-0.13305773	l j m
-1.3592544	x c v
-2.286545	b b v
-2.779812	f e v
-2.4264178	b a v
-0.31957126	d m v
-1.5355304	h f v
-1.9783051	c c f
-1.5366026	b c f
-1.3850172	d c f
-0.7915344	e c f
-1.25303	h c f
-1.0687369	f c f
-2.0925088	c b f
-1.5469998	c d f
-0.9441267	b d f
-1.2559187	d d f
-1.1608169	e d f
-1.0366868	a d f
-1.109161	t d f
-1.1797092	h d f
-0.39749286	p d f
-0.902373	f d f
-0.72908574	c e f
-0.33973613	d e f
-0.66007775	e e f
-0.756003	a e f
-0.48337758	h e f
-0.7339349	m e f
-0.6658622	f e f
-1.4808218	c a f
-1.8936088	b a f
-1.3414562	e a f
-1.4135854	a a f
-0.8974707	h a f
-0.6002983	f a f
-0.63097095	u a f
-0.22392763	q a f
-0.83492017	c t f
-1.0362179	d t f
-0.74026823	c h f
-1.3250122	b h f
-0.78064173	d h f
-0.48283923	e h f
-0.46706873	a h f
-0.37083143	h h f
-0.73405755	f h f
-1.0105214	u h f
-0.3127296	d p f
-0.48079252	a p f
-1.4593621	b s f
-1.5653489	c f f
-0.8349197	d f f
-0.8177547	e f f
-0.85822475	h f f
-1.5731766	f f f
-0.2651192	g f f
-0.33827424	d u f
-1.0458436	e u f
-1.2406269	f u f
-0.61761004	h x f
-0.16688558	k x f
-1.0794101	h g f
-2.6401815	b c u
-1.750721	c d u
-2.038292	e d u
-2.221242	d e u
-1.7784411	f e u
-2.3790002	b a u
-1.8135118	a a u
-2.4150784	a h u
-1.9972541	d f u
-1.7898736	e f u
-1.1968877	h f u
-1.4797021	a x u
-1.6810935	h g u
-2.6750653	c b x
-1.906421	d d x
-1.5760653	b a x
-2.2543182	a a x
-1.4757829	v a x
-1.0343871	g t x
-1.440031	d h x
-1.4797184	a h x
-1.0371432	f h x
-0.7968099	q h x
-1.1039653	b p x
-1.2044095	a p x
-1.1776514	f v x
-0.80104244	f u x
-0.8407998	b i x
-0.7333431	s i x
-0.7233475	d r x
-0.56777805	p g x
-0.15781379	d k x
-2.2207034	c c q
-2.4164238	d c q
-2.0331776	e c q
-0.170572	m c q
-2.0765638	c b q
-1.7454389	d b q
-1.664345	e b q
-0.5414338	r a q
-1.8790157	b h q
-0.64494497	u x q
-0.45579958	r x q
-2.159108	b b i
-1.59225	s b i
-1.7974327	e d i
-1.1491706	c a i
-1.2032442	g h i
-1.5589411	d s i
-0.16638845	x q i
-0.16614975	a i i
-0.16019635	h k i
-2.1971471	a b r
-1.9703723	d d r
-1.1598562	a d r
-2.601591	h a r
-1.0149708	s f r
-1.5140268	a x r
-0.9175001	c k r
-1.0095564	k d g
-1.139909	b e g
-1.9834884	d e g
-1.5459703	a a g
-1.888303	h a g
-1.3673868	a h g
-1.3061194	h h g
-0.46228427	q h g
-0.8845383	g h g
-0.2704703	h p g
-0.2704703	i p g
-0.90972286	f f g
-0.6074244	e u g
-1.1211106	h x g
-0.67783594	e g g
-0.7839749	h g g
-0.07248413	f g g
-2.6339242	b c k
-2.331654	e c k
-2.25416	d b k
-1.9234308	a b k
-1.8122828	e d k
-1.2803158	b h k
-0.3231162	i l j
-2.7187543	h a j
-1.1610376	b d n
-2.2556899	c e n
-2.6944134	d e n

\end\
