\data\
ngram 1=27
ngram 2=346
ngram 3=1270

\1-grams:
-2.1236746	<unk>	0
0	<s>	-0.3668156
-2.0246305	</s>	0
-1.2045708	a	-0.5229969
-1.2467632	f	-0.54106176
-1.2251549	d	-0.5387681
-1.318901	k	-0.38534153
-1.2467632	c	-0.5576103
-1.2695034	b	-0.51259744
-1.2045708	e	-0.5694959
-1.2045708	h	-0.55971247
-1.4745221	u	-0.3377437
-1.5566889	g	-0.354839
-1.3458802	n	-0.29104987
-1.4745221	i	-0.3583843
-1.4745221	l	-0.2853081
-1.5136652	m	-0.2810625
-1.4745221	v	-0.284971
-1.3458802	x	-0.45172638
-1.4386172	r	-0.33157352
-1.5136652	t	-0.28765807
-1.4745221	s	-0.27305242
-1.4054554	q	-0.32605135
-1.2935002	p	-0.328749
-1.5566889	j	-0.30707234
-1.9824643	o	-0.3668156
-2.0246305	w	-0.3668156

\2-grams:
-1.8245579	x </s>	0
-0.22394516	<s> a	-0.35119662
-0.8506548	a a	-1.1120139
-1.1371813	f a	-0.7482642
-1.020617	d a	-0.80807793
-1.4057481	k a	-0.1135261
-1.0530081	c a	-0.70175546
-0.8577348	b a	-0.8380588
-0.9941546	e a	-0.49032593
-0.9061159	h a	-1.030542
-1.2324104	u a	-0.517213
-1.2976471	g a	-0.35119662
-1.1788791	n a	-0.17927435
-1.3503073	i a	-0.35119662
-0.91623574	l a	-0.28942963
-0.96451545	v a	-0.45922104
-1.1952087	x a	-0.23086886
-0.9699289	r a	-0.26907784
-1.2665812	t a	-0.35119662
-1.2212358	s a	-0.35119665
-0.8180429	q a	-0.74182117
-0.88345563	p a	-0.45576108
-0.8922543	j a	-0.2895235
-1.0432227	a f	-0.81656885
-0.8700245	f f	-1.1836678
-1.1157835	d f	-0.8237444
-1.3431652	k f	-0.1135261
-1.023269	c f	-0.6213315
-1.1109179	b f	-0.4592607
-0.9620032	e f	-0.9928732
-0.91172564	h f	-0.793972
-1.2525684	u f	-0.17927435
-1.3000978	n f	-0.35119662
-1.3756752	i f	-0.40097752
-1.0723728	m f	-0.24614833
-1.094125	v f	-0.24614833
-0.734706	x f	-0.36970973
-1.1032834	r f	-0.35119662
-1.2911793	t f	-0.28942963
-1.244108	s f	-0.17927435
-1.3563231	q f	-0.35119662
-1.211812	p f	-0.39227426
-0.5093587	o f	-0.1135261
-1.039084	a d	-0.7762162
-1.0444776	f d	-0.6882483
-0.9868475	d d	-0.9427242
-0.9178469	k d	-0.24072328
-1.0978041	c d	-0.9352141
-1.512443	b d	-0.22146192
-0.83178186	e d	-0.94021696
-1.1298583	h d	-0.5683655
-1.2142253	u d	-0.40097752
-1.3087921	g d	-0.41436836
-1.1601379	n d	-0.3040675
-1.2384479	i d	-0.14049496
-1.147938	l d	-0.1135261
-0.71799845	m d	-0.32118115
-1.3453323	v d	-0.35119662
-1.3985726	x d	-0.35119662
-1.2632811	r d	-0.517213
-1.1783597	t d	-0.3040675
-1.2557263	s d	-0.17927435
-1.3430693	q d	-0.1135261
-1.1339666	j d	-0.17927435
-1.5084168	a k	-0.30414027
-1.6325831	f k	-0.1135261
-1.3147141	d k	-0.2963912
-1.378755	k k	-0.41436836
-1.5318043	c k	-0.13435549
-1.2014005	b k	-0.3075618
-1.6658585	e k	-0.17927435
-1.6816236	h k	-0.17927435
-1.3931516	u k	-0.35119662
-1.3403558	n k	-0.1135261
-1.4167421	i k	-0.1135261
-1.3362358	r k	-0.35119662
-1.3309041	t k	-0.35119662
-1.395653	s k	-0.35119662
-1.3986987	q k	-0.35119662
-1.2726555	p k	-0.21034227
-0.91709834	j k	-0.6050975
-1.0058725	a c	-0.5256144
-1.0484967	f c	-0.5039497
-0.89319766	d c	-0.9358052
-1.3431652	k c	-0.35119662
-0.9266295	c c	-1.3280556
-0.8633281	b c	-0.8810141
-1.0909477	e c	-0.7823452
-0.97409815	h c	-0.7018749
-0.72407436	u c	-0.33786714
-1.2071398	g c	-0.17927435
-1.1987149	n c	-0.1135261
-1.2766763	i c	-0.17927435
-0.7911434	l c	-0.30414027
-1.3600007	v c	-0.35119662
-0.9101748	x c	-0.22498329
-0.9809852	r c	-0.1517696
-1.1586528	t c	-0.2567832
-0.87313735	s c	-0.35488144
-1.211812	p c	-0.3564703
-1.142475	j c	-0.23840226
-0.9750213	a b	-1.0615536
-1.0525534	f b	-0.5273351
-1.2315992	d b	-0.58599955
-0.92648774	k b	-0.26739496
-1.0269521	c b	-1.085599
-0.9496694	b b	-0.91392726
-1.0951382	e b	-0.4946033
-1.2505057	h b	-0.37101424
-1.2630094	u b	-0.17927435
-1.3319784	g b	-0.35119662
-1.2089832	n b	-0.1517696
-1.2872021	i b	-0.40097752
-1.1666311	l b	-0.35119662
-1.2920442	v b	-0.35119662
-1.3944438	x b	-0.35572556
-1.4014366	r b	-0.35119662
-1.2560122	s b	-0.7434002
-1.0587811	q b	-0.21034227
-1.3542877	p b	-0.1135261
-1.2872657	a e	-0.65746003
-1.0861533	f e	-0.9083136
-1.0613968	d e	-0.94559944
-1.4057481	k e	-0.35119662
-1.1878366	c e	-0.5955201
-1.0402851	b e	-0.4410709
-0.95584905	e e	-0.9030634
-1.125218	h e	-0.7730936
-1.0238861	u e	-0.70200753
-1.1588157	g e	-0.517213
-0.8394898	n e	-0.29528275
-1.3503073	i e	-0.35119662
-1.1090496	l e	-0.37670496
-1.2027245	m e	-0.35119662
-1.2327424	v e	-0.48023152
-0.98041844	x e	-0.39627412
-1.359319	r e	-0.35119662
-0.82593536	t e	-0.23086886
-1.2212358	s e	-0.21034227
-1.213741	q e	-0.21630192
-0.78485376	p e	-0.21298088
-1.2370027	j e	-0.1135261
-1.1683208	a h	-0.8597929
-0.9614635	f h	-0.79294145
-1.1064066	d h	-0.5234462
-1.3209621	k h	-0.1135261
-1.0530081	c h	-0.7362623
-1.0402851	b h	-0.66632205
-1.0361685	e h	-0.49797922
-0.87834555	h h	-1.1978794
-1.2324104	u h	-0.40097752
-0.6394596	g h	-0.42968875
-1.1509504	n h	-0.35119665
-0.82412475	i h	-0.4144153
-1.1090496	l h	-0.1517696
-1.2553638	v h	-0.17927435
-0.9030199	x h	-0.68513167
-1.0886909	r h	-0.38616273
-1.1403899	t h	-0.3552928
-1.0668886	s h	-0.14049496
-1.2400991	q h	-0.35119665
-1.3160822	p h	-0.35119662
-1.1256217	j h	-0.21630192
-0.22394516	w h	-0.17927435
-1.7548364	a u	-0.21630192
-1.2556334	f u	-0.23906797
-1.8364567	d u	-0.35119662
-1.7566231	c u	-0.1517696
-1.6432248	b u	-0.49402824
-1.7258267	e u	-0.2894922
-1.4659812	h u	-0.17927435
-1.4710352	u u	-0.35119662
-1.3920236	v u	-0.1135261
-1.5192657	r u	-0.35119662
-1.3499616	s u	-0.1517696
-1.4800506	q u	-0.35119662
-1.6029625	a g	-0.24013525
-1.785081	f g	-0.33892667
-1.7706566	d g	-0.31309304
-1.9144807	c g	-0.1135261
-1.7633857	e g	-0.5526711
-1.7901397	h g	-0.59045964
-1.506572	u g	-0.35119662
-0.8727275	g g	-0.62526864
-1.4519714	n g	-0.1135261
-1.5313206	s g	-0.1135261
-1.6766834	a n	-0.17927435
-1.6483626	f n	-0.3040675
-1.7467487	d n	-0.1135261
-1.3912973	k n	-0.21034227
-1.5437962	c n	-0.32423866
-1.6852612	b n	-0.1135261
-1.7574321	e n	-0.1135261
-1.6985694	h n	-0.21034227
-1.3546493	n n	-0.35119662
-1.4313419	i n	-0.1135261
-1.1405886	m n	-0.17927435
-1.4241955	v n	-0.1135261
-1.5594859	x n	-0.35119662
-1.3491122	r n	-0.35119662
-1.3449965	t n	-0.35119662
-1.3063453	j n	-0.35119662
-1.7316175	a i	-0.45922104
-1.5658209	d i	-0.18041033
-1.4780557	c i	-0.39220458
-1.7494341	h i	-0.21630192
-1.4170508	n i	-0.17927435
-1.3690288	i i	-0.17927435
-1.1785313	m i	-0.24013525
-1.62913	x i	-0.1135261
-1.4048127	r i	-0.35119662
-1.3576438	q i	-0.17927435
-1.0762886	p i	-0.2895235
-1.2173055	j i	-0.35119662
-1.7316175	a l	-0.54710555
-1.5658209	d l	-0.20004492
-0.87314606	k l	-0.41443092
-1.7566231	c l	-0.1135261
-1.7672558	b l	-0.35119662
-1.8426687	e l	-0.35119662
-1.7738574	h l	-0.3040675
-1.4952074	i l	-0.35119662
-1.1785313	m l	-0.17927435
-1.4064384	t l	-0.35119662
-1.4880502	s l	-0.35119662
-1.3596051	j l	-0.35119662
-1.7636054	f m	-0.46561477
-1.7752763	d m	-0.17927435
-1.7904243	b m	-0.1135261
-1.771814	e m	-0.17927435
-1.3012506	n m	-0.2895235
-1.5127574	i m	-0.1135261
-0.97967565	l m	-0.44237018
-1.4083886	v m	-0.35119662
-1.6484376	x m	-0.35119662
-1.3713571	q m	-0.1135261
-1.4764663	p m	-0.28942963
-1.3671188	a v	-0.20004492
-1.7179271	f v	-0.35119662
-1.4470569	d v	-0.26907784
-1.4780557	c v	-0.62467295
-1.5505762	e v	-0.17927435
-1.5849816	h v	-0.30912393
-1.4170508	n v	-0.35119665
-1.3690288	i v	-0.17927435
-1.3920236	v v	-0.35119662
-1.62913	x v	-0.35119662
-1.4880502	s v	-0.35119662
-1.4800506	q v	-0.35119662
-1.657204	a x	-0.32606596
-1.6483626	f x	-0.18041033
-1.5154268	d x	-0.47532046
-1.4928638	k x	-0.35119662
-1.2822349	c x	-0.27853283
-1.6042143	b x	-0.35119662
-1.6818184	e x	-0.35119662
-1.6779428	h x	-0.5309072
-1.2959287	u x	-0.35119662
-1.2096312	g x	-0.35119662
-1.1277472	v x	-0.21630192
-1.4480816	r x	-0.35119662
-1.3449965	t x	-0.17927435
-1.4126264	s x	-0.35119662
-1.0796231	q x	-0.21034227
-0.5163865	o x	-0.1135261
-1.7117851	a r	-0.517213
-1.418402	f r	-0.28603163
-1.8122336	d r	-0.35119662
-1.1959686	k r	-0.35119662
-1.5818963	c r	-0.32364294
-1.7452608	b r	-0.35119662
-1.708199	e r	-0.35119665
-1.7304281	h r	-0.39227426
-1.4543011	u r	-0.35119662
-1.3762529	v r	-0.35119665
-1.4979752	x r	-0.35119662
-1.3648423	s r	-0.35119662
-1.101516	q r	-0.517213
-1.5881293	a t	-0.24958237
-1.8538594	f t	-0.35119662
-1.5793893	d t	-0.40097752
-1.5817616	k t	-0.35119662
-1.8868316	c t	-0.35119662
-1.5627624	e t	-0.23086886
-1.4884403	u t	-0.35119662
-1.3367015	m t	-0.35119662
-1.3765548	v t	-0.35119665
-1.2519237	t t	-0.35119665
-1.5091467	s t	-0.35119662
-1.8328682	a s	-0.35119662
-1.7431419	f s	-0.35119662
-1.7541602	d s	-0.21630192
-1.385781	c s	-0.517213
-1.6432248	b s	-0.21630192
-1.8426687	e s	-0.1135261
-1.4659812	h s	-0.24797213
-1.4245338	g s	-0.35119662
-1.4952074	i s	-0.35119662
-1.0282605	r s	-0.40097752
-1.4064384	t s	-0.35119662
-1.3499616	s s	-0.35119665
-1.4371667	a q	-0.21630192
-1.7048985	f q	-0.17927435
-1.7186375	c q	-0.40687808
-1.6105708	b q	-0.24013525
-1.7979627	e q	-0.1135261
-1.5591571	h q	-0.53784645
-1.4621017	i q	-0.35119662
-1.4602419	v q	-0.35119662
-1.5929134	x q	-0.17927435
-1.4822168	r q	-0.35119662
-1.2526857	t q	-0.17927435
-1.4487029	s q	-0.35119662
-1.4265383	p q	-0.1135261
-1.3321593	j q	-0.35119662
-1.6242898	a p	-0.1517696
-1.637238	f p	-0.21034227
-1.3900001	d p	-0.5112784
-1.4618425	k p	-0.1135261
-1.6699771	c p	-0.1135261
-1.649422	b p	-0.1135261
-1.7203634	e p	-0.1135261
-1.6653141	h p	-0.17927435
-1.344053	g p	-0.1135261
-1.2195001	n p	-0.23086886
-1.4026172	i p	-0.1135261
-1.0881827	m p	-0.59045964
-1.3909131	v p	-0.35119662
-1.5284483	x p	-0.35119662
-1.3237302	r p	-0.17927435
-1.3172548	t p	-0.35119662
-1.2617623	p p	-0.7153984
-1.28198	j p	-0.28942963
-1.7999098	a j	-0.1135261
-1.8804504	f j	-0.17927435
-1.797472	d j	-0.2895235
-1.2210253	k j	-0.41446224
-1.7088675	b j	-0.35119665
-1.506572	u j	-0.41436836
-0.8705366	i j	-0.2351221
-1.6686438	x j	-0.1135261
-1.5173994	q j	-0.35119662
-1.4944714	p j	-0.35119662
-1.6348833	u o	-0.1135261
-1.7064352	v o	-0.1135261
-1.5083239	v w	-0.28942963

\3-grams:
-1.3832024	h x </s>
-0.21560305	a a a
-0.70873433	f a a
-0.7550894	d a a
-0.65050447	k a a
-0.816484	c a a
-0.91000015	b a a
-0.7231987	e a a
-1.0482147	h a a
-0.22163735	u a a
-0.2094525	g a a
-0.2094525	i a a
-0.8920691	v a a
-0.2094525	t a a
-0.6061164	s a a
-1.2788478	q a a
-0.792704	p a a
-0.95564777	j a a
-0.740358	a f a
-1.6772609	f f a
-0.46869394	d f a
-0.90657693	c f a
-1.2862371	b f a
-1.3062071	e f a
-0.74033844	h f a
-1.1668869	x f a
-0.69775814	a d a
-1.6048921	f d a
-1.3428009	d d a
-1.1261718	k d a
-1.1561925	c d a
-1.0039579	b d a
-0.89669245	e d a
-1.2473959	h d a
-1.1482598	m d a
-0.85452974	s d a
-0.5179028	q d a
-0.68082196	b k a
-0.74042934	a c a
-0.94502914	f c a
-1.062197	d c a
-0.49935213	k c a
-1.2911996	c c a
-0.96468705	b c a
-0.78798294	e c a
-1.4186327	h c a
-0.67380977	i c a
-1.024345	s c a
-0.4454574	j c a
-0.64484525	a b a
-1.2848145	f b a
-0.4748326	d b a
-0.8993375	k b a
-0.33307093	c b a
-0.8669852	b b a
-0.7762492	e b a
-0.5140604	h b a
-0.6105069	u b a
-0.43345127	x b a
-1.1222457	s b a
-0.47253627	p b a
-1.1396868	a e a
-1.3482502	f e a
-1.5907955	d e a
-0.84041566	c e a
-0.74337703	b e a
-1.6558907	e e a
-1.4865713	h e a
-1.0116256	n e a
-0.26850623	l e a
-0.81119037	s e a
-0.64932096	p e a
-1.0949688	a h a
-0.23869799	f h a
-1.2441541	d h a
-0.6765562	k h a
-0.8120169	c h a
-0.8449009	b h a
-1.0148777	e h a
-1.2201025	h h a
-0.2666538	u h a
-0.42906207	g h a
-0.34532624	i h a
-0.5871427	x h a
-0.39538547	r h a
-0.3573839	t h a
-0.80814075	s h a
-1.1601547	f u a
-0.37245634	b u a
-0.8541914	a g a
-0.99051774	f n a
-0.5512431	i n a
-0.5270149	j i a
-0.8469996	d l a
-0.21569157	e l a
-0.21569157	i l a
-0.6315058	m l a
-0.83067477	a v a
-0.7979287	f v a
-0.8613186	d v a
-0.8283005	e v a
-0.98141277	h v a
-0.8717512	a x a
-1.3778657	d x a
-0.9875343	c x a
-0.5147176	e x a
-0.9315033	f r a
-0.72961116	k r a
-0.58611226	c r a
-0.63341343	e r a
-0.8669245	h r a
-1.113765	d t a
-1.2763702	c s a
-1.1887311	h s a
-1.1006122	r s a
-0.54444236	f q a
-0.47776055	c q a
-0.7459974	b q a
-0.2668484	h q a
-0.20601957	r q a
-0.20601957	s q a
-0.787104	d p a
-0.75111	c p a
-0.48053005	e p a
-0.10968373	m p a
-0.079558656	p p a
-0.6702102	a j a
-0.32266828	d j a
-0.1776954	u j a
-0.48319018	x j a
-0.22557716	<s> a f
-1.2080926	a a f
-0.36953038	f a f
-0.6172139	d a f
-0.7843958	c a f
-1.0588672	b a f
-1.2096944	e a f
-1.0716869	h a f
-0.53801996	l a f
-0.892994	r a f
-0.6474816	s a f
-0.5974324	a f f
-0.23981848	f f f
-0.74726474	d f f
-0.6598035	k f f
-0.41830242	c f f
-0.34709755	b f f
-0.61920506	e f f
-0.64381754	h f f
-0.61506927	u f f
-0.26323852	i f f
-0.8469416	v f f
-0.5402978	x f f
-0.25513244	t f f
-0.61506927	s f f
-0.21138467	q f f
-1.0113641	a d f
-0.6647725	f d f
-1.4129155	d d f
-1.1937745	k d f
-1.8835775	c d f
-1.7197031	e d f
-1.2881725	h d f
-0.87080073	i d f
-0.6279338	j d f
-1.2385309	b k f
-0.73663956	e k f
-1.4220378	a c f
-0.8706646	f c f
-1.2166864	d c f
-1.4101944	c c f
-1.2296182	b c f
-0.9811012	e c f
-1.0189831	h c f
-0.78211176	u c f
-0.98941666	x c f
-0.7990391	r c f
-0.8389356	t c f
-1.0561554	s c f
-1.2445794	f b f
-0.6903612	k b f
-1.2787961	c b f
-1.4430381	b b f
-0.7811386	n b f
-0.8486992	i b f
-0.50615454	l b f
-0.6634065	a e f
-0.88631487	f e f
-0.2667203	d e f
-0.5578072	c e f
-1.2409482	b e f
-1.3724905	e e f
-0.9243236	h e f
-0.11485607	u e f
-1.1280783	v e f
-0.5123355	t e f
-0.44475687	s e f
-0.68832225	q e f
-0.48691422	a h f
-0.8507389	f h f
-1.2745425	d h f
-1.2468046	c h f
-1.417709	b h f
-0.84576535	e h f
-1.3145489	h h f
-0.7970132	u h f
-1.2116596	g h f
-0.6208141	n h f
-1.1195024	i h f
-0.74858046	l h f
-0.8874493	r h f
-0.6208141	q h f
-0.6714067	j h f
-1.1698807	f u f
-0.8879971	h u f
-0.23892504	n n f
-0.2934321	a i f
-0.46210837	l m f
-0.5017164	v m f
-0.22749257	x m f
-0.83334875	f v f
-1.2312301	c v f
-0.50476104	h v f
-0.6561699	n v f
-0.71854824	a x f
-0.7274417	f x f
-0.77906644	c x f
-0.444511	b x f
-0.444511	e x f
-0.444511	u x f
-0.6562175	g x f
-0.60105693	v x f
-0.19613405	s x f
-0.39215136	q x f
-0.9896216	f r f
-0.93315923	c r f
-0.65764505	e r f
-1.0302156	q r f
-0.7792237	d t f
-0.7612582	b s f
-1.2005711	h s f
-0.23661888	i s f
-1.0174061	a q f
-0.48186845	f p f
-0.90673625	c p f
-0.64688283	r p f
-0.3294527	v o f
-1.4258751	a a d
-0.79216903	f a d
-0.42722714	d a d
-0.7319248	k a d
-1.0033034	c a d
-1.228553	b a d
-1.4003814	e a d
-0.782104	h a d
-0.27905923	v a d
-0.8847703	x a d
-0.89141333	r a d
-0.82570946	a f d
-1.0019902	f f d
-0.46537971	d f d
-1.3722715	c f d
-1.2736042	b f d
-1.5513813	e f d
-1.1038363	h f d
-0.8846123	v f d
-0.74752176	r f d
-0.52355725	o f d
-0.8185859	a d d
-0.611186	f d d
-0.21388085	d d d
-0.7795132	k d d
-1.0512483	c d d
-0.98412246	b d d
-1.0018677	e d d
-0.30293304	h d d
-0.38087884	n d d
-0.8529149	i d d
-0.5094876	l d d
-1.1263332	m d d
-0.41770756	d k d
-0.17954628	k k d
-0.8545177	c k d
-0.99068713	b k d
-0.49071592	i k d
-0.1472641	j k d
-1.1247209	a c d
-1.1407796	f c d
-0.9761253	d c d
-0.50468355	k c d
-1.5571352	c c d
-0.34423393	b c d
-1.3720554	e c d
-1.4387138	h c d
-1.0815313	u c d
-0.98711497	x c d
-1.3658841	f b d
-1.2032521	d b d
-1.6446452	b b d
-1.3787731	a e d
-0.35355008	f e d
-0.89295125	d e d
-0.20749396	k e d
-0.94850296	c e d
-1.1662652	b e d
-0.8227222	e e d
-0.56160563	h e d
-0.22026208	g e d
-0.49407282	n e d
-0.20749396	i e d
-0.9842283	l e d
-0.33296943	x e d
-0.78716546	t e d
-0.68923426	q e d
-0.4641359	j e d
-1.7485178	f h d
-1.3765159	d h d
-1.0477256	b h d
-1.240342	e h d
-2.1637046	h h d
-0.6617801	n h d
-0.92165184	i h d
-0.7872971	l h d
-0.6617801	q h d
-1.1086262	f u d
-0.8694569	c u d
-0.8694569	s u d
-0.9737458	g g d
-0.5477813	d n d
-0.51133525	r n d
-0.2325817	t n d
-0.6080001	d i d
-1.3222036	c i d
-0.7176678	q i d
-0.9062384	d l d
-0.759565	h l d
-0.17255235	f m d
-0.29398078	n m d
-0.53356886	l m d
-0.44063878	v m d
-0.4231724	q m d
-1.0456519	d v d
-1.4696982	d x d
-1.0440676	c x d
-0.24108715	a r d
-0.67955506	e r d
-0.94109243	h r d
-1.0872605	d t d
-0.7942819	e t d
-1.2064701	h s d
-0.43417144	r s d
-0.57679284	e q d
-0.63178337	f j d
-1.1214267	i j d
-2.0781488	a a k
-1.9011096	f a k
-1.82817	b a k
-1.0181241	r a k
-2.5382152	f f k
-1.8698261	c f k
-1.9884716	h f k
-1.8646648	a d k
-1.5114086	d d k
-2.0555282	e d k
-0.29147428	u d k
-1.312604	m d k
-1.0754944	r d k
-1.087246	c k k
-0.7422716	h k k
-1.7017138	f c k
-2.0645907	c c k
-1.8648908	h c k
-1.0317621	t c k
-1.4334171	a b k
-1.5761149	d b k
-1.0195662	k b k
-1.9505204	b b k
-1.3199879	e b k
-0.51528955	v b k
-2.106215	d e k
-1.6447749	b e k
-2.507256	h h k
-1.056626	r h k
-1.1805869	f u k
-1.2438464	c n k
-1.4007783	c i k
-1.0791891	a r k
-0.2402688	b r k
-0.24007724	s t k
-1.2714325	h s k
-0.8732864	b q k
-0.8872427	a p k
-0.28914252	j p k
-0.6815062	a j k
-0.8575555	d j k
-0.75776684	i j k
-0.21576805	q j k
-1.4194252	a a c
-1.3120629	f a c
-1.6288767	d a c
-0.9525103	c a c
-1.4980285	b a c
-1.1915746	e a c
-1.7022784	h a c
-1.0030336	u a c
-0.9450417	v a c
-0.92512023	r a c
-0.62480617	p a c
-0.5924352	j a c
-1.0562633	a f c
-1.367131	f f c
-1.5982715	d f c
-0.73547375	k f c
-0.9443727	c f c
-1.2405598	b f c
-1.0479429	e f c
-1.7036654	h f c
-0.6125464	u f c
-0.74842215	r f c
-0.9355329	a d c
-1.1805983	f d c
-0.8933716	d d c
-1.0293401	k d c
-1.0373994	c d c
-0.9258424	b d c
-0.2516848	e d c
-0.76654166	h d c
-0.79127777	u d c
-0.69436777	n d c
-0.8006341	i d c
-0.8473498	m d c
-0.47594494	x d c
-0.96582925	r d c
-0.6234524	j d c
-1.0369458	a k c
-1.2552971	d k c
-0.6338215	a c c
-0.62297404	f c c
-0.6380407	d c c
-0.15035893	c c c
-0.9779498	b c c
-0.77502525	e c c
-0.30558592	h c c
-0.4651228	u c c
-0.68574643	n c c
-0.2166042	v c c
-0.6645992	x c c
-0.7557341	r c c
-0.80140764	t c c
-0.39985743	s c c
-0.928743	p c c
-0.28219163	a b c
-0.51261646	f b c
-0.5052727	d b c
-1.0389954	c b c
-1.1779057	b b c
-0.43553552	e b c
-1.0091777	h b c
-0.55987096	u b c
-0.26257616	i b c
-0.47070676	l b c
-0.21072546	r b c
-0.4244932	q b c
-0.8885214	a e c
-1.3731691	f e c
-0.95569384	d e c
-0.92986065	c e c
-1.1166086	b e c
-0.9853734	e e c
-0.5796415	h e c
-0.24785535	v e c
-0.99660355	p e c
-0.98590773	a h c
-1.6383327	f h c
-0.4763533	d h c
-0.7060989	k h c
-1.2705071	c h c
-0.79501116	b h c
-0.6836165	e h c
-1.1501235	h h c
-1.2570455	g h c
-1.4062047	x h c
-0.8067951	s h c
-0.22052728	p h c
-0.6921995	j h c
-0.5962752	a u c
-0.84089464	f u c
-0.6476145	c u c
-0.9549392	b u c
-0.8296144	e u c
-0.6955048	h u c
-0.42553508	v u c
-0.8937527	a g c
-1.1481451	f g c
-0.7094454	a n c
-0.88272536	k n c
-0.5216787	r i c
-1.1838237	p i c
-0.90269315	a l c
-0.74167293	d l c
-0.6963228	c l c
-0.20300977	b l c
-0.35148185	h l c
-0.9883752	d v c
-1.0103071	a x c
-1.2350619	d x c
-0.87264884	c x c
-1.1355652	h x c
-0.7135049	g x c
-0.72181875	v x c
-0.7752613	q x c
-0.9953673	a r c
-0.93670607	f r c
-0.22106442	d r c
-0.63565993	v r c
-0.48970726	s r c
-0.5053878	a t c
-1.0605055	e t c
-0.66602474	v t c
-0.47245985	f s c
-0.6575291	d s c
-0.7112651	c s c
-0.6575291	b s c
-0.9947204	h s c
-0.61171025	s s c
-1.0367355	d p c
-0.5570374	g p c
-0.71222186	r p c
-0.23272431	k j c
-1.1262167	i j c
-1.1998311	a a b
-1.4273103	f a b
-1.0858834	d a b
-0.6760786	c a b
-1.4838452	b a b
-0.80807626	e a b
-0.38228086	h a b
-0.6508177	n a b
-0.52632904	l a b
-0.5150199	x a b
-0.091020554	q a b
-0.82717156	p a b
-0.58614475	j a b
-1.5797368	a f b
-1.1387756	f f b
-1.5565569	c f b
-0.99883294	b f b
-1.8770442	e f b
-1.3647889	h f b
-0.5871136	m f b
-0.8877653	v f b
-1.1261505	x f b
-0.7493243	r f b
-0.98123467	a d b
-0.7779796	f d b
-1.8712677	d d b
-1.0125321	k d b
-1.3246748	c d b
-0.58701324	b d b
-1.7692947	e d b
-0.4362538	a k b
-0.9956993	b k b
-0.57965744	e k b
-0.48144126	r k b
-0.21659188	s k b
-0.21659188	q k b
-0.9174954	a c b
-0.871474	f c b
-0.6308621	d c b
-1.104586	c c b
-1.3522024	b c b
-0.81834334	e c b
-1.5770537	h c b
-0.6664504	g c b
-0.72727966	n c b
-0.9822846	l c b
-0.9914422	x c b
-0.27119282	p c b
-1.1591535	a b b
-0.55817294	f b b
-1.4050231	d b b
-0.9126417	k b b
-0.61631614	c b b
-0.28632146	b b b
-0.79881585	e b b
-0.8180703	h b b
-0.48506513	v b b
-0.92511714	x b b
-1.5675808	a e b
-0.76209307	b e b
-1.5865568	e e b
-1.7342646	h e b
-1.121682	l e b
-1.1378881	v e b
-1.0826651	x e b
-0.85502195	t e b
-0.7271097	q e b
-1.9334524	a h b
-1.3917018	f h b
-1.436118	d h b
-1.6214273	b h b
-1.5122771	e h b
-2.271527	h h b
-1.147474	g h b
-0.82920873	a u b
-0.23742947	q u b
-1.1938713	f g b
-0.67139435	f n b
-0.55655384	v n b
-0.7695383	h i b
-0.6355405	p i b
-0.91290575	d l b
-0.23292106	t l b
-1.0621434	h v b
-0.23861063	s v b
-0.7106268	a x b
-0.62874544	f x b
-1.4680656	d x b
-1.0085355	c r b
-0.23713337	a s b
-0.37616283	c s b
-0.8276328	b s b
-0.79276156	b q b
-1.1676698	h q b
-0.6150184	t q b
-0.5268345	p q b
-0.9885614	n p b
-1.2006208	a a e
-1.8298999	d a e
-1.4319326	c a e
-1.335241	b a e
-0.60359293	e a e
-1.284336	h a e
-0.9143402	a f e
-1.0043575	f f e
-1.1609521	c f e
-1.2605072	b f e
-0.89532614	e f e
-0.48883116	h f e
-0.22835706	n f e
-0.701223	x f e
-0.35346666	p f e
-1.7181793	a d e
-0.9849023	f d e
-1.4536977	d d e
-0.9456683	k d e
-0.22470061	c d e
-1.6937823	e d e
-1.2654946	h d e
-0.46250847	m d e
-0.3893885	t d e
-0.8724685	s d e
-0.24256893	t k e
-1.303223	a c e
-1.0761428	d c e
-1.683063	c c e
-1.3913038	b c e
-1.2848831	e c e
-1.0468013	h c e
-1.1190858	u c e
-1.0263768	x c e
-1.4229416	f b e
-1.4341452	c b e
-1.003221	b b e
-1.2448187	e b e
-0.8445707	h b e
-0.8061171	n b e
-0.6524703	x b e
-0.8292547	q b e
-0.6237557	a e e
-0.6884973	f e e
-0.94273394	d e e
-0.90295637	c e e
-0.5517272	b e e
-0.3004456	e e e
-0.8862691	h e e
-0.21906544	m e e
-1.0817122	v e e
-1.0228997	x e e
-0.21906544	r e e
-0.8880427	p e e
-0.7778385	a h e
-1.5116767	f h e
-0.6626715	d h e
-0.35971338	c h e
-0.48971328	b h e
-0.7593738	e h e
-1.7396194	h h e
-1.0236943	t h e
-0.9209682	s h e
-0.6130274	f u e
-0.22423878	d u e
-0.6762258	e u e
-0.85600257	h u e
-1.1281649	f g e
-0.8396968	d g e
-0.40957212	h g e
-0.5887578	c n e
-0.46666628	b n e
-0.74191016	h n e
-0.20830311	x n e
-0.466309	r n e
-0.66879743	i i e
-0.18102996	a l e
-0.81937355	k l e
-0.86462474	c l e
-0.64523095	e m e
-0.20892116	c v e
-0.6758953	n v e
-0.6505811	i v e
-1.2835392	d x e
-0.22102049	k x e
-0.94848317	c x e
-0.7104816	h x e
-0.732274	g x e
-0.59502864	t x e
-1.0744593	f r e
-0.8366733	a t e
-0.20687164	k t e
-0.8993609	e t e
-0.20687164	u t e
-0.5997115	v t e
-0.5170725	f s e
-0.8195038	d s e
-1.2254455	h s e
-1.0238458	a q e
-0.23524392	i q e
-0.23524392	v q e
-0.6825144	a p e
-0.58175886	h p e
-0.72383994	n p e
-0.44807097	i p e
-0.20228183	x p e
-0.20228183	t p e
-0.7173791	f j e
-1.0722698	a a h
-1.7461511	f a h
-1.7278436	d a h
-1.39556	c a h
-0.32412526	b a h
-1.2645859	e a h
-0.87365115	h a h
-0.8784096	x a h
-1.1900321	a f h
-1.6306455	f f h
-1.5819217	d f h
-0.98244375	c f h
-1.191367	b f h
-0.46166295	e f h
-1.6182411	h f h
-0.811589	i f h
-0.89373326	m f h
-0.5678579	v f h
-0.72742707	r f h
-0.5897812	s f h
-1.109595	a d h
-1.353458	f d h
-1.9562342	d d h
-1.0113659	b d h
-1.2843804	h d h
-0.1904442	g d h
-1.1664159	m d h
-0.5056529	x d h
-0.23566434	r d h
-1.2907529	d k h
-0.91565424	p k h
-1.4156662	f c h
-0.85390234	d c h
-1.5196456	c c h
-1.0610397	b c h
-0.8954388	e c h
-0.9643248	h c h
-0.9459337	l c h
-0.96585876	x c h
-0.7611651	r c h
-0.84947175	t c h
-1.024345	s c h
-1.2724717	a b h
-0.96853393	f b h
-1.2512332	d b h
-0.9552393	k b h
-1.1014203	c b h
-1.1643612	b b h
-1.1056912	h b h
-0.10485856	s b h
-0.6710166	a e h
-1.4640903	f e h
-1.8269495	d e h
-1.0063189	c e h
-1.3172693	b e h
-1.3304622	e e h
-1.2009706	h e h
-1.0119611	g e h
-0.715441	n e h
-0.9687446	p e h
-0.9378368	a h h
-1.0394884	f h h
-1.2258335	d h h
-0.9430882	c h h
-0.8395635	b h h
-1.1192973	e h h
-0.14602335	h h h
-0.7734271	g h h
-0.8471821	i h h
-0.732095	l h h
-0.6181124	v h h
-0.29206493	x h h
-0.8741696	r h h
-0.96054286	t h h
-0.6129753	q h h
-0.7090026	j h h
-0.8175947	c u h
-0.51807964	e u h
-0.34859312	f g h
-0.39423928	d g h
-0.7057066	e g h
-0.36601526	h g h
-0.57784414	g g h
-0.39079055	n g h
-0.39079055	s g h
-0.98133314	f n h
-0.6352656	m n h
-0.23209326	j n h
-0.8817394	a i h
-0.7833486	d i h
-0.34355003	c i h
-0.63874847	h i h
-0.5465764	q i h
-0.93811923	p i h
-0.9400471	d l h
-1.1655998	k l h
-0.22973764	j l h
-0.9966903	a v h
-0.8675759	f v h
-0.78714454	a x h
-0.8290205	f x h
-0.26733077	d x h
-0.8691783	c x h
-0.33026916	h x h
-0.7114665	g x h
-0.6269199	t x h
-0.75707716	k r h
-0.92842436	c r h
-0.35365647	h r h
-0.6552822	v r h
-1.0368812	a t h
-0.42632902	d t h
-1.0921975	e t h
-1.2167073	c s h
-0.5286553	e s h
-0.887696	h s h
-0.22714135	g s h
-1.0340006	a q h
-1.2267116	h q h
-0.23953268	v p h
-0.83026886	i j h
-0.23069501	p j h
-0.10067091	v w h
-1.8892882	b a u
-2.2451215	h a u
-1.8750799	a f u
-1.960338	f f u
-1.6737237	c f u
-2.0039914	e f u
-1.4218807	h f u
-0.95579714	m f u
-1.2170639	x f u
-1.4883506	k d u
-1.8435882	f c u
-2.748284	c c u
-1.9473107	h c u
-1.3236529	a b u
-2.1998832	b b u
-1.3072602	h b u
-2.1790364	f e u
-1.7395164	e e u
-1.7282603	h e u
-1.522132	d h u
-1.8545213	c h u
-1.6241233	e h u
-2.363897	h h u
-1.043496	s h u
-0.79811335	a u u
-0.9235078	e v u
-1.0887564	h v u
-1.1050609	q r u
-1.2514497	h s u
-0.7859944	r s u
-0.6887804	s s u
-1.0484726	a q u
-1.9881009	f a g
-1.690578	e a g
-1.1140686	u a g
-1.0331678	r a g
-2.2661574	f f g
-1.1756158	e f g
-2.3909788	d d g
-1.5266011	k d g
-2.1542947	c d g
-2.814017	c c g
-2.134402	d e g
-1.3582382	e e g
-2.1078074	h e g
-1.131186	a h g
-2.0122788	f h g
-1.7435882	e h g
-0.94677615	h u g
-1.0140605	f g g
-0.7542435	d g g
-0.4772355	c g g
-0.204282	e g g
-0.32558447	g g g
-0.7526938	m n g
-1.374875	h s g
-1.9674461	f a n
-2.0369515	c a n
-1.8313783	f f n
-1.8189892	d f n
-1.4658216	b f n
-2.3794348	d d n
-0.58285505	n k n
-0.4990737	p k n
-2.195083	d c n
-1.4456079	b c n
-1.6557486	e c n
-1.1306537	j c n
-2.2178497	b b n
-2.2879066	e e n
-1.8506339	b h n
-1.3947024	e h n
-0.6693932	a n n
-0.74990827	n i n
-0.5440386	b m n
-1.1161268	l m n
-1.0482835	a v n
-1.0765556	c x n
-1.0716941	f r n
-0.99798435	c r n
-0.6882953	t t n
-0.6843439	b j n
-2.4800148	a a i
-1.7370288	e a i
-0.9270657	p a i
-2.0385747	a d i
-1.9228119	f d i
-1.7845749	c d i
-1.3587261	m d i
-1.7099559	a c i
-2.1597004	d c i
-2.3357463	c c i
-0.9277421	e c i
-0.9553082	t c i
-2.0009627	f h i
-2.0151184	c h i
-0.7063448	w h i
-0.5010527	h n i
-0.7407709	i i i
-0.52824277	r i i
-0.55118	i m i
-0.28357217	p m i
-1.6037737	d x i
-0.8063891	k r i
-0.53045607	x r i
-0.73897773	f q i
-0.527502	j q i
-0.76940465	a p i
-0.8425509	f p i
-0.5245932	d p i
-0.8499514	c p i
-0.6739576	b j i
-1.1255534	i j i
-1.7898891	e a l
-0.7052562	n a l
-0.9270657	p a l
-1.995896	a d l
-1.9642098	f d l
-2.0062501	d d l
-2.1534238	e d l
-0.66128194	f k l
-1.0234542	d k l
-0.82563406	c k l
-0.7490367	b k l
-0.21168885	u k l
-0.4724614	r k l
-0.9889988	j k l
-1.8435882	f c l
-2.2507937	b c l
-1.1699078	j c l
-2.2144694	c b l
-1.2342741	u e l
-1.8329086	a h l
-1.9669197	c h l
-0.6861146	n i l
-0.6406936	d m l
-0.9558009	n m l
-0.6939582	t t l
-1.1651604	r s l
-0.68970835	b j l
-1.6161336	a f m
-1.9421475	f f m
-2.3931718	d d m
-1.4717394	k d m
-0.9853299	n b m
-1.7865514	c e m
-2.2939472	e e m
-0.6718831	c n m
-0.57104146	e n m
-1.4358087	c i m
-0.30512804	k l m
-0.80309844	c l m
-0.5948261	m l m
-0.22096287	s l m
-0.98356605	a v m
-0.9271368	e v m
-0.24829462	r x m
-1.0215408	a q m
-1.1063514	c q m
-0.5802908	n p m
-1.8330842	f a v
-1.828698	d a v
-1.8368046	c a v
-2.0223846	b a v
-1.5815573	e a v
-0.989993	r a v
-2.581113	f f v
-1.4807395	b f v
-2.0711293	h f v
-1.9383286	a d v
-2.2072048	d d v
-1.038237	i d v
-0.5328575	v d v
-0.9352972	s d v
-1.0862573	a c v
-1.2386806	f c v
-2.1597004	d c v
-2.564971	c c v
-2.1143956	b c v
-1.7604723	d e v
-2.148972	e e v
-1.9728361	h e v
-1.1566722	n e v
-1.796999	a h v
-1.9469894	f h v
-1.0246853	g h v
-0.70678884	n h v
-0.6958762	f n v
-1.0271353	d i v
-0.8680496	m i v
-0.9954938	d v v
-0.6926943	n v v
-1.35766	h x v
-1.3082775	h s v
-1.2818836	h q v
-1.376981	c a x
-1.3097306	b a x
-1.7112352	e a x
-1.5813246	c f x
-2.2348325	e f x
-1.3950933	x f x
-1.0012909	a d x
-1.9376268	f d x
-2.2508771	d d x
-1.1126077	e d x
-1.2329128	b k x
-1.566741	a c x
-2.0110035	d c x
-2.4421074	c c x
-1.9643189	b c x
-1.2053657	u c x
-0.65875965	g c x
-0.65875965	i c x
-1.4474266	e b x
-0.24747007	g b x
-2.1105704	f e x
-1.1286776	p e x
-2.119264	a h x
-1.0262953	d h x
-1.4653784	h h x
-0.23876299	u u x
-0.83392835	s u x
-0.8344307	a g x
-1.1960871	f g x
-0.23505068	u g x
-0.89882815	a v x
-0.9232736	d v x
-1.241888	c v x
-0.23081532	q v x
-0.5329131	x r x
-0.8292384	e t x
-1.2785556	h s x
-0.799153	b q x
-0.61989325	x q x
-0.6810044	t q x
-0.50257796	j q x
-0.33301437	u o x
-1.3823605	c a r
-0.7133223	s a r
-1.315979	j a r
-1.5623279	a f r
-1.8041561	c f r
-0.9962364	m f r
-1.2736113	x f r
-0.9670256	p f r
-2.2461472	e d r
-1.188396	d k r
-0.96515197	c k r
-1.1306269	b k r
-0.64398456	h k r
-2.2144537	d c r
-2.3681982	c c r
-2.1287923	b c r
-1.885616	h c r
-1.7391009	f b r
-2.1191382	f e r
-1.7689264	c e r
-1.1233829	g e r
-2.1385477	a h r
-1.4251287	c h r
-1.1559894	t h r
-1.2012324	f u r
-0.980867	e v r
-0.24163625	x v r
-0.5354731	b x r
-0.5354731	u x r
-0.78285885	d s r
-0.6902045	s s r
-0.93024945	a q r
-0.51672167	c q r
-1.1830983	h q r
-0.6866843	x q r
-2.41202	a a t
-1.9673178	d a t
-1.9524275	c a t
-1.6738564	b a t
-2.5904639	f f t
-1.2291223	a d t
-1.9290872	f d t
-0.5390933	v d t
-0.8189732	t d t
-1.0844798	a k t
-1.2133459	s c t
-1.3462412	f e t
-2.1549714	e e t
-1.511753	h e t
-1.2118149	x e t
-0.24487862	r u t
-1.1736362	l m t
-0.88730586	f v t
-0.99210614	d v t
-1.3046745	c v t
-0.23695816	f t t
-0.67822033	v t t
-0.67822033	t t t
-1.3558551	c s t
-2.0482922	c a s
-1.9121298	c f s
-2.0256114	h f s
-2.0506713	f d s
-2.2789218	e d s
-1.0739977	a c s
-1.6627847	f c s
-2.1500974	c c s
-2.0594897	b c s
-1.8341029	h c s
-1.0470175	l c s
-2.2828884	a b s
-1.7393993	d b s
-1.4558333	e b s
-1.3224658	x e s
-1.2650067	c h s
-1.1671052	e h s
-1.7095174	h h s
-0.6830204	v h s
-1.6688116	x h s
-0.8776113	a g s
-0.88839376	m i s
-0.9581638	f r s
-0.22454643	u r s
-0.6447639	v r s
-0.49619323	s r s
-0.23217402	q r s
-0.24259003	c t s
-1.3166218	c s s
-1.2514497	h s s
-0.2407516	t s s
-2.3277636	a a q
-1.8682405	f a q
-1.635912	c a q
-2.0343733	b a q
-1.6172585	e a q
-1.9472902	c f q
-0.99818236	p f q
-1.2733881	f c q
-2.186857	b c q
-0.49905956	l c q
-1.4112738	d b q
-1.1257465	k b q
-2.1393883	b b q
-2.3046339	e e q
-1.3808798	a h q
-2.4510195	h h q
-1.2898495	x h q
-0.7654421	w h q
-0.8835277	m i q
-0.5335629	v v q
-1.2034417	d x q
-1.1042061	f r q
-1.0831472	a t q
-1.1020689	e t q
-1.2931623	h s q
-0.58692527	k p q
-1.122461	k j q
-2.3873534	a a p
-1.9972155	f a p
-2.1731803	b a p
-2.1218932	a f p
-2.232559	f f p
-1.4615179	d d p
-1.0612043	k d p
-1.5672342	c d p
-1.6576822	e d p
-0.9230517	s d p
-1.3515311	d k p
-2.211145	c c p
-1.9695072	h c p
-2.285224	a b p
-1.8287657	c e p
-1.9750679	f h p
-1.6216142	g h p
-1.546276	g g p
-0.48274368	k n p
-0.8512303	c n p
-0.94014937	m i p
-1.1020641	f m p
-0.68325037	d m p
-0.68325037	e m p
-1.3075243	c v p
-0.80511004	v x p
-1.1210287	f r p
-0.7964917	k r p
-0.23957643	m t p
-0.6200899	d p p
-0.5651574	b p p
-0.8708126	i j p
-2.5082707	a a j
-2.3155434	h a j
-1.8294243	a f j
-1.5011812	f d j
-2.4035366	d d j
-1.0587376	a k j
-0.7923635	f k j
-1.2407702	d k j
-1.0211985	c k j
-1.7824109	f b j
-1.7595832	d b j
-0.6315877	b u j
-0.89955914	a i j
-0.73506397	c i j
-0.7057723	h i j
-0.4765557	x i j
-0.5620545	p i j
-0.47199824	j i j
-0.6081074	o x j
-1.2885063	h q j
-0.686039	h p j
-0.965149	s u o
-0.77894163	i v o
-0.9040354	f v w
-1.1144071	h v w
-0.53597	v v w

\end\
