\data\
ngram 1=29
ngram 2=347
ngram 3=1493

\1-grams:
-2.4251947	<unk>	0
0	<s>	-0.39995527
-2.2841961	</s>	0
-1.2898223	u	-0.3678142
-1.3699629	n	-0.39240828
-1.2221916	i	-0.47906837
-1.5956706	v	-0.38575497
-1.2221916	e	-0.60007197
-1.2660891	r	-0.42777777
-1.2898223	s	-0.45862603
-1.1823267	a	-0.58534926
-1.3149278	l	-0.38797253
-1.4683161	d	-0.38582915
-1.4329983	c	-0.37131873
-1.2660891	t	-0.5159487
-1.243586	o	-0.48048887
-1.400338	f	-0.44880798
-1.3699629	h	-0.5301784
-1.3415742	m	-0.44157183
-1.5067621	g	-0.31065148
-1.3415742	p	-0.491575
-1.3699629	b	-0.41502702
-1.5489452	w	-0.38705388
-1.5067621	y	-0.2424422
-2.2841961	q	-0.39995527
-1.8587652	j	-0.23117015
-1.8587652	k	-0.3191677
-2.2841961	z	-0.39995527
-2.2841961	x	-0.39995527

\2-grams:
-2.3461409	e </s>	0
-0.20601441	<s> u	-0.2740422
-1.5021076	n u	-0.2740422
-1.7502421	e u	-0.42456573
-1.3046433	r u	-0.26781875
-1.1838018	s u	-0.28396583
-1.4843892	l u	-0.28921154
-1.4445331	d u	-0.2740422
-1.4497881	c u	-0.25864765
-1.3780115	t u	-0.27536136
-1.128303	o u	-0.4205206
-1.0202036	f u	-0.49217308
-0.9418806	h u	-0.8638984
-1.5176667	m u	-0.2740422
-1.2842767	g u	-0.25864765
-1.0208248	p u	-0.2802573
-1.4205709	b u	-0.25864765
-0.20601441	q u	-0.7255957
-0.69436795	j u	-0.26371878
-0.7166628	u n	-0.69764817
-1.4099244	n n	-0.2616832
-0.7804427	i n	-0.6311111
-1.1017215	e n	-0.7952381
-1.6006633	r n	-0.35359302
-1.6331925	s n	-0.28130192
-0.843904	a n	-0.80543095
-1.5899763	l n	-0.2740422
-1.4764012	d n	-0.2827685
-1.6689023	t n	-0.2740422
-0.955549	o n	-0.81008005
-1.5648799	m n	-0.2740422
-1.3047283	g n	-0.5361262
-1.4173539	w n	-0.2740422
-1.3439649	y n	-0.29962704
-1.3593261	u i	-0.26371878
-1.0925881	n i	-0.50189966
-0.64026093	v i	-0.26781875
-1.3351029	e i	-0.50581455
-0.82810104	r i	-0.69147074
-1.2313855	s i	-0.28130192
-1.6431563	a i	-0.38940176
-0.9262435	l i	-0.44929737
-0.75100267	d i	-0.6075863
-1.3463776	c i	-0.50394154
-1.0439028	t i	-0.9554795
-1.401138	f i	-0.2740422
-0.65973336	h i	-0.64830035
-1.011552	m i	-0.5011196
-1.3176076	g i	-0.4691794
-1.4331962	p i	-0.3619497
-1.3087728	b i	-0.4691794
-0.80218697	w i	-0.8049715
-1.1158936	y i	-0.48688847
-0.79585874	k i	-0.25864765
-0.64880824	x i	-0.2740422
-1.7625424	n v	-0.2740422
-1.3205106	i v	-0.6492787
-1.665858	e v	-1.1447251
-1.7992294	r v	-0.29308814
-1.8319365	s v	-0.2740422
-1.8614414	a v	-0.7702094
-1.7298254	l v	-0.25864765
-1.6816874	d v	-0.2740422
-1.5746808	o v	-0.42456573
-1.3593261	u e	-0.2740422
-1.2399979	n e	-0.4844323
-1.1580986	i e	-0.33337045
-0.5223323	v e	-0.63507843
-1.2878026	e e	-0.67995965
-0.7980643	r e	-0.69196576
-1.009162	s e	-0.41209376
-0.9262435	l e	-0.610177
-0.79540133	d e	-0.39714217
-1.0433656	c e	-0.37815624
-0.9636354	t e	-0.5806612
-1.5895541	o e	-0.29308814
-1.0064294	f e	-0.342887
-0.8623995	h e	-0.6094884
-0.6296164	m e	-0.5602783
-0.8240694	g e	-0.30795556
-0.6986522	p e	-0.5136818
-0.5353008	b e	-0.3650079
-1.2656407	w e	-0.2740422
-0.80805147	j e	-0.29962704
-0.79585874	k e	-0.2740422
-0.8596978	u r	-0.3129238
-1.5383257	n r	-0.60065705
-1.3263723	i r	-0.26713273
-1.1800864	e r	-0.76522464
-1.5318694	r r	-0.45078042
-1.5550699	s r	-0.40502292
-0.88746643	a r	-0.65770876
-1.4588556	l r	-0.2827685
-1.4859133	d r	-0.38999814
-1.1849635	c r	-0.4691794
-1.0998845	t r	-0.46645904
-0.872254	o r	-0.4465414
-0.706682	f r	-0.8125082
-1.5486984	h r	-0.2740422
-1.0724971	g r	-0.28130192
-0.6601587	p r	-0.7593976
-1.4080758	b r	-0.2740422
-1.2849202	y r	-0.2740422
-0.9509175	k r	-0.2740422
-1.2330848	u s	-0.26884982
-1.5021076	n s	-0.44293022
-1.0603516	i s	-0.42786652
-1.0899634	e s	-0.5473809
-1.5480734	r s	-0.5140527
-1.2542261	s s	-0.4279304
-1.1033088	a s	-0.52240306
-1.4738461	l s	-0.26371878
-1.4324484	d s	-0.2616832
-1.4853998	t s	-0.37366042
-1.5951381	o s	-0.5361262
-1.5186789	f s	-0.29308814
-1.5619599	h s	-0.2740422
-1.2593864	m s	-0.26627672
-1.357542	g s	-0.2740422
-1.4205709	b s	-0.29962704
-1.3661574	y s	-0.2740422
-0.95631135	k s	-0.2740422
-1.3464262	u a	-0.6316342
-0.8499357	n a	-0.8033372
-1.3894777	i a	-0.41094297
-1.0330921	v a	-0.28921154
-1.0710477	e a	-0.5743057
-0.9659405	r a	-0.5433098
-1.0003593	s a	-0.55551314
-1.6558241	a a	-0.2740422
-0.8289564	l a	-0.5191488
-1.0288094	d a	-0.3672095
-1.3233639	c a	-0.28664625
-1.2561387	t a	-0.6223046
-1.5585129	o a	-0.27886847
-0.9974835	f a	-0.4195779
-0.797549	h a	-0.65851724
-0.80056363	m a	-0.6236979
-0.9153764	g a	-0.3724366
-1.3985974	p a	-0.26371878
-1.2896034	b a	-0.26371878
-0.90109867	w a	-0.28487933
-0.9019414	y a	-0.6755049
-0.929988	k a	-0.2740422
-0.20202884	z a	-0.2740422
-1.2423607	u l	-0.33062807
-1.5185262	n l	-0.2740422
-1.3443505	i l	-0.43515927
-1.2678446	e l	-0.4792103
-1.5550423	r l	-0.26371878
-1.5875074	s l	-0.29962704
-0.95305806	a l	-0.6575303
-1.5003041	l l	-0.47954318
-1.4466108	d l	-0.2740422
-1.201575	c l	-0.8367462
-1.6346871	t l	-0.5361262
-1.268732	o l	-0.3306042
-1.5336337	f l	-0.2740422
-1.1308813	p l	-0.64527065
-1.1250172	b l	-0.34016648
-1.3255519	y l	-0.2740422
-0.65777934	x l	-0.2740422
-1.4867887	u d	-0.29308814
-1.3275635	n d	-0.6649126
-1.6975938	i d	-0.26627672
-1.1449163	e d	-0.62174857
-1.648252	r d	-0.27886847
-1.6932884	s d	-0.42456573
-1.6137221	a d	-0.26781875
-1.2749022	l d	-0.26713273
-1.7385261	t d	-0.26371878
-1.6933825	o d	-0.2740422
-1.6513561	h d	-0.25864765
-1.394196	y d	-0.25864765
-1.470633	u c	-0.29308814
-1.4368007	n c	-0.60402167
-1.5055132	i c	-0.68431437
-1.209619	e c	-0.6292244
-1.6279408	r c	-0.25864765
-1.5076629	s c	-0.3453845
-1.0787315	a c	-0.4205206
-1.5577059	l c	-0.2740422
-1.5925533	d c	-0.25864765
-1.532087	c c	-0.25864765
-1.7060453	t c	-0.25864765
-1.5165612	o c	-0.46724692
-1.4585217	y c	-0.2740422
-1.1006668	u t	-0.37808037
-1.1053236	n t	-0.70144117
-0.9259357	i t	-0.5855742
-1.1800864	e t	-0.42574352
-1.2953182	r t	-0.6928825
-1.0181466	s t	-0.75812703
-0.9163349	a t	-0.86507756
-1.3218617	l t	-0.28196794
-1.4187334	d t	-0.901687
-1.1849635	c t	-0.5035975
-1.0998845	t t	-0.6492787
-1.1832913	o t	-0.6443577
-1.5042219	f t	-0.9463007
-1.4592099	h t	-0.75842315
-1.5030046	m t	-0.25864765
-1.3438184	g t	-0.3482487
-1.5264486	p t	-0.2740422
-1.3667408	w t	-0.2740422
-1.1350124	y t	-0.3538704
-0.94113266	n o	-0.6571005
-1.2341359	i o	-1.4350568
-1.177392	v o	-0.2740422
-1.2507147	e o	-0.41411012
-1.0775183	r o	-0.49009806
-1.0136311	s o	-0.6470196
-1.4542089	l o	-0.4295603
-1.2553718	d o	-0.6425503
-0.6465934	c o	-0.5712387
-0.93170404	t o	-0.49947062
-1.4304862	o o	-0.5876763
-0.9299431	f o	-0.7072706
-1.1237636	h o	-0.41268554
-1.1150646	m o	-0.45758903
-1.2470088	g o	-0.2740422
-1.0124391	p o	-0.27536136
-1.3959303	b o	-0.26371878
-1.2752086	w o	-0.3619497
-1.2823118	y o	-0.6755049
-0.81280166	j o	-0.25864765
-1.5830956	n f	-0.26781875
-1.6463503	i f	-0.29308814
-1.4456122	e f	-0.3459896
-1.6197103	r f	-0.2802573
-1.6523151	s f	-0.26627672
-1.7569191	a f	-0.26371878
-1.5395885	l f	-0.2740422
-1.572861	d f	-0.42456573
-1.5347644	t f	-0.52147573
-1.0447149	o f	-0.5855742
-1.5037184	f f	-0.43139082
-1.4893649	m f	-0.26371878
-1.417233	g f	-0.2740422
-1.3735781	y f	-0.2740422
-1.5533519	n h	-0.2740422
-1.5862461	e h	-0.60498774
-1.5899638	r h	-0.2740422
-1.1409206	s h	-0.7324208
-1.7931955	a h	-0.2740422
-1.5221965	l h	-0.25864765
-1.4764012	d h	-0.2740422
-0.9752244	c h	-0.4761766
-0.88277507	t h	-1.1324228
-1.6360391	o h	-0.26627672
-1.565183	f h	-0.29962704
-1.503953	h h	-0.2740422
-1.321132	g h	-1.0766968
-0.5950817	w h	-0.697567
-1.4191895	y h	-0.2740422
-1.4390337	u m	-0.70418483
-1.53559	n m	-0.2740422
-1.1890616	i m	-0.44435582
-1.3194156	e m	-0.4446952
-1.5824165	r m	-0.26884982
-1.6626978	s m	-0.2740422
-1.5633206	a m	-0.3744749
-1.5704921	l m	-0.2740422
-1.6514578	t m	-0.2740422
-1.2764866	o m	-0.46518123
-1.4611763	f m	-0.2616832
-1.589763	h m	-0.2740422
-1.5485651	m m	-0.28130192
-1.3863628	g m	-0.2740422
-1.5691688	p m	-0.2740422
-1.4007831	y m	-0.2740422
-1.599475	u g	-0.25864765
-1.6456355	n g	-0.39112782
-1.4032345	i g	-0.9502121
-1.9067979	e g	-0.26371878
-1.6695597	r g	-0.29308814
-1.7025139	s g	-0.2740422
-1.2447182	a g	-0.5628685
-1.6780422	l g	-0.2740422
-1.5429163	d g	-0.25864765
-1.7143126	o g	-0.2827685
-1.6361204	f g	-0.2740422
-1.4254863	u p	-0.2740422
-1.286453	n p	-0.2755266
-1.6110328	i p	-0.2740422
-1.4952571	e p	-0.49875912
-1.5824165	r p	-0.2740422
-1.270149	s p	-0.28196794
-1.5633206	a p	-0.36839277
-1.5168245	l p	-0.38999814
-1.5359683	d p	-0.2740422
-1.2026567	o p	-0.40502292
-1.549122	f p	-0.26371878
-1.4770496	m p	-0.3266791
-1.3863628	g p	-0.2740422
-1.4757947	p p	-0.2740422
-1.3409779	y p	-0.26371878
-0.66005135	x p	-0.2740422
-1.44002	u b	-0.29962704
-1.5641018	n b	-0.36839277
-1.63955	i b	-0.26627672
-1.6859653	e b	-0.28664625
-1.5899638	r b	-0.33824924
-1.6225646	s b	-0.25864765
-1.7272195	a b	-0.25864765
-1.5221965	l b	-0.8638984
-1.4897931	d b	-0.2827685
-1.6689023	t b	-0.25864765
-1.6360391	o b	-0.29587847
-1.565183	f b	-0.2740422
-1.4908476	m b	-0.29587847
-1.4015236	g b	-0.2740422
-1.3569721	y b	-0.26627672
-1.6550269	n w	-0.2827685
-1.6515342	e w	-0.28732476
-1.421746	s w	-0.36839277
-1.8239998	a w	-0.4627375
-1.5776054	d w	-0.29308814
-1.7824647	t w	-0.26627672
-1.4273151	o w	-0.26884982
-1.6571476	m w	-0.2740422
-1.4902425	w w	-0.2740422
-1.4471879	y w	-0.26371878
-1.6326984	n y	-0.26627672
-1.9577945	e y	-0.25864765
-1.37621	r y	-0.63754463
-1.7765017	s y	-0.2740422
-1.8825856	a y	-0.2740422
-1.182967	l y	-0.2750312
-1.6348376	d y	-0.2740422
-1.5699346	c y	-0.2740422
-1.3477213	t y	-0.47655195
-1.7905275	o y	-0.2740422
-0.7979316	b y	-0.34281504
-1.9508214	e q	-0.7255957
-1.8994049	n j	-0.25864765
-1.9365811	r j	-0.2740422
-1.8566617	l j	-0.2740422
-1.7744582	m j	-0.2740422
-1.6277959	b j	-0.29962704
-1.8994049	n k	-0.2740422
-2.1753533	e k	-0.2740422
-1.7085035	c k	-0.25864765
-1.9796699	o k	-0.2740422
-1.5405604	y k	-0.2740422
-2.1042387	i z	-0.2740422
-2.230635	e x	-0.2740422

\3-grams:
-1.9477488	l e </s>
-1.9443864	e n u
-2.0661578	o n u
-1.5945116	c e u
-1.7396468	h e u
-1.1034781	i r u
-1.9002143	e r u
-1.023081	c r u
-1.3671759	t r u
-1.5883409	o r u
-1.4453143	i s u
-1.0050642	e s u
-1.5283295	a s u
-0.8879287	d s u
-1.2915717	t s u
-1.0659723	o s u
-0.57054174	k s u
-1.2756886	c l u
-1.237686	o l u
-0.7608957	y l u
-1.8850497	n d u
-0.8650329	i d u
-1.628143	e d u
-1.1407735	e c u
-1.8149579	n t u
-1.4511781	i t u
-1.4630601	e t u
-1.7009913	r t u
-1.5138144	a t u
-1.5601596	n o u
-1.2502127	e o u
-1.1499659	r o u
-1.2300738	l o u
-0.7946684	c o u
-1.1506075	f o u
-0.4032734	h o u
-1.0387216	p o u
-0.63635355	n f u
-0.8649305	e f u
-0.7729124	s f u
-0.65207595	d f u
-1.4886769	o f u
-1.1085092	f f u
-0.7500434	n h u
-1.147975	e h u
-0.6639298	r h u
-0.29093003	l h u
-1.915735	t h u
-0.51351905	f h u
-0.7500434	h h u
-1.02744	m m u
-1.372784	n g u
-0.9734472	e g u
-0.5968462	d g u
-0.54563344	u p u
-0.96243614	n p u
-1.0964268	e p u
-0.7754657	r p u
-0.925176	a p u
-0.6846685	d p u
-0.6109425	i b u
-0.03200846	e q u
-0.23996347	r j u
-0.23996347	l j u
-0.23996347	m j u
-0.24404383	<s> u n
-0.47348624	n u n
-0.15737486	e u n
-0.548005	r u n
-0.7578408	s u n
-0.8129105	t u n
-0.4912087	o u n
-0.4207132	f u n
-0.24404383	m u n
-0.64030755	p u n
-0.25602412	b u n
-1.8335952	i n n
-1.9010596	e n n
-1.9819992	a n n
-1.8811246	o n n
-0.6085136	u i n
-0.95977724	n i n
-0.32194862	e i n
-0.9498618	r i n
-0.6750127	s i n
-0.3410522	a i n
-0.9820194	l i n
-0.32666194	d i n
-1.1682935	t i n
-0.49189985	f i n
-0.7992817	h i n
-0.40259123	m i n
-0.8720092	g i n
-0.31166625	p i n
-1.2078013	w i n
-0.2104704	y i n
-0.26749566	k i n
-0.636585	i e n
-1.5576699	v e n
-0.8104357	e e n
-1.2274513	r e n
-0.76673484	s e n
-1.0204751	l e n
-0.89010763	d e n
-0.8891087	c e n
-1.2899517	t e n
-0.8033397	o e n
-0.5703538	f e n
-1.5566697	h e n
-0.32972413	m e n
-0.8582058	g e n
-0.6701317	p e n
-1.3407874	u r n
-1.4596837	e r n
-1.7685801	o r n
-1.3452902	i s n
-1.6454146	e s n
-1.5876697	r s n
-0.814672	n a n
-0.4287217	v a n
-0.66724205	e a n
-0.61265725	r a n
-0.422029	s a n
-0.26427275	a a n
-0.78294724	l a n
-0.9819687	d a n
-0.42794913	t a n
-0.6170785	o a n
-0.45076162	f a n
-1.0000901	h a n
-0.25593936	m a n
-0.8224206	g a n
-0.6307249	p a n
-0.807073	w a n
-0.3355101	y a n
-0.26427275	k a n
-1.6267983	l l n
-0.8694379	i d n
-1.3048427	e d n
-1.9489768	n t n
-1.9006655	s t n
-1.3394512	n o n
-0.020131236	i o n
-0.8839197	e o n
-1.2970357	r o n
-0.7813488	s o n
-0.68289304	l o n
-0.57847095	c o n
-0.18493891	o o n
-1.1306043	h o n
-0.5899468	m o n
-0.80001944	p o n
-0.1959961	y o n
-1.6710136	o m n
-1.2146168	i g n
-0.4882746	o g n
-0.7690956	o w n
-0.58826184	a y n
-1.25249	t y n
-0.5896735	n u i
-0.60472053	g u i
-0.4953832	u n i
-1.4354243	i n i
-1.6007524	e n i
-0.98866737	r n i
-1.5769056	a n i
-1.789789	o n i
-0.17673743	g n i
-0.44881165	n v i
-1.0717831	i v i
-0.6315772	r v i
-0.22932667	s v i
-1.1086985	a v i
-1.3814436	n e i
-1.5427158	v e i
-1.8189335	r e i
-1.2686406	c e i
-1.2824451	f e i
-1.2758673	h e i
-1.5311193	m e i
-0.91099286	b e i
-0.6011965	u r i
-0.10432834	n r i
-0.87843	i r i
-0.7098966	e r i
-0.39563274	r r i
-0.4740476	s r i
-1.1447247	a r i
-0.42423645	l r i
-0.8121721	d r i
-0.19862515	c r i
-0.61096644	t r i
-0.9454126	o r i
-1.3642958	f r i
-0.83453393	p r i
-1.4771831	i s i
-1.6020738	e s i
-0.79444015	s s i
-1.1504788	a s i
-1.3167199	t s i
-1.0443777	m s i
-1.5067067	l a i
-1.1643876	f a i
-0.44470966	g a i
-0.46507066	e l i
-0.65648866	r l i
-0.85591257	a l i
-1.264571	l l i
-0.5494647	o l i
-0.5272056	f l i
-1.103389	p l i
-0.47966397	b l i
-0.6594857	y l i
-0.6833339	u d i
-0.80603766	n d i
-0.82205683	e d i
-0.83759445	r d i
-0.4217732	s d i
-0.72274053	a d i
-0.7085616	l d i
-0.40249068	t d i
-0.48363912	o d i
-0.262372	h d i
-0.49190807	y d i
-1.3521256	n c i
-0.7699361	s c i
-0.319394	o c i
-0.44905502	u t i
-0.7967139	n t i
-0.8862293	i t i
-1.1560721	e t i
-0.265517	r t i
-0.99744904	s t i
-0.16288479	a t i
-0.35538518	c t i
-1.4065249	o t i
-1.3904635	h t i
-1.3265435	e f i
-1.2422584	f f i
-0.63179004	n h i
-0.90115774	e h i
-0.564707	r h i
-1.2089651	s h i
-0.45538074	d h i
-0.60574734	c h i
-0.9691206	t h i
-0.46477333	o h i
-0.44490498	f h i
-0.63179004	h h i
-1.5087178	g h i
-0.55762446	w h i
-0.54396695	n m i
-0.52371585	i m i
-0.6946186	r m i
-0.5719561	a m i
-1.3433108	o m i
-0.6978164	m m i
-0.977615	i g i
-1.4237387	e p i
-0.99628955	s p i
-1.0106504	o p i
-0.8428756	i b i
-0.47568887	r b i
-0.8428756	y b i
-0.41877648	n w i
-0.6064215	e w i
-0.8371111	s w i
-0.97335154	a w i
-0.5731716	d w i
-0.4144451	y w i
-1.0943421	n y i
-1.159898	r y i
-0.78186667	l y i
-0.5611164	o y i
-0.25721473	n k i
-0.49606648	y k i
-0.5600028	e x i
-1.8319716	i n v
-0.95460266	n i v
-1.4166431	e i v
-1.2243273	r i v
-1.1937554	s i v
-1.6055658	d i v
-1.8734707	t i v
-1.4753247	n e v
-1.22273	i e v
-0.5680508	e e v
-1.4739197	d e v
-1.8176273	t e v
-1.6122001	e r v
-1.5283277	t s v
-1.650446	e a v
-1.350934	l a v
-0.9555849	h a v
-1.4175628	e l v
-0.97954905	a d v
-1.6338096	r o v
-1.6856	s o v
-1.414197	m o v
-0.7691729	g o v
-0.93112576	r u e
-0.8531064	d u e
-1.6172693	i n e
-1.8084298	e n e
-0.96617496	s n e
-1.8748564	a n e
-0.6437325	o n e
-1.3992935	n i e
-0.88242006	v i e
-1.4497885	r i e
-0.9986765	l i e
-0.43467698	c i e
-1.9239247	t i e
-1.3993143	h i e
-0.12750417	i v e
-0.022338014	e v e
-0.07455945	a v e
-0.21159834	l v e
-0.20220542	d v e
-0.1326547	o v e
-0.57921386	r e e
-1.3187228	s e e
-0.5808005	l e e
-1.4968419	t e e
-1.5765579	h e e
-1.4957898	p e e
-1.3130101	b e e
-0.73658484	w e e
-0.58269894	k e e
-0.73460555	u r e
-0.70584804	e r e
-0.5144226	r r e
-0.46866506	s r e
-0.9777801	a r e
-0.5808457	l r e
-0.24881072	d r e
-0.9819436	t r e
-0.7723132	o r e
-0.15600972	f r e
-0.49665383	h r e
-0.47822285	g r e
-0.9440744	p r e
-0.49665383	y r e
-0.25755346	k r e
-0.8836841	u s e
-1.1474563	n s e
-0.91433644	i s e
-1.2639108	e s e
-0.88678336	r s e
-0.6369025	s s e
-1.4049208	a s e
-0.17350082	o s e
-0.7819343	m s e
-0.26161844	b s e
-0.96921784	u l e
-1.0442874	i l e
-0.9216433	l l e
-0.5272056	d l e
-0.18967712	c l e
-0.16963674	t l e
-1.0092406	o l e
-0.12580554	p l e
-0.6570322	b l e
-0.34165195	u d e
-0.75685394	n d e
-0.50705373	i d e
-1.1993629	e d e
-0.6013509	r d e
-0.42927754	s d e
-0.57519823	a d e
-0.72976196	l d e
-0.61393976	t d e
-0.5049129	y d e
-0.2244503	n c e
-1.3667628	i c e
-1.3539388	e c e
-0.83038276	a c e
-1.1918976	o c e
-1.0551773	u t e
-0.7489282	n t e
-1.0678681	i t e
-0.8520079	e t e
-1.3571029	r t e
-0.97297364	a t e
-1.0028468	l t e
-0.84592426	c t e
-1.1091263	t t e
-0.54596865	o t e
-1.4167858	f t e
-0.972114	y t e
-1.3266727	t o e
-0.37267408	i f e
-1.1327287	e f e
-0.5763098	r f e
-1.4781189	o f e
-0.35150322	f f e
-0.678472	m f e
-0.72118825	n h e
-1.1144888	e h e
-0.26681638	a h e
-1.1595421	c h e
-0.142427	t h e
-0.72118825	h h e
-1.6170366	g h e
-0.22629575	w h e
-1.0842755	u m e
-0.6361772	i m e
-0.43744588	e m e
-0.68967104	r m e
-0.22710656	s m e
-0.48692384	a m e
-0.22710656	l m e
-0.44513768	t m e
-0.84052855	o m e
-0.5115365	f m e
-0.22710656	h m e
-0.22710656	p m e
-0.22710656	y m e
-0.9925892	n g e
-0.7967259	e g e
-0.34665	r g e
-0.50341535	s g e
-0.34710035	a g e
-0.5128188	d g e
-0.66092205	n p e
-0.50417364	e p e
-0.6507709	r p e
-0.6189105	s p e
-0.29968348	a p e
-0.7566525	l p e
-0.58091974	d p e
-0.662775	o p e
-0.38911176	f p e
-0.42995635	m p e
-0.57670176	y p e
-0.2670564	n b e
-0.5608244	i b e
-0.6407915	e b e
-0.6090924	r b e
-0.21505591	s b e
-0.04427407	l b e
-0.3457659	d b e
-0.21505591	t b e
-0.44237	o b e
-0.44237	m b e
-0.4176101	y b e
-0.9947502	s w e
-0.8345541	t w e
-0.96980894	o w e
-0.23925881	b j e
-0.25721473	o k e
-0.49606648	y k e
-0.9553414	s u r
-0.72014785	d u r
-0.52212673	c u r
-0.62087613	t u r
-0.9193174	o u r
-1.0603976	f u r
-0.85604846	p u r
-0.42663306	j u r
-1.3357978	a n r
-0.8555064	e i r
-1.1473087	a i r
-0.58658856	f i r
-0.7693514	p i r
-1.0268598	b i r
-1.4508225	n e r
-1.0941042	i e r
-0.2326898	v e r
-0.7797649	s e r
-1.5787095	l e r
-0.9081275	d e r
-0.56487083	t e r
-0.8871609	f e r
-0.45081025	h e r
-1.0346181	g e r
-0.5548719	p e r
-0.99186563	b e r
-1.7436	e r r
-1.2141403	a r r
-1.5852998	o r r
-0.8403466	i s r
-1.5612723	a s r
-1.1378541	u a r
-1.2308701	n a r
-0.82677084	e a r
-0.83472455	r a r
-0.74216723	s a r
-0.66805995	l a r
-0.6535151	d a r
-1.3221056	t a r
-0.774943	o a r
-1.2383558	h a r
-0.7533751	m a r
-0.8394852	g a r
-0.43207407	p a r
-0.43207407	b a r
-0.69214785	w a r
-0.49135125	y a r
-1.388088	a l r
-1.57481	l l r
-1.3340691	n d r
-0.74713945	s c r
-0.71957123	l c r
-1.2541597	o c r
-0.5706921	y c r
-1.1202794	u t r
-1.167702	n t r
-1.2108705	i t r
-1.3140038	e t r
-1.5114355	s t r
-0.9097435	l t r
-1.3442504	c t r
-1.4618115	t t r
-0.98934716	g t r
-0.73470485	n o r
-0.70226	e o r
-1.2343564	s o r
-0.5483371	l o r
-1.0822829	c o r
-0.7969656	t o r
-0.12797308	f o r
-1.0804855	h o r
-1.1189756	m o r
-0.6432438	g o r
-0.90946656	p o r
-0.429128	b o r
-0.32406148	w o r
-0.8484911	y o r
-0.6997614	n f r
-0.9287627	e f r
-0.63588834	r f r
-0.48043838	s f r
-0.47042838	l f r
-0.29173926	d f r
-1.0365691	o f r
-0.6805022	f f r
-0.39124238	m f r
-0.24223831	g f r
-0.5841598	y f r
-2.035889	t h r
-0.7084301	e g r
-0.5543998	s g r
-0.28990877	l g r
-0.6504735	o g r
-0.5187652	n p r
-0.426384	e p r
-0.6320022	r p r
-0.60175276	s p r
-0.2305325	l p r
-0.5648887	d p r
-0.6484305	o p r
-0.56044793	f p r
-0.2333625	g p r
-0.4555221	p p r
-0.37849	y p r
-0.2333625	x p r
-0.31092677	f b r
-1.176913	l y r
-1.4135325	t y r
-0.5323276	e k r
-0.90258396	r u s
-0.8836086	t u s
-1.2006791	o u s
-0.7262177	j u s
-1.2155824	i n s
-0.8424721	o n s
-1.2081778	n i s
-1.1424955	e i s
-1.4081837	r i s
-0.91964054	s i s
-0.6948592	d i s
-1.7513516	t i s
-0.30768123	h i s
-1.2464507	m i s
-0.8521697	y i s
-0.7252276	n e s
-1.0575515	i e s
-1.4343354	v e s
-1.5695752	e e s
-0.80014145	r e s
-0.9607975	s e s
-0.92934626	l e s
-0.9918882	d e s
-1.2837523	c e s
-1.1410404	t e s
-1.1668102	f e s
-1.2104225	h e s
-1.4079674	m e s
-1.1475312	g e s
-1.102085	b e s
-1.1085815	u r s
-0.80412126	e r s
-1.2745414	o r s
-1.3697497	i s s
-0.8801665	e s s
-1.0405294	a s s
-1.3283291	t s s
-1.0522845	m s s
-0.83381903	g s s
-1.4509928	n a s
-0.5842085	e a s
-1.1538635	s a s
-1.0395799	l a s
-1.1158754	d a s
-0.9254292	c a s
-1.4495006	t a s
-0.52067864	h a s
-0.70129526	b a s
-0.75244224	w a s
-1.7131802	a l s
-1.5812362	l l s
-1.6057043	n d s
-0.9238674	r d s
-1.7914642	i t s
-1.8375258	s t s
-1.1234188	c t s
-0.41956645	h t s
-1.6412812	r o s
-1.3276328	t o s
-0.94617164	p o s
-1.311848	o f s
-1.4873624	c h s
-1.3250698	i m s
-1.1199921	e m s
-0.9680959	r m s
-1.0817947	o m s
-0.88189054	n g s
-0.63301075	o b s
-1.1076963	b y s
-0.29268137	c k s
-0.8509401	d u a
-0.60345244	g u a
-0.085992806	q u a
-1.219004	u n a
-0.5903475	n n a
-0.87235725	i n a
-0.8211664	e n a
-0.37775013	r n a
-0.4906481	s n a
-1.516807	a n a
-0.26511258	l n a
-0.42864043	d n a
-0.5098479	t n a
-0.68121433	o n a
-0.5098479	w n a
-1.3570961	r i a
-1.6370229	d i a
-0.5503074	c i a
-1.744998	t i a
-1.0711656	i v a
-0.37574545	r v a
-1.2657827	n e a
-1.4245471	v e a
-1.4337142	e e a
-0.765688	r e a
-1.3233275	s e a
-1.0140548	l e a
-1.327677	d e a
-0.7696146	c e a
-1.1353664	t e a
-1.0070652	f e a
-1.4595312	h e a
-1.3970388	m e a
-0.9930403	g e a
-1.2443862	p e a
-1.2004124	b e a
-0.9328375	u r a
-0.8008201	i r a
-1.395041	e r a
-1.0243057	s r a
-0.95999426	a r a
-0.46567595	t r a
-1.0046107	o r a
-0.6857659	g r a
-1.4564557	p r a
-0.5353346	y r a
-0.8801122	u s a
-1.143069	n s a
-1.1373496	e s a
-0.6769616	r s a
-1.0596793	s s a
-0.9814125	a s a
-0.49891025	t s a
-0.7790892	m s a
-0.7691744	g s a
-0.5419163	k s a
-1.3509513	i a a
-0.9163432	u l a
-0.50465274	n l a
-0.75942147	e l a
-0.24203086	s l a
-0.9236358	a l a
-0.7118579	l l a
-0.70146346	c l a
-0.68787444	o l a
-0.50465274	f l a
-0.6291773	y l a
-0.2621479	x l a
-0.7647898	n d a
-1.4280975	e d a
-0.9946729	r d a
-0.8413419	a d a
-0.988925	l d a
-0.5470451	o d a
-0.85025465	u c a
-1.112039	i c a
-1.6354103	e c a
-0.79822594	u t a
-1.0313156	n t a
-1.5359509	i t a
-1.644764	r t a
-0.6448045	s t a
-1.3517725	t t a
-0.90010595	t o a
-0.8301025	n f a
-0.8576375	e f a
-0.92225605	r f a
-0.4510389	a f a
-0.9347845	o f a
-0.6788243	y f a
-0.6951038	n h a
-0.19750962	e h a
-0.13439922	s h a
-0.49651676	d h a
-0.42250615	c h a
-1.2567881	t h a
-0.6918234	o h a
-0.6951038	h h a
-1.5849346	g h a
-0.11823041	u m a
-0.49731672	n m a
-1.0735447	i m a
-0.9471347	e m a
-0.7872282	r m a
-0.49731672	t m a
-0.9273456	o m a
-0.5748817	f m a
-0.25793555	g m a
-1.1509255	n g a
-1.6193168	i g a
-0.665971	e g a
-0.7474777	r g a
-0.45470804	a g a
-0.5930823	i p a
-0.9261143	m p a
-1.000133	n b a
-0.9807949	e b a
-1.0859139	r b a
-0.93257964	e w a
-0.26541743	a w a
-0.9120806	d w a
-0.53403634	t w a
-0.8368181	o w a
-0.84564567	n y a
-0.28580898	e y a
-0.93962705	r y a
-0.849789	l y a
-0.32474476	t y a
-0.93775606	b y a
-0.5279978	e k a
-0.09578023	i z a
-0.90490437	r u l
-1.1626763	s u l
-1.2039256	o u l
-0.47344357	f u l
-1.8976991	i n l
-2.0753992	o n l
-0.48969638	u i l
-1.6569939	r i l
-2.0348198	t i l
-0.7689891	m i l
-0.30801663	x i l
-0.5805614	u e l
-1.5023401	n e l
-1.6602768	v e l
-1.1774056	r e l
-1.1699296	s e l
-1.2541292	f e l
-1.2605424	h e l
-1.3234382	p e l
-0.80827236	b e l
-0.7335415	w e l
-2.0529373	e r l
-1.5945243	o r l
-1.5522083	n s l
-1.6315876	e s l
-0.1503368	u a l
-0.4777739	n a l
-0.41001493	i a l
-1.215806	e a l
-0.9591538	r a l
-0.8423878	s a l
-1.04301	d a l
-0.5131811	c a l
-0.9366764	t a l
-0.95617634	o a l
-1.1331455	f a l
-0.602315	h a l
-0.99844694	w a l
-1.3488176	y a l
-0.53462034	u l l
-1.0017608	e l l
-0.5323108	a l l
-1.8862878	n d l
-1.1499089	r d l
-1.1486083	n c l
-0.267686	i c l
-0.98137015	e c l
-1.0678096	o c l
-1.9356902	n t l
-1.0984714	i t l
-1.8350929	i o l
-1.5724479	s o l
-1.5364263	c o l
-1.3934624	t o l
-1.2838204	h o l
-0.7106404	p o l
-1.6514502	o f l
-0.5633069	i p l
-1.3057586	e p l
-1.0904952	s p l
-0.65113384	o p l
-0.5633069	p p l
-0.5424124	u b l
-0.30973136	a b l
-0.9796815	o b l
-0.59940517	m b l
-1.1898264	n y l
-0.30707753	s y l
-1.0971648	b y l
-0.56387055	e x l
-0.50061715	l u d
-1.1593552	t u d
-0.5046859	u n d
-1.1168118	i n d
-1.1656924	e n d
-0.23208687	a n d
-1.8414351	o n d
-0.981226	v i d
-1.3054543	s i d
-1.5245796	d i d
-1.4289843	n e d
-1.2273787	i e d
-1.1771849	v e d
-0.519853	e e d
-1.6917425	r e d
-1.3730872	s e d
-0.694106	l e d
-1.3798393	d e d
-0.6326476	t e d
-1.5024167	h e d
-0.8400058	m e d
-0.6955298	g e d
-0.7119938	w e d
-0.56530035	k e d
-1.2250803	a r d
-1.291929	o r d
-0.93105996	i s d
-1.7947438	a s d
-1.4952769	t s d
-1.7895544	e a d
-1.455779	r a d
-1.8380914	h a d
-1.5971142	m a d
-0.9047532	u l d
-1.3039196	e l d
-0.4839997	r l d
-1.6261708	a l d
-1.1717094	o l d
-1.299421	u t d
-1.9740684	n t d
-1.920245	s t d
-1.8067813	n o d
-1.3542774	o o d
-1.2812504	c h d
-1.014822	n y d
-1.0167862	l y d
-0.84712785	s u c
-0.8697047	d u c
-1.0097485	i n c
-0.7926331	e n c
-1.5401838	a n c
-2.0278997	o n c
-1.0619454	l i c
-1.4862823	d i c
-0.64948756	t i c
-0.9936153	h i c
-1.3313851	n e c
-1.6410902	e e c
-1.2541966	r e c
-0.99196553	s e c
-0.91428775	d e c
-1.358191	c e c
-1.0578076	t e c
-1.0562366	f e c
-1.180142	h e c
-1.3022627	p e c
-1.2755039	b e c
-0.2762663	j e c
-2.090803	e r c
-1.7827272	o r c
-1.148676	n s c
-1.1399163	i s c
-1.5462741	a s c
-1.4372358	t s c
-1.6920966	n a c
-0.86502916	v a c
-1.0220628	e a c
-0.99204254	r a c
-1.1460292	s a c
-1.2358423	d a c
-1.284345	t a c
-1.0182394	o a c
-1.2010572	f a c
-1.4051771	m a c
-1.2335485	y a c
-1.743316	a l c
-1.6148763	l l c
-1.806549	n d c
-1.2844307	a c c
-1.6348785	o t c
-1.7843544	h t c
-1.7484694	n o c
-1.4214249	r o c
-0.6781224	s o c
-1.481496	t o c
-1.0285566	n y c
-0.87180066	l u t
-0.5717143	c u t
-0.848351	t u t
-0.72356725	o u t
-0.96478087	p u t
-0.7537925	u n t
-0.6929041	i n t
-0.44720775	e n t
-0.9930663	r n t
-1.3502389	a n t
-1.0992377	o n t
-1.0472977	g n t
-0.35556272	n i t
-0.80244833	v i t
-1.218954	e i t
-1.1304007	r i t
-0.86377484	s i t
-0.9983816	a i t
-0.62165725	l i t
-1.1357282	c i t
-1.0933229	t i t
-0.7136492	m i t
-0.2056616	b i t
-0.08307202	w i t
-0.57005835	u e t
-1.4508225	n e t
-0.9441569	i e t
-1.4781446	v e t
-1.2473679	r e t
-1.3957903	s e t
-1.1674725	d e t
-1.4477669	t e t
-1.521752	h e t
-1.4572493	m e t
-1.4391735	p e t
-1.2604215	b e t
-1.2360394	u r t
-1.1002835	i r t
-1.4079195	e r t
-0.44053757	a r t
-0.78360367	o r t
-0.69632065	u s t
-0.3825869	n s t
-1.0147272	i s t
-0.8441216	e s t
-0.7716795	r s t
-0.4204858	a s t
-0.4541744	l s t
-1.1940506	t s t
-0.2848563	h s t
-0.95686626	m s t
-0.49621707	n a t
-0.79027367	i a t
-0.80719924	v a t
-1.1974962	e a t
-0.6240158	r a t
-0.9824503	l a t
-1.0232291	d a t
-0.85184586	c a t
-0.5278075	t a t
-0.9363283	o a t
-1.2523326	h a t
-1.3157313	m a t
-1.0077746	g a t
-0.97691274	w a t
-0.2737189	z a t
-1.1292863	u l t
-0.9696162	i l t
-1.2434559	a l t
-1.1936282	l l t
-1.0340309	n d t
-0.63073015	e d t
-1.3054261	n c t
-1.2682385	i c t
-0.5460004	e c t
-0.6399209	a c t
-1.5346764	n t t
-1.4516726	i t t
-1.3140038	e t t
-1.5602198	r t t
-1.6440446	s t t
-1.2804533	a t t
-1.3442504	c t t
-1.4348861	o t t
-0.41035986	h t t
-1.0102872	n o t
-0.6493901	r o t
-1.2236826	t o t
-1.0696352	h o t
-0.7476108	m o t
-0.71736073	b o t
-1.4545405	y o t
-0.5551056	o f t
-2.0139592	t h t
-0.05494592	g h t
-1.4714352	o m t
-0.5715585	n g t
-1.1803395	m p t
-0.995107	o w t
-1.3202933	r y t
-1.1084855	l y t
-1.3398085	t y t
-0.46196383	b y t
-0.61585087	n n o
-1.4901606	i n o
-0.92214	e n o
-0.6788142	s n o
-1.49801	a n o
-0.6212112	d n o
-0.530324	t n o
-0.82784367	o n o
-0.27664894	m n o
-0.2550615	y n o
-1.1199327	n i o
-0.67576104	v i o
-0.8093491	s i o
-1.4570682	l i o
-0.29549044	t i o
-0.22016892	g i o
-0.5697055	n v o
-1.4926227	n e o
-1.6503968	v e o
-1.7647754	r e o
-1.4393781	s e o
-1.6207268	l e o
-1.4498158	d e o
-0.9227394	c e o
-1.7415974	h e o
-1.4926156	m e o
-0.86098635	p e o
-1.7344166	e r o
-1.5899028	a r o
-1.2541689	o r o
-0.7829253	f r o
-0.5552063	h r o
-0.9144922	g r o
-0.20912516	p r o
-0.2903472	b r o
-0.8854812	u s o
-1.1387656	i s o
-0.90099037	e s o
-0.6029716	r s o
-0.63760746	s s o
-1.4082552	a s o
-0.6334871	d s o
-1.0661716	t s o
-0.37352014	f s o
-0.2844102	y s o
-1.1867199	e l o
-0.871816	a l o
-1.2294921	o l o
-1.070612	n d o
-0.5661939	e d o
-1.090342	r d o
-1.0860826	l d o
-0.9526069	n c o
-1.2267771	i c o
-0.49201614	e c o
-0.24174863	r c o
-0.45422426	s c o
-0.8979908	a c o
-0.55904096	l c o
-0.24174863	d c o
-0.24174863	c c o
-0.24174863	t c o
-0.45096934	y c o
-0.8692129	n t o
-1.1469506	i t o
-1.0979508	e t o
-1.3407844	r t o
-1.3130454	s t o
-0.8454835	l t o
-0.27139693	d t o
-1.2437588	c t o
-0.18637244	t t o
-1.3442852	o t o
-0.28966394	m t o
-0.7430433	g t o
-0.622139	y t o
-0.7882924	n o o
-1.6093546	c o o
-1.5888277	t o o
-1.341555	h o o
-0.8040715	n f o
-0.5663563	e f o
-0.8911641	r f o
-0.74320245	s f o
-0.13407035	t f o
-1.3446137	o f o
-0.6605475	y f o
-0.7077583	r h o
-1.0867858	s h o
-1.1868918	t h o
-0.80211294	o h o
-0.2941741	y h o
-0.92334694	r m o
-0.9431571	a m o
-0.66060615	o m o
-0.8677756	f m o
-0.5385971	m m o
-1.1951643	n g o
-0.30270967	f g o
-0.5441277	u p o
-0.7859162	n p o
-1.2455395	e p o
-0.77291274	r p o
-0.8782486	s p o
-0.83706874	m p o
-0.5686999	e b o
-0.8958434	e w o
-1.1531869	a w o
-0.66976	d w o
-1.172173	n y o
-0.23595491	r y o
-1.0686197	t y o
-0.27280414	n j o
-1.6214954	i n f
-1.1055816	r n f
-2.0746644	a n f
-1.6002247	n i f
-1.2730223	l i f
-1.5932757	n e f
-1.0013114	i e f
-1.8839918	r e f
-1.4056815	d e f
-1.3051869	c e f
-1.3854096	h e f
-1.3781712	b e f
-0.9480851	i r f
-1.5880687	e r f
-1.7785037	o r f
-1.0458492	u s f
-1.650905	e s f
-0.77439594	l s f
-1.8412457	e a f
-1.5258272	d a f
-1.2132293	o a f
-1.5802318	e l f
-1.899946	a l f
-1.1036769	n d f
-1.8931592	n t f
-1.5276867	e t f
-1.3171701	c t f
-0.31562668	p t f
-0.46701336	n o f
-0.74102545	e o f
-0.42072034	s o f
-0.6991968	l o f
-0.82391965	d o f
-0.7522099	t o f
-1.1799426	h o f
-0.6022301	m o f
-0.6904096	g o f
-1.2230085	y o f
-1.1534895	e f f
-0.7617931	a f f
-0.940742	o f f
-1.3726379	u m f
-1.4670428	o m f
-1.4339529	n g f
-1.5869833	r y f
-0.30940202	c y f
-0.5909432	o y f
-1.7638711	i n h
-1.9410527	o n h
-0.49869573	n e h
-1.5398238	c e h
-1.5305454	h e h
-1.1391163	g e h
-1.4249899	b e h
-2.0714576	e r h
-1.6078701	o r h
-1.2078177	n s h
-1.3108631	i s h
-0.76397586	e s h
-1.236333	r s h
-1.1143718	s s h
-1.4993922	a s h
-0.6594154	d s h
-1.2678003	t s h
-1.756502	l a h
-1.8910855	a l h
-1.601106	l l h
-1.903776	n d h
-1.8019962	e d h
-0.3688619	u c h
-0.8434772	i c h
-1.1992832	e c h
-0.70098776	a c h
-0.6730289	l c h
-0.9990965	o c h
-0.6430784	n t h
-0.6218713	i t h
-0.45723546	e t h
-0.79426813	r t h
-0.3314596	s t h
-1.5905743	a t h
-0.68961674	l t h
-0.43133995	d t h
-1.2116472	t t h
-0.3472573	o t h
-0.057662454	f t h
-1.3207916	h t h
-0.38174772	g t h
-0.26951215	w t h
-0.43193507	y t h
-1.6555574	r o h
-1.5131261	t o h
-1.0928142	o f h
-1.0694305	c h h
-2.220122	t h h
-0.32325035	u g h
-1.3907535	n g h
-0.13818604	i g h
-0.50587606	n w h
-0.5269152	e w h
-0.28014535	s w h
-0.72616124	d w h
-0.5941532	t w h
-0.667996	o w h
-0.21960191	m w h
-0.21960191	w w h
-0.53106016	y w h
-1.2275667	l y h
-1.237181	s u m
-0.9496785	l u m
-0.061393578	h u m
-1.9071693	i n m
-2.0848415	o n m
-1.3606471	e i m
-1.1999907	r i m
-0.8992262	a i m
-1.2993648	l i m
-1.3882552	d i m
-1.6853157	t i m
-1.4111799	h i m
-1.5305879	n e m
-1.3871355	v e m
-1.8091525	r e m
-1.3315876	s e m
-1.6589081	l e m
-1.509997	t e m
-1.6970469	h e m
-1.1765914	m e m
-1.4628829	b e m
-1.1795769	i r m
-1.7571497	e r m
-1.6050419	o r m
-1.7828839	a s m
-1.7687118	e a m
-0.74916494	d a m
-0.7526536	f a m
-1.8188566	h a m
-1.6196669	l l m
-1.9648427	a t m
-1.7723718	h t m
-0.5997387	r o m
-0.29084066	d o m
-0.6048084	c o m
-1.3967177	t o m
-1.2869081	h o m
-0.763027	w o m
-0.87097144	i f m
-1.3020432	o f m
-1.5844849	s h m
-0.90326864	o m m
-1.4206487	n g m
-1.4364107	o p m
-1.2181001	n y m
-1.2980433	o u g
-0.7800383	i n g
-1.7598658	a n g
-1.6325604	o n g
-1.4470055	e i g
-0.3258215	r i g
-0.82315713	l i g
-1.2900032	d i g
-1.6669925	h i g
-1.8664874	r e g
-1.7455719	d e g
-1.7723746	h e g
-1.5517805	a r g
-1.8034874	o r g
-1.5871725	n s g
-1.4977313	t s g
-1.2531008	u a g
-1.6428268	n a g
-0.86293554	i a g
-1.6034783	e a g
-1.5098287	r a g
-1.524749	l a g
-1.3304842	d a g
-1.1421866	w a g
-1.9642916	a l g
-1.4980717	e d g
-1.170824	l d g
-1.4648021	r o g
-1.2847929	c o g
-0.6085889	l f g
-1.232708	s u p
-1.4494536	o u p
-1.6425477	i n p
-1.8353833	e n p
-1.905671	a n p
-1.7017325	o n p
-0.5825572	w n p
-1.3598197	c i p
-1.7411001	h i p
-1.7755642	v e p
-1.7789421	e e p
-1.9109771	r e p
-1.0855451	d e p
-1.167509	h e p
-1.2382953	b e p
-1.3358321	u r p
-2.0675142	e r p
-1.6050419	o r p
-1.2478671	i s p
-1.3775685	e s p
-1.4532276	a s p
-1.3362446	t s p
-0.8406626	f s p
-0.8369902	g s p
-1.9393823	n a p
-1.7687118	e a p
-1.4370238	s a p
-1.6271248	h a p
-1.2368462	i l p
-1.5746506	a l p
-1.5989625	l l p
-1.6364597	n d p
-0.63871723	e o p
-1.0076162	r o p
-1.2634509	l o p
-1.3231006	d o p
-1.2303141	t o p
-1.2580534	o o p
-1.3814163	f o p
-1.4969728	o f p
-0.7992668	i m p
-1.3848825	e m p
-1.1226239	o m p
-1.4206487	n g p
-1.0347688	a p p
-1.4072169	o p p
-1.195874	n y p
-1.1992482	l y p
-1.1012517	b y p
-0.5648429	e x p
-0.84322053	s u b
-0.63332534	p u b
-1.9226226	i n b
-1.9003026	a n b
-1.7934127	o n b
-1.7572682	r i b
-1.651111	l i b
-1.7495512	h i b
-1.8497447	v e b
-1.816197	r e b
-1.5747072	c e b
-1.8737156	h e b
-1.2199328	a r b
-1.4562773	o r b
-1.5635531	n s b
-1.7665416	a s b
-1.9936812	n a b
-1.0571176	c a b
-1.8910855	a l b
-0.5466862	l l b
-1.6233763	n d b
-1.808716	e d b
-1.1580454	l d b
-1.878212	i t b
-1.6274765	o t b
-1.0102034	d o b
-1.5131261	t o b
-1.8315518	o f b
-1.4074332	i m b
-0.63818413	e m b
-1.2504491	a m b
-1.4272498	n g b
-0.58946013	a y b
-0.3086258	d y b
-1.2559687	t y b
-1.9687864	i n w
-1.6339586	o n w
-1.60233	l e w
-0.9775454	c e w
-2.0080967	h e w
-1.6410656	m e w
-1.3749563	g e w
-1.304907	n s w
-1.6710374	a s w
-1.4043425	t s w
-1.1023538	m s w
-0.8628583	g s w
-0.74452883	l a w
-1.4329334	f a w
-1.4716427	n d w
-1.5053158	e d w
-1.1785437	l d w
-1.922403	i t w
-1.6036406	e t w
-1.7642292	a t w
-1.7127581	n o w
-1.6373274	s o w
-1.5876191	d o w
-1.5873791	t o w
-1.3128637	o o w
-1.708992	o m w
-1.1997149	a w w
-1.6132607	r y w
-1.2369257	l y w
-1.4789965	t y w
-0.9732957	n n y
-1.038273	a n y
-1.9578766	h e y
-0.7745671	e r y
-1.2097973	r r y
-1.3166344	a r y
-1.0113094	t r y
-1.6362373	o r y
-1.8244658	a s y
-1.3924133	m a y
-0.5704334	n l y
-0.3245822	i l y
-1.4147595	e l y
-0.5704334	d l y
-1.065787	t l y
-0.887048	b l y
-1.8749146	e d y
-1.5017947	a c y
-1.7982222	n t y
-0.82123923	i t y
-1.1154689	e t y
-1.1551213	r t y
-0.7975621	l t y
-1.5721638	t t y
-0.3394431	j o y
-0.83513135	n b y
-0.79508054	e b y
-0.88082206	r b y
-0.58080363	d b y
-0.8314373	m b y
-0.25753307	g b y
-0.69198585	y b y
-1.4665885	e e q
-1.8887178	l e q
-1.7573031	d e q
-0.42080033	o e q
-1.8492965	e n j
-1.2347074	i r j
-2.0315237	a l j
-1.7506126	o m j
-0.5833429	u b j
-2.2002475	a n k
-1.6884389	e e k
-1.3167295	a c k
-0.32466263	v o k
-1.262834	n y k
-1.5102694	t y k
-1.770174	l i z
-2.1566322	r e x
-1.7721198	s e x
-1.8137591	d e x

\end\
