\data\
ngram 1=19
ngram 2=150
ngram 3=786

\1-grams:
-2.0421977	<unk>	0
0	<s>	-1.9454119
-0.97575766	</s>	0
-1.2806073	e	-0.6351846
-1.2286031	d	-0.6719783
-1.2806073	c	-0.59974265
-1.1402171	k	-0.75923914
-1.1402171	l	-0.7393908
-1.1821654	m	-0.5758533
-1.1019659	h	-0.77707744
-1.1402171	g	-0.746701
-1.2286031	n	-0.5519141
-1.3396969	i	-0.524136
-1.1821654	f	-0.66141635
-1.1402171	j	-0.6586657
-1.4081113	o	-0.50771046
-1.7195566	b	-0.3201463
-1.3396969	a	-0.48315006
-1.906319	p	-0.3245111

\2-grams:
-2.8144612	<s> </s>	0
-0.9635405	e </s>	0
-1.0127883	d </s>	0
-0.9695465	c </s>	0
-1.024231	k </s>	0
-0.87027	l </s>	0
-0.9324253	m </s>	0
-1.0512676	h </s>	0
-1.033646	g </s>	0
-0.9510282	n </s>	0
-1.0965004	i </s>	0
-0.9477389	f </s>	0
-0.91873425	j </s>	0
-0.9068246	o </s>	0
-0.8591372	b </s>	0
-1.1696954	a </s>	0
-1.0058627	<s> e	-1.1927476
-0.9395972	e e	-1.489758
-0.92615503	d e	-1.8897935
-0.856006	c e	-1.2696304
-1.2349628	h e	-0.6808642
-1.0258352	g e	-1.4356728
-0.9950021	f e	-2.0113022
-1.409776	j e	-0.29943863
-0.76682675	<s> d	-1.3406126
-0.93380016	e d	-1.9263381
-0.9209875	d d	-1.676934
-0.78590727	c d	-1.7447656
-1.2267317	h d	-0.84312284
-1.2096345	g d	-0.90171754
-1.0510367	f d	-1.5943445
-0.9356004	b d	-0.1809274
-0.9343835	a d	-0.23615307
-1.0058627	<s> c	-1.2408143
-1.0159076	e c	-1.0792121
-0.86989796	d c	-1.7347429
-0.856006	c c	-0.93096805
-1.3073214	g c	-0.70550865
-1.0581963	f c	-0.6031661
-0.5475258	b c	-0.5857569
-0.43875757	a c	-0.72510904
-1.0396638	<s> k	-1.0681572
-1.3398948	e k	-0.23783325
-0.9982728	k k	-1.4473386
-0.8902924	l k	-1.6207927
-0.9666415	m k	-0.7982273
-0.9786653	h k	-1.6371586
-1.0096239	g k	-1.3716469
-0.87017715	n k	-0.5038022
-0.877442	i k	-0.4860305
-1.2947847	f k	-0.3838122
-0.82871217	j k	-1.6100482
-1.202605	<s> l	-0.96209085
-1.6190981	d l	-0.2804046
-0.95067954	k l	-1.6597078
-0.99263114	l l	-1.2089561
-0.7375874	m l	-1.4978254
-1.2107233	h l	-0.7460492
-1.1229947	g l	-0.87070435
-0.87017715	n l	-0.6082189
-1.1517609	i l	-0.3402083
-0.9459143	j l	-1.0071259
-0.94472003	o l	-0.26814583
-2.762177	<s> m	-0.29943863
-1.0574461	k m	-0.77863884
-0.89441	l m	-1.5233566
-0.80628157	m m	-1.0218135
-1.5532336	h m	-0.21561071
-0.70446205	n m	-1.3235949
-1.6666437	f m	-0.3402083
-1.2279146	j m	-0.29721203
-0.83204067	o m	-0.4884893
-0.68491393	p m	-0.3402083
-1.1933925	<s> h	-0.8489296
-0.98893523	e h	-0.5177426
-0.9673151	d h	-1.1248137
-1.4970813	c h	-0.3402083
-0.94620353	k h	-1.5076852
-1.1197637	l h	-0.3522188
-1.4665326	m h	-0.3402083
-0.9317452	h h	-1.665447
-0.9155136	g h	-2.1281378
-0.7053164	i h	-1.1417334
-0.9183966	f h	-1.3856313
-0.8244502	j h	-1.8929416
-0.61909556	<s> g	-1.4056394
-0.85989046	e g	-1.4093745
-0.9730682	d g	-1.1812795
-1.1182806	c g	-0.75173104
-1.0517309	k g	-0.8853454
-1.2134566	l g	-0.71214044
-0.9786653	h g	-2.1404607
-0.91980547	g g	-1.7589759
-0.9941574	i g	-0.5166407
-0.87642276	f g	-1.9316928
-0.8833716	j g	-1.2132356
-2.7815917	<s> n	-0.1809274
-1.0632377	k n	-0.5470895
-1.0031315	l n	-1.0084403
-0.81123143	m n	-1.2488679
-1.5708795	h n	-0.2804046
-0.8823975	n n	-0.488612
-1.6969827	f n	-0.3402083
-0.7426559	o n	-0.91332114
-0.6916041	p n	-0.3402083
-1.0750577	k i	-0.6658261
-1.5307837	l i	-0.29943863
-0.9974896	h i	-1.1224341
-1.3179784	g i	-0.55763745
-0.90438604	i i	-0.41960788
-1.065476	f i	-0.6885468
-1.715087	j i	-0.3402083
-0.8160349	<s> f	-1.2669003
-0.8647751	e f	-1.8555151
-0.9788985	d f	-1.6954628
-0.8456828	c f	-1.0752149
-1.2779726	k f	-0.26921183
-0.98329544	h f	-1.2771935
-0.9241402	g f	-2.029195
-1.1642214	i f	-0.1809274
-1.0439932	f f	-1.5261326
-1.3806568	j f	-0.23783325
-1.9711053	<s> j	-0.4249191
-1.3421732	e j	-0.29721203
-1.6190981	d j	-0.3402083
-0.9077907	k j	-1.9284694
-0.9384543	l j	-0.827191
-1.2366934	m j	-0.3778869
-0.93589884	h j	-1.8675301
-1.1229947	g j	-1.1572222
-0.9941574	i j	-0.5489042
-1.4314979	f j	-0.43193913
-0.9459143	j j	-1.0765662
-1.8886651	k o	-0.2804046
-1.1636125	l o	-0.6211105
-1.1299937	m o	-0.69366115
-0.9013978	n o	-0.88014424
-0.8571942	o o	-0.30199823
-0.7123161	p o	-0.3402083
-1.5274633	d b	-0.21561071
-1.3976498	c b	-0.52771485
-0.9864873	a b	-0.1809274
-2.4677708	<s> a	-0.48195738
-1.6916059	e a	-0.3402083
-1.1679039	d a	-0.21561071
-1.3276926	c a	-0.8439996
-1.7648705	f a	-0.3402083
-0.9601703	b a	-0.31934524
-0.9479447	a a	-0.29943863
-1.022576	o p	-0.3170145

\3-grams:
-0.9757469	e e </s>
-1.3918489	d e </s>
-1.8129297	c e </s>
-1.371636	h e </s>
-1.3715434	g e </s>
-1.4566737	f e </s>
-1.2324947	e d </s>
-1.1237198	d d </s>
-1.2109079	c d </s>
-1.4388661	h d </s>
-1.2151374	g d </s>
-1.1652826	f d </s>
-1.3206576	e c </s>
-1.4076263	d c </s>
-1.4277554	c c </s>
-1.1989187	f c </s>
-1.2233669	b c </s>
-2.142303	k k </s>
-1.2973459	l k </s>
-1.3028796	m k </s>
-1.5357441	h k </s>
-1.4991926	g k </s>
-1.2174239	i k </s>
-0.9209414	f k </s>
-1.2729135	j k </s>
-0.2625164	d l </s>
-1.3602397	k l </s>
-1.3315785	l l </s>
-1.2201798	m l </s>
-1.4372745	h l </s>
-1.5261986	g l </s>
-1.1327007	n l </s>
-0.615046	i l </s>
-1.7270446	j l </s>
-0.8759648	o l </s>
-1.4859294	k m </s>
-1.3391411	l m </s>
-1.7292119	m m </s>
-1.1571751	n m </s>
-1.2466651	o m </s>
-1.5256329	d h </s>
-1.5900009	k h </s>
-1.133892	l h </s>
-1.7568858	h h </s>
-1.4808747	g h </s>
-1.5393701	i h </s>
-1.394736	f h </s>
-1.5199068	j h </s>
-1.435846	e g </s>
-1.7943158	d g </s>
-1.4422067	k g </s>
-1.5012149	l g </s>
-1.2313336	h g </s>
-1.3559188	g g </s>
-1.4178033	f g </s>
-1.4025046	j g </s>
-1.1958454	k n </s>
-1.2799767	l n </s>
-1.077042	m n </s>
-0.8620243	o n </s>
-1.5240947	k i </s>
-1.6992688	h i </s>
-1.2540084	f i </s>
-1.5120393	e f </s>
-1.8356656	d f </s>
-1.8062351	c f </s>
-0.95838606	k f </s>
-1.2964193	h f </s>
-1.4973067	g f </s>
-1.5704887	f f </s>
-0.7598171	j f </s>
-0.22313976	d j </s>
-1.5358479	k j </s>
-1.0824698	l j </s>
-1.0348479	m j </s>
-1.5246388	h j </s>
-1.5939758	g j </s>
-1.7679654	j j </s>
-0.7403129	l o </s>
-0.63678885	m o </s>
-0.6790863	n o </s>
-0.9350183	o o </s>
-0.6576343	d b </s>
-0.9102617	b a </s>
-1.0734608	<s> e e
-0.6908618	e e e
-0.78112876	d e e
-0.9401642	c e e
-1.3586954	h e e
-1.2758136	g e e
-1.1107655	f e e
-0.5771612	<s> d e
-0.5982124	e d e
-0.7092029	d d e
-0.5394844	c d e
-0.6010361	h d e
-0.6999597	g d e
-0.49514621	f d e
-0.64325386	a d e
-1.0386883	<s> c e
-0.57944286	e c e
-0.84670925	d c e
-0.78501314	c c e
-1.1248547	g c e
-1.1629354	f c e
-1.2288475	a c e
-1.8657923	<s> h e
-2.1630235	d h e
-2.6488554	h h e
-1.8300217	g h e
-2.3264308	f h e
-2.935492	j h e
-1.4507089	<s> g e
-1.0840335	e g e
-1.4452347	d g e
-1.5284029	c g e
-1.4967501	l g e
-1.2390231	h g e
-1.4237986	g g e
-1.2561381	f g e
-1.2059237	j g e
-0.7983564	<s> f e
-0.574418	e f e
-0.4906522	d f e
-0.68058157	c f e
-0.98380685	k f e
-0.75808406	h f e
-0.40580434	g f e
-0.5544193	f f e
-2.8467793	h j e
-2.157511	j j e
-0.67214584	<s> e d
-0.42784405	e e d
-0.6456502	d e d
-0.7098682	c e d
-1.1777474	h e d
-0.62875295	g e d
-0.22656982	f e d
-0.85732734	<s> d d
-0.8477422	e d d
-0.7334526	d d d
-0.49585664	c d d
-1.1365823	h d d
-1.133659	g d d
-0.8647275	f d d
-0.7954407	a d d
-0.087651715	<s> c d
-0.25013077	e c d
-0.28357348	d c d
-0.2710239	c c d
-0.13468194	g c d
-0.36203703	f c d
-0.16061218	b c d
-0.14191438	a c d
-1.7323257	<s> h d
-1.7357037	d h d
-1.5992255	h h d
-1.7600987	g h d
-2.0082211	f h d
-2.637304	j h d
-2.306689	<s> g d
-1.6940681	e g d
-2.057905	d g d
-2.1106415	h g d
-1.6593707	g g d
-1.6853468	f g d
-1.2303059	<s> f d
-0.7337875	e f d
-0.8807298	d f d
-1.5690371	c f d
-1.3343703	h f d
-1.1655626	g f d
-0.87352353	f f d
-1.0679456	c b d
-0.70209956	d a d
-0.8348292	b a d
-0.42540252	a a d
-1.9106761	<s> e c
-1.4207648	e e c
-1.2022276	d e c
-2.0146124	c e c
-1.4326751	g e c
-1.5155641	f e c
-0.82192945	<s> d c
-0.5437165	e d c
-0.53151697	d d c
-1.1894273	c d c
-1.2761939	h d c
-1.2520497	g d c
-0.6006655	f d c
-0.3668632	b d c
-0.6043387	a d c
-1.5626554	<s> c c
-1.4252976	e c c
-1.0255196	d c c
-0.8555383	c c c
-1.2627839	g c c
-1.016432	b c c
-1.0178895	a c c
-2.481681	e g c
-2.227539	d g c
-3.162921	h g c
-2.3116372	g g c
-2.361099	f g c
-2.0615792	<s> f c
-2.6836963	e f c
-2.0004199	d f c
-1.8698939	c f c
-1.8668618	h f c
-2.8895338	g f c
-1.979833	f f c
-0.3684888	d b c
-0.27148366	c b c
-0.2777043	a b c
-0.102160424	<s> a c
-0.14905657	e a c
-0.45667696	d a c
-0.05700987	c a c
-0.14905657	f a c
-0.5766514	b a c
-0.43917176	a a c
-2.512967	g e k
-2.7719543	f e k
-1.3619337	<s> k k
-0.5297472	k k k
-0.9750203	l k k
-0.96582985	m k k
-0.6218014	h k k
-0.70455074	g k k
-1.2040039	i k k
-0.6155154	f k k
-1.3607918	j k k
-0.48491722	<s> l k
-0.42252052	k l k
-0.453724	l l k
-0.29125312	m l k
-0.28099552	h l k
-0.47395593	g l k
-0.47863394	n l k
-0.62004185	i l k
-0.28572178	j l k
-0.88679147	o l k
-1.3366526	k m k
-0.9357046	l m k
-1.2819663	m m k
-1.1856564	n m k
-1.1529762	o m k
-0.84222484	<s> h k
-1.238457	e h k
-1.448163	d h k
-0.8343543	k h k
-0.7205007	l h k
-0.49545735	m h k
-1.1631553	h h k
-0.94690233	g h k
-0.54165983	f h k
-1.0881175	j h k
-1.336126	<s> g k
-2.2058399	e g k
-1.3982075	c g k
-1.1395218	k g k
-1.487374	l g k
-1.2975454	h g k
-1.1227417	g g k
-2.1846993	f g k
-1.4896548	j g k
-1.167561	k n k
-1.3328695	l n k
-1.8903784	m n k
-1.0970067	n n k
-0.21843432	f n k
-1.2807103	k i k
-0.80971545	h i k
-0.97285134	g i k
-0.97974885	i i k
-1.3182638	f i k
-2.1745007	<s> f k
-2.935517	e f k
-2.0039327	g f k
-2.5895185	f f k
-0.38720566	<s> j k
-0.38525605	e j k
-0.77040464	k j k
-0.38783106	l j k
-0.42999417	m j k
-0.46167606	h j k
-0.4360605	g j k
-1.0515019	f j k
-0.6507765	j j k
-3.0466259	e d l
-0.3562662	<s> k l
-0.7488885	k k l
-0.5517771	l k l
-0.29044592	m k l
-0.69090724	h k l
-0.71109766	g k l
-0.24011903	n k l
-0.41904536	i k l
-0.89558744	f k l
-0.55221987	j k l
-1.3806396	<s> l l
-0.83140695	k l l
-0.6215978	l l l
-1.1206623	m l l
-0.6511089	h l l
-0.73422855	g l l
-0.7811687	n l l
-0.91599447	j l l
-0.37710285	k m l
-0.33510572	l m l
-0.2859138	m m l
-0.15442173	n m l
-0.20291908	f m l
-0.36721447	j m l
-0.7861352	o m l
-0.20291908	p m l
-2.0182579	k h l
-1.0018458	l h l
-2.0153978	h h l
-2.7126222	g h l
-2.0107052	i h l
-1.939002	j h l
-1.7246869	<s> g l
-2.0000868	d g l
-0.78206646	l g l
-2.0183203	h g l
-1.6392682	g g l
-2.3849828	f g l
-1.9131851	j g l
-1.167561	k n l
-1.0995053	l n l
-0.8813122	m n l
-0.74815917	n n l
-1.0418652	o n l
-1.5551609	k i l
-0.45283556	l i l
-1.1276978	<s> j l
-1.4851713	k j l
-0.634225	l j l
-1.0495124	m j l
-1.7557256	h j l
-1.1903836	g j l
-1.297031	j j l
-1.2517797	l o l
-1.3243303	m o l
-1.4052732	n o l
-0.72660214	p o l
-1.3070737	<s> k m
-2.0529883	k k m
-1.3425069	l k m
-0.88894206	m k m
-2.3111856	h k m
-2.2521234	g k m
-1.3411951	i k m
-2.4439225	j k m
-0.47189152	<s> l m
-0.5762579	k l m
-0.6649592	l l m
-0.6711955	m l m
-1.0382485	h l m
-0.48912746	g l m
-0.63474625	n l m
-0.6210479	i l m
-0.71088684	j l m
-0.73909634	o l m
-0.5859679	<s> m m
-1.3957431	k m m
-1.3098801	l m m
-0.44082868	m m m
-0.4551621	h m m
-1.3232716	n m m
-1.0781502	o m m
-2.7786608	h h m
-3.3892353	g h m
-0.32705677	<s> n m
-0.27944735	k n m
-0.22929555	l n m
-0.30021486	m n m
-0.23715101	h n m
-0.27388173	n n m
-0.20112653	o n m
-3.1231434	e f m
-2.9213045	k j m
-1.7033527	l j m
-1.176755	m j m
-2.8815217	h j m
-1.1791487	l o m
-0.734664	m o m
-0.7250525	n o m
-0.8936122	o o m
-0.6924144	p o m
-0.72106636	o p m
-1.9184694	e e h
-2.7379522	d e h
-2.092829	c e h
-1.1971061	h e h
-1.9388921	g e h
-2.6488576	f e h
-0.65793663	<s> d h
-1.4271576	e d h
-1.1301436	d d h
-2.0322363	c d h
-0.8266623	h d h
-1.6428995	g d h
-1.4810619	f d h
-2.789152	d c h
-0.5011602	<s> k h
-0.568817	e k h
-1.0137404	k k h
-0.9545201	l k h
-1.5263507	m k h
-0.80011123	h k h
-0.8558333	g k h
-1.1759199	i k h
-0.7755764	f k h
-0.6209605	j k h
-1.2290673	<s> l h
-1.7750514	k l h
-2.0840578	l l h
-2.451404	m l h
-1.5856252	h l h
-1.8876445	j l h
-2.5319831	l m h
-0.6679471	<s> h h
-0.7460928	e h h
-0.5376215	d h h
-0.48807967	c h h
-0.93452024	k h h
-1.0655968	l h h
-0.776014	h h h
-0.81370735	g h h
-1.2735993	i h h
-0.931575	f h h
-0.87610686	j h h
-0.2365496	<s> g h
-0.38361025	e g h
-0.27147993	d g h
-0.5467615	c g h
-0.20535573	k g h
-0.28056678	l g h
-0.53607893	h g h
-0.47262606	g g h
-0.7868705	i g h
-0.40615588	f g h
-0.25462076	j g h
-0.14419049	k i h
-0.5529122	l i h
-0.15201065	h i h
-0.21676163	g i h
-0.32128385	i i h
-0.13457811	f i h
-0.44175506	j i h
-0.86886454	<s> f h
-1.6471462	e f h
-1.2036163	d f h
-1.7761748	c f h
-0.81984705	k f h
-0.83592814	h f h
-0.9634584	g f h
-1.2333568	f f h
-0.74857473	j f h
-0.6306186	<s> j h
-0.6305459	e j h
-0.18015455	k j h
-0.8858302	l j h
-0.3878617	h j h
-0.42929584	g j h
-0.119312495	i j h
-0.30601195	f j h
-0.4201508	j j h
-0.7397439	<s> e g
-0.898742	e e g
-1.0352646	d e g
-0.50289124	c e g
-0.8747845	h e g
-0.93788254	g e g
-1.2700354	f e g
-0.41295063	j e g
-1.4613243	<s> d g
-1.1532754	e d g
-1.4496145	d d g
-1.849639	c d g
-1.5877136	h d g
-0.74810547	g d g
-1.3778592	f d g
-1.9799396	<s> c g
-1.9036487	e c g
-1.426512	d c g
-1.7617983	c c g
-1.9446417	<s> k g
-0.7959782	e k g
-1.2648215	k k g
-2.485397	l k g
-1.3373585	h k g
-1.7534543	g k g
-1.3375992	i k g
-1.8251246	j k g
-1.7261542	k l g
-1.2261164	l l g
-2.4074023	m l g
-1.7201217	g l g
-1.9391629	j l g
-0.3366411	<s> h g
-0.33581746	e h g
-0.42406714	d h g
-0.38743436	k h g
-0.7205007	l h g
-0.24751346	h h g
-0.45463392	g h g
-0.12130257	i h g
-0.47990257	f h g
-0.24399698	j h g
-0.6605378	<s> g g
-0.75747555	e g g
-0.68808323	d g g
-0.5120903	c g g
-1.0032299	k g g
-0.90695965	l g g
-0.87303567	h g g
-0.7431483	g g g
-1.1514919	i g g
-0.6876266	f g g
-0.89365476	j g g
-1.3405657	k i g
-1.1557263	h i g
-1.0320694	i i g
-1.3803545	f i g
-0.27225387	<s> f g
-0.3370481	e f g
-0.5835146	d f g
-0.27253884	c f g
-0.5928788	k f g
-0.339016	h f g
-0.515243	g f g
-0.368206	i f g
-0.61135614	f f g
-0.5508345	j f g
-0.9613903	<s> j g
-1.0920596	k j g
-1.2842522	l j g
-0.8928687	m j g
-0.89649385	h j g
-1.0538975	g j g
-0.967209	f j g
-1.0019484	j j g
-1.952294	<s> k n
-2.299116	k k n
-1.6027437	l k n
-1.5933546	m k n
-2.5586584	h k n
-1.3448211	i k n
-1.240722	f k n
-2.5389285	j k n
-0.762774	<s> l n
-1.1433579	k l n
-1.4686352	l l n
-1.3308744	m l n
-1.7090098	g l n
-1.1876627	n l n
-1.8166517	j l n
-0.79791397	o l n
-0.49800205	k m n
-0.5714534	l m n
-1.6530365	m m n
-0.6386703	h m n
-1.0787311	n m n
-0.6262353	j m n
-0.3663043	o m n
-2.72792	k h n
-0.5469304	m h n
-1.1743953	k n n
-1.2646965	l n n
-1.910255	m n n
-1.1036521	n n n
-1.5432537	o n n
-2.779596	f f n
-0.24373682	k o n
-0.25251263	l o n
-0.37489313	m o n
-0.3392901	n o n
-0.5339577	o o n
-0.66072273	p o n
-0.7245576	o p n
-1.860196	<s> k i
-2.0591302	k k i
-1.7238084	l k i
-2.0431862	h k i
-1.0019432	n k i
-0.7342026	i k i
-1.137758	f k i
-2.466938	j k i
-2.756993	k l i
-1.9939878	g l i
-1.6132764	<s> h i
-1.2487496	e h i
-1.2697778	d h i
-1.7343742	k h i
-1.0904245	l h i
-1.8046132	h h i
-1.5887953	g h i
-1.0968733	i h i
-1.4449034	f h i
-2.7689872	j h i
-2.4580648	h g i
-2.7809422	g g i
-1.3135399	i g i
-2.187632	f g i
-2.3023508	j g i
-1.2952226	k i i
-1.796906	h i i
-1.1564	g i i
-0.992517	i i i
-1.3332891	f i i
-2.0655322	<s> f i
-2.6879678	e f i
-2.6062438	d f i
-1.8738469	c f i
-1.7111834	h f i
-2.3202655	g f i
-2.440839	f f i
-2.9368825	h j i
-0.32161808	<s> e f
-0.87703264	e e f
-0.39020744	d e f
-0.4776674	c e f
-0.2280969	h e f
-0.3033194	g e f
-0.6892094	f e f
-0.6028272	j e f
-0.7563566	<s> d f
-0.82709134	e d f
-0.8689686	d d f
-0.62473464	c d f
-0.41796154	h d f
-0.41758326	g d f
-0.8438135	f d f
-1.4688133	<s> c f
-1.2946455	e c f
-0.87757266	d c f
-1.1798892	c c f
-1.2575642	g c f
-0.49203518	f c f
-1.341083	a c f
-2.082045	<s> k f
-2.433666	k k f
-2.4322798	l k f
-1.3613796	f k f
-2.5619428	j k f
-1.4592106	<s> h f
-1.2410073	e h f
-1.2677562	d h f
-1.2319956	k h f
-1.1832225	l h f
-1.5188946	h h f
-1.0995444	g h f
-1.4490976	i h f
-1.3629632	f h f
-1.8671298	j h f
-1.1842617	<s> g f
-0.6005188	e g f
-0.7809676	d g f
-0.5855028	c g f
-1.0039109	k g f
-1.4355235	l g f
-0.4439397	h g f
-0.6258389	g g f
-0.26951903	i g f
-0.59661543	f g f
-1.0105631	j g f
-1.2858478	g i f
-0.5187475	j i f
-1.1219435	<s> f f
-1.5536885	e f f
-0.7203859	d f f
-0.80651474	c f f
-1.118869	h f f
-1.140955	g f f
-0.62780476	f f f
-3.0035722	k j f
-2.2242668	g j f
-1.1008358	f j f
-2.044965	<s> e j
-2.4509077	e e j
-2.83185	d e j
-3.1972284	e d j
-1.0266109	<s> k j
-0.7443953	e k j
-0.46892542	k k j
-0.45201862	l k j
-0.99829924	m k j
-0.5162952	h k j
-0.3959004	g k j
-0.95099986	n k j
-1.1407219	i k j
-1.1377348	f k j
-0.45057842	j k j
-1.7432911	<s> l j
-1.2799219	k l j
-1.5016308	l l j
-1.4588732	m l j
-1.3736668	h l j
-1.3022408	g l j
-1.3111931	n l j
-1.0344843	j l j
-0.91189235	o l j
-0.4606489	<s> m j
-1.6408005	k m j
-1.7995142	l m j
-1.2499884	<s> h j
-1.0942686	e h j
-0.9065615	d h j
-0.48876017	c h j
-0.68226737	k h j
-0.90753037	l h j
-1.0229592	h h j
-0.67962015	g h j
-1.8516	i h j
-0.9054042	f h j
-0.8134938	j h j
-1.6677918	<s> g j
-2.257319	e g j
-1.6749867	k g j
-1.574912	h g j
-1.4370152	g g j
-1.8952427	f g j
-1.2416515	j g j
-1.4620626	k i j
-1.8328352	h i j
-1.2155739	g i j
-1.0320694	i i j
-0.94752705	k f j
-2.099296	h f j
-2.41687	g f j
-1.6290048	k j j
-1.3066455	l j j
-0.9185532	m j j
-1.1835777	h j j
-1.1903836	g j j
-1.1201063	f j j
-0.68418676	j j j
-2.8373592	l k o
-1.8869603	<s> l o
-2.5703773	k l o
-2.1084757	l l o
-1.3207989	m l o
-1.556368	n l o
-1.0116583	o l o
-1.0178082	k m o
-1.4380486	l m o
-1.6269495	n m o
-0.8918266	o m o
-0.79237306	k n o
-0.7924985	l n o
-0.6030037	m n o
-1.1116935	o n o
-0.22151408	p n o
-1.3036337	l o o
-1.3761843	m o o
-1.2618515	n o o
-0.78397113	o o o
-0.70058644	p o o
-0.36603293	o p o
-2.995358	e d b
-2.9220374	c d b
-2.0030584	e c b
-1.7946533	d c b
-2.0388565	c c b
-0.88378084	d a b
-1.3304657	c a b
-0.8539589	b a b
-3.114435	d e a
-2.2913697	<s> d a
-2.848227	e d a
-2.5546036	d d a
-2.7246692	c d a
-2.5694005	f d a
-1.8541603	d c a
-1.8572776	c c a
-2.9631903	d f a
-0.63148123	c b a
-0.86483425	d a a
-0.67243725	b a a
-1.407007	l o p
-1.4795578	m o p
-1.6202804	n o p
-0.8461919	o o p

\end\
